{"learner":{"attributes":{"scikit_learn":"{\"_estimator_type\": \"regressor\"}"},"feature_names":[],"feature_types":[],"gradient_booster":{"model":{"cats":{"enc":[],"feature_segments":[],"sorted_idx":[]},"gbtree_model_param":{"num_parallel_tree":"1","num_trees":"400"},"iteration_indptr":[0,1,2,3,4,5,6,7,8,9,10,11,12,13,14,15,16,17,18,19,20,21,22,23,24,25,26,27,28,29,30,31,32,33,34,35,36,37,38,39,40,41,42,43,44,45,46,47,48,49,50,51,52,53,54,55,56,57,58,59,60,61,62,63,64,65,66,67,68,69,70,71,72,73,74,75,76,77,78,79,80,81,82,83,84,85,86,87,88,89,90,91,92,93,94,95,96,97,98,99,100,101,102,103,104,105,106,107,108,109,110,111,112,113,114,115,116,117,118,119,120,121,122,123,124,125,126,127,128,129,130,131,132,133,134,135,136,137,138,139,140,141,142,143,144,145,146,147,148,149,150,151,152,153,154,155,156,157,158,159,160,161,162,163,164,165,166,167,168,169,170,171,172,173,174,175,176,177,178,179,180,181,182,183,184,185,186,187,188,189,190,191,192,193,194,195,196,197,198,199,200,201,202,203,204,205,206,207,208,209,210,211,212,213,214,215,216,217,218,219,220,221,222,223,224,225,226,227,228,229,230,231,232,233,234,235,236,237,238,239,240,241,242,243,244,245,246,247,248,249,250,251,252,253,254,255,256,257,258,259,260,261,262,263,264,265,266,267,268,269,270,271,272,273,274,275,276,277,278,279,280,281,282,283,284,285,286,287,288,289,290,291,292,293,294,295,296,297,298,299,300,301,302,303,304,305,306,307,308,309,310,311,312,313,314,315,316,317,318,319,320,321,322,323,324,325,326,327,328,329,330,331,332,333,334,335,336,337,338,339,340,341,342,343,344,345,346,347,348,349,350,351,352,353,354,355,356,357,358,359,360,361,362,363,364,365,366,367,368,369,370,371,372,373,374,375,376,377,378,379,380,381,382,383,384,385,386,387,388,389,390,391,392,393,394,395,396,397,398,399,400],"tree_info":[0,0,0,0,0,0,0,0,0,0,0,0,0,0,0,0,0,0,0,0,0,0,0,0,0,0,0,0,0,0,0,0,0,0,0,0,0,0,0,0,0,0,0,0,0,0,0,0,0,0,0,0,0,0,0,0,0,0,0,0,0,0,0,0,0,0,0,0,0,0,0,0,0,0,0,0,0,0,0,0,0,0,0,0,0,0,0,0,0,0,0,0,0,0,0,0,0,0,0,0,0,0,0,0,0,0,0,0,0,0,0,0,0,0,0,0,0,0,0,0,0,0,0,0,0,0,0,0,0,0,0,0,0,0,0,0,0,0,0,0,0,0,0,0,0,0,0,0,0,0,0,0,0,0,0,0,0,0,0,0,0,0,0,0,0,0,0,0,0,0,0,0,0,0,0,0,0,0,0,0,0,0,0,0,0,0,0,0,0,0,0,0,0,0,0,0,0,0,0,0,0,0,0,0,0,0,0,0,0,0,0,0,0,0,0,0,0,0,0,0,0,0,0,0,0,0,0,0,0,0,0,0,0,0,0,0,0,0,0,0,0,0,0,0,0,0,0,0,0,0,0,0,0,0,0,0,0,0,0,0,0,0,0,0,0,0,0,0,0,0,0,0,0,0,0,0,0,0,0,0,0,0,0,0,0,0,0,0,0,0,0,0,0,0,0,0,0,0,0,0,0,0,0,0,0,0,0,0,0,0,0,0,0,0,0,0,0,0,0,0,0,0,0,0,0,0,0,0,0,0,0,0,0,0,0,0,0,0,0,0,0,0,0,0,0,0,0,0,0,0,0,0,0,0,0,0,0,0,0,0,0,0,0,0,0,0,0,0,0,0,0,0,0,0,0,0,0,0,0,0,0,0,0,0,0,0,0,0,0,0,0,0,0,0,0,0,0,0,0,0],"trees":[{"base_weights":[1.1580419E-3,1.5720084E-2,-2.8497405E-2,1.2239224E-2,2.4859816E-2,1.8885452E-2,-5.241057E-2,1.9109465E-2,-8.033237E-3,3.6023058E-2,3.7037074E-3,3.4193553E-2,4.1420152E-3,-6.1452477E-3,-6.9892466E-2,1.25175845E-2,3.152174E-2,1.8750003E-2,-1.4093956E-2,2.2404375E-2,5.0303034E-2,2.340426E-2,-1.458333E-2,6.0000002E-2,1.8811885E-2,-2.317073E-3,2.0930236E-2,3.4042556E-2,-5.1162787E-2,-5.580736E-2,-1.1238937E-1,1.0984851E-3,-7.065215E-4,1.1621624E-3,1.956522E-3,1.6666668E-3,-8.823527E-4,-1.8965515E-3,-3.9419066E-4,1.5555557E-3,6.3829805E-4,3.5897437E-3,1.477273E-3,4.375E-3,4.4303815E-4,-1.4516128E-3,4.285716E-4,6.0000014E-4,4.6774196E-3,1.923077E-3,-0E0,1.9117648E-3,1.8025598E-10,2.8000001E-3,3.333335E-4,-1.2499997E-3,-4.677419E-3,-1.6137565E-3,-4.090909E-3,-6.3095237E-3,-3.3333332E-3],"categories":[],"categories_nodes":[],"categories_segments":[],"categories_sizes":[],"default_left":[0,0,0,0,0,0,0,0,0,0,0,0,0,0,0,0,0,0,0,0,0,0,0,0,0,0,0,0,0,0,0,0,0,0,0,0,0,0,0,0,0,0,0,0,0,0,0,0,0,0,0,0,0,0,0,0,0,0,0,0,0],"id":0,"left_children":[1,3,5,7,9,11,13,15,17,19,21,23,25,27,29,31,33,35,37,39,41,43,45,47,49,-1,51,53,55,57,59,-1,-1,-1,-1,-1,-1,-1,-1,-1,-1,-1,-1,-1,-1,-1,-1,-1,-1,-1,-1,-1,-1,-1,-1,-1,-1,-1,-1,-1,-1],"loss_changes":[1.2670639E0,5.87233E-2,1.0977588E0,2.01541E-1,1.2224525E-1,6.8923965E-2,5.1202893E-1,8.3403766E-2,5.8398224E-2,5.9084862E-2,6.931343E-2,5.251676E-2,1.41661E-1,3.2729268E-1,2.5524473E-1,1.8018115E-1,1.6032875E-2,3.6127448E-2,3.923289E-2,1.0572329E-2,6.135431E-2,7.721317E-2,3.4412824E-2,7.6890334E-2,4.11805E-2,0E0,4.290014E-2,4.986383E-2,8.117403E-2,2.0201862E-1,4.3607235E-2,0E0,0E0,0E0,0E0,0E0,0E0,0E0,0E0,0E0,0E0,0E0,0E0,0E0,0E0,0E0,0E0,0E0,0E0,0E0,0E0,0E0,0E0,0E0,0E0,0E0,0E0,0E0,0E0,0E0,0E0],"parents":[2147483647,0,0,1,1,2,2,3,3,4,4,5,5,6,6,7,7,8,8,9,9,10,10,11,11,12,12,13,13,14,14,15,15,16,16,17,17,18,18,19,19,20,20,21,21,22,22,23,23,24,24,26,26,27,27,28,28,29,29,30,30],"right_children":[2,4,6,8,10,12,14,16,18,20,22,24,26,28,30,32,34,36,38,40,42,44,46,48,50,-1,52,54,56,58,60,-1,-1,-1,-1,-1,-1,-1,-1,-1,-1,-1,-1,-1,-1,-1,-1,-1,-1,-1,-1,-1,-1,-1,-1,-1,-1,-1,-1,-1,-1],"split_conditions":[4E-1,8E-1,2E-1,6E-1,1E0,5E-1,3E-1,4E-1,1E-1,2E-1,2E-1,4E-1,3E-1,4E-1,9E-1,3E-1,2E-1,3E-1,2E-1,3E-1,9E-1,1E-1,4E-1,1E-1,1E-1,-3.679322E-2,1E-1,5E-1,2E-1,5E-1,5E-1,1.214075E-2,-1.5833504E-2,1.5922626E-2,7.4643977E-3,1.9471368E-2,-3.212236E-2,-2.400191E-2,-1.738734E-2,1.7806454E-2,1.5052139E-2,8.187415E-3,3.3352913E-3,2.3527108E-2,1.1663722E-2,-3.3639055E-2,3.5083988E-3,-8.197558E-3,1.2048044E-2,1.5070009E-2,-4.375673E-2,1.406315E-2,-3.5951637E-2,8.210087E-3,-1.16558855E-4,-4.6209425E-2,-4.6705518E-2,-4.593977E-3,-7.927854E-3,-5.1441755E-2,-5.567199E-2],"split_indices":[3,1,2,1,1,3,1,2,2,3,3,1,1,2,1,2,3,3,2,2,1,2,2,2,2,0,2,3,1,3,2,0,0,0,0,0,0,0,0,0,0,0,0,0,0,0,0,0,0,0,0,0,0,0,0,0,0,0,0,0,0],"split_type":[0,0,0,0,0,0,0,0,0,0,0,0,0,0,0,0,0,0,0,0,0,0,0,0,0,0,0,0,0,0,0,0,0,0,0,0,0,0,0,0,0,0,0,0,0,0,0,0,0,0,0,0,0,0,0,0,0,0,0,0,0],"sum_hessian":[2.935E3,1.971E3,9.64E2,1.437E3,5.34E2,3.22E2,6.42E2,1.077E3,3.6E2,3.46E2,1.88E2,1.54E2,1.68E2,1.78E2,4.64E2,7.1E2,3.67E2,6.3E1,2.97E2,1.82E2,1.64E2,9.3E1,9.5E1,5.4E1,1E2,4E1,1.28E2,9.3E1,8.5E1,3.52E2,1.12E2,5.27E2,1.83E2,1.84E2,1.83E2,4.7E1,1.6E1,5.7E1,2.4E2,8.9E1,9.3E1,7.7E1,8.7E1,1.5E1,7.8E1,6.1E1,3.4E1,2.4E1,3E1,5.1E1,4.9E1,6.7E1,6.1E1,4.9E1,4.4E1,5.5E1,3E1,1.88E2,1.64E2,8.3E1,2.9E1],"tree_param":{"num_deleted":"0","num_feature":"4","num_nodes":"61","size_leaf_vector":"1"}},{"base_weights":[8.819576E-4,-4.4433963E-2,8.874814E-2,-1.4942525E-2,4.9958746E-3,8.757062E-2,-2.2941175E-1,4.9253735E-3,5E-2,-2.1212118E-2,-1.7641509E-2,4.7058826E-3,-4.090909E-3,4.375E-3,-6.111111E-3],"categories":[],"categories_nodes":[],"categories_segments":[],"categories_sizes":[],"default_left":[0,0,0,0,0,0,0,0,0,0,0,0,0,0,0],"id":1,"left_children":[1,-1,3,5,-1,7,9,-1,11,13,-1,-1,-1,-1,-1],"loss_changes":[2.3042146E2,0E0,3.1184845E0,5.772598E0,0E0,5.295384E-2,2.139244E0,0E0,2.6481283E-1,3.765404E-1,0E0,0E0,0E0,0E0,0E0],"parents":[2147483647,0,0,2,2,3,3,5,5,6,6,8,8,9,9],"right_children":[2,-1,4,6,-1,8,10,-1,12,14,-1,-1,-1,-1,-1],"split_conditions":[1E-1,-5.2225728E-2,2E-1,4E-1,9.628822E-3,3E-1,4E-1,1.2342958E-2,8E-1,5E-1,-4.794598E-3,1.6798199E-3,-2.3757246E-4,1.7025715E-3,-3.53924E-3],"split_indices":[0,0,0,3,0,3,1,0,1,3,0,0,0,0,0],"split_type":[0,0,0,0,0,0,0,0,0,0,0,0,0,0,0],"sum_hessian":[2.947E3,2.64E2,2.683E3,2.6E2,2.423E3,1.76E2,8.4E1,1.33E2,4.3E1,3.2E1,5.2E1,3.3E1,1E1,1.5E1,1.7E1],"tree_param":{"num_deleted":"0","num_feature":"4","num_nodes":"15","size_leaf_vector":"1"}},{"base_weights":[4.4037974E-3,-4.4209488E-2,8.7703705E-2,-2.5954194E-2,4.9959E-3,6.888889E-2,-1.2656249E-1,4.883721E-3,1.6000003E-2,3.0434785E-2,-2.13253E-1,4.5238095E-3,-1.6666664E-3,4.3333336E-3,1.7462298E-10,-6.111111E-3,-1.2543859E-2],"categories":[],"categories_nodes":[],"categories_segments":[],"categories_sizes":[],"default_left":[0,0,0,0,0,0,0,0,0,0,0,0,0,0,0,0,0],"id":2,"left_children":[1,-1,3,5,-1,7,9,-1,11,13,15,-1,-1,-1,-1,-1,-1],"loss_changes":[2.1850421E2,0E0,3.7582684E0,2.5144906E0,0E0,1.925984E-1,1.7668746E0,0E0,1.924381E-1,7.005797E-2,2.1629882E-1,0E0,0E0,0E0,0E0,0E0,0E0],"parents":[2147483647,0,0,2,2,3,3,5,5,6,6,8,8,9,9,10,10],"right_children":[2,-1,4,6,-1,8,10,-1,12,14,16,-1,-1,-1,-1,-1,-1],"split_conditions":[1E-1,-5.0635226E-2,2E-1,3E-1,8.956155E-3,2E-1,4E-1,1.0574963E-2,5E-1,1E-1,4E-1,2.647196E-3,-3.821902E-4,5.2208104E-3,1.275092E-4,-3.49899E-3,-6.346501E-3],"split_indices":[0,0,0,2,0,2,1,0,1,1,2,0,0,0,0,0,0],"split_type":[0,0,0,0,0,0,0,0,0,0,0,0,0,0,0,0,0],"sum_hessian":[2.951E3,2.52E2,2.699E3,2.61E2,2.438E3,1.34E2,1.27E2,8.5E1,4.9E1,4.5E1,8.2E1,2E1,2.9E1,1.4E1,3.1E1,2.6E1,5.6E1],"tree_param":{"num_deleted":"0","num_feature":"4","num_nodes":"17","size_leaf_vector":"1"}},{"base_weights":[1.3837364E-3,1.53497765E-2,-2.6919136E-2,3.1187126E-2,9.993297E-3,-4.615381E-3,-7.07317E-2,4.8823534E-3,1.7191287E-2,1.6726838E-2,1.3615771E-3,5.2631614E-3,-1.7241376E-2,-2.6436778E-2,-8.5950404E-2,-3.8961E-3,2.2255195E-2,-1.0294113E-2,2.212644E-2,-1.4942525E-2,1.2219455E-2,-3.7344361E-3,2.3966946E-2,3.4013642E-3,-3.8888883E-2,-0E0,-4.8936166E-2,-7.840375E-2,-1.3333333E-1,7.894739E-4,-1.2499997E-3,1.8217055E-3,6.459332E-4,-0E0,-1.521739E-3,2.0072996E-3,8.750002E-4,-0E0,-1.4885494E-3,2.1653546E-3,-9.090891E-5,4.8387118E-4,-9.3220314E-4,6.6666683E-4,1.6129034E-3,1.0869567E-3,-1.2499997E-3,-9.7014906E-4,-2.6923076E-3,-1.8181816E-3,2E-3,1.2500001E-3,-4.3749996E-3,-5.344827E-3,-2.8740156E-3,-4.3749996E-3,-8.333333E-3],"categories":[],"categories_nodes":[],"categories_segments":[],"categories_sizes":[],"default_left":[0,0,0,0,0,0,0,0,0,0,0,0,0,0,0,0,0,0,0,0,0,0,0,0,0,0,0,0,0,0,0,0,0,0,0,0,0,0,0,0,0,0,0,0,0,0,0,0,0,0,0,0,0,0,0,0,0],"id":3,"left_children":[1,3,5,7,9,11,13,-1,15,17,19,21,23,25,27,29,31,33,35,37,39,41,43,45,47,49,51,53,55,-1,-1,-1,-1,-1,-1,-1,-1,-1,-1,-1,-1,-1,-1,-1,-1,-1,-1,-1,-1,-1,-1,-1,-1,-1,-1,-1,-1],"loss_changes":[1.1704682E0,1.6413236E-1,9.468484E-1,4.4912824E-1,8.482835E-2,8.236074E-2,2.0759761E-1,0E0,4.6024658E-2,1.2265585E-1,1.1692575E-1,6.286512E-2,1.3327156E-1,5.1748596E-2,5.4907322E-2,3.330485E-2,3.920676E-2,2.8196927E-2,5.1555812E-2,5.7831E-2,1.7922276E-1,4.926885E-2,5.678661E-3,7.677758E-2,3.3599973E-2,6.109091E-2,1.4244679E-1,1.0440147E-1,5.8333874E-3,0E0,0E0,0E0,0E0,0E0,0E0,0E0,0E0,0E0,0E0,0E0,0E0,0E0,0E0,0E0,0E0,0E0,0E0,0E0,0E0,0E0,0E0,0E0,0E0,0E0,0E0,0E0,0E0],"parents":[2147483647,0,0,1,1,2,2,3,3,4,4,5,5,6,6,8,8,9,9,10,10,11,11,12,12,13,13,14,14,15,15,16,16,17,17,18,18,19,19,20,20,21,21,22,22,23,23,24,24,25,25,26,26,27,27,28,28],"right_children":[2,4,6,8,10,12,14,-1,16,18,20,22,24,26,28,30,32,34,36,38,40,42,44,46,48,50,52,54,56,-1,-1,-1,-1,-1,-1,-1,-1,-1,-1,-1,-1,-1,-1,-1,-1,-1,-1,-1,-1,-1,-1,-1,-1,-1,-1,-1,-1],"split_conditions":[4E-1,1E-1,4E-1,1E-1,6E-1,6E-1,3E-1,2.7564673E-2,2E-1,1E-1,8E-1,4E-1,2E-1,5E-1,1E0,1E-1,3E-1,3E-1,2E-1,3E-1,9E-1,2E-1,5E-1,9E-1,5E-1,5E-1,1E-1,6E-1,5E-1,5.811622E-4,-6.1029103E-3,2.4082018E-2,2.0901095E-2,-2.3199513E-3,-2.4061335E-2,1.2207348E-2,6.198823E-3,-1.0165605E-2,-2.8088225E-2,6.267156E-3,-1.5974175E-2,2.5158266E-3,-2.9639307E-2,4.5758588E-4,1.2479624E-3,6.5547847E-3,-3.3651482E-2,-1.3225217E-2,-2.754701E-3,-4.114001E-2,7.413236E-4,-1.4412033E-2,-4.5845956E-2,-4.7362007E-2,-7.0828507E-3,-4.7172327E-2,-5.0424356E-2],"split_indices":[3,3,2,2,1,1,1,0,1,2,1,1,2,3,1,1,2,3,2,2,1,1,3,1,3,2,1,1,3,0,0,0,0,0,0,0,0,0,0,0,0,0,0,0,0,0,0,0,0,0,0,0,0,0,0,0,0],"split_type":[0,0,0,0,0,0,0,0,0,0,0,0,0,0,0,0,0,0,0,0,0,0,0,0,0,0,0,0,0,0,0,0,0,0,0,0,0,0,0,0,0,0,0,0,0,0,0,0,0,0,0,0,0,0,0,0,0],"sum_hessian":[2.962E3,1.986E3,9.76E2,4.96E2,1.49E3,6.49E2,3.27E2,8.4E1,4.12E2,8.3E2,6.6E2,3.6E2,2.89E2,8.6E1,2.41E2,7.6E1,3.36E2,1.35E2,6.95E2,2.6E2,4E2,2.4E2,1.2E2,1.46E2,1.43E2,4E1,4.6E1,2.12E2,2.9E1,3.7E1,3.9E1,1.28E2,2.08E2,9E1,4.5E1,1.36E2,5.59E2,1.3E2,1.3E2,1.26E2,2.74E2,1.23E2,1.17E2,5.9E1,6.1E1,9.1E1,5.5E1,6.6E1,7.7E1,2.1E1,1.9E1,1.5E1,3.1E1,8.6E1,1.26E2,1.5E1,1.4E1],"tree_param":{"num_deleted":"0","num_feature":"4","num_nodes":"57","size_leaf_vector":"1"}},{"base_weights":[3.2564488E-3,-4.4060152E-2,9.098025E-2,7.279697E-3,4.9958727E-3,6.666667E-2,-2.695652E-1,9.314286E-2,-4.2857137E-2,-1.1111107E-2,-3E-2,4.931973E-3,2.9310347E-3,4.666667E-3,-1.8076923E-2,4.4444446E-3,-1E-2],"categories":[],"categories_nodes":[],"categories_segments":[],"categories_sizes":[],"default_left":[0,0,0,0,0,0,0,0,0,0,0,0,0,0,0,0,0],"id":4,"left_children":[1,-1,3,5,-1,7,9,11,13,15,-1,-1,-1,-1,-1,-1,-1],"loss_changes":[2.2873099E2,0E0,1.9955692E0,4.2887774E0,0E0,6.3537127E-1,3.8607242E0,1.1698723E-2,1.8834212E0,5.388889E-1,0E0,0E0,0E0,0E0,0E0,0E0,0E0],"parents":[2147483647,0,0,2,2,3,3,5,5,6,6,7,7,8,8,9,9],"right_children":[2,-1,4,6,-1,8,10,12,14,16,-1,-1,-1,-1,-1,-1,-1],"split_conditions":[1E-1,-4.652798E-2,2E-1,5E-1,9.172047E-3,4E-1,3E-1,5E-1,4E-1,2E-1,-6.278388E-3,8.511279E-3,8.69908E-4,1.8974226E-3,-3.3522286E-3,6.147328E-3,-6.378397E-4],"split_indices":[0,0,0,3,0,3,2,2,2,2,0,0,0,0,0,0,0],"split_type":[0,0,0,0,0,0,0,0,0,0,0,0,0,0,0,0,0],"sum_hessian":[2.947E3,2.65E2,2.682E3,2.6E2,2.422E3,2.15E2,4.5E1,1.74E2,4.1E1,2.6E1,1.9E1,1.46E2,2.8E1,2.9E1,1.2E1,1.7E1,9E0],"tree_param":{"num_deleted":"0","num_feature":"4","num_nodes":"17","size_leaf_vector":"1"}},{"base_weights":[5.157405E-3,-8.660377E-1,9.000735E-2,-6.804878E-1,-4.4777777E-2,1.8050579E-3,4.995912E-3,-2.2272727E-2,-3.6935482E-2,6.828194E-2,-2.9215685E-1,4.666667E-3,-2.4999995E-2,2.0000003E-2,-4.135135E-1,4.4736844E-3,-5E-3,4E-3,-3.3333332E-3,-7.5E-3,-2.1470588E-2],"categories":[],"categories_nodes":[],"categories_segments":[],"categories_sizes":[],"default_left":[0,0,0,0,0,0,0,0,0,0,0,0,0,0,0,0,0,0,0,0,0],"id":5,"left_children":[1,3,5,7,-1,9,-1,-1,-1,11,13,-1,15,17,19,-1,-1,-1,-1,-1,-1],"loss_changes":[2.2072803E2,6.843872E-1,2.3691177E0,1.1356926E-1,0E0,5.4106045E0,0E0,0E0,0E0,5.3962994E-1,1.9796195E0,0E0,4.2210525E-1,8.466666E-2,3.265524E-2,0E0,0E0,0E0,0E0,0E0,0E0],"parents":[2147483647,0,0,1,1,2,2,3,3,5,5,9,9,10,10,12,12,13,13,14,14],"right_children":[2,4,6,8,-1,10,-1,-1,-1,12,14,-1,16,18,20,-1,-1,-1,-1,-1,-1],"split_conditions":[1E-1,1E-1,2E-1,2E-1,-4.5250203E-2,5E-1,8.792784E-3,-8.641503E-3,-1.40680615E-2,4E-1,3E-1,6.487161E-3,4E-1,2E-1,4E-1,1.0793987E-3,-2.1493912E-3,1.5356472E-3,-6.441921E-5,-1.9984932E-3,-5.175911E-3],"split_indices":[0,3,0,1,0,3,0,0,0,3,1,0,1,1,1,0,0,0,0,0,0],"split_type":[0,0,0,0,0,0,0,0,0,0,0,0,0,0,0,0,0,0,0,0,0],"sum_hessian":[2.985E3,2.64E2,2.721E3,4E1,2.24E2,2.76E2,2.445E3,1E1,3E1,2.26E2,5E1,1.79E2,4.7E1,1.4E1,3.6E1,1.8E1,2.9E1,9E0,5E0,3E0,3.3E1],"tree_param":{"num_deleted":"0","num_feature":"4","num_nodes":"21","size_leaf_vector":"1"}},{"base_weights":[4.453445E-3,-8.591078E-1,9.065282E-2,-6.8260866E-1,-4.455357E-2,5.6179813E-3,4.995885E-3,3.7500001E-3,-4.1153844E-2,6.255708E-2,-2.4693877E-1,9.294118E-2,-3.9999995E-2,2.4137935E-2,-3.0714286E-2,4.9290783E-3,3.0000003E-3,3.2857142E-3,-1.3749999E-2,4.4736844E-3,-4.090909E-3],"categories":[],"categories_nodes":[],"categories_segments":[],"categories_sizes":[],"default_left":[0,0,0,0,0,0,0,0,0,0,0,0,0,0,0,0,0,0,0,0,0],"id":6,"left_children":[1,3,5,7,-1,9,-1,-1,-1,11,13,15,17,19,-1,-1,-1,-1,-1,-1,-1],"loss_changes":[2.2063657E2,7.5193787E-1,2.1128922E0,5.0318546E0,0E0,3.836564E0,0E0,0E0,0E0,6.914387E-1,4.9532228E0,9.81307E-3,1.2811427E0,2.0884506E-1,0E0,0E0,0E0,0E0,0E0,0E0,0E0],"parents":[2147483647,0,0,1,1,2,2,3,3,5,5,9,9,10,10,11,11,12,12,13,13],"right_children":[2,4,6,8,-1,10,-1,-1,-1,12,14,16,18,20,-1,-1,-1,-1,-1,-1,-1],"split_conditions":[1E-1,1E-1,2E-1,1E-1,-4.2087134E-2,5E-1,8.352614E-3,2.7863153E-3,-1.3294438E-2,4E-1,3E-1,5E-1,4E-1,2E-1,-5.662928E-3,8.052462E-3,5.429767E-4,1.1786628E-3,-2.8866031E-3,6.1148964E-3,-3.3044873E-4],"split_indices":[0,3,0,2,0,3,0,0,0,3,2,2,2,2,0,0,0,0,0,0,0],"split_type":[0,0,0,0,0,0,0,0,0,0,0,0,0,0,0,0,0,0,0,0,0],"sum_hessian":[2.963E3,2.68E2,2.695E3,4.5E1,2.23E2,2.66E2,2.429E3,7E0,3.8E1,2.18E2,4.8E1,1.69E2,4.9E1,2.8E1,2E1,1.4E2,2.9E1,3.4E1,1.5E1,1.8E1,1E1],"tree_param":{"num_deleted":"0","num_feature":"4","num_nodes":"21","size_leaf_vector":"1"}},{"base_weights":[6.7294785E-3,-8.5785437E-1,8.997051E-2,-6.6190475E-1,-4.4545453E-2,2.5089642E-3,4.9958914E-3,3.7500001E-3,-4.0714286E-2,6.4347826E-2,-2.8E-1,9.3333334E-2,-3.7254896E-2,2.4137935E-2,-3.363636E-2,4.9333335E-3,3.0645162E-3,3.3783787E-3,-1.5E-2,4.4444446E-3,-3.3333332E-3],"categories":[],"categories_nodes":[],"categories_segments":[],"categories_sizes":[],"default_left":[0,0,0,0,0,0,0,0,0,0,0,0,0,0,0,0,0,0,0,0,0],"id":7,"left_children":[1,3,5,7,-1,9,-1,-1,-1,11,13,15,17,19,-1,-1,-1,-1,-1,-1,-1],"loss_changes":[2.1389182E2,9.455261E-1,2.3489685E0,4.8511906E0,0E0,4.870591E0,0E0,0E0,0E0,6.8643653E-1,6.0532603E0,8.718252E-3,1.4481345E0,1.7865899E-1,0E0,0E0,0E0,0E0,0E0,0E0,0E0],"parents":[2147483647,0,0,1,1,2,2,3,3,5,5,9,9,10,10,11,11,12,12,13,13],"right_children":[2,4,6,8,-1,10,-1,-1,-1,12,14,16,18,20,-1,-1,-1,-1,-1,-1,-1],"split_conditions":[1E-1,1E-1,2E-1,1E-1,-4.0725905E-2,5E-1,7.959824E-3,2.647E-3,-1.2655129E-2,4E-1,3E-1,5E-1,4E-1,2E-1,-5.3370357E-3,7.5115557E-3,5.250258E-4,1.4122728E-3,-2.8479751E-3,5.793012E-3,-2.9722272E-4],"split_indices":[0,3,0,2,0,3,0,0,0,3,2,2,2,2,0,0,0,0,0,0,0],"split_type":[0,0,0,0,0,0,0,0,0,0,0,0,0,0,0,0,0,0,0,0,0],"sum_hessian":[2.971E3,2.6E2,2.711E3,4.1E1,2.19E2,2.78E2,2.433E3,7E0,3.4E1,2.29E2,4.9E1,1.79E2,5E1,2.8E1,2.1E1,1.49E2,3E1,3.6E1,1.4E1,1.7E1,1.1E1],"tree_param":{"num_deleted":"0","num_feature":"4","num_nodes":"21","size_leaf_vector":"1"}},{"base_weights":[1.1312525E-2,-8.565217E-1,9.1859184E-2,-6.5E-1,-4.4532713E-2,1.8382356E-2,4.9959286E-3,3.5714288E-3,-3.9117645E-2,6.828194E-2,-2.2608694E-1,8.764045E-2,-0E0,2.4137935E-2,-3.111111E-2,4.9264706E-3,2.4418605E-3,3.3333336E-3,-8.333333E-3,4.4444446E-3,-3.3333332E-3],"categories":[],"categories_nodes":[],"categories_segments":[],"categories_sizes":[],"default_left":[0,0,0,0,0,0,0,0,0,0,0,0,0,0,0,0,0,0,0,0,0],"id":8,"left_children":[1,3,5,7,-1,9,-1,-1,-1,11,13,15,17,19,-1,-1,-1,-1,-1,-1,-1],"loss_changes":[2.0823775E2,1.0504303E0,1.6012001E0,3.9463043E0,0E0,3.3177624E0,0E0,0E0,0E0,3.0882096E-1,4.6344814E0,5.566132E-2,5.7666665E-1,1.7865899E-1,0E0,0E0,0E0,0E0,0E0,0E0,0E0],"parents":[2147483647,0,0,1,1,2,2,3,3,5,5,9,9,10,10,11,11,12,12,13,13],"right_children":[2,4,6,8,-1,10,-1,-1,-1,12,14,16,18,20,-1,-1,-1,-1,-1,-1,-1],"split_conditions":[1E-1,1E-1,2E-1,1E-1,-3.8416866E-2,5E-1,7.454656E-3,2.5146499E-3,-1.1822599E-2,4E-1,3E-1,3E-1,4E-1,2E-1,-5.4558893E-3,1.2277539E-2,5.1717024E-4,1.1953876E-3,-2.7055764E-3,5.5033616E-3,-2.8236143E-4],"split_indices":[0,3,0,2,0,3,0,0,0,3,2,3,2,2,0,0,0,0,0,0,0],"split_type":[0,0,0,0,0,0,0,0,0,0,0,0,0,0,0,0,0,0,0,0,0],"sum_hessian":[2.978E3,2.52E2,2.726E3,3.9E1,2.13E2,2.71E2,2.455E3,6E0,3.3E1,2.26E2,4.5E1,1.77E2,4.9E1,2.8E1,1.7E1,1.35E2,4.2E1,3.5E1,1.4E1,1.7E1,1.1E1],"tree_param":{"num_deleted":"0","num_feature":"4","num_nodes":"21","size_leaf_vector":"1"}},{"base_weights":[6.0224603E-3,-8.509434E-1,9.0953276E-2,-6.5555555E-1,-4.4321265E-2,6.201554E-3,4.9958644E-3,3.5714288E-3,-7.7179486E-1,8.698225E-2,-1.4444444E-1,-2E-2,-4.1875E-2,4.92126E-3,4.883721E-2,4.7916668E-3,-4.116279E-1,4.666667E-3,-2.1428568E-3,-1.3181818E-2,-2.681818E-2],"categories":[],"categories_nodes":[],"categories_segments":[],"categories_sizes":[],"default_left":[0,0,0,0,0,0,0,0,0,0,0,0,0,0,0,0,0,0,0,0,0],"id":9,"left_children":[1,3,5,7,-1,9,-1,-1,11,13,15,-1,-1,-1,17,-1,19,-1,-1,-1,-1],"loss_changes":[2.1391006E2,1.1018677E0,2.0210094E0,3.9278507E0,0E0,3.1464942E0,0E0,0E0,4.939766E-1,5.4234028E-2,5.848869E0,0E0,0E0,0E0,1.8448949E-1,0E0,5.7236814E-1,0E0,0E0,0E0,0E0],"parents":[2147483647,0,0,1,1,2,2,3,3,5,5,8,8,9,9,10,10,14,14,16,16],"right_children":[2,4,6,8,-1,10,-1,-1,12,14,16,-1,-1,-1,18,-1,20,-1,-1,-1,-1],"split_conditions":[1E-1,1E-1,2E-1,1E-1,-3.704257E-2,4E-1,7.1626618E-3,2.3889176E-3,2E-1,3E-1,3E-1,-2.7005435E-3,-1.1467271E-2,9.918123E-3,4E-1,2.693352E-3,5E-1,4.9849204E-3,-5.408443E-4,-1.9574126E-3,-4.7973893E-3],"split_indices":[0,3,0,2,0,3,0,0,2,3,2,0,0,0,2,0,3,0,0,0,0],"split_type":[0,0,0,0,0,0,0,0,0,0,0,0,0,0,0,0,0,0,0,0,0],"sum_hessian":[2.938E3,2.64E2,2.674E3,4.4E1,2.2E2,2.57E2,2.417E3,6E0,3.8E1,1.68E2,8.9E1,7E0,3.1E1,1.26E2,4.2E1,4.7E1,4.2E1,2.9E1,1.3E1,2.1E1,2.1E1],"tree_param":{"num_deleted":"0","num_feature":"4","num_nodes":"21","size_leaf_vector":"1"}},{"base_weights":[8.378382E-3,-8.291045E-1,9.17564E-2,-5.8181816E-1,-4.366667E-2,1.5267179E-2,4.995888E-3,-3.3333332E-3,-6.4358974E-1,6.742082E-2,-2.5714284E-1,-2E-2,-3.5E-2,8.75E-2,-8.695648E-3,4.166667E-3,-3.8387096E-1,4.923664E-3,2.6086958E-3,4.5238095E-3,-4.6153846E-3,-7.5E-3,-2E-2],"categories":[],"categories_nodes":[],"categories_segments":[],"categories_sizes":[],"default_left":[0,0,0,0,0,0,0,0,0,0,0,0,0,0,0,0,0,0,0,0,0,0,0],"id":10,"left_children":[1,3,5,7,-1,9,-1,-1,11,13,15,-1,-1,17,19,-1,21,-1,-1,-1,-1,-1,-1],"loss_changes":[2.0669223E2,2.2775269E0,1.6680756E0,1.2862215E0,0E0,3.7206442E0,0E0,0E0,1.4589882E-1,3.4640813E-1,1.874255E0,0E0,0E0,4.8022866E-2,3.8996497E-1,0E0,1.9359589E-3,0E0,0E0,0E0,0E0,0E0,0E0],"parents":[2147483647,0,0,1,1,2,2,3,3,5,5,8,8,9,9,10,10,13,13,14,14,16,16],"right_children":[2,4,6,8,-1,10,-1,-1,12,14,16,-1,-1,18,20,-1,22,-1,-1,-1,-1,-1,-1],"split_conditions":[1E-1,1E-1,2E-1,1E-1,-3.486877E-2,5E-1,6.7593837E-3,-2.1241412E-3,3E-1,4E-1,3E-1,-9.126449E-3,-1.0911462E-2,3E-1,5E-1,1.8114726E-3,4E-1,9.65654E-3,4.6485552E-4,1.6222167E-3,-1.6907929E-3,-2.316119E-3,-4.301045E-3],"split_indices":[0,3,0,1,0,3,0,0,1,3,1,0,0,3,1,0,1,0,0,0,0,0,0],"split_type":[0,0,0,0,0,0,0,0,0,0,0,0,0,0,0,0,0,0,0,0,0,0,0],"sum_hessian":[2.959E3,2.67E2,2.692E3,4.3E1,2.24E2,2.61E2,2.431E3,5E0,3.8E1,2.2E2,4.1E1,9E0,2.9E1,1.75E2,4.5E1,1.1E1,3E1,1.3E2,4.5E1,2E1,2.5E1,3E0,2.7E1],"tree_param":{"num_deleted":"0","num_feature":"4","num_nodes":"23","size_leaf_vector":"1"}},{"base_weights":[4.564036E-3,-8.2E-1,8.978212E-2,-5.8181816E-1,-4.3060344E-2,-1.1235918E-3,4.9958266E-3,-1.6428571E-2,-3.0526316E-2,8.3703704E-2,-8.796992E-2,4.8850575E-3,5.5102043E-2,4.736842E-3,-1.6041666E-1,4.666667E-3,-0E0,-5E-3,-9.516129E-3],"categories":[],"categories_nodes":[],"categories_segments":[],"categories_sizes":[],"default_left":[0,0,0,0,0,0,0,0,0,0,0,0,0,0,0,0,0,0,0],"id":11,"left_children":[1,3,5,7,-1,9,-1,-1,-1,11,13,-1,15,-1,17,-1,-1,-1,-1],"loss_changes":[2.0630676E2,2.0536957E0,2.4624271E0,2.537918E-2,0E0,1.9747627E0,0E0,0E0,0E0,3.338343E-2,1.7822208E0,0E0,1.1255783E-1,0E0,1.2538981E-1,0E0,0E0,0E0,0E0],"parents":[2147483647,0,0,1,1,2,2,3,3,5,5,9,9,10,10,12,12,14,14],"right_children":[2,4,6,8,-1,10,-1,-1,-1,12,14,-1,16,-1,18,-1,-1,-1,-1],"split_conditions":[1E-1,1E-1,2E-1,1E-1,-3.2972667E-2,3E-1,6.475489E-3,-1.0784215E-2,-1.971117E-2,2E-1,3E-1,1.0635741E-2,7E-1,2.2534397E-3,4E-1,2.908339E-3,-5.4230117E-5,-1.6278912E-3,-2.4761178E-3],"split_indices":[0,2,0,1,0,2,0,0,0,2,1,0,1,0,2,0,0,0,0],"split_type":[0,0,0,0,0,0,0,0,0,0,0,0,0,0,0,0,0,0,0],"sum_hessian":[2.935E3,2.74E2,2.661E3,4.3E1,2.31E2,2.66E2,2.395E3,6E0,3.7E1,1.34E2,1.32E2,8.6E1,4.8E1,3.7E1,9.5E1,2.9E1,1.9E1,3.4E1,6.1E1],"tree_param":{"num_deleted":"0","num_feature":"4","num_nodes":"19","size_leaf_vector":"1"}},{"base_weights":[1.0893764E-2,-8.0114067E-1,8.9937106E-2,-4.5E-1,-8.598214E-1,1.0701111E-2,4.934238E-3,-5E-3,-5.4516125E-1,-3.6304347E-2,-4.444134E-2,6.771301E-2,-2.4693877E-1,-1.7222222E-2,-2.9782608E-2,8.757062E-2,-6.382975E-3,4.2307694E-3,-1.7972974E-2,4.9248124E-3,2.5555557E-3,4.545455E-3,-4.6153846E-3],"categories":[],"categories_nodes":[],"categories_segments":[],"categories_sizes":[],"default_left":[0,0,0,0,0,0,0,0,0,0,0,0,0,0,0,0,0,0,0,0,0,0,0],"id":12,"left_children":[1,3,5,7,9,11,-1,-1,13,-1,-1,15,17,-1,-1,19,21,-1,-1,-1,-1,-1,-1],"loss_changes":[1.9031218E2,4.9012604E0,1.8615303E0,1.2132263E0,6.2042236E-2,3.9793923E0,0E0,0E0,1.4986038E-2,0E0,0E0,3.3679318E-1,1.8859282E0,0E0,0E0,5.05116E-2,4.0144172E-1,0E0,0E0,0E0,0E0,0E0,0E0],"parents":[2147483647,0,0,1,1,2,2,3,3,4,4,5,5,8,8,11,11,12,12,15,15,16,16],"right_children":[2,4,6,8,10,12,-1,-1,14,-1,-1,16,18,-1,-1,20,22,-1,-1,-1,-1,-1,-1],"split_conditions":[1E-1,1E-1,2E-1,2E-1,2E-1,5E-1,6.058265E-3,-2.9893206E-3,4E-1,-1.2825335E-2,-3.209473E-2,4E-1,3E-1,-8.05293E-3,-9.033644E-3,3E-1,5E-1,9.879664E-4,-2.5569217E-3,9.527677E-3,5.589424E-4,5.137133E-4,-9.959375E-4],"split_indices":[0,3,0,1,3,3,0,0,1,0,0,3,1,0,0,3,1,0,0,0,0,0,0],"split_type":[0,0,0,0,0,0,0,0,0,0,0,0,0,0,0,0,0,0,0,0,0,0,0],"sum_hessian":[2.964E3,2.62E2,2.702E3,3.9E1,2.23E2,2.7E2,2.432E3,9E0,3E1,4.5E1,1.78E2,2.22E2,4.8E1,8E0,2.2E1,1.76E2,4.6E1,1.2E1,3.6E1,1.32E2,4.4E1,2.1E1,2.5E1],"tree_param":{"num_deleted":"0","num_feature":"4","num_nodes":"23","size_leaf_vector":"1"}},{"base_weights":[1.0400542E-2,4.552764E-2,-7.233178E-3,8.369906E-2,2.7326444E-2,1.00000035E-2,-2.4248492E-2,4.9378886E-3,6.7295596E-2,3.1382117E-2,-1.1111107E-2,3.743017E-2,3.740652E-3,-6.1285463E-3,-6.0606055E-2,4.8795184E-3,3.2467537E-2,4.1666668E-2,2.039474E-2,3.5820098E-9,-3.3333332E-3,-3.4482721E-3,4.569537E-2,1.2452833E-2,-3.717435E-4,1.8329975E-3,-2.8491616E-2,-2.7906973E-2,-9.496855E-2,3.3333336E-3,1.7739478E-10,2.2839508E-3,1.2857144E-3,-7.812481E-5,1.8361583E-3,-1.0606059E-3,2E-3,1.2500001E-3,-2.1428568E-3,3.0357146E-3,1.7708335E-3,9.1489375E-4,-1.4516128E-3,-2.0547926E-4,3.4482777E-4,-3.2786868E-4,5.241937E-4,3.759417E-5,-5.6382976E-3,2.7272746E-4,-2.2033898E-3,-2.4074072E-3,-7.0253164E-3],"categories":[],"categories_nodes":[],"categories_segments":[],"categories_sizes":[],"default_left":[0,0,0,0,0,0,0,0,0,0,0,0,0,0,0,0,0,0,0,0,0,0,0,0,0,0,0,0,0,0,0,0,0,0,0,0,0,0,0,0,0,0,0,0,0,0,0,0,0,0,0,0,0],"id":13,"left_children":[1,3,5,7,9,11,13,-1,15,17,19,21,23,25,27,-1,29,31,33,35,-1,37,39,41,43,45,47,49,51,-1,-1,-1,-1,-1,-1,-1,-1,-1,-1,-1,-1,-1,-1,-1,-1,-1,-1,-1,-1,-1,-1,-1,-1],"loss_changes":[1.8444598E0,6.779022E-1,5.8137906E-1,5.5546284E-2,1.07913375E-1,1.6400406E-1,6.504347E-1,0E0,1.5158784E-1,6.2439144E-2,4.5555554E-2,6.48607E-2,2.9946744E-2,1.2182991E-1,3.558575E-1,0E0,7.8831166E-2,1.1656165E-2,1.12565696E-1,4.6848483E-2,0E0,3.5369456E-2,1.1547208E-2,6.371554E-2,1.4365894E-2,3.6100175E-2,4.524274E-1,9.6835405E-2,3.1337285E-1,0E0,0E0,0E0,0E0,0E0,0E0,0E0,0E0,0E0,0E0,0E0,0E0,0E0,0E0,0E0,0E0,0E0,0E0,0E0,0E0,0E0,0E0,0E0,0E0],"parents":[2147483647,0,0,1,1,2,2,3,3,4,4,5,5,6,6,8,8,9,9,10,10,11,11,12,12,13,13,14,14,16,16,17,17,18,18,19,19,21,21,22,22,23,23,24,24,25,25,26,26,27,27,28,28],"right_children":[2,4,6,8,10,12,14,-1,16,18,20,22,24,26,28,-1,30,32,34,36,-1,38,40,42,44,46,48,50,52,-1,-1,-1,-1,-1,-1,-1,-1,-1,-1,-1,-1,-1,-1,-1,-1,-1,-1,-1,-1,-1,-1,-1,-1],"split_conditions":[2E-1,2E-1,4E-1,1E-1,1E0,2E-1,4E-1,1.9862844E-2,1E-1,1E-1,5E-1,1E-1,2E-1,8E-1,6E-1,1.8349973E-2,5E-1,8E-1,4E-1,4E-1,-1.2067926E-2,3E-1,3E-1,1E0,8E-1,2E-1,3E-1,2E-1,5E-1,1.47597855E-2,2.3747683E-3,1.7143082E-2,1.6171476E-2,-4.326067E-4,1.0353467E-2,-5.6690862E-3,1.1055941E-2,9.75474E-3,-4.208929E-3,8.90369E-3,5.679272E-3,8.024986E-3,-7.4057714E-3,-1.47915995E-2,6.0016796E-4,-9.41564E-3,2.8126134E-4,5.0250714E-4,-2.7458388E-2,-7.5338185E-3,-2.4860596E-2,-2.8771391E-2,-3.0016625E-2],"split_indices":[3,2,3,3,1,1,2,0,2,3,2,2,2,1,1,0,1,1,1,2,0,3,2,1,1,2,2,1,3,0,0,0,0,0,0,0,0,0,0,0,0,0,0,0,0,0,0,0,0,0,0,0,0],"split_type":[0,0,0,0,0,0,0,0,0,0,0,0,0,0,0,0,0,0,0,0,0,0,0,0,0,0,0,0,0,0,0,0,0,0,0,0,0,0,0,0,0,0,0,0,0,0,0,0,0,0,0,0,0],"sum_hessian":[2.97E3,9.94E2,1.976E3,3.18E2,6.76E2,9.79E2,9.97E2,1.6E2,1.58E2,6.14E2,6.2E1,1.78E2,8.01E2,6.68E2,3.29E2,8.2E1,7.6E1,3.11E2,3.03E2,5.1E1,1.1E1,2.8E1,1.5E2,2.64E2,5.37E2,4.9E2,1.78E2,1.71E2,1.58E2,3.5E1,4.1E1,2.42E2,6.9E1,1.27E2,1.76E2,3.2E1,1.9E1,1.5E1,1.3E1,5.5E1,9.5E1,2.34E2,3E1,3.64E2,1.73E2,2.43E2,2.47E2,1.32E2,4.6E1,5.4E1,1.17E2,8E1,7.8E1],"tree_param":{"num_deleted":"0","num_feature":"4","num_nodes":"53","size_leaf_vector":"1"}},{"base_weights":[1.4074078E-2,-8.163498E-1,9.475628E-2,-5.2790695E-1,-4.3416288E-2,4.760148E-2,4.995899E-3,1.4285717E-2,-7.6666665E-1,8.5903086E-2,-1.4444444E-1,3.5714288E-3,-1.2499997E-3,-2E-2,-4.1E-2,4.9358974E-3,5.555556E-2,5.862069E-2,-2.4411764E-2,4E-3,-2.6923076E-3,4.4444446E-3,1.5522043E-10],"categories":[],"categories_nodes":[],"categories_segments":[],"categories_sizes":[],"default_left":[0,0,0,0,0,0,0,0,0,0,0,0,0,0,0,0,0,0,0,0,0,0,0],"id":14,"left_children":[1,3,5,7,-1,9,-1,11,13,15,17,-1,-1,-1,-1,-1,19,21,-1,-1,-1,-1,-1],"loss_changes":[1.9899646E2,3.3449097E0,6.396141E-1,5.6527023E0,0E0,1.9999398E0,0E0,3.785714E-2,1.3666534E-1,6.736839E-2,3.2131193E0,0E0,0E0,0E0,0E0,0E0,1.9947006E-1,4.2567052E-2,0E0,0E0,0E0,0E0,0E0],"parents":[2147483647,0,0,1,1,2,2,3,3,5,5,7,7,8,8,9,9,10,10,16,16,17,17],"right_children":[2,4,6,8,-1,10,-1,12,14,16,18,-1,-1,-1,-1,-1,20,22,-1,-1,-1,-1,-1],"split_conditions":[1E-1,1E-1,2E-1,2E-1,-2.9052919E-2,5E-1,6.2391055E-3,1E-1,3E-1,4E-1,3E-1,3.2591433E-3,-9.127692E-4,-4.908697E-3,-9.03026E-3,5.2555734E-3,4E-1,2E-1,-3.1257968E-3,1.2381942E-3,-9.8712E-4,5.276237E-3,-8.021414E-5],"split_indices":[0,3,0,2,0,3,0,2,2,2,2,0,0,0,0,0,3,2,0,0,0,0,0],"split_type":[0,0,0,0,0,0,0,0,0,0,0,0,0,0,0,0,0,0,0,0,0,0,0],"sum_hessian":[2.969E3,2.62E2,2.707E3,4.2E1,2.2E2,2.7E2,2.437E3,1.3E1,2.9E1,2.26E2,4.4E1,6E0,7E0,5E0,2.4E1,1.55E2,7.1E1,2.8E1,1.6E1,5.9E1,1.2E1,1.7E1,1.1E1],"tree_param":{"num_deleted":"0","num_feature":"4","num_nodes":"23","size_leaf_vector":"1"}},{"base_weights":[1.4400271E-2,-7.988764E-1,9.405941E-2,-6.111111E-1,-4.4438202E-2,4.0000003E-2,4.995932E-3,-9.230769E-2,-4.0384617E-2,8.141593E-2,-1.6666666E-1,4.2307694E-3,-2.5714284E-1,4.935065E-3,4.2465758E-2,5.2E-2,-2.1190476E-2,-1.2499997E-3,-2.3571428E-2,4.7674417E-3,-1.4516128E-3,4.4736844E-3,-2.1428568E-3],"categories":[],"categories_nodes":[],"categories_segments":[],"categories_sizes":[],"default_left":[0,0,0,0,0,0,0,0,0,0,0,0,0,0,0,0,0,0,0,0,0,0,0],"id":15,"left_children":[1,3,5,7,-1,9,-1,11,-1,13,15,-1,17,-1,19,21,-1,-1,-1,-1,-1,-1,-1],"loss_changes":[1.9390591E2,3.8132324E0,8.457794E-1,9.014275E0,0E0,2.316053E0,0E0,7.9725266E-1,0E0,1.3385046E-1,2.5895047E0,0E0,6.3500005E-1,0E0,2.8541544E-1,9.736241E-2,0E0,0E0,0E0,0E0,0E0,0E0,0E0],"parents":[2147483647,0,0,1,1,2,2,3,3,5,5,7,7,9,9,10,10,12,12,14,14,15,15],"right_children":[2,4,6,8,-1,10,-1,12,-1,14,16,-1,18,-1,20,22,-1,-1,-1,-1,-1,-1,-1],"split_conditions":[1E-1,2E-1,2E-1,2E-1,-2.7936032E-2,5E-1,5.9682983E-3,1E-1,-1.0718472E-2,4E-1,3E-1,3.129122E-3,1E-1,5.0699706E-3,3E-1,2E-1,-2.4764407E-3,-8.6713134E-4,-2.456665E-3,6.1956653E-3,-3.0991595E-4,5.0781555E-3,-1.1182316E-4],"split_indices":[0,3,0,2,0,3,0,2,0,2,2,0,3,0,3,2,0,0,0,0,0,0,0],"split_type":[0,0,0,0,0,0,0,0,0,0,0,0,0,0,0,0,0,0,0,0,0,0,0],"sum_hessian":[2.992E3,2.66E2,2.726E3,8.9E1,1.77E2,2.69E2,2.457E3,2.5E1,6.4E1,2.25E2,4.4E1,1.2E1,1.3E1,1.53E2,7.2E1,2.4E1,2E1,7E0,6E0,4.2E1,3E1,1.8E1,6E0],"tree_param":{"num_deleted":"0","num_feature":"4","num_nodes":"23","size_leaf_vector":"1"}},{"base_weights":[1.5029103E-2,-8.027237E-1,9.39212E-2,-5.585366E-1,-4.2235024E-2,3.745174E-2,4.9958457E-3,-5E-3,-3.40625E-2,7.155964E-2,-1.3809523E-1,4.9193553E-3,3.4736846E-2,4.166667E-3,-2.2258064E-1,4.722222E-3,-0E0,-1.5833333E-2,3.7500001E-3],"categories":[],"categories_nodes":[],"categories_segments":[],"categories_sizes":[],"default_left":[0,0,0,0,0,0,0,0,0,0,0,0,0,0,0,0,0,0,0],"id":16,"left_children":[1,3,5,7,-1,9,-1,-1,-1,11,13,-1,15,-1,17,-1,-1,-1,-1],"loss_changes":[1.884506E2,2.0221558E0,8.8481903E-1,2.1607618E0,0E0,1.5540006E0,0E0,0E0,0E0,1.986239E-1,8.181874E-1,0E0,2.0647952E-1,0E0,9.158603E-1,0E0,0E0,0E0,0E0],"parents":[2147483647,0,0,1,1,2,2,3,3,5,5,9,9,10,10,12,12,14,14],"right_children":[2,4,6,8,-1,10,-1,-1,-1,12,14,-1,16,-1,18,-1,-1,-1,-1],"split_conditions":[1E-1,1E-1,2E-1,2E-1,-2.6215753E-2,5E-1,5.6035775E-3,-2.709572E-3,-7.943904E-3,3E-1,4E-1,9.443342E-3,4E-1,1.1732272E-3,9E-1,2.3960236E-3,-1.8235367E-4,-2.2243813E-3,4.504502E-4],"split_indices":[0,3,0,1,0,3,0,0,0,3,1,0,1,0,1,0,0,0,0],"split_type":[0,0,0,0,0,0,0,0,0,0,0,0,0,0,0,0,0,0,0],"sum_hessian":[2.92E3,2.56E2,2.664E3,4E1,2.16E2,2.58E2,2.406E3,9E0,3.1E1,2.17E2,4.1E1,1.23E2,9.4E1,1.1E1,3E1,3.5E1,5.9E1,2.3E1,7E0],"tree_param":{"num_deleted":"0","num_feature":"4","num_nodes":"19","size_leaf_vector":"1"}},{"base_weights":[1.926481E-2,3.7196767E-2,8.934745E-4,8.079332E-2,1.630219E-2,2.38806E-2,-1.3615696E-3,4.7530863E-3,6.540085E-2,4.945055E-2,8.848488E-3,-1.1235918E-3,7.3913045E-2,5.988704E-3,-1.6438352E-2,4.846154E-3,5.260116E-2,4.777778E-3,3.3333335E-2,4.8309547E-4,1.6990295E-2,-1.4754094E-2,1.2068967E-3,2.5000002E-2,4.6774196E-3,-1.3824847E-3,1.327434E-2,2.056738E-2,-3.4228183E-2,-2.631577E-4,3.0000003E-3,2.4603175E-3,9.210528E-4,2.812502E-4,-7.894735E-4,5.160144E-4,1.5151517E-3,1.2500001E-3,-1.521739E-3,4E-3,-2.1428568E-3,-6.81818E-4,5.348839E-4,1.7901236E-3,4.0322597E-4,-2.9999998E-3,1.923077E-3,5.172416E-4,-2.2614105E-3],"categories":[],"categories_nodes":[],"categories_segments":[],"categories_sizes":[],"default_left":[0,0,0,0,0,0,0,0,0,0,0,0,0,0,0,0,0,0,0,0,0,0,0,0,0,0,0,0,0,0,0,0,0,0,0,0,0,0,0,0,0,0,0,0,0,0,0,0,0],"id":17,"left_children":[1,3,5,7,9,11,13,-1,15,17,19,21,23,25,27,-1,29,-1,31,33,35,37,-1,39,-1,41,43,45,47,-1,-1,-1,-1,-1,-1,-1,-1,-1,-1,-1,-1,-1,-1,-1,-1,-1,-1,-1,-1],"loss_changes":[9.640349E-1,1.3407958E0,7.770722E-2,8.293772E-2,2.42293E-1,1.7499879E-1,1.4764543E-1,0E0,7.557285E-2,1.1916724E-1,5.443471E-2,3.006288E-2,2.9985964E-2,4.8735395E-2,2.9041672E-1,0E0,7.98558E-2,0E0,2.4995804E-2,3.3712592E-2,3.2208905E-2,3.9330002E-2,0E0,6.685714E-2,0E0,6.468424E-2,4.837469E-2,2.0343152E-1,1.5006694E-1,0E0,0E0,0E0,0E0,0E0,0E0,0E0,0E0,0E0,0E0,0E0,0E0,0E0,0E0,0E0,0E0,0E0,0E0,0E0,0E0],"parents":[2147483647,0,0,1,1,2,2,3,3,4,4,5,5,6,6,8,8,9,9,10,10,11,11,12,12,13,13,14,14,16,16,18,18,19,19,20,20,21,21,23,23,25,25,26,26,27,27,28,28],"right_children":[2,4,6,8,10,12,14,-1,16,18,20,22,24,26,28,-1,30,-1,32,34,36,38,-1,40,-1,42,44,46,48,-1,-1,-1,-1,-1,-1,-1,-1,-1,-1,-1,-1,-1,-1,-1,-1,-1,-1,-1,-1],"split_conditions":[3E-1,2E-1,1E-1,1E-1,2E-1,5E-1,5E-1,1.3514824E-2,3E-1,3E-1,4E-1,4E-1,2E-1,4E-1,2E-1,1.058152E-2,4E-1,8.757812E-3,1E-1,9E-1,2E-1,1E-1,2.8503514E-3,1E-1,5.8415406E-3,3E-1,1E-1,3E-1,3E-1,-7.119475E-4,9.412874E-3,7.7893273E-3,3.880284E-3,6.3386313E-3,-3.6350691E-3,8.836465E-3,4.7141328E-3,6.509851E-5,-1.0648779E-2,1.4993149E-2,-1.066649E-2,-4.216638E-3,7.222447E-4,9.375991E-3,8.164052E-4,-1.054599E-2,5.8068405E-3,-2.9439633E-3,-2.0387677E-2],"split_indices":[3,2,1,2,1,3,3,0,1,2,2,2,2,3,2,0,1,0,1,1,3,2,0,2,0,2,2,1,1,0,0,0,0,0,0,0,0,0,0,0,0,0,0,0,0,0,0,0,0],"split_type":[0,0,0,0,0,0,0,0,0,0,0,0,0,0,0,0,0,0,0,0,0,0,0,0,0,0,0,0,0,0,0,0,0,0,0,0,0,0,0,0,0,0,0,0,0,0,0,0,0],"sum_hessian":[2.937E3,1.483E3,1.454E3,4.78E2,1.005E3,1.33E2,1.321E3,2.42E2,2.36E2,1.81E2,8.24E2,8.8E1,4.5E1,8.84E2,4.37E2,6.4E1,1.72E2,4.4E1,1.37E2,4.13E2,4.11E2,6E1,2.8E1,1.5E1,3E1,4.33E2,4.51E2,1.4E2,2.97E2,1.8E1,1.54E2,6.2E1,7.5E1,3.19E2,9.4E1,2.8E2,1.31E2,1.5E1,4.5E1,9E0,6E0,2.19E2,2.14E2,8E1,3.71E2,2.4E1,1.16E2,5.7E1,2.4E2],"tree_param":{"num_deleted":"0","num_feature":"4","num_nodes":"49","size_leaf_vector":"1"}},{"base_weights":[1.8596021E-2,-7.984375E-1,9.586411E-2,-6.179487E-1,-8.7206703E-1,5.8823533E-2,4.995897E-3,-2.3333332E-1,-3.2857142E-2,-6.142857E-1,-4.439759E-2,4.9290783E-3,1.5151518E-2,-5E-3,-1.5E-2,-7.5E-3,-3.590909E-2,4.7959187E-3,-3.0952377E-2,-4.322034E-3,4.6153846E-3],"categories":[],"categories_nodes":[],"categories_segments":[],"categories_sizes":[],"default_left":[0,0,0,0,0,0,0,0,0,0,0,0,0,0,0,0,0,0,0,0,0],"id":18,"left_children":[1,3,5,7,9,11,-1,13,-1,15,-1,-1,17,-1,-1,-1,-1,-1,19,-1,-1],"loss_changes":[1.870623E2,2.714157E0,3.8487053E-1,9.33445E-1,3.729248E-2,4.5941013E-1,0E0,9.999961E-3,0E0,4.8077917E-1,0E0,0E0,5.0098944E-1,0E0,0E0,0E0,0E0,0E0,5.819097E-1,0E0,0E0],"parents":[2147483647,0,0,1,1,2,2,3,3,4,4,5,5,7,7,9,9,12,12,18,18],"right_children":[2,4,6,8,10,12,-1,14,-1,16,-1,-1,18,-1,-1,-1,-1,-1,20,-1,-1],"split_conditions":[1E-1,2E-1,2E-1,1E-1,1E-1,3E-1,5.521583E-3,1E-1,-1.5567702E-2,3E-1,-2.470619E-2,4.434813E-3,4E-1,-2.537805E-3,-1.0133165E-2,-1.08778095E-2,-1.9769121E-2,2.3510053E-3,9E-1,-4.2688564E-4,7.052024E-4],"split_indices":[0,2,0,1,1,2,0,2,0,2,0,0,1,0,0,0,0,0,1,0,0],"split_type":[0,0,0,0,0,0,0,0,0,0,0,0,0,0,0,0,0,0,0,0,0],"sum_hessian":[2.962E3,2.55E2,2.707E3,7.7E1,1.78E2,2.71E2,2.436E3,8E0,6.9E1,1.3E1,1.65E2,1.4E2,1.31E2,4E0,4E0,3E0,1E1,4.8E1,8.3E1,5.8E1,2.5E1],"tree_param":{"num_deleted":"0","num_feature":"4","num_nodes":"21","size_leaf_vector":"1"}},{"base_weights":[2.3061296E-2,-7.4108523E-1,9.621662E-2,-5.046511E-1,-4.268786E-2,6.19403E-2,4.9958834E-3,-9.9999994E-2,-4.1808512E-2,4.9280575E-3,2.1538464E-2,4.2857144E-2,-2.4999999E-1,7.52809E-2,-9.0476185E-2,4.2307694E-3,-5.5555534E-4,-4.3749996E-3,-3.5E-2,4.8484853E-3,4.1666682E-4,-1.521739E-3,-7.5E-3],"categories":[],"categories_nodes":[],"categories_segments":[],"categories_sizes":[],"default_left":[0,0,0,0,0,0,0,0,0,0,0,0,0,0,0,0,0,0,0,0,0,0,0],"id":19,"left_children":[1,3,5,7,-1,9,-1,11,-1,-1,13,15,17,19,21,-1,-1,-1,-1,-1,-1,-1,-1],"loss_changes":[1.650836E2,6.306305E0,3.196373E-1,1.1359631E1,0E0,3.8238645E-1,0E0,8.885714E-1,0E0,0E0,7.878839E-1,5.561661E-2,1.3224999E0,1.17890716E-1,1.2749481E-1,0E0,0E0,0E0,0E0,0E0,0E0,0E0,0E0],"parents":[2147483647,0,0,1,1,2,2,3,3,5,5,7,7,10,10,11,11,12,12,13,13,14,14],"right_children":[2,4,6,8,-1,10,-1,12,-1,-1,14,16,18,20,22,-1,-1,-1,-1,-1,-1,-1,-1],"split_conditions":[1E-1,2E-1,2E-1,3E-1,-2.3230938E-2,3E-1,5.1203887E-3,1E-1,-1.5507883E-2,4.281354E-3,4E-1,2E-1,2E-1,3E-1,5E-1,3.4633304E-3,-2.6017427E-4,-3.8327635E-4,-6.1094253E-3,6.0407594E-3,-1.7633784E-5,-2.0498205E-4,-8.1595854E-4],"split_indices":[0,2,0,3,0,2,0,2,0,0,3,3,3,3,3,0,0,0,0,0,0,0,0],"split_type":[0,0,0,0,0,0,0,0,0,0,0,0,0,0,0,0,0,0,0,0,0,0,0],"sum_hessian":[2.952E3,2.57E2,2.695E3,8.5E1,1.72E2,2.67E2,2.428E3,3.9E1,4.6E1,1.38E2,1.29E2,2E1,1.9E1,8.8E1,4.1E1,1.2E1,8E0,1.5E1,4E0,6.5E1,2.3E1,2.2E1,1.9E1],"tree_param":{"num_deleted":"0","num_feature":"4","num_nodes":"23","size_leaf_vector":"1"}},{"base_weights":[2.425676E-2,-7.223938E-1,9.585492E-2,-5.2790695E-1,-8.1379306E-1,6.0919542E-2,4.97543E-3,-3.736842E-1,-2.8088236E-2,-5.6666666E-1,-4.293103E-2,4.9264706E-3,1.9047622E-2,-1.1666666E-2,-2.625E-2,-3.3333332E-3,-6.5999997E-1,4.8245615E-3,-4.2857137E-2,-2.2272727E-2,-3.8333334E-2,-5.869565E-3,4.6E-3],"categories":[],"categories_nodes":[],"categories_segments":[],"categories_sizes":[],"default_left":[0,0,0,0,0,0,0,0,0,0,0,0,0,0,0,0,0,0,0,0,0,0,0],"id":20,"left_children":[1,3,5,7,9,11,-1,13,-1,15,-1,-1,17,-1,-1,-1,19,-1,21,-1,-1,-1,-1],"loss_changes":[1.5824466E2,4.040207E0,3.2278442E-1,1.4559174E-1,1.2985077E0,3.973878E-1,0E0,2.051754E-1,0E0,1.2833347E0,0E0,0E0,6.135588E-1,0E0,0E0,0E0,1.0939312E-1,0E0,7.169416E-1,0E0,0E0,0E0,0E0],"parents":[2147483647,0,0,1,1,2,2,3,3,4,4,5,5,7,7,9,9,12,12,16,16,18,18],"right_children":[2,4,6,8,10,12,-1,14,-1,16,-1,-1,18,-1,-1,-1,20,-1,22,-1,-1,-1,-1],"split_conditions":[1E-1,2E-1,2E-1,2E-1,2E-1,3E-1,5.018968E-3,1E-1,-1.3863807E-2,3E-1,-2.292654E-2,3.7587702E-3,5E-1,-4.623908E-3,-1.197426E-2,-1.8530581E-2,4E-1,1.5874396E-3,9E-1,-2.1147262E-2,-1.7963843E-2,-6.194508E-4,1.1613235E-3],"split_indices":[0,2,0,1,1,2,0,2,0,2,0,0,1,0,0,0,2,0,1,0,0,0,0],"split_type":[0,0,0,0,0,0,0,0,0,0,0,0,0,0,0,0,0,0,0,0,0,0,0],"sum_hessian":[2.959E3,2.58E2,2.701E3,8.5E1,1.73E2,2.6E2,2.441E3,1.8E1,6.7E1,2.9E1,1.44E2,1.35E2,1.25E2,1.1E1,7E0,5E0,2.4E1,5.6E1,6.9E1,1E1,1.4E1,4.5E1,2.4E1],"tree_param":{"num_deleted":"0","num_feature":"4","num_nodes":"23","size_leaf_vector":"1"}},{"base_weights":[2.9395886E-2,-6.9435483E-1,9.55081E-2,-3.8780487E-1,-8.401197E-1,5.789474E-2,4.9755205E-3,-3.513513E-2,-6.6086954E-1,-5.428571E-1,-4.464286E-2,4.9285716E-3,1.1811027E-2,4.5454547E-2,-7.5E-3,-4.333333E-1,-3.7187498E-2,3.888889E-3,-4E-2,7.471265E-2,-1.19512185E-1,4.0909094E-3,1.5522043E-10,-9.285714E-3,-2.8333334E-2,4.8529413E-3,-0E0,-8.333333E-3,-4.259259E-3],"categories":[],"categories_nodes":[],"categories_segments":[],"categories_sizes":[],"default_left":[0,0,0,0,0,0,0,0,0,0,0,0,0,0,0,0,0,0,0,0,0,0,0,0,0,0,0,0,0],"id":21,"left_children":[1,3,5,7,9,11,-1,13,15,17,-1,-1,19,21,-1,23,-1,-1,-1,25,27,-1,-1,-1,-1,-1,-1,-1,-1],"loss_changes":[1.4178232E2,1.063311E1,3.8736534E-1,7.803916E0,1.9897614E0,4.8642325E-1,0E0,3.5977885E-1,4.274788E-1,4.603015E0,0E0,0E0,1.0535254E0,2.818181E-2,0E0,3.1476212E-1,0E0,0E0,0E0,1.5495604E-1,2.6982784E-2,0E0,0E0,0E0,0E0,0E0,0E0,0E0,0E0],"parents":[2147483647,0,0,1,1,2,2,3,3,4,4,5,5,7,7,8,8,9,9,12,12,13,13,15,15,19,19,20,20],"right_children":[2,4,6,8,10,12,-1,14,16,18,-1,-1,20,22,-1,24,-1,-1,-1,26,28,-1,-1,-1,-1,-1,-1,-1,-1],"split_conditions":[1E-1,2E-1,2E-1,3E-1,1E-1,3E-1,4.701986E-3,2E-1,4E-1,3E-1,-2.147587E-2,3.2232825E-3,4E-1,1E-1,-1.8632824E-3,1E-1,-6.707482E-3,4.4602455E-4,-1.0824814E-2,3E-1,4E-1,4.1443543E-3,2.0256522E-4,-5.8802665E-4,-5.0432174E-3,5.5651325E-3,-2.80668E-4,-4.3410956E-4,-8.724254E-4],"split_indices":[0,3,0,2,2,2,0,2,2,3,0,0,3,2,0,3,0,0,0,3,2,0,0,0,0,0,0,0,0],"split_type":[0,0,0,0,0,0,0,0,0,0,0,0,0,0,0,0,0,0,0,0,0,0,0,0,0,0,0,0,0],"sum_hessian":[2.962E3,2.47E2,2.715E3,8.1E1,1.66E2,2.65E2,2.45E3,3.6E1,4.5E1,2.7E1,1.39E2,1.39E2,1.26E2,2.1E1,1.5E1,1.4E1,3.1E1,8E0,1.9E1,8.6E1,4E1,1E1,1.1E1,6E0,8E0,6.7E1,1.9E1,1.4E1,2.6E1],"tree_param":{"num_deleted":"0","num_feature":"4","num_nodes":"29","size_leaf_vector":"1"}},{"base_weights":[2.467797E-2,-7.0384616E-1,9.509476E-2,-4.9090907E-1,-8.075144E-1,5.4307118E-2,4.975258E-3,-2.8888887E-1,-2.669014E-2,-5.7857144E-1,-4.2260274E-2,4.9275365E-3,6.15385E-3,-7.5E-3,-2.3571428E-2,-2E-2,-3.730769E-2,4.7674417E-3,-3.636363E-2,-5E-3,4.6551726E-3],"categories":[],"categories_nodes":[],"categories_segments":[],"categories_sizes":[],"default_left":[0,0,0,0,0,0,0,0,0,0,0,0,0,0,0,0,0,0,0,0,0],"id":22,"left_children":[1,3,5,7,9,11,-1,13,-1,15,-1,-1,17,-1,-1,-1,-1,-1,19,-1,-1],"loss_changes":[1.5134204E2,5.213196E0,4.632988E-1,5.2607536E-1,8.6144257E-1,5.577598E-1,0E0,3.2349205E-1,0E0,4.248352E-1,0E0,0E0,5.023708E-1,0E0,0E0,0E0,0E0,0E0,7.3501563E-1,0E0,0E0],"parents":[2147483647,0,0,1,1,2,2,3,3,4,4,5,5,7,7,9,9,12,12,18,18],"right_children":[2,4,6,8,10,12,-1,14,-1,16,-1,-1,18,-1,-1,-1,-1,-1,20,-1,-1],"split_conditions":[1E-1,2E-1,2E-1,2E-1,2E-1,3E-1,4.50335E-3,1E-1,-1.2228175E-2,4E-1,-2.0335475E-2,3.8860992E-3,4E-1,-3.8514733E-3,-1.0301754E-2,-1.7782478E-2,-1.688757E-2,1.935895E-3,9E-1,-5.378276E-4,6.3052535E-4],"split_indices":[0,2,0,1,1,2,0,2,0,2,0,0,1,0,0,0,0,0,1,0,0],"split_type":[0,0,0,0,0,0,0,0,0,0,0,0,0,0,0,0,0,0,0,0,0],"sum_hessian":[2.949E3,2.59E2,2.69E3,8.7E1,1.72E2,2.66E2,2.424E3,1.7E1,7E1,2.7E1,1.45E2,1.37E2,1.29E2,1.1E1,6E0,1.5E1,1.2E1,4.2E1,8.7E1,5.9E1,2.8E1],"tree_param":{"num_deleted":"0","num_feature":"4","num_nodes":"21","size_leaf_vector":"1"}},{"base_weights":[2.967548E-2,-6.6284585E-1,9.371575E-2,-3.3181816E-1,-8.337349E-1,6.1797757E-2,9.70862E-2,3.6842108E-2,-4.285714E-1,-3.4473684E-2,-4.344961E-2,4.920635E-3,2.8169017E-2,4.993943E-3,9.1230206E-2,4.0909094E-3,-1.1111107E-2,-1.3749999E-2,-2.3181817E-2,4.811321E-3,-1.1111107E-2,4.7711018E-3,6.585366E-2,3.0000003E-3,-5E-3,-3.0645158E-3,4.6551726E-3,2.272729E-4,4.875E-3],"categories":[],"categories_nodes":[],"categories_segments":[],"categories_sizes":[],"default_left":[0,0,0,0,0,0,0,0,0,0,0,0,0,0,0,0,0,0,0,0,0,0,0,0,0,0,0,0,0],"id":23,"left_children":[1,3,5,7,9,11,13,15,17,-1,-1,-1,19,-1,21,-1,23,-1,-1,-1,25,-1,27,-1,-1,-1,-1,-1,-1],"loss_changes":[1.3256512E2,1.3918755E1,2.725525E-1,3.193841E0,8.932495E-2,3.1333053E-1,1.2189865E-2,4.8957996E-2,1.7558384E-1,0E0,0E0,0E0,3.8918972E-1,0E0,6.4921856E-2,0E0,6.688888E-2,0E0,0E0,0E0,4.7317138E-1,0E0,2.2799444E-1,0E0,0E0,0E0,0E0,0E0,0E0],"parents":[2147483647,0,0,1,1,2,2,3,3,4,4,5,5,6,6,7,7,8,8,12,12,14,14,16,16,20,20,22,22],"right_children":[2,4,6,8,10,12,14,16,18,-1,-1,-1,20,-1,22,-1,24,-1,-1,-1,26,-1,28,-1,-1,-1,-1,-1,-1],"split_conditions":[1E-1,2E-1,2E-1,2E-1,3E-1,3E-1,8E-1,1E-1,4E-1,-1.1352126E-2,-1.9345623E-2,8.2006585E-3,4E-1,6.8925605E-3,5E-1,1.5324123E-3,1E-1,-3.7624687E-3,-4.4744476E-3,2.2235166E-3,9E-1,3.6673192E-3,9E-1,6.5092446E-4,-1.516515E-3,-2.3794807E-4,6.614372E-4,2.1180382E-4,1.81758E-3],"split_indices":[0,3,0,1,3,3,0,1,1,0,0,0,1,0,3,0,3,0,0,0,1,0,0,0,0,0,0,0,0],"split_type":[0,0,0,0,0,0,0,0,0,0,0,0,0,0,0,0,0,0,0,0,0,0,0,0,0,0,0,0,0],"sum_hessian":[2.988E3,2.52E2,2.736E3,8.7E1,1.65E2,2.66E2,2.47E3,1.8E1,6.9E1,3.7E1,1.28E2,1.25E2,1.41E2,1.65E3,8.2E2,1E1,8E0,1.5E1,5.4E1,5.2E1,8.9E1,6.98E2,1.22E2,4E0,4E0,6.1E1,2.8E1,4.3E1,7.9E1],"tree_param":{"num_deleted":"0","num_feature":"4","num_nodes":"29","size_leaf_vector":"1"}},{"base_weights":[2.6372885E-2,-6.340824E-1,9.210134E-2,-2.7777776E-1,-7.0269054E-1,9.675237E-2,6.965812E-2,-1E-2,-1.6153846E-2,-5.6292135E-1,-7.888889E-1,7.614679E-2,4.945E-3,9.541985E-2,3.6231887E-2,-1.6428571E-2,-2.9868422E-2,-2.5434783E-2,-4.1902654E-2,4.924243E-3,4.0229887E-2,5.5555556E-2,4.957627E-3,-3.999996E-3,4.8795184E-3,4.782609E-3,-9.523807E-4,4.545455E-3,-3.3333332E-3,2.647059E-3,-3.6206895E-3],"categories":[],"categories_nodes":[],"categories_segments":[],"categories_sizes":[],"default_left":[0,0,0,0,0,0,0,0,0,0,0,0,0,0,0,0,0,0,0,0,0,0,0,0,0,0,0,0,0,0,0],"id":24,"left_children":[1,3,5,7,9,11,13,-1,-1,15,17,19,-1,21,23,-1,-1,-1,-1,-1,25,27,-1,29,-1,-1,-1,-1,-1,-1,-1],"loss_changes":[1.280658E2,6.2336884E0,2.5678635E-1,4.162407E-2,2.1074066E0,7.307243E-2,3.8638067E-1,0E0,0E0,4.2959785E-1,1.2986984E0,1.5707088E-1,0E0,1.8006563E-2,5.207428E-1,0E0,0E0,0E0,0E0,0E0,2.9530305E-1,1.2515152E-1,0E0,4.9272612E-1,0E0,0E0,0E0,0E0,0E0,0E0,0E0],"parents":[2147483647,0,0,1,1,2,2,3,3,4,4,5,5,6,6,9,9,10,10,11,11,13,13,14,14,20,20,21,21,23,23],"right_children":[2,4,6,8,10,12,14,-1,-1,16,18,20,-1,22,24,-1,-1,-1,-1,-1,26,28,-1,30,-1,-1,-1,-1,-1,-1,-1],"split_conditions":[1E-1,1E-1,5E-1,4E-1,3E-1,2E-1,6E-1,-2.7029843E-3,-9.445532E-3,2E-1,2E-1,3E-1,4.610374E-3,2E-1,9E-1,-1.2371401E-2,-1.510554E-2,-1.4219902E-2,-1.920998E-2,3.484991E-3,6E-1,5E-1,3.1084304E-3,7E-1,2.790446E-3,1.7316409E-3,-1.1847228E-4,1.326474E-3,-1.6830118E-5,2.1995618E-3,-2.0319696E-4],"split_indices":[0,2,2,1,2,0,1,0,0,1,1,2,0,0,1,0,0,0,0,0,1,1,0,0,0,0,0,0,0,0,0],"split_type":[0,0,0,0,0,0,0,0,0,0,0,0,0,0,0,0,0,0,0,0,0,0,0,0,0,0,0,0,0,0,0],"sum_hessian":[2.949E3,2.66E2,2.683E3,4.4E1,2.22E2,2.216E3,4.67E2,1.9E1,2.5E1,8.8E1,1.34E2,2.17E2,1.999E3,2.61E2,2.06E2,1.3E1,7.5E1,2.2E1,1.12E2,1.31E2,8.6E1,2.6E1,2.35E2,1.24E2,8.2E1,4.5E1,4.1E1,2.1E1,5E0,6.7E1,5.7E1],"tree_param":{"num_deleted":"0","num_feature":"4","num_nodes":"31","size_leaf_vector":"1"}},{"base_weights":[3.0070877E-2,-6.170542E-1,9.179601E-2,-2.5164834E-1,-8.1071424E-1,6.1363637E-2,9.500614E-2,-1.4754094E-2,-3.532258E-2,-4.333333E-1,-4.4280574E-2,8.1165925E-2,-4.2857137E-2,4.9210656E-3,7.7937655E-2,7.2093025E-2,-2.1578947E-1,-3.3333328E-2,-3.875E-2,9.322034E-2,3.1914897E-2,4.5833336E-3,-1.0789474E-2,9.093484E-2,4.6153883E-3,4.6428572E-3,1.2500001E-3,-6.111111E-3,-1.3181818E-2,3.7500001E-3,-7.5E-3,4.931973E-3,3.0645162E-3,4.6153846E-3,-1.8181816E-3,4.957265E-3,3.666667E-3,4.69697E-3,-4.090909E-3],"categories":[],"categories_nodes":[],"categories_segments":[],"categories_sizes":[],"default_left":[0,0,0,0,0,0,0,0,0,0,0,0,0,0,0,0,0,0,0,0,0,0,0,0,0,0,0,0,0,0,0,0,0,0,0,0,0,0,0],"id":25,"left_children":[1,3,5,7,9,11,13,15,-1,17,-1,19,21,-1,23,25,27,29,-1,31,33,-1,-1,35,37,-1,-1,-1,-1,-1,-1,-1,-1,-1,-1,-1,-1,-1,-1],"loss_changes":[1.1835785E2,1.7946999E1,2.4288559E-1,9.721822E0,4.232826E0,5.52155E-1,1.1710167E-1,1.0949465E0,0E0,3.9933333E0,0E0,1.16904736E-1,1.0092607E0,0E0,3.874197E-1,2.7940184E-2,1.425302E-2,2.0833331E-1,0E0,8.588076E-3,2.0275702E-1,0E0,0E0,2.6495695E-2,5.107366E-1,0E0,0E0,0E0,0E0,0E0,0E0,0E0,0E0,0E0,0E0,0E0,0E0,0E0,0E0],"parents":[2147483647,0,0,1,1,2,2,3,3,4,4,5,5,6,6,7,7,9,9,11,11,12,12,14,14,15,15,16,16,17,17,19,19,20,20,23,23,24,24],"right_children":[2,4,6,8,10,12,14,16,-1,18,-1,20,22,-1,24,26,28,30,-1,32,34,-1,-1,36,38,-1,-1,-1,-1,-1,-1,-1,-1,-1,-1,-1,-1,-1,-1],"split_conditions":[1E-1,2E-1,2E-1,4E-1,1E-1,5E-1,5E-1,3E-1,-4.270958E-3,4E-1,-1.7379662E-2,4E-1,3E-1,4.4199005E-3,5E-1,2E-1,1E-1,3E-1,-9.045692E-3,5E-1,3E-1,1.1201453E-3,-1.2450098E-3,8E-1,7E-1,2.165178E-3,2.2565783E-4,-4.3566825E-4,-2.3758558E-3,2.0750165E-3,-4.194975E-4,5.186752E-3,3.3518494E-4,1.618317E-3,-2.693408E-4,4.4064797E-3,1.6865887E-3,3.6876362E-3,-1.6922722E-4],"split_indices":[0,3,0,2,2,3,2,2,0,3,0,3,2,0,3,2,3,3,0,2,2,0,0,0,0,0,0,0,0,0,0,0,0,0,0,0,0,0,0],"split_type":[0,0,0,0,0,0,0,0,0,0,0,0,0,0,0,0,0,0,0,0,0,0,0,0,0,0,0,0,0,0,0,0,0,0,0,0,0,0,0],"sum_hessian":[2.962E3,2.57E2,2.705E3,9E1,1.67E2,2.63E2,2.442E3,6E1,3E1,2.9E1,1.38E2,2.22E2,4.1E1,2.026E3,4.16E2,4.2E1,1.8E1,1.4E1,1.5E1,1.76E2,4.6E1,2.3E1,1.8E1,3.52E2,6.4E1,2.7E1,1.5E1,8E0,1E1,7E0,7E0,1.46E2,3E1,2.5E1,2.1E1,2.33E2,1.19E2,3.2E1,3.2E1],"tree_param":{"num_deleted":"0","num_feature":"4","num_nodes":"39","size_leaf_vector":"1"}},{"base_weights":[2.653755E-2,-6.164751E-1,8.911666E-2,-2.3333332E-1,-8.127907E-1,4.9926364E-3,7.797889E-2,3.6051195E-9,-3.637931E-2,-4.185185E-1,-4.3972604E-2,4.909639E-3,5.7466067E-2,4.761905E-3,-1.8571427E-1,-4.2857137E-2,-3.785714E-2,-5.8730155E-2,6.971714E-2,-4.090909E-3,-1.3181818E-2,3.5714288E-3,-7.5E-3,4.1666682E-4,-5E-3,4.9703266E-3,1.5660379E-3],"categories":[],"categories_nodes":[],"categories_segments":[],"categories_sizes":[],"default_left":[0,0,0,0,0,0,0,0,0,0,0,0,0,0,0,0,0,0,0,0,0,0,0,0,0,0,0],"id":26,"left_children":[1,3,5,7,9,-1,11,13,-1,15,-1,-1,17,-1,19,21,-1,23,25,-1,-1,-1,-1,-1,-1,-1,-1],"loss_changes":[1.1842604E2,1.9337303E1,2.9525185E-1,1.0452068E1,4.022751E0,0E0,5.286093E-1,1.1052381E0,0E0,3.3221688E0,0E0,0E0,9.489927E-1,0E0,1.1389613E-1,1.8999998E-1,0E0,1.8436506E-1,6.689327E-1,0E0,0E0,0E0,0E0,0E0,0E0,0E0,0E0],"parents":[2147483647,0,0,1,1,2,2,3,3,4,4,6,6,7,7,9,9,12,12,14,14,15,15,17,17,18,18],"right_children":[2,4,6,8,10,-1,12,14,-1,16,-1,-1,18,-1,20,22,-1,24,26,-1,-1,-1,-1,-1,-1,-1,-1],"split_conditions":[1E-1,2E-1,3E-1,4E-1,1E-1,7.7936873E-3,3E-1,3E-1,-3.2586285E-3,4E-1,-1.6521936E-2,4.327906E-3,2E-1,1.7316496E-3,1E-1,3E-1,-8.526801E-3,4E-1,7E-1,-3.7269102E-4,-2.3190507E-3,2.6090504E-3,-1.0091513E-3,-2.2448851E-4,-5.9360417E-4,5.1736454E-3,1.629925E-4],"split_indices":[0,3,3,2,2,0,2,2,0,3,0,0,0,0,3,3,0,3,0,0,0,0,0,0,0,0,0],"split_type":[0,0,0,0,0,0,0,0,0,0,0,0,0,0,0,0,0,0,0,0,0,0,0,0,0,0,0],"sum_hessian":[2.942E3,2.6E2,2.682E3,8.9E1,1.71E2,1.357E3,1.325E3,6.1E1,2.8E1,2.6E1,1.45E2,6.63E2,6.62E2,4.1E1,2E1,1.3E1,1.3E1,6.2E1,6E2,1E1,1E1,6E0,7E0,2.3E1,3.9E1,3.36E2,2.64E2],"tree_param":{"num_deleted":"0","num_feature":"4","num_nodes":"27","size_leaf_vector":"1"}},{"base_weights":[2.9892765E-2,-6.047244E-1,8.894178E-2,-4.9171597E-1,-8.1860465E-1,5.757576E-2,9.2220426E-2,-2.6585364E-1,-5.589147E-1,-1.6428571E-2,-4.25E-2,4.577465E-3,1.7073175E-2,4.9926094E-3,8.27957E-2,-1.0625E-2,-3.9999998E-1,-1.5833333E-2,-2.8898304E-2,-3.1578943E-2,4.7916668E-3,9.111593E-2,4.2268045E-2,-2.8333334E-2,-5E-3,4.62963E-3,-5E-3,4.98155E-3,3.926702E-3,4.8850575E-3,-9.25924E-5],"categories":[],"categories_nodes":[],"categories_segments":[],"categories_sizes":[],"default_left":[0,0,0,0,0,0,0,0,0,0,0,0,0,0,0,0,0,0,0,0,0,0,0,0,0,0,0,0,0,0,0],"id":27,"left_children":[1,3,5,7,9,11,13,15,17,-1,-1,-1,19,-1,21,-1,23,-1,-1,25,-1,27,29,-1,-1,-1,-1,-1,-1,-1,-1],"loss_changes":[1.1182319E2,5.6056976E0,2.60561E-1,2.3339577E0,9.259453E-1,3.5084283E-1,1.5098381E-1,1.471951E-1,3.2287216E-1,0E0,0E0,0E0,4.807691E-1,0E0,3.591237E-1,0E0,3.7666667E-1,0E0,0E0,6.556919E-1,0E0,7.3246E-2,4.842322E-1,0E0,0E0,0E0,0E0,0E0,0E0,0E0,0E0],"parents":[2147483647,0,0,1,1,2,2,3,3,4,4,5,5,6,6,7,7,8,8,12,12,14,14,16,16,19,19,21,21,22,22],"right_children":[2,4,6,8,10,12,14,16,18,-1,-1,-1,20,-1,22,-1,24,-1,-1,26,-1,28,30,-1,-1,-1,-1,-1,-1,-1,-1],"split_conditions":[1E-1,4E-1,2E-1,1E-1,1E-1,6E-1,7E-1,8E-1,1E-1,-1.1674873E-2,-1.6935175E-2,1.5162085E-3,9E-1,8.777638E-3,5E-1,-7.2395005E-3,1E0,-8.29191E-3,-1.42743485E-2,2E-1,6.5237866E-4,3E-1,5E-1,-7.2930395E-3,-7.3539796E-3,6.1378907E-3,-4.0118472E-4,4.151518E-3,1.1355018E-3,2.3427454E-3,-2.2072449E-5],"split_indices":[0,2,0,2,1,1,0,1,1,0,0,0,1,0,2,0,1,0,0,2,0,2,1,0,0,0,0,0,0,0,0],"split_type":[0,0,0,0,0,0,0,0,0,0,0,0,0,0,0,0,0,0,0,0,0,0,0,0,0,0,0,0,0,0,0],"sum_hessian":[2.983E3,2.53E2,2.73E3,1.68E2,8.5E1,2.63E2,2.467E3,4E1,1.28E2,6E0,7.9E1,1.41E2,1.22E2,1.352E3,1.115E3,3.1E1,9E0,1.1E1,1.17E2,7.5E1,4.7E1,9.22E2,1.93E2,5E0,4E0,2.6E1,4.9E1,5.41E2,3.81E2,8.6E1,1.07E2],"tree_param":{"num_deleted":"0","num_feature":"4","num_nodes":"31","size_leaf_vector":"1"}},{"base_weights":[3.1118646E-2,-5.627907E-1,8.804308E-2,-1.20930225E-1,-7.786127E-1,9.6567E-2,7.04955E-2,6.2711865E-2,-5.0714284E-1,-3.9999998E-1,-8.513889E-1,4.992615E-3,8.631347E-2,9.493088E-2,4.681319E-2,4.761905E-3,-1.1111107E-2,-1.8529411E-2,-3.25E-2,2.0000003E-2,-3.875E-2,-6.878788E-1,-4.455357E-2,4.966667E-3,5.974026E-2,5.6E-2,4.9740262E-3,7.642586E-2,5.6994855E-3,4E-3,-6.111111E-3,3.888889E-3,-2.1428568E-3,3.0000003E-3,-3.9827585E-2,4.4285716E-3,-0E0,4.69697E-3,-5.5555534E-4,-1.976744E-3,4.954751E-3,-4.677419E-3,4.90099E-3],"categories":[],"categories_nodes":[],"categories_segments":[],"categories_sizes":[],"default_left":[0,0,0,0,0,0,0,0,0,0,0,0,0,0,0,0,0,0,0,0,0,0,0,0,0,0,0,0,0,0,0,0,0,0,0,0,0,0,0,0,0,0,0],"id":28,"left_children":[1,3,5,7,9,11,13,15,17,19,21,-1,23,25,27,-1,29,-1,-1,31,-1,33,-1,-1,35,37,-1,39,41,-1,-1,-1,-1,-1,-1,-1,-1,-1,-1,-1,-1,-1,-1],"loss_changes":[9.9735535E1,2.4419601E1,3.7928772E-1,6.1757874E0,4.30114E0,3.360176E-2,4.95255E-1,1.5114069E-1,2.0327759E-1,4.8159995E0,1.634903E-1,0E0,1.3488722E-1,5.57518E-2,5.453082E-1,0E0,1.962222E-1,0E0,0E0,6.1301585E-2,0E0,2.8034964E0,0E0,0E0,2.7410388E-1,1.3663433E-1,0E0,7.012305E-1,1.7779975E0,0E0,0E0,0E0,0E0,0E0,0E0,0E0,0E0,0E0,0E0,0E0,0E0,0E0,0E0],"parents":[2147483647,0,0,1,1,2,2,3,3,4,4,5,5,6,6,7,7,8,8,9,9,10,10,12,12,13,13,14,14,16,16,19,19,21,21,24,24,25,25,27,27,28,28],"right_children":[2,4,6,8,10,12,14,16,18,20,22,-1,24,26,28,-1,30,-1,-1,32,-1,34,-1,-1,36,38,-1,40,42,-1,-1,-1,-1,-1,-1,-1,-1,-1,-1,-1,-1,-1,-1],"split_conditions":[1E-1,2E-1,4E-1,4E-1,1E-1,3E-1,3E-1,3E-1,5E-1,4E-1,3E-1,7.413632E-3,4E-1,2E-1,7E-1,2.1341841E-3,1E-1,-2.448633E-3,-4.052641E-3,3E-1,-8.127484E-3,2E-1,-1.5850037E-2,4.0605743E-3,8E-1,2E-1,3.8066476E-3,2E-1,9E-1,3.1846762E-4,-1.6415984E-3,2.2027881E-3,-5.940408E-4,3.0611755E-4,-7.422061E-3,1.2856069E-3,-6.149671E-5,4.9043135E-3,-3.5528912E-5,-2.7576397E-4,3.792181E-3,-1.827962E-4,9.2083233E-4],"split_indices":[0,3,3,2,2,3,2,2,2,3,3,0,2,0,0,0,3,0,0,3,0,2,0,0,0,2,0,0,0,0,0,0,0,0,0,0,0,0,0,0,0,0,0],"split_type":[0,0,0,0,0,0,0,0,0,0,0,0,0,0,0,0,0,0,0,0,0,0,0,0,0,0,0,0,0,0,0,0,0,0,0,0,0,0,0,0,0,0,0],"sum_hessian":[2.949E3,2.57E2,2.692E3,8.5E1,1.72E2,1.805E3,8.87E2,5.8E1,2.7E1,2.9E1,1.43E2,1.353E3,4.52E2,4.33E2,4.54E2,4.1E1,1.7E1,1.6E1,1.1E1,1.4E1,1.5E1,3.2E1,1.11E2,2.99E2,1.53E2,4.9E1,3.84E2,2.62E2,1.92E2,9E0,8E0,8E0,6E0,4E0,2.8E1,1.04E2,4.9E1,3.2E1,1.7E1,4.2E1,2.2E2,9.2E1,1E2],"tree_param":{"num_deleted":"0","num_feature":"4","num_nodes":"43","size_leaf_vector":"1"}},{"base_weights":[3.2524437E-2,-5.398467E-1,8.7735504E-2,-8.518518E-2,-7.39779E-1,9.329806E-2,5.8636367E-2,6.140351E-2,-4.2E-1,-3.0624998E-1,-8.2666665E-1,4.992764E-3,8.2863584E-2,-5.384615E-2,7.377892E-2,4.7674417E-3,-3.3333328E-2,-1.4230768E-2,-2.5769232E-2,3.3333335E-2,-3.5E-2,-6.142857E-1,-4.4137932E-2,9.025711E-2,4.4966444E-2,4.4736844E-3,-1.3529411E-1,4.954751E-3,3.964497E-2,3.0000003E-3,-4.090909E-3,3.888889E-3,-0E0,-1.0384615E-2,-4.0652175E-2,4.9773757E-3,3.7919467E-3,3.764045E-3,-0E0,-1.1666666E-2,-3.695652E-3,3.4444444E-3,-3.5714284E-3],"categories":[],"categories_nodes":[],"categories_segments":[],"categories_sizes":[],"default_left":[0,0,0,0,0,0,0,0,0,0,0,0,0,0,0,0,0,0,0,0,0,0,0,0,0,0,0,0,0,0,0,0,0,0,0,0,0,0,0,0,0,0,0],"id":29,"left_children":[1,3,5,7,9,11,13,15,17,19,21,-1,23,25,27,-1,29,-1,-1,31,-1,33,-1,35,37,-1,39,-1,41,-1,-1,-1,-1,-1,-1,-1,-1,-1,-1,-1,-1,-1,-1],"loss_changes":[9.376297E1,2.357978E1,4.1750526E-1,4.0371346E0,6.4515076E0,1.2863159E-1,7.5540614E-1,1.9268462E-1,9.6153736E-2,4.3687496E0,1.0949631E0,0E0,2.3095083E-1,6.2368894E-1,3.1834722E-1,0E0,7.4969694E-2,0E0,0E0,3.4444444E-2,0E0,2.557539E0,0E0,7.390118E-2,2.0310685E-1,0E0,1.5663248E-1,0E0,5.5361676E-1,0E0,0E0,0E0,0E0,0E0,0E0,0E0,0E0,0E0,0E0,0E0,0E0,0E0,0E0],"parents":[2147483647,0,0,1,1,2,2,3,3,4,4,5,5,6,6,7,7,8,8,9,9,10,10,12,12,13,13,14,14,16,16,19,19,21,21,23,23,24,24,26,26,28,28],"right_children":[2,4,6,8,10,12,14,16,18,20,22,-1,24,26,28,-1,30,-1,-1,32,-1,34,-1,36,38,-1,40,-1,42,-1,-1,-1,-1,-1,-1,-1,-1,-1,-1,-1,-1,-1,-1],"split_conditions":[1E-1,2E-1,5E-1,4E-1,1E-1,3E-1,2E-1,3E-1,1E-1,4E-1,3E-1,7.0733437E-3,5E-1,2E-1,7E-1,2.046462E-3,1E-1,-1.0003716E-3,-3.7478355E-3,3E-1,-7.3800087E-3,3E-1,-1.4581761E-2,3E-1,7E-1,2.6790437E-3,3E-1,4.425255E-3,5E-1,2.1835193E-3,-1.4073023E-3,2.0926476E-3,-5.6433975E-4,-2.6302736E-3,-7.095419E-3,3.8054527E-3,9.522186E-4,1.1709705E-3,-4.5743927E-5,-3.321444E-4,-7.804759E-4,5.846078E-4,-1.4423077E-4],"split_indices":[0,3,3,2,2,3,0,2,3,3,3,0,2,2,0,0,3,0,0,3,0,2,0,2,0,0,2,0,2,0,0,0,0,0,0,0,0,0,0,0,0,0,0],"split_type":[0,0,0,0,0,0,0,0,0,0,0,0,0,0,0,0,0,0,0,0,0,0,0,0,0,0,0,0,0,0,0,0,0,0,0,0,0,0,0,0,0,0,0],"sum_hessian":[2.966E3,2.6E2,2.706E3,8E1,1.8E2,2.267E3,4.39E2,5.6E1,2.4E1,3.1E1,1.49E2,1.381E3,8.86E2,5.1E1,3.88E2,4.2E1,1.4E1,1.2E1,1.2E1,1.7E1,1.4E1,3.4E1,1.15E2,7.38E2,1.48E2,1.8E1,3.3E1,2.2E2,1.68E2,4E0,1E1,8E0,9E0,1.2E1,2.2E1,4.41E2,2.97E2,8.8E1,6E1,1.1E1,2.2E1,1.34E2,3.4E1],"tree_param":{"num_deleted":"0","num_feature":"4","num_nodes":"43","size_leaf_vector":"1"}},{"base_weights":[3.3939395E-2,-5.0754714E-1,8.699187E-2,-7.582417E-2,-7.285714E-1,9.7133406E-2,6.6181414E-2,8.095238E-2,-4.1724136E-1,-2.2258064E-1,-8.310345E-1,4.9927435E-3,8.810069E-2,-2.765957E-2,7.7250004E-2,4.7674417E-3,4.2857144E-2,-1.5E-2,-2.5E-2,3.6842108E-2,-2.9615385E-2,-6.4285713E-1,-4.40991E-2,4.964789E-3,6.623377E-2,4.7058826E-3,-9.672131E-2,4.9767983E-3,5.0810814E-2,4.0909094E-3,-0E0,3.888889E-3,-0E0,-8.636364E-3,-4.1E-2,4.4444446E-3,5.3191505E-4,-1.2499997E-3,-8.333333E-3,2.6041685E-4,4.944134E-3],"categories":[],"categories_nodes":[],"categories_segments":[],"categories_sizes":[],"default_left":[0,0,0,0,0,0,0,0,0,0,0,0,0,0,0,0,0,0,0,0,0,0,0,0,0,0,0,0,0,0,0,0,0,0,0,0,0,0,0,0,0],"id":30,"left_children":[1,3,5,7,9,11,13,15,17,19,21,-1,23,25,27,-1,29,-1,-1,31,-1,33,-1,-1,35,-1,37,-1,39,-1,-1,-1,-1,-1,-1,-1,-1,-1,-1,-1,-1],"loss_changes":[8.5321884E1,2.5150955E1,5.4833984E-1,4.9382906E0,8.7826E0,1.6998291E-2,9.3464327E-1,1.6644567E-2,5.1379204E-2,3.0507522E0,6.7066956E-1,0E0,8.384919E-2,7.9991734E-1,4.5128584E-1,0E0,3.506493E-2,0E0,0E0,2.865497E-2,0E0,2.6738968E0,0E0,0E0,1.8306804E-1,0E0,2.8267753E-1,0E0,8.0018854E-1,0E0,0E0,0E0,0E0,0E0,0E0,0E0,0E0,0E0,0E0,0E0,0E0],"parents":[2147483647,0,0,1,1,2,2,3,3,4,4,5,5,6,6,7,7,8,8,9,9,10,10,12,12,13,13,14,14,16,16,19,19,21,21,24,24,26,26,28,28],"right_children":[2,4,6,8,10,12,14,16,18,20,22,-1,24,26,28,-1,30,-1,-1,32,-1,34,-1,-1,36,-1,38,-1,40,-1,-1,-1,-1,-1,-1,-1,-1,-1,-1,-1,-1],"split_conditions":[1E-1,2E-1,4E-1,4E-1,1E-1,3E-1,2E-1,3E-1,1E-1,4E-1,3E-1,6.726403E-3,4E-1,2E-1,7E-1,1.9441386E-3,1E-1,-8.662805E-4,-3.3523545E-3,3E-1,-7.406436E-3,3E-1,-1.3920716E-2,3.6985537E-3,8E-1,3.1893242E-3,5E-1,5.19925E-3,9E-1,2.3456111E-4,-1.336936E-3,1.9880147E-3,-4.753277E-4,-2.732929E-3,-6.643036E-3,1.1866025E-3,3.2610773E-5,-8.3165316E-5,-3.5115666E-4,1.2013891E-6,1.1928241E-3],"split_indices":[0,3,3,2,2,3,0,2,3,3,3,0,2,2,0,0,3,0,0,3,0,2,0,0,0,0,3,0,0,0,0,0,0,0,0,0,0,0,0,0,0],"split_type":[0,0,0,0,0,0,0,0,0,0,0,0,0,0,0,0,0,0,0,0,0,0,0,0,0,0,0,0,0,0,0,0,0,0,0,0,0,0,0,0,0],"sum_hessian":[2.969E3,2.64E2,2.705E3,9E1,1.74E2,1.813E3,8.92E2,6.2E1,2.8E1,3E1,1.44E2,1.377E3,4.36E2,9.3E1,7.99E2,4.2E1,2E1,1.4E1,1.4E1,1.8E1,1.2E1,3.4E1,1.1E2,2.83E2,1.53E2,3.3E1,6E1,4.3E2,3.69E2,1E1,1E1,8E0,1E1,1E1,2.4E1,1.07E2,4.6E1,3.1E1,2.9E1,1.91E2,1.78E2],"tree_param":{"num_deleted":"0","num_feature":"4","num_nodes":"41","size_leaf_vector":"1"}},{"base_weights":[2.979866E-2,-5.2093863E-1,8.624261E-2,-9.780219E-2,-7.235294E-1,9.603306E-2,6.606742E-2,8.064517E-2,-2.3333332E-2,-2.235294E-1,-8.285714E-1,4.9926797E-3,8.4E-2,-1.9565213E-2,7.5969964E-2,4.782609E-3,2.9411767E-2,3.6842108E-2,-2.625E-2,-6.368421E-1,-4.4145297E-2,4.9673202E-3,5.034483E-2,4.7058826E-3,-8.6440675E-2,4.8627006E-3,4.986226E-2,4E-3,-1.2499997E-3,3.888889E-3,-0E0,-1.0384615E-2,-4.1153844E-2,-3.8235292E-3,3.3720934E-3,-1.6666664E-3,-6.6666664E-3,4.9438206E-3,1.0752706E-4],"categories":[],"categories_nodes":[],"categories_segments":[],"categories_sizes":[],"default_left":[0,0,0,0,0,0,0,0,0,0,0,0,0,0,0,0,0,0,0,0,0,0,0,0,0,0,0,0,0,0,0,0,0,0,0,0,0,0,0],"id":31,"left_children":[1,3,5,7,9,11,13,15,-1,17,19,-1,21,23,25,-1,27,29,-1,31,-1,-1,33,-1,35,-1,37,-1,-1,-1,-1,-1,-1,-1,-1,-1,-1,-1,-1],"loss_changes":[9.26371E1,2.359253E1,5.11549E-1,6.066119E0,9.530998E0,5.6669235E-2,7.6183033E-1,3.2349646E-2,0E0,2.7369657E0,8.900528E-1,0E0,2.1244788E-1,7.0680654E-1,4.2442465E-1,0E0,5.4294113E-2,2.865497E-2,0E0,2.7630358E0,0E0,0E0,3.1863865E-1,0E0,1.2581915E-1,0E0,8.385779E-1,0E0,0E0,0E0,0E0,0E0,0E0,0E0,0E0,0E0,0E0,0E0,0E0],"parents":[2147483647,0,0,1,1,2,2,3,3,4,4,5,5,6,6,7,7,9,9,10,10,12,12,13,13,14,14,16,16,17,17,19,19,22,22,24,24,26,26],"right_children":[2,4,6,8,10,12,14,16,-1,18,20,-1,22,24,26,-1,28,30,-1,32,-1,-1,34,-1,36,-1,38,-1,-1,-1,-1,-1,-1,-1,-1,-1,-1,-1,-1],"split_conditions":[1E-1,2E-1,4E-1,4E-1,1E-1,3E-1,2E-1,3E-1,-1.671651E-3,4E-1,3E-1,6.291567E-3,4E-1,2E-1,7E-1,1.9038952E-3,1E-1,3E-1,-6.9817873E-3,3E-1,-1.3386085E-2,3.3994354E-3,2E-1,3.029858E-3,5E-1,4.408476E-3,3E-1,1.816392E-4,-1.4223069E-3,1.888615E-3,-4.5156034E-4,-2.3621123E-3,-6.386265E-3,-6.9184386E-4,9.0322644E-4,-9.1355294E-5,-3.3359902E-4,1.3293478E-3,-1.22059E-7],"split_indices":[0,3,3,2,2,3,0,2,0,3,3,0,2,2,0,0,3,3,0,2,0,0,0,0,3,0,2,0,0,0,0,0,0,0,0,0,0,0,0],"split_type":[0,0,0,0,0,0,0,0,0,0,0,0,0,0,0,0,0,0,0,0,0,0,0,0,0,0,0,0,0,0,0,0,0,0,0,0,0,0,0],"sum_hessian":[2.979E3,2.76E2,2.703E3,9E1,1.86E2,1.814E3,8.89E2,6.1E1,2.9E1,3.3E1,1.53E2,1.365E3,4.49E2,9.1E1,7.98E2,4.5E1,1.6E1,1.8E1,1.5E1,3.7E1,1.16E2,3.05E2,1.44E2,3.3E1,5.8E1,4.36E2,3.62E2,9E0,7E0,8E0,1E1,1.2E1,2.5E1,1.6E1,1.28E2,2.9E1,2.9E1,1.77E2,1.85E2],"tree_param":{"num_deleted":"0","num_feature":"4","num_nodes":"39","size_leaf_vector":"1"}},{"base_weights":[3.5777327E-2,-4.8754862E-1,8.579926E-2,-6.666666E-2,-5.6666666E-1,4.6415098E-2,9.002473E-2,4.5238095E-3,-2.181818E-1,-4.8646614E-1,-6.8571424E-1,4.9275365E-3,-9.374996E-3,9.489745E-2,6.682243E-2,-6.5384614E-3,-2.9999998E-1,-1.4999999E-1,-5.1475406E-1,-3.048387E-2,-4.2826086E-2,4.7674417E-3,-6.279069E-2,4.991547E-3,8.75153E-2,9.502075E-2,2.9787237E-2,-2E-2,-5E-3,2.5000002E-3,-1.1666666E-2,-2.641593E-2,-1.5E-2,-7.745098E-3,3.3333336E-3,4.9781664E-3,3.5833332E-3,4.950495E-3,3.5E-3,4.87013E-3,-8.035712E-4],"categories":[],"categories_nodes":[],"categories_segments":[],"categories_sizes":[],"default_left":[0,0,0,0,0,0,0,0,0,0,0,0,0,0,0,0,0,0,0,0,0,0,0,0,0,0,0,0,0,0,0,0,0,0,0,0,0,0,0,0,0],"id":32,"left_children":[1,3,5,7,9,11,13,-1,15,17,19,-1,21,23,25,-1,27,29,31,-1,-1,-1,33,-1,35,37,39,-1,-1,-1,-1,-1,-1,-1,-1,-1,-1,-1,-1,-1,-1],"loss_changes":[7.712138E1,8.456821E0,4.2983818E-1,1.0325109E0,1.6115036E0,7.806342E-1,2.517662E-1,0E0,7.503486E-2,1.1221981E0,4.2214203E-1,0E0,7.1875E-1,4.5331955E-2,4.316622E-1,0E0,1.10000074E-1,2.2999999E-1,1.1406326E-1,0E0,0E0,0E0,1.0446557E0,0E0,1.3174391E-1,2.2268295E-4,5.926395E-1,0E0,0E0,0E0,0E0,0E0,0E0,0E0,0E0,0E0,0E0,0E0,0E0,0E0,0E0],"parents":[2147483647,0,0,1,1,2,2,3,3,4,4,5,5,6,6,8,8,9,9,10,10,12,12,13,13,14,14,16,16,17,17,18,18,22,22,24,24,25,25,26,26],"right_children":[2,4,6,8,10,12,14,-1,16,18,20,-1,22,24,26,-1,28,30,32,-1,-1,-1,34,-1,36,38,40,-1,-1,-1,-1,-1,-1,-1,-1,-1,-1,-1,-1,-1,-1],"split_conditions":[1E-1,1E-1,2E-1,5E-1,4E-1,6E-1,5E-1,2.094263E-4,8E-1,1E-1,8E-1,1.7659251E-3,2E-1,3E-1,6E-1,-6.687026E-3,1E0,2E-1,1E0,-1.2192394E-2,-1.4219797E-2,6.397087E-3,9E-1,5.0978637E-3,7E-1,5E-1,6E-1,-4.6054544E-3,-5.491495E-3,4.434079E-4,-5.4123434E-3,-9.3719065E-3,-1.1047802E-2,-5.7362625E-4,4.2089407E-4,6.1208364E-3,9.862939E-4,2.8655897E-3,1.6065866E-3,6.176134E-3,-9.381625E-5],"split_indices":[0,2,0,1,2,1,2,0,1,1,1,0,2,2,1,0,1,2,1,0,0,0,1,0,0,1,0,0,0,0,0,0,0,0,0,0,0,0,0,0,0],"split_type":[0,0,0,0,0,0,0,0,0,0,0,0,0,0,0,0,0,0,0,0,0,0,0,0,0,0,0,0,0,0,0,0,0,0,0,0,0,0,0,0,0],"sum_hessian":[2.945E3,2.56E2,2.689E3,4.1E1,2.15E2,2.64E2,2.425E3,2E1,2.1E1,1.32E2,8.3E1,1.37E2,1.27E2,1.998E3,4.27E2,1.2E1,9E0,1.1E1,1.21E2,6.1E1,2.2E1,4.2E1,8.5E1,1.182E3,8.16E2,2.4E2,1.87E2,5E0,4E0,3E0,8E0,1.12E2,9E0,5E1,3.5E1,4.57E2,3.59E2,2.01E2,3.9E1,7.6E1,1.11E2],"tree_param":{"num_deleted":"0","num_feature":"4","num_nodes":"41","size_leaf_vector":"1"}},{"base_weights":[3.4068875E-2,-4.766423E-1,8.557763E-2,-1.22222215E-1,-5.4347825E-1,4.798535E-2,8.9697465E-2,4.4736844E-3,-2.7037036E-1,-4.5944056E-1,-6.727272E-1,4.920635E-3,4.0540574E-3,9.448819E-2,6.5783136E-2,-7.5E-3,-2E-2,-5E-3,-2.4844961E-2,-2.625E-2,-3.576923E-2,4.7916668E-3,-3.8613856E-2,4.9917223E-3,8.642425E-2,9.466667E-2,3.0890055E-2,-4.4202893E-3,3.1818182E-3,4.9776784E-3,3.5185188E-3,4.946809E-3,3.4210526E-3,-5.5555534E-4,4.8666666E-3],"categories":[],"categories_nodes":[],"categories_segments":[],"categories_sizes":[],"default_left":[0,0,0,0,0,0,0,0,0,0,0,0,0,0,0,0,0,0,0,0,0,0,0,0,0,0,0,0,0,0,0,0,0,0,0],"id":33,"left_children":[1,3,5,7,9,11,13,-1,15,17,19,-1,21,23,25,-1,-1,-1,-1,-1,-1,-1,27,-1,29,31,33,-1,-1,-1,-1,-1,-1,-1,-1],"loss_changes":[7.868323E1,6.3575096E0,4.028759E-1,1.4535868E0,2.07592E0,5.9414184E-1,2.5798798E-1,0E0,3.0629635E-1,1.8159924E0,5.493164E-2,0E0,5.8899486E-1,6.034851E-2,4.027717E-1,0E0,0E0,0E0,0E0,0E0,0E0,0E0,5.2231765E-1,0E0,1.4989233E-1,1.7075539E-3,5.427264E-1,0E0,0E0,0E0,0E0,0E0,0E0,0E0,0E0],"parents":[2147483647,0,0,1,1,2,2,3,3,4,4,5,5,6,6,8,8,9,9,10,10,12,12,13,13,14,14,22,22,24,24,25,25,26,26],"right_children":[2,4,6,8,10,12,14,-1,16,18,20,-1,22,24,26,-1,-1,-1,-1,-1,-1,-1,28,-1,30,32,34,-1,-1,-1,-1,-1,-1,-1,-1],"split_conditions":[1E-1,1E-1,2E-1,4E-1,4E-1,5E-1,5E-1,5.339271E-4,8E-1,1E-1,3E-1,1.9191675E-3,2E-1,3E-1,6E-1,-6.2983455E-3,-5.2142018E-3,-4.0868297E-3,-9.258039E-3,-8.62395E-3,-1.2695317E-2,5.3518885E-3,9E-1,4.9128877E-3,7E-1,5E-1,9E-1,-2.676792E-4,3.6426718E-4,6.085922E-3,8.7231345E-4,2.841044E-3,1.4138104E-3,-5.6695084E-5,1.8096945E-3],"split_indices":[0,2,0,1,2,1,2,0,1,1,1,0,2,2,1,0,0,0,0,0,0,0,1,0,0,1,1,0,0,0,0,0,0,0,0],"split_type":[0,0,0,0,0,0,0,0,0,0,0,0,0,0,0,0,0,0,0,0,0,0,0,0,0,0,0,0,0,0,0,0,0,0,0],"sum_hessian":[2.99E3,2.73E2,2.717E3,4.4E1,2.29E2,2.72E2,2.445E3,1.8E1,2.6E1,1.42E2,8.7E1,1.25E2,1.47E2,2.031E3,4.14E2,1.5E1,1.1E1,1.4E1,1.28E2,2.3E1,6.4E1,4.7E1,1E2,1.207E3,8.24E2,2.24E2,1.9E2,6.8E1,3.2E1,4.47E2,3.77E2,1.87E2,3.7E1,1.16E2,7.4E1],"tree_param":{"num_deleted":"0","num_feature":"4","num_nodes":"35","size_leaf_vector":"1"}},{"base_weights":[3.6654327E-2,-4.2918286E-1,8.077348E-2,-3.4482721E-3,-6.4269006E-1,8.939527E-2,3.5023045E-2,7.931035E-2,-1.6666666E-1,-1.2580645E-1,-7.510638E-1,4.992785E-3,7.302118E-2,4.9305554E-3,3.0927872E-3,4.75E-3,3.6842108E-2,4.2857146E-3,-1.8529411E-2,4.411765E-3,-1.8333333E-2,-5.285714E-1,-8.158878E-1,9.140496E-2,3.4470994E-2,-1.5925924E-1,2.0000003E-2,4E-3,-0E0,-0E0,-3.7E-2,-3.1000001E-2,-4.319277E-2,4.8678415E-3,3.618421E-3,3.7195124E-3,-7.692306E-4,-1.3749999E-2,-5E-3,4.91453E-3,-2.0469797E-3],"categories":[],"categories_nodes":[],"categories_segments":[],"categories_sizes":[],"default_left":[0,0,0,0,0,0,0,0,0,0,0,0,0,0,0,0,0,0,0,0,0,0,0,0,0,0,0,0,0,0,0,0,0,0,0,0,0,0,0,0,0],"id":34,"left_children":[1,3,5,7,9,11,13,15,17,19,21,-1,23,-1,25,-1,27,-1,-1,-1,-1,29,31,33,35,37,39,-1,-1,-1,-1,-1,-1,-1,-1,-1,-1,-1,-1,-1,-1],"loss_changes":[6.1060833E1,2.3293808E1,1.0553608E0,1.1971264E0,9.3966675E0,3.662815E-1,8.7071097E-1,2.1961868E-2,1.6042297E0,1.6583745E0,1.4679184E0,0E0,6.1996317E-1,0E0,7.880312E-1,0E0,3.8210526E-2,0E0,0E0,0E0,0E0,3.9114285E0,3.214264E-1,4.4529915E-2,5.9017324E-1,1.201852E-1,1.2740732E0,0E0,0E0,0E0,0E0,0E0,0E0,0E0,0E0,0E0,0E0,0E0,0E0,0E0,0E0],"parents":[2147483647,0,0,1,1,2,2,3,3,4,4,5,5,6,6,7,7,8,8,9,9,10,10,12,12,14,14,16,16,21,21,22,22,23,23,24,24,25,25,26,26],"right_children":[2,4,6,8,10,12,14,16,18,20,22,-1,24,-1,26,-1,28,-1,-1,-1,-1,30,32,34,36,38,40,-1,-1,-1,-1,-1,-1,-1,-1,-1,-1,-1,-1,-1,-1],"split_conditions":[1E-1,2E-1,5E-1,4E-1,1E-1,3E-1,2E-1,3E-1,1E-1,4E-1,3E-1,5.813421E-3,4E-1,4.035821E-3,2E-1,2.626273E-3,1E-1,5.0351355E-4,-1.5547934E-3,5.37574E-4,-5.1649376E-3,3E-1,2E-1,3E-1,7E-1,3E-1,6E-1,1.1040539E-3,-4.1969717E-4,-1.4873057E-3,-4.728605E-3,-6.3584866E-3,-1.2082019E-2,3.2308553E-3,1.0175894E-3,1.0558341E-3,-1.2327087E-4,-2.7485378E-4,-8.4220845E-4,4.8899036E-3,-6.119461E-5],"split_indices":[0,3,3,2,2,3,2,2,3,3,3,0,2,0,0,0,3,0,0,0,0,2,2,2,0,2,0,0,0,0,0,0,0,0,0,0,0,0,0,0,0],"split_type":[0,0,0,0,0,0,0,0,0,0,0,0,0,0,0,0,0,0,0,0,0,0,0,0,0,0,0,0,0,0,0,0,0,0,0,0,0,0,0,0,0],"sum_hessian":[2.97E3,2.56E2,2.714E3,8.6E1,1.7E2,2.281E3,4.33E2,5.7E1,2.9E1,3E1,1.4E2,1.385E3,8.96E2,1.43E2,2.9E2,3.9E1,1.8E1,1.3E1,1.6E1,1.6E1,1.4E1,3.4E1,1.06E2,6.04E2,2.92E2,2.6E1,2.64E2,9E0,9E0,1E1,2.4E1,2.4E1,8.2E1,4.53E2,1.51E2,1.63E2,1.29E2,7E0,1.9E1,1.16E2,1.48E2],"tree_param":{"num_deleted":"0","num_feature":"4","num_nodes":"41","size_leaf_vector":"1"}},{"base_weights":[3.528824E-2,-4.238095E-1,8.123855E-2,-9.9999994E-2,-7.3453236E-1,9.443536E-2,5.406912E-2,1.1827961E-2,-3.4186044E-1,-2.6363635E-1,-7.68217E-1,4.992727E-3,7.777778E-2,4.9697887E-3,2.7336864E-2,6.716418E-2,-1.22222215E-1,-1.1666666E-2,-3.9999998E-1,-3.3333332E-3,-2E-2,-5.9999996E-1,-4.1666668E-2,9.3586005E-2,2.9914534E-2,1.4354103E-3,4.9333335E-3,4.69697E-3,1.8571431E-3,4.2307694E-3,-1.5E-2,-2.2499999E-2,-9.285714E-3,-1.1666666E-2,-3.214286E-2,4.9586776E-3,3.921569E-3,-3.5714284E-3,3.674699E-3,2.7560978E-3,-2.4766352E-3],"categories":[],"categories_nodes":[],"categories_segments":[],"categories_sizes":[],"default_left":[0,0,0,0,0,0,0,0,0,0,0,0,0,0,0,0,0,0,0,0,0,0,0,0,0,0,0,0,0,0,0,0,0,0,0,0,0,0,0,0,0],"id":35,"left_children":[1,3,5,7,9,11,13,15,17,19,21,-1,23,-1,25,27,29,-1,31,-1,-1,33,-1,35,37,39,-1,-1,-1,-1,-1,-1,-1,-1,-1,-1,-1,-1,-1,-1,-1],"loss_changes":[6.3308323E1,2.731099E1,9.585266E-1,3.6883593E0,1.8991013E0,1.3993645E-1,1.0714898E0,6.925614E-1,1.1465168E-1,2.2212118E-1,7.6968384E-1,0E0,3.3214474E-1,0E0,1.0374066E0,3.7259042E-2,1.0397435E0,0E0,1.3142824E-1,0E0,0E0,3.9095306E-1,0E0,3.5054684E-3,5.2218384E-1,1.1470634E0,0E0,0E0,0E0,0E0,0E0,0E0,0E0,0E0,0E0,0E0,0E0,0E0,0E0,0E0,0E0],"parents":[2147483647,0,0,1,1,2,2,3,3,4,4,5,5,6,6,7,7,8,8,9,9,10,10,12,12,14,14,15,15,16,16,18,18,21,21,23,23,24,24,25,25],"right_children":[2,4,6,8,10,12,14,16,18,20,22,-1,24,-1,26,28,30,-1,32,-1,-1,34,-1,36,38,40,-1,-1,-1,-1,-1,-1,-1,-1,-1,-1,-1,-1,-1,-1,-1],"split_conditions":[1E-1,3E-1,4E-1,2E-1,1E-1,3E-1,4E-1,8E-1,5E-1,4E-1,4E-1,5.4948437E-3,8E-1,2.3168426E-3,9E-1,1E-1,1E-1,-3.3709637E-3,1E0,-2.1516294E-3,-6.5592825E-3,3E-1,-1.152604E-2,8E-1,9E-1,6E-1,2.256004E-3,1.5245518E-3,8.9263025E-4,8.1770896E-4,-1.6814008E-3,-4.3909103E-3,-4.529226E-3,-2.1496892E-3,-6.650433E-3,3.4904708E-3,7.994813E-4,-3.4721132E-4,9.794051E-4,9.470211E-4,-1.0956868E-4],"split_indices":[0,3,3,3,1,3,1,1,1,3,3,0,1,0,1,3,3,0,1,0,0,1,0,0,1,0,0,0,0,0,0,0,0,0,0,0,0,0,0,0,0],"split_type":[0,0,0,0,0,0,0,0,0,0,0,0,0,0,0,0,0,0,0,0,0,0,0,0,0,0,0,0,0,0,0,0,0,0,0,0,0,0,0,0,0],"sum_hessian":[3E3,2.72E2,2.728E3,1.34E2,1.38E2,1.832E3,8.96E2,9.2E1,4.2E1,1E1,1.28E2,1.374E3,4.58E2,3.3E2,5.66E2,6.6E1,2.6E1,1.7E1,2.5E1,5E0,5E0,3.9E1,8.9E1,3.42E2,1.16E2,4.17E2,1.49E2,3.2E1,3.4E1,1.2E1,1.4E1,1.9E1,6E0,5E0,3.4E1,2.41E2,1.01E2,3.4E1,8.2E1,2.04E2,2.13E2],"tree_param":{"num_deleted":"0","num_feature":"4","num_nodes":"41","size_leaf_vector":"1"}},{"base_weights":[3.3714287E-2,-4.2434457E-1,7.88852E-2,-9.6969694E-2,-7.382353E-1,9.696312E-2,5.9909575E-2,1.8181821E-2,-3.222222E-1,-3.285714E-1,-7.7804875E-1,4.9898685E-3,8.9420654E-2,9.3057856E-2,3.195021E-2,6.507937E-2,-9.230769E-2,-8.333333E-3,-1.9193549E-2,-3.3333332E-3,-4.5555553E-1,-3.0714286E-2,-4.1629214E-2,4.9635037E-3,6.6129036E-2,4.9791667E-3,6.666667E-2,-8.987341E-2,4.6976745E-2,4.6551726E-3,1.8571431E-3,4.0909094E-3,-1.0625E-2,-2.8333334E-2,-7.5E-3,4.8809526E-3,-0E0,-0E0,3.6324789E-3,-6.6037715E-4,-1.1666666E-2,4.9636364E-3,3.9083578E-4],"categories":[],"categories_nodes":[],"categories_segments":[],"categories_sizes":[],"default_left":[0,0,0,0,0,0,0,0,0,0,0,0,0,0,0,0,0,0,0,0,0,0,0,0,0,0,0,0,0,0,0,0,0,0,0,0,0,0,0,0,0,0,0],"id":36,"left_children":[1,3,5,7,9,11,13,15,17,19,21,-1,23,25,27,29,31,-1,-1,-1,33,-1,-1,-1,35,-1,37,39,41,-1,-1,-1,-1,-1,-1,-1,-1,-1,-1,-1,-1,-1,-1],"loss_changes":[6.1554462E1,2.7281792E1,9.0779877E-1,3.4601007E0,1.8518677E0,1.7194748E-3,1.214396E0,4.5927295E-1,3.1250906E-1,3.8301587E-1,4.4236755E-1,0E0,6.797099E-2,8.092642E-2,1.3234468E0,3.2839626E-2,5.745979E-1,0E0,0E0,0E0,1.4888895E-1,0E0,0E0,0E0,2.5821817E-1,0E0,5.7521343E-2,8.41144E-1,1.3094188E0,0E0,0E0,0E0,0E0,0E0,0E0,0E0,0E0,0E0,0E0,0E0,0E0,0E0,0E0],"parents":[2147483647,0,0,1,1,2,2,3,3,4,4,5,5,6,6,7,7,8,8,9,9,10,10,12,12,13,13,14,14,15,15,16,16,20,20,24,24,26,26,27,27,28,28],"right_children":[2,4,6,8,10,12,14,16,18,20,22,-1,24,26,28,30,32,-1,-1,-1,34,-1,-1,-1,36,-1,38,40,42,-1,-1,-1,-1,-1,-1,-1,-1,-1,-1,-1,-1,-1,-1],"split_conditions":[1E-1,3E-1,3E-1,2E-1,1E-1,8E-1,5E-1,8E-1,4E-1,4E-1,4E-1,5.3727156E-3,8E-1,4E-1,2E-1,1E-1,1E-1,-2.5787458E-3,-4.2291563E-3,-2.0440489E-3,5E-1,-6.885314E-3,-1.0805375E-2,7.4081914E-3,2E-1,2.3689813E-3,2E-1,5E-1,6E-1,1.2224428E-3,8.4799825E-4,7.592684E-4,-1.4951581E-3,-4.005319E-3,-6.23132E-3,5.2391714E-3,7.094649E-5,-6.456971E-4,1.4276237E-3,-7.538747E-5,-5.482283E-4,6.294101E-3,9.65189E-6],"split_indices":[0,3,3,3,1,1,1,1,1,3,3,0,0,1,0,3,3,0,0,0,3,0,0,0,3,0,0,3,0,0,0,0,0,0,0,0,0,0,0,0,0,0,0],"split_type":[0,0,0,0,0,0,0,0,0,0,0,0,0,0,0,0,0,0,0,0,0,0,0,0,0,0,0,0,0,0,0,0,0,0,0,0,0,0,0,0,0,0,0],"sum_hessian":[2.974E3,2.66E2,2.708E3,1.31E2,1.35E2,1.382E3,1.326E3,8.7E1,4.4E1,1.3E1,1.22E2,9.86E2,3.96E2,6.04E2,7.22E2,6.2E1,2.5E1,1.4E1,3E1,5E0,8E0,3.4E1,8.8E1,2.73E2,1.23E2,4.79E2,1.25E2,7.8E1,6.44E2,2.8E1,3.4E1,1E1,1.5E1,5E0,3E0,8.3E1,4E1,9E0,1.16E2,5.2E1,2.6E1,2.74E2,3.7E2],"tree_param":{"num_deleted":"0","num_feature":"4","num_nodes":"43","size_leaf_vector":"1"}},{"base_weights":[3.813243E-2,-4.1724136E-1,8.2420856E-2,4.1573036E-2,-6.514451E-1,4.8824395E-3,6.664151E-2,6.9863014E-2,-7.647058E-2,-1.8571427E-1,-7.3561645E-1,9.2192195E-2,4.0606063E-2,4.7560977E-3,3.3333335E-2,3.7500001E-3,-1E-2,4.3333336E-3,-2.3571428E-2,-4.5555553E-1,-8.189189E-1,4.1666668E-2,4.89916E-3,6.675063E-2,7.5757946E-4,4.411765E-3,-8.823527E-4,-2.8947366E-3,-4.222222E-2,-2.9615385E-2,-4.383721E-2,4.8076925E-3,-4.5238095E-3,-2.2580642E-3,4.375E-3,-3.5271316E-3,3.4558827E-3],"categories":[],"categories_nodes":[],"categories_segments":[],"categories_sizes":[],"default_left":[0,0,0,0,0,0,0,0,0,0,0,0,0,0,0,0,0,0,0,0,0,0,0,0,0,0,0,0,0,0,0,0,0,0,0,0,0],"id":37,"left_children":[1,3,5,7,9,-1,11,13,15,17,19,21,23,-1,25,-1,-1,-1,-1,27,29,31,-1,33,35,-1,-1,-1,-1,-1,-1,-1,-1,-1,-1,-1,-1],"loss_changes":[5.939505E1,2.8134094E1,6.2223244E-1,3.018929E-1,6.5530624E0,0E0,8.64398E-1,5.1340878E-2,3.4558824E-1,2.258381E0,2.905632E0,1.7681932E-1,6.808007E-1,0E0,1.00980386E-1,0E0,0E0,0E0,0E0,5.4281287E0,7.883148E-1,5.2767396E-1,0E0,9.300599E-1,1.2914923E0,0E0,0E0,0E0,0E0,0E0,0E0,0E0,0E0,0E0,0E0,0E0,0E0],"parents":[2147483647,0,0,1,1,2,2,3,3,4,4,6,6,7,7,8,8,9,9,10,10,11,11,12,12,14,14,19,19,20,20,21,21,23,23,24,24],"right_children":[2,4,6,8,10,-1,12,14,16,18,20,22,24,-1,26,-1,-1,-1,-1,28,30,32,-1,34,36,-1,-1,-1,-1,-1,-1,-1,-1,-1,-1,-1,-1],"split_conditions":[1E-1,2E-1,3E-1,5E-1,1E-1,4.9740034E-3,3E-1,3E-1,1E-1,4E-1,3E-1,2E-1,7E-1,3.0450483E-3,1E-1,1.3229698E-4,-2.0334392E-3,1.4672965E-3,-4.4298996E-3,4E-1,2E-1,5E-1,2.9376538E-3,2E-1,9E-1,8.927593E-4,-2.7381213E-4,-1.1677424E-3,-4.330353E-3,-4.9380953E-3,-1.041796E-2,1.3143257E-3,-9.759463E-5,-3.4317217E-4,2.7064548E-3,-1.62761E-4,6.641573E-4],"split_indices":[0,3,3,2,2,0,2,2,3,3,3,0,0,0,3,0,0,0,0,2,2,3,0,0,0,0,0,0,0,0,0,0,0,0,0,0,0],"split_type":[0,0,0,0,0,0,0,0,0,0,0,0,0,0,0,0,0,0,0,0,0,0,0,0,0,0,0,0,0,0,0,0,0,0,0,0,0],"sum_hessian":[2.944E3,2.6E2,2.684E3,8.8E1,1.72E2,1.36E3,1.324E3,7.2E1,1.6E1,2.7E1,1.45E2,6.65E2,6.59E2,4E1,3.2E1,7E0,9E0,1.4E1,1.3E1,3.5E1,1.1E2,7.1E1,5.94E2,3.96E2,2.63E2,1.6E1,1.6E1,1.8E1,1.7E1,2.5E1,8.5E1,5.1E1,2E1,6.1E1,3.35E2,1.28E2,1.35E2],"tree_param":{"num_deleted":"0","num_feature":"4","num_nodes":"37","size_leaf_vector":"1"}},{"base_weights":[3.652614E-2,-4.0996015E-1,7.782689E-2,-9.0476185E-2,-4.7142854E-1,9.580307E-2,6.262695E-2,4.5000003E-3,-2.4782608E-1,-1.1052631E-1,-5.0416666E-1,4.9864682E-3,8.962076E-2,9.020408E-2,3.5127863E-2,-7.5E-3,-1.5833333E-2,-2.4999995E-2,-2E-2,-4.3043476E-1,-6.0512817E-1,5.686275E-2,4.645233E-3,4.9799196E-3,6.97479E-2,9.960162E-3,8.677686E-2,3.3333336E-3,-4.090909E-3,-2.2184467E-2,-1.4230768E-2,-1.6428571E-2,-3.111111E-2,4.6153846E-3,7.6923094E-4,4.3714284E-3,9.3750015E-4,3.059072E-3,-1.7669172E-3,7.6923094E-4,4.7235023E-3],"categories":[],"categories_nodes":[],"categories_segments":[],"categories_sizes":[],"default_left":[0,0,0,0,0,0,0,0,0,0,0,0,0,0,0,0,0,0,0,0,0,0,0,0,0,0,0,0,0,0,0,0,0,0,0,0,0,0,0,0,0],"id":38,"left_children":[1,3,5,7,9,11,13,-1,15,17,19,-1,21,23,25,-1,-1,27,-1,29,31,33,-1,-1,35,37,39,-1,-1,-1,-1,-1,-1,-1,-1,-1,-1,-1,-1,-1,-1],"loss_changes":[5.4673943E1,4.8303375E0,7.199955E-1,1.2307991E0,2.3640099E0,2.2029877E-3,1.1043749E0,0E0,6.0724616E-2,4.1789475E-1,1.065239E0,0E0,3.363514E-2,1.1736488E-1,9.552777E-1,0E0,0E0,9.0303026E-2,0E0,2.3159027E-2,6.921959E-2,6.279035E-2,0E0,0E0,2.0234203E-1,1.1695104E0,1.2047565E-1,0E0,0E0,0E0,0E0,0E0,0E0,0E0,0E0,0E0,0E0,0E0,0E0,0E0,0E0],"parents":[2147483647,0,0,1,1,2,2,3,3,4,4,5,5,6,6,8,8,9,9,10,10,12,12,13,13,14,14,17,17,19,19,20,20,21,21,24,24,25,25,26,26],"right_children":[2,4,6,8,10,12,14,-1,16,18,20,-1,22,24,26,-1,-1,28,-1,30,32,34,-1,-1,36,38,40,-1,-1,-1,-1,-1,-1,-1,-1,-1,-1,-1,-1,-1,-1],"split_conditions":[1E-1,1E-1,5E-1,5E-1,1E-1,3E-1,3E-1,1.4084965E-3,8E-1,5E-1,4E-1,3.346787E-3,2E-1,2E-1,9E-1,-4.459554E-3,-3.3571802E-3,2E-1,-5.398858E-3,1E0,2E-1,3E-1,2.265012E-3,5.34757E-3,8E-1,6E-1,2E-1,1.3054669E-3,-3.073177E-3,-7.160152E-3,-7.3840255E-3,-4.857314E-3,-9.725644E-3,1.4713849E-3,1.2348266E-4,2.3382849E-3,1.3965706E-4,2.61828E-3,-1.5509388E-4,1.232204E-4,1.890147E-3],"split_indices":[0,2,1,1,1,1,2,0,1,2,2,0,0,2,1,0,0,2,0,1,1,2,0,0,0,0,0,0,0,0,0,0,0,0,0,0,0,0,0,0,0],"split_type":[0,0,0,0,0,0,0,0,0,0,0,0,0,0,0,0,0,0,0,0,0,0,0,0,0,0,0,0,0,0,0,0,0,0,0,0,0,0,0,0,0],"sum_hessian":[2.964E3,2.5E2,2.714E3,4.1E1,2.09E2,1.238E3,1.476E3,1.9E1,2.2E1,1.8E1,1.91E2,7.38E2,5E2,7.34E2,7.42E2,1.1E1,1.1E1,1.5E1,3E0,1.14E2,7.7E1,5E1,4.5E2,4.97E2,2.37E2,5.01E2,2.41E2,5E0,1E1,1.02E2,1.2E1,6E0,7.1E1,2.5E1,2.5E1,1.74E2,6.3E1,2.36E2,2.65E2,2.5E1,2.16E2],"tree_param":{"num_deleted":"0","num_feature":"4","num_nodes":"41","size_leaf_vector":"1"}},{"base_weights":[3.8393166E-2,-3.4747082E-1,7.557138E-2,-3.0769227E-2,-6.65625E-1,9.686568E-2,5.3984966E-2,6.4044945E-2,-2.3333332E-1,-1.8529411E-2,-7.6315784E-1,4.9897227E-3,8.8586956E-2,4.767442E-3,3.1002333E-2,4.8360657E-3,-3.4482721E-3,-1.22222215E-1,-2.9999998E-1,-5.363636E-1,-4.3412697E-2,6.5573774E-2,4.9595144E-3,-8.2926825E-2,4.3114547E-2,4.2857146E-3,-4.3749996E-3,-9.285714E-3,-3.3333332E-3,-2.5E-2,-1.1666666E-2,-3.4285713E-2,-2E-2,4.8780493E-3,-0E0,-1.1403507E-3,-1.0384615E-2,4.9708458E-3,-5.747108E-5],"categories":[],"categories_nodes":[],"categories_segments":[],"categories_sizes":[],"default_left":[0,0,0,0,0,0,0,0,0,0,0,0,0,0,0,0,0,0,0,0,0,0,0,0,0,0,0,0,0,0,0,0,0,0,0,0,0,0,0],"id":39,"left_children":[1,3,5,7,9,11,13,15,17,-1,19,-1,21,-1,23,-1,25,27,29,31,-1,33,-1,35,37,-1,-1,-1,-1,-1,-1,-1,-1,-1,-1,-1,-1,-1,-1],"loss_changes":[4.1960335E1,2.5805183E1,1.2065392E0,2.5286458E0,3.2871056E0,4.811287E-3,1.2487738E0,2.0594439E-1,2.3222232E-1,0E0,1.658184E0,0E0,6.681728E-2,0E0,1.1835775E0,0E0,2.2501232E-1,2.5873005E-2,1.433332E-1,2.8921986E-1,0E0,2.5589752E-1,0E0,5.8728516E-1,1.9463542E0,0E0,0E0,0E0,0E0,0E0,0E0,0E0,0E0,0E0,0E0,0E0,0E0,0E0,0E0],"parents":[2147483647,0,0,1,1,2,2,3,3,4,4,5,5,6,6,7,7,8,8,10,10,12,12,14,14,16,16,17,17,18,18,19,19,21,21,23,23,24,24],"right_children":[2,4,6,8,10,12,14,16,18,-1,20,-1,22,-1,24,-1,26,28,30,32,-1,34,-1,36,38,-1,-1,-1,-1,-1,-1,-1,-1,-1,-1,-1,-1,-1,-1],"split_conditions":[1E-1,3E-1,3E-1,2E-1,3E-1,8E-1,4E-1,8E-1,5E-1,-5.3308E-3,4E-1,4.814815E-3,9E-1,2.019336E-3,2E-1,1.6798243E-3,1E-1,2E-1,6E-1,6E-1,-9.913243E-3,2E-1,4.341769E-3,5E-1,6E-1,1.189282E-3,-8.807426E-4,-1.1898935E-3,-2.7323605E-3,-3.2571107E-3,-3.2687213E-3,-5.7651433E-3,-4.7281864E-3,6.2860767E-3,-1.680104E-4,-1.521154E-4,-6.7731814E-4,5.8509475E-3,-2.1904345E-5],"split_indices":[0,3,3,3,1,1,1,1,1,0,3,0,1,0,0,0,3,1,1,1,0,3,0,3,0,0,0,0,0,0,0,0,0,0,0,0,0,0,0],"split_type":[0,0,0,0,0,0,0,0,0,0,0,0,0,0,0,0,0,0,0,0,0,0,0,0,0,0,0,0,0,0,0,0,0,0,0,0,0,0,0],"sum_hessian":[2.924E3,2.56E2,2.668E3,1.29E2,1.27E2,1.339E3,1.329E3,8.8E1,4.1E1,3.3E1,9.4E1,9.72E2,3.67E2,4.72E2,8.57E2,6E1,2.8E1,1.7E1,2.4E1,3.2E1,6.2E1,1.21E2,2.46E2,8.1E1,7.76E2,1.3E1,1.5E1,6E0,1.1E1,4E0,2E1,1.3E1,1.9E1,8.1E1,4E1,5.6E1,2.5E1,3.42E2,4.34E2],"tree_param":{"num_deleted":"0","num_feature":"4","num_nodes":"39","size_leaf_vector":"1"}},{"base_weights":[4.038789E-2,-3.3083004E-1,7.536286E-2,-2.2950815E-2,-6.121212E-1,9.5400594E-2,5.507463E-2,7.4117646E-2,-2.4210526E-1,-3.7222221E-1,-6.938144E-1,4.989305E-3,8.5024156E-2,8.675283E-2,2.7700834E-2,4.8360657E-3,1.2000003E-2,-1.5925924E-1,-3.9999998E-1,-5E-3,-2.2777777E-2,-4.8823527E-1,-3.953125E-2,4.9645393E-3,5.3383462E-2,4.675457E-3,5.905512E-2,-1.1052631E-1,4.404946E-2,4.0909094E-3,-1.6666664E-3,-9.705882E-3,-4.090909E-3,-2.625E-2,-5E-3,-3.0714286E-2,-1.8809523E-2,3.9000001E-3,-8.823527E-4,4.240507E-3,7.142859E-4,-1.7307689E-3,-1.2999999E-2,4.9636364E-3,1.4745326E-4],"categories":[],"categories_nodes":[],"categories_segments":[],"categories_sizes":[],"default_left":[0,0,0,0,0,0,0,0,0,0,0,0,0,0,0,0,0,0,0,0,0,0,0,0,0,0,0,0,0,0,0,0,0,0,0,0,0,0,0,0,0,0,0,0,0],"id":40,"left_children":[1,3,5,7,9,11,13,15,17,19,21,-1,23,25,27,-1,29,31,33,-1,-1,35,-1,-1,37,-1,39,41,43,-1,-1,-1,-1,-1,-1,-1,-1,-1,-1,-1,-1,-1,-1,-1,-1],"loss_changes":[3.815741E1,2.1833183E1,1.0720444E0,2.6300468E0,2.2220917E0,3.4377098E-2,1.1481357E0,1.0731456E-1,3.7744665E-1,7.1555567E-1,1.4166222E0,0E0,1.6631413E-1,9.505701E-2,1.6298139E0,0E0,8.670302E-2,2.9409826E-2,3.3499992E-1,0E0,0E0,1.5005589E-1,0E0,0E0,2.3996568E-1,0E0,1.3531446E-1,8.2388663E-1,1.4579799E0,0E0,0E0,0E0,0E0,0E0,0E0,0E0,0E0,0E0,0E0,0E0,0E0,0E0,0E0,0E0,0E0],"parents":[2147483647,0,0,1,1,2,2,3,3,4,4,5,5,6,6,7,7,8,8,9,9,10,10,12,12,13,13,14,14,16,16,17,17,18,18,21,21,24,24,26,26,27,27,28,28],"right_children":[2,4,6,8,10,12,14,16,18,20,22,-1,24,26,28,-1,30,32,34,-1,-1,36,-1,-1,38,-1,40,42,44,-1,-1,-1,-1,-1,-1,-1,-1,-1,-1,-1,-1,-1,-1,-1,-1],"split_conditions":[1E-1,3E-1,3E-1,2E-1,3E-1,8E-1,5E-1,8E-1,8E-1,4E-1,4E-1,8.681945E-3,2E-1,4E-1,2E-1,1.5958324E-3,1E-1,6E-1,1E0,-3.535974E-3,-5.31627E-3,6E-1,-9.150586E-3,5.3879E-3,8E-1,1.7149994E-3,7E-1,5E-1,6E-1,1.1034852E-3,-8.905843E-4,-2.8335399E-3,-6.036001E-4,-4.4202986E-3,-2.0938695E-3,-6.1793486E-3,-4.465337E-3,1.5100166E-3,-2.4021223E-4,1.7692753E-3,8.683993E-5,-1.7379224E-4,-4.1584412E-4,5.181438E-3,3.1805565E-5],"split_indices":[0,3,3,3,1,0,1,1,1,3,3,0,3,1,0,0,3,1,1,0,0,1,0,0,1,0,0,3,0,0,0,0,0,0,0,0,0,0,0,0,0,0,0,0,0],"split_type":[0,0,0,0,0,0,0,0,0,0,0,0,0,0,0,0,0,0,0,0,0,0,0,0,0,0,0,0,0,0,0,0,0,0,0,0,0,0,0,0,0,0,0,0,0],"sum_hessian":[2.938E3,2.52E2,2.686E3,1.21E2,1.31E2,1.347E3,1.339E3,8.4E1,3.7E1,3.5E1,9.6E1,9.34E2,4.13E2,6.18E2,7.21E2,6E1,2.4E1,2.6E1,1.1E1,9E0,2.6E1,3.3E1,6.3E1,2.81E2,1.32E2,4.92E2,1.26E2,7.5E1,6.46E2,1E1,1.4E1,1.6E1,1E1,7E0,4E0,1.3E1,2E1,9.9E1,3.3E1,7.8E1,4.8E1,5.1E1,2.4E1,2.74E2,3.72E2],"tree_param":{"num_deleted":"0","num_feature":"4","num_nodes":"45","size_leaf_vector":"1"}},{"base_weights":[4.2847436E-2,-3.3442622E-1,7.696296E-2,-3.5999995E-2,-6.4166665E-1,8.617634E-2,2.9729733E-2,5.058824E-2,-2.1707316E-1,-3.5833332E-1,-7.041237E-1,9.41809E-2,6.7208275E-2,4.4607846E-3,-2.0331945E-2,4.7674417E-3,2.3255849E-3,-1.3333333E-1,-3.9999998E-1,-9.285714E-3,-2E-2,-2.6428571E-2,-3.9444443E-2,6.495727E-2,4.9554897E-3,8.968059E-2,3.2841332E-2,-2.5714284E-1,1.0280377E-2,4.4444446E-3,-2.6923076E-3,-8.157894E-3,-3.3333332E-3,-3.0714286E-2,-3.3333332E-3,4.9218754E-3,1.1682245E-3,4.963899E-3,3.3969467E-3,-1.7415729E-3,3.3060112E-3,-2.2777777E-2,4.0909094E-3,4.90099E-3,-3.3333332E-3],"categories":[],"categories_nodes":[],"categories_segments":[],"categories_sizes":[],"default_left":[0,0,0,0,0,0,0,0,0,0,0,0,0,0,0,0,0,0,0,0,0,0,0,0,0,0,0,0,0,0,0,0,0,0,0,0,0,0,0,0,0,0,0,0,0],"id":41,"left_children":[1,3,5,7,9,11,13,15,17,19,21,23,25,-1,27,-1,29,31,33,-1,-1,-1,-1,35,-1,37,39,41,43,-1,-1,-1,-1,-1,-1,-1,-1,-1,-1,-1,-1,-1,-1,-1,-1],"loss_changes":[3.787902E1,2.2281149E1,1.1608276E0,1.9874806E0,1.7649803E0,3.2021332E-1,1.3309195E0,1.7363338E-1,5.213821E-1,3.976226E-2,8.946991E-1,2.0488262E-1,5.076525E-1,0E0,1.7744187E0,0E0,2.1737427E-1,2.57895E-2,7.4809515E-1,0E0,0E0,0E0,0E0,3.1137335E-1,0E0,6.145954E-2,6.157443E-1,1.9577633E0,1.4544458E0,0E0,0E0,0E0,0E0,0E0,0E0,0E0,0E0,0E0,0E0,0E0,0E0,0E0,0E0,0E0,0E0],"parents":[2147483647,0,0,1,1,2,2,3,3,4,4,5,5,6,6,7,7,8,8,9,9,10,10,11,11,12,12,14,14,16,16,17,17,18,18,23,23,25,25,26,26,27,27,28,28],"right_children":[2,4,6,8,10,12,14,16,18,20,22,24,26,-1,28,-1,30,32,34,-1,-1,-1,-1,36,-1,38,40,42,44,-1,-1,-1,-1,-1,-1,-1,-1,-1,-1,-1,-1,-1,-1,-1,-1],"split_conditions":[1E-1,3E-1,5E-1,2E-1,2E-1,8E-1,5E-1,1E-1,8E-1,4E-1,4E-1,2E-1,3E-1,1.3843465E-3,2E-1,1.2388552E-3,4E-1,6E-1,1E0,-3.3591748E-3,-4.939196E-3,-5.163908E-3,-8.643302E-3,6E-1,5.0957883E-3,2E-1,9E-1,9E-1,6E-1,1.9248808E-3,-3.6738397E-4,-2.0500985E-3,-5.539781E-4,-4.1992846E-3,-3.1203807E-3,1.1595476E-3,2.190601E-4,4.518883E-3,5.166595E-4,-2.0909715E-4,6.588384E-4,-1.2025287E-3,7.729759E-4,2.9233473E-3,-1.4183749E-4],"split_indices":[0,3,3,3,1,0,1,3,1,3,3,0,3,0,0,0,1,1,1,0,0,0,0,1,0,3,0,1,0,0,0,0,0,0,0,0,0,0,0,0,0,0,0,0,0],"split_type":[0,0,0,0,0,0,0,0,0,0,0,0,0,0,0,0,0,0,0,0,0,0,0,0,0,0,0,0,0,0,0,0,0,0,0,0,0,0,0,0,0,0,0,0,0],"sum_hessian":[2.942E3,2.43E2,2.699E3,1.24E2,1.19E2,2.256E3,4.43E2,8.4E1,4E1,2.3E1,9.6E1,1.58E3,6.76E2,2.03E2,2.4E2,4.2E1,4.2E1,2.9E1,1.1E1,6E0,1.7E1,3.4E1,6.2E1,2.33E2,1.347E3,4.06E2,2.7E2,2.7E1,2.13E2,1.7E1,2.5E1,1.8E1,1.1E1,6E0,5E0,1.27E2,1.06E2,2.76E2,1.3E2,8.8E1,1.82E2,1.7E1,1E1,1E2,1.13E2],"tree_param":{"num_deleted":"0","num_feature":"4","num_nodes":"45","size_leaf_vector":"1"}},{"base_weights":[4.2020205E-2,-3.2801557E-1,7.70818E-2,-4.2857137E-2,-4.632184E-1,4.9400004E-3,6.431487E-2,4.6875E-3,-1.2641509E-1,-3.494382E-1,-5.744186E-1,9.0553E-2,3.7264153E-2,-2.4999995E-2,-1.3913043E-1,-5E-3,-1.875E-2,-1.8333333E-2,-3.0416666E-2,4.982639E-3,7.2013654E-2,7.3012054E-2,2.7649805E-3,3.0000003E-3,-7.5E-3,-7.820512E-3,-1.2499997E-3,5.5555574E-4,3.9922483E-3,-1.6265059E-3,4.9699703E-3,-1.4668767E-3,4.4915257E-3],"categories":[],"categories_nodes":[],"categories_segments":[],"categories_sizes":[],"default_left":[0,0,0,0,0,0,0,0,0,0,0,0,0,0,0,0,0,0,0,0,0,0,0,0,0,0,0,0,0,0,0,0,0],"id":42,"left_children":[1,3,5,7,9,-1,11,-1,13,15,17,19,21,23,25,-1,-1,-1,-1,-1,27,29,31,-1,-1,-1,-1,-1,-1,-1,-1,-1,-1],"loss_changes":[3.85331E1,9.837975E0,7.298584E-1,9.739454E-1,1.9084053E0,0E0,1.2010827E0,0E0,4.845363E-2,4.8247147E-1,2.8538704E-1,1.2209129E-1,1.0380358E0,1.0299999E-1,6.866777E-2,0E0,0E0,0E0,0E0,0E0,1.2976265E-1,1.1656864E0,1.2217245E0,0E0,0E0,0E0,0E0,0E0,0E0,0E0,0E0,0E0,0E0],"parents":[2147483647,0,0,1,1,2,2,3,3,4,4,6,6,8,8,9,9,10,10,11,11,12,12,13,13,14,14,20,20,21,21,22,22],"right_children":[2,4,6,8,10,-1,12,-1,14,16,18,20,22,24,26,-1,-1,-1,-1,-1,28,30,32,-1,-1,-1,-1,-1,-1,-1,-1,-1,-1],"split_conditions":[1E-1,2E-1,4E-1,4E-1,4E-1,2.5081069E-3,3E-1,1.0485965E-3,5E-1,1E-1,2E-1,2E-1,6E-1,1E-1,1E0,-2.3511858E-3,-6.358427E-3,-4.6612653E-3,-8.001837E-3,4.9709603E-3,2E-1,2E-1,9E-1,3.9373935E-4,-2.772218E-3,-2.7244524E-3,-1.8066823E-3,4.220136E-5,1.6207412E-3,-3.4272854E-4,5.032599E-3,-1.3447554E-4,7.619047E-4],"split_indices":[0,2,1,1,2,0,2,0,1,1,1,2,0,2,1,0,0,0,0,0,0,0,1,0,0,0,0,0,0,0,0,0,0],"split_type":[0,0,0,0,0,0,0,0,0,0,0,0,0,0,0,0,0,0,0,0,0,0,0,0,0,0,0,0,0,0,0,0,0],"sum_hessian":[2.969E3,2.56E2,2.713E3,8.3E1,1.73E2,9.99E2,1.714E3,3.1E1,5.2E1,8.8E1,8.5E1,8.67E2,8.47E2,7E0,4.5E1,9E0,7.9E1,1.4E1,7.1E1,5.75E2,2.92E2,4.14E2,4.33E2,4E0,3E0,3.8E1,7E0,3.5E1,2.57E2,8.2E1,3.32E2,3.16E2,1.17E2],"tree_param":{"num_deleted":"0","num_feature":"4","num_nodes":"33","size_leaf_vector":"1"}},{"base_weights":[3.9939336E-2,7.4180536E-2,-2.8934006E-2,9.1508724E-2,3.9548874E-2,6.246154E-2,-7.397881E-2,4.9897963E-3,6.7058824E-2,4.8176292E-3,-1.5726998E-2,8.720931E-2,3.3766236E-2,-1.0655734E-2,-1.1052631E-1,4.9415207E-3,3.411765E-2,1.55378515E-2,-1.0689654E-1,4.9107145E-3,6.393443E-2,4.72973E-3,1.3559326E-2,4.7540985E-2,-3.0434778E-2,-1.5167785E-1,-7.438013E-3,4.7916668E-3,4.4715466E-4,2.878788E-3,-5.5555534E-4,-1.4354839E-2,-2.631577E-4,1.3333334E-3,4.6875E-3,1.5000001E-3,-8.4745574E-5,3.636364E-3,-5.5555534E-4,-2.631577E-4,-2.7777776E-3,-4.292035E-3,-9.516129E-3,-1.0344826E-3,1.5625019E-4],"categories":[],"categories_nodes":[],"categories_segments":[],"categories_sizes":[],"default_left":[0,0,0,0,0,0,0,0,0,0,0,0,0,0,0,0,0,0,0,0,0,0,0,0,0,0,0,0,0,0,0,0,0,0,0,0,0,0,0,0,0,0,0,0,0],"id":43,"left_children":[1,3,5,7,9,11,13,-1,15,-1,17,19,21,23,25,-1,27,29,31,-1,33,-1,35,37,39,41,43,-1,-1,-1,-1,-1,-1,-1,-1,-1,-1,-1,-1,-1,-1,-1,-1,-1,-1],"loss_changes":[7.0037656E0,1.1732798E0,4.060914E0,2.4387932E-1,2.0975943E0,2.1575475E-1,1.5164559E0,0E0,3.391751E-1,0E0,9.713824E-1,2.1561742E-2,1.7719157E-1,2.805987E-1,1.7562175E0,0E0,2.5278836E-1,2.8647307E-1,1.5626023E0,0E0,5.3239062E-2,0E0,3.2474577E-2,9.708065E-2,1.0997458E-1,7.142353E-1,1.8758371E-2,0E0,0E0,0E0,0E0,0E0,0E0,0E0,0E0,0E0,0E0,0E0,0E0,0E0,0E0,0E0,0E0,0E0,0E0],"parents":[2147483647,0,0,1,1,2,2,3,3,4,4,5,5,6,6,8,8,10,10,11,11,12,12,13,13,14,14,16,16,17,17,18,18,20,20,22,22,23,23,24,24,25,25,26,26],"right_children":[2,4,6,8,10,12,14,-1,16,-1,18,20,22,24,26,-1,28,30,32,-1,34,-1,36,38,40,42,44,-1,-1,-1,-1,-1,-1,-1,-1,-1,-1,-1,-1,-1,-1,-1,-1,-1,-1],"split_conditions":[4E-1,4E-1,2E-1,3E-1,2E-1,5E-1,4E-1,4.108913E-3,2E-1,3.245756E-3,8E-1,7E-1,3E-1,1E-1,9E-1,2.6539518E-3,3E-1,3E-1,9E-1,3.6001222E-3,9E-1,4.8400336E-3,1E-1,5E-1,5E-1,6E-1,4E-1,1.7890924E-3,2.78806E-4,6.7649456E-4,-1.570494E-4,-9.4327703E-4,-5.066294E-4,3.144497E-3,1.9323064E-3,4.085501E-3,-7.7768666E-4,1.5555398E-3,-2.241819E-3,-8.67492E-4,-3.6020696E-3,-7.0559065E-4,-1.022921E-3,-3.1304527E-3,-1.3947225E-3],"split_indices":[3,2,2,3,3,3,1,0,2,0,1,1,1,1,1,0,1,1,1,0,1,0,2,2,3,1,2,0,0,0,0,0,0,0,0,0,0,0,0,0,0,0,0,0,0],"split_type":[0,0,0,0,0,0,0,0,0,0,0,0,0,0,0,0,0,0,0,0,0,0,0,0,0,0,0,0,0,0,0,0,0,0,0,0,0,0,0,0,0,0,0,0,0],"sum_hessian":[2.966E3,1.982E3,9.84E2,1.318E3,6.64E2,3.24E2,6.6E2,9.79E2,3.39E2,3.28E2,3.36E2,1.71E2,1.53E2,2.43E2,4.17E2,1.7E2,1.69E2,2.5E2,8.6E1,1.11E2,6E1,3.6E1,1.17E2,6E1,1.83E2,2.97E2,1.2E2,4.7E1,1.22E2,9.8E1,1.52E2,3E1,5.6E1,2.9E1,3.1E1,5.9E1,5.8E1,4.3E1,1.7E1,9.4E1,8.9E1,1.12E2,1.85E2,5.7E1,6.3E1],"tree_param":{"num_deleted":"0","num_feature":"4","num_nodes":"45","size_leaf_vector":"1"}},{"base_weights":[4.2094458E-2,-3.1129032E-1,7.487851E-2,-1.9658115E-2,-5.6666666E-1,9.454959E-2,5.557196E-2,5.5789474E-2,-3.347826E-1,-1.6E-1,-8.0361444E-1,4.9888147E-3,8.3177574E-2,8.804665E-2,2.2089556E-2,8.421053E-2,-4.9999997E-2,-4.2857137E-2,-3.5E-2,3.3333335E-2,-2.5555555E-2,-6.5E-1,-4.3214288E-2,4.965636E-3,4.782609E-2,4.978402E-3,6.339286E-2,7.212122E-2,-2.6099702E-2,4.811321E-3,2.5000002E-3,1.0000002E-3,-1.1666666E-2,3.3333336E-3,-6.111111E-3,4.411765E-3,-8.823527E-4,-1.3749999E-2,-3.785714E-2,3.9719627E-3,-2.8124999E-3,4.320988E-3,7.936526E-5,-2.2580642E-3,4.9628257E-3,-4.605911E-3,3.4892086E-3],"categories":[],"categories_nodes":[],"categories_segments":[],"categories_sizes":[],"default_left":[0,0,0,0,0,0,0,0,0,0,0,0,0,0,0,0,0,0,0,0,0,0,0,0,0,0,0,0,0,0,0,0,0,0,0,0,0,0,0,0,0,0,0,0,0,0,0],"id":44,"left_children":[1,3,5,7,9,11,13,15,17,19,21,-1,23,25,27,29,31,33,-1,35,-1,37,-1,-1,39,-1,41,43,45,-1,-1,-1,-1,-1,-1,-1,-1,-1,-1,-1,-1,-1,-1,-1,-1,-1,-1],"loss_changes":[3.3852158E1,1.8400263E1,9.956455E-1,2.8282967E0,1.2494419E1,5.19228E-2,1.4603744E0,2.932632E-1,2.347888E0,3.458889E0,6.034088E-2,0E0,2.2466779E-1,1.7224741E-1,1.6218467E0,1.18073225E-2,2.8266665E-1,1.3539682E-1,0E0,1.00980386E-1,0E0,8.1357E-1,0E0,0E0,4.6083143E-1,0E0,3.0985683E-1,1.0601155E0,2.1672297E0,0E0,0E0,0E0,0E0,0E0,0E0,0E0,0E0,0E0,0E0,0E0,0E0,0E0,0E0,0E0,0E0,0E0,0E0],"parents":[2147483647,0,0,1,1,2,2,3,3,4,4,5,5,6,6,7,7,8,8,9,9,10,10,12,12,13,13,14,14,15,15,16,16,17,17,19,19,21,21,24,24,26,26,27,27,28,28],"right_children":[2,4,6,8,10,12,14,16,18,20,22,-1,24,26,28,30,32,34,-1,36,-1,38,-1,-1,40,-1,42,44,46,-1,-1,-1,-1,-1,-1,-1,-1,-1,-1,-1,-1,-1,-1,-1,-1,-1,-1],"split_conditions":[1E-1,3E-1,3E-1,5E-1,2E-1,2E-1,3E-1,4E-1,2E-1,5E-1,4E-1,4.989924E-3,4E-1,2E-1,6E-1,3E-1,2E-1,1E-1,-3.5420626E-3,4E-1,-3.7493848E-3,3E-1,-8.280779E-3,3.1270832E-3,8E-1,5.6665144E-3,8E-1,2E-1,9E-1,1.9665572E-3,4.1149496E-4,3.5171065E-4,-1.3169855E-3,6.2404276E-4,-1.1007459E-3,3.0705097E-4,-3.7776944E-4,-7.7447E-4,-5.543437E-3,5.764966E-4,-1.8717178E-4,1.389812E-3,5.5545068E-5,-5.6090485E-4,4.319574E-3,-1.8829203E-4,4.0994716E-4],"split_indices":[0,3,2,2,2,2,3,2,3,3,3,0,3,3,0,2,3,3,0,3,0,2,0,0,0,0,0,0,0,0,0,0,0,0,0,0,0,0,0,0,0,0,0,0,0,0,0],"split_type":[0,0,0,0,0,0,0,0,0,0,0,0,0,0,0,0,0,0,0,0,0,0,0,0,0,0,0,0,0,0,0,0,0,0,0,0,0,0,0,0,0,0,0,0,0,0,0],"sum_hessian":[2.921E3,2.47E2,2.674E3,1.16E2,1.31E2,1.32E3,1.354E3,9.4E1,2.2E1,4.9E1,8.2E1,8.93E2,4.27E2,6.85E2,6.69E2,7.5E1,1.9E1,1.3E1,9E0,3.2E1,1.7E1,2.7E1,5.5E1,2.9E2,1.37E2,4.62E2,2.23E2,3.29E2,3.4E2,5.2E1,2.3E1,1.4E1,5E0,5E0,8E0,1.6E1,1.6E1,7E0,2E1,1.06E2,3.1E1,1.61E2,6.2E1,6.1E1,2.68E2,2.02E2,1.38E2],"tree_param":{"num_deleted":"0","num_feature":"4","num_nodes":"47","size_leaf_vector":"1"}},{"base_weights":[4.4527534E-2,-2.901515E-1,7.752893E-2,-1.5624962E-3,-5.569343E-1,9.544453E-2,5.8908265E-2,7.471265E-2,-1.6190475E-1,-4.4347826E-1,-7.695652E-1,4.988999E-3,8.631347E-2,4.672802E-3,3.838749E-2,4.83871E-3,1.5384618E-2,-3.793103E-2,-3.9999998E-1,-1.1111107E-2,-4.8333332E-1,-4.384615E-1,-4.352941E-2,4.6341468E-2,8.983051E-2,1.8811885E-2,9.026549E-2,-5E-3,4.411765E-3,-4.5238095E-3,3.888889E-3,-2.625E-2,-9.285714E-3,-5E-3,3.0000003E-3,-1.8170731E-2,-2.909091E-2,-7.5E-3,-2.5E-2,4.666667E-3,-3.3333332E-3,4.964664E-3,3.3969467E-3,2.008197E-3,-3.4033612E-3,3.6419753E-3,4.931507E-3],"categories":[],"categories_nodes":[],"categories_segments":[],"categories_sizes":[],"default_left":[0,0,0,0,0,0,0,0,0,0,0,0,0,0,0,0,0,0,0,0,0,0,0,0,0,0,0,0,0,0,0,0,0,0,0,0,0,0,0,0,0,0,0,0,0,0,0],"id":45,"left_children":[1,3,5,7,9,11,13,15,17,19,21,-1,23,-1,25,-1,27,29,31,33,35,37,-1,39,41,43,45,-1,-1,-1,-1,-1,-1,-1,-1,-1,-1,-1,-1,-1,-1,-1,-1,-1,-1,-1,-1],"loss_changes":[3.249526E1,2.0268791E1,8.7265587E-1,1.5862721E0,2.842434E0,2.6657104E-2,9.1832924E-1,1.01166725E-1,1.180772E0,1.5305309E0,1.0260353E0,0E0,4.590392E-2,0E0,8.313105E-1,0E0,2.2619909E-1,1.8462506E-1,2.0642853E-1,6.688888E-2,6.860924E-1,9.076905E-2,0E0,2.266179E-1,6.2086105E-2,1.1241022E0,8.611083E-3,0E0,0E0,0E0,0E0,0E0,0E0,0E0,0E0,0E0,0E0,0E0,0E0,0E0,0E0,0E0,0E0,0E0,0E0,0E0,0E0],"parents":[2147483647,0,0,1,1,2,2,3,3,4,4,5,5,6,6,7,7,8,8,9,9,10,10,12,12,14,14,16,16,17,17,18,18,19,19,20,20,21,21,23,23,24,24,25,25,26,26],"right_children":[2,4,6,8,10,12,14,16,18,20,22,-1,24,-1,26,-1,28,30,32,34,36,38,-1,40,42,44,46,-1,-1,-1,-1,-1,-1,-1,-1,-1,-1,-1,-1,-1,-1,-1,-1,-1,-1,-1,-1],"split_conditions":[1E-1,3E-1,3E-1,2E-1,5E-1,2E-1,4E-1,8E-1,8E-1,1E-1,3E-1,6.488807E-3,2E-1,1.581002E-3,9E-1,1.6644556E-3,9E-1,6E-1,1E0,4E-1,4E-1,1E-1,-8.089127E-3,8E-1,8E-1,8E-1,4E-1,-1.0457098E-3,8.9484034E-4,-1.2611554E-3,1.988709E-5,-3.3649595E-3,-2.361834E-3,-1.7958581E-4,2.12425E-4,-3.5805502E-3,-6.23086E-3,-3.590405E-3,-6.1772554E-3,1.1881996E-3,-5.9052295E-4,4.109632E-3,5.371969E-4,2.6709083E-4,-2.0186526E-4,6.7180884E-4,2.3844067E-3],"split_indices":[0,3,3,3,3,3,1,1,1,1,1,0,0,0,1,0,1,1,1,3,3,1,0,1,0,1,3,0,0,0,0,0,0,0,0,0,0,0,0,0,0,0,0,0,0,0,0],"split_type":[0,0,0,0,0,0,0,0,0,0,0,0,0,0,0,0,0,0,0,0,0,0,0,0,0,0,0,0,0,0,0,0,0,0,0,0,0,0,0,0,0,0,0,0,0,0,0],"sum_hessian":[2.941E3,2.63E2,2.678E3,1.27E2,1.36E2,1.36E3,1.318E3,8.6E1,4.1E1,9.1E1,4.5E1,9.08E2,4.52E2,4.88E2,8.3E2,6.1E1,2.5E1,2.8E1,1.3E1,8E0,8.3E1,1.2E1,3.3E1,4E1,4.12E2,6.05E2,2.25E2,9E0,1.6E1,2E1,8E0,7E0,6E0,4E0,4E0,4E1,4.3E1,3E0,9E0,2.9E1,1.1E1,2.82E2,1.3E2,4.87E2,1.18E2,8E1,1.45E2],"tree_param":{"num_deleted":"0","num_feature":"4","num_nodes":"47","size_leaf_vector":"1"}},{"base_weights":[4.4096876E-2,-2.6862743E-1,7.3446125E-2,-0E0,-3.8863635E-1,9.304085E-2,5.4792564E-2,4.6774196E-3,-5.9999995E-2,-2.9795918E-1,-4.949367E-1,4.988545E-3,7.9555556E-2,4.846939E-3,3.8232375E-2,-1.4999999E-1,1.8518522E-2,-0E0,-1.6348315E-2,-4.185185E-1,-3.153846E-2,9.012346E-2,5.1181104E-2,6.916836E-2,8.349518E-3,2.5000002E-3,-9.285714E-3,-2.6923076E-3,4.3333336E-3,3.0000003E-3,-3.3333332E-3,-9.285714E-3,-2.2083333E-2,1.8627451E-3,4.9635037E-3,-1.0204063E-4,4.240507E-3,-2.5E-3,4.9746195E-3,-7.7395554E-4,4.908257E-3],"categories":[],"categories_nodes":[],"categories_segments":[],"categories_sizes":[],"default_left":[0,0,0,0,0,0,0,0,0,0,0,0,0,0,0,0,0,0,0,0,0,0,0,0,0,0,0,0,0,0,0,0,0,0,0,0,0,0,0,0,0],"id":46,"left_children":[1,3,5,7,9,11,13,-1,15,17,19,-1,21,-1,23,25,27,29,-1,31,-1,33,35,37,39,-1,-1,-1,-1,-1,-1,-1,-1,-1,-1,-1,-1,-1,-1,-1,-1],"loss_changes":[2.7287067E1,8.181747E0,9.7394466E-1,4.512903E-1,1.4697075E0,9.411049E-2,9.5850945E-1,0E0,3.692593E-1,8.143101E-1,4.5110893E-1,0E0,1.16193056E-1,0E0,9.225975E-1,1.9428569E-1,1.410997E-1,4.4666663E-2,0E0,1.462431E-1,0E0,1.3932562E-1,2.3575479E-1,1.7914605E0,1.1119823E0,0E0,0E0,0E0,0E0,0E0,0E0,0E0,0E0,0E0,0E0,0E0,0E0,0E0,0E0,0E0,0E0],"parents":[2147483647,0,0,1,1,2,2,3,3,4,4,5,5,6,6,8,8,9,9,10,10,12,12,14,14,15,15,16,16,17,17,19,19,21,21,22,22,23,23,24,24],"right_children":[2,4,6,8,10,12,14,-1,16,18,20,-1,22,-1,24,26,28,30,-1,32,-1,34,36,38,40,-1,-1,-1,-1,-1,-1,-1,-1,-1,-1,-1,-1,-1,-1,-1,-1],"split_conditions":[1E-1,2E-1,3E-1,4E-1,4E-1,2E-1,3E-1,1.1039162E-3,1E-1,1E-1,8E-1,4.6358784E-3,8E-1,2.1550225E-3,6E-1,5E-1,7E-1,3E-1,-5.0586066E-3,1E-1,-7.020609E-3,2E-1,9E-1,2E-1,1E0,5.2447617E-4,-2.1287363E-3,-2.6969637E-3,6.265447E-4,2.0180344E-4,-1.9079894E-3,-1.2576341E-3,-6.644295E-3,9.179436E-5,3.1552368E-3,-1.00827216E-4,3.791088E-4,-3.0857694E-4,4.778651E-3,-5.8974325E-5,1.9982606E-3],"split_indices":[0,2,2,1,2,2,1,0,2,1,1,0,0,0,0,1,1,2,0,1,0,0,0,0,0,0,0,0,0,0,0,0,0,0,0,0,0,0,0,0,0],"split_type":[0,0,0,0,0,0,0,0,0,0,0,0,0,0,0,0,0,0,0,0,0,0,0,0,0,0,0,0,0,0,0,0,0,0,0,0,0,0,0,0,0],"sum_hessian":[2.972E3,2.54E2,2.718E3,7.9E1,1.75E2,1.321E3,1.397E3,3E1,4.9E1,9.7E1,7.8E1,8.72E2,4.49E2,3.91E2,1.006E3,2.3E1,2.6E1,9E0,8.8E1,5.3E1,2.5E1,3.23E2,1.26E2,4.92E2,5.14E2,3E0,2E1,1.2E1,1.4E1,4E0,5E0,6E0,4.7E1,5E1,2.73E2,4.8E1,7.8E1,9.9E1,3.93E2,4.06E2,1.08E2],"tree_param":{"num_deleted":"0","num_feature":"4","num_nodes":"41","size_leaf_vector":"1"}},{"base_weights":[4.4827588E-2,-2.5937498E-1,7.36589E-2,2.5806455E-2,-5.2406013E-1,9.32353E-2,5.372024E-2,8.554217E-2,-9.0476185E-2,-3.9999998E-1,-7.6363635E-1,4.988938E-3,7.986871E-2,8.94309E-2,3.294256E-2,4.830509E-3,5.2E-2,-2.4999995E-2,-2.6363635E-1,-2.2E-1,-4.6060604E-1,-2.1923076E-2,-4.34375E-2,9.3432836E-2,4.1463416E-2,4.827089E-3,7.123288E-2,9.951063E-3,9.087137E-2,-5.5555534E-4,4.411765E-3,-4.5238095E-3,4.166667E-3,-1.6428571E-2,-5E-3,-5E-3,-1.3749999E-2,-2.5E-2,-2.1428568E-3,4.957265E-3,3.921569E-3,-2.7777776E-3,4.873418E-3,2.8350519E-3,4.8E-3,2.4722225E-3,-2.2834644E-3,2.7777778E-3,4.7209305E-3],"categories":[],"categories_nodes":[],"categories_segments":[],"categories_sizes":[],"default_left":[0,0,0,0,0,0,0,0,0,0,0,0,0,0,0,0,0,0,0,0,0,0,0,0,0,0,0,0,0,0,0,0,0,0,0,0,0,0,0,0,0,0,0,0,0,0,0,0,0],"id":47,"left_children":[1,3,5,7,9,11,13,15,17,19,21,-1,23,25,27,-1,29,31,33,35,37,-1,-1,39,41,-1,43,45,47,-1,-1,-1,-1,-1,-1,-1,-1,-1,-1,-1,-1,-1,-1,-1,-1,-1,-1,-1,-1],"loss_changes":[2.5943848E1,1.9387075E1,1.0353489E0,8.6857826E-1,3.5311852E0,9.3016624E-2,9.820442E-1,1.0928571E-2,4.4073594E-1,8.124256E-1,9.9230003E-1,0E0,2.2070336E-1,4.001212E-2,1.1250986E0,0E0,6.586405E-2,2.3523809E-1,4.116881E-2,1.00000024E-1,1.0104322E0,0E0,0E0,3.1738281E-3,6.779318E-1,0E0,3.1833768E-2,1.3491733E0,9.947896E-3,0E0,0E0,0E0,0E0,0E0,0E0,0E0,0E0,0E0,0E0,0E0,0E0,0E0,0E0,0E0,0E0,0E0,0E0,0E0,0E0],"parents":[2147483647,0,0,1,1,2,2,3,3,4,4,5,5,6,6,7,7,8,8,9,9,10,10,12,12,13,13,14,14,16,16,17,17,18,18,19,19,20,20,23,23,24,24,26,26,27,27,28,28],"right_children":[2,4,6,8,10,12,14,16,18,20,22,-1,24,26,28,-1,30,32,34,36,38,-1,-1,40,42,-1,44,46,48,-1,-1,-1,-1,-1,-1,