{"learner":{"attributes":{"scikit_learn":"{\"_estimator_type\": \"regressor\"}"},"feature_names":[],"feature_types":[],"gradient_booster":{"model":{"cats":{"enc":[],"feature_segments":[],"sorted_idx":[]},"gbtree_model_param":{"num_parallel_tree":"1","num_trees":"400"},"iteration_indptr":[0,1,2,3,4,5,6,7,8,9,10,11,12,13,14,15,16,17,18,19,20,21,22,23,24,25,26,27,28,29,30,31,32,33,34,35,36,37,38,39,40,41,42,43,44,45,46,47,48,49,50,51,52,53,54,55,56,57,58,59,60,61,62,63,64,65,66,67,68,69,70,71,72,73,74,75,76,77,78,79,80,81,82,83,84,85,86,87,88,89,90,91,92,93,94,95,96,97,98,99,100,101,102,103,104,105,106,107,108,109,110,111,112,113,114,115,116,117,118,119,120,121,122,123,124,125,126,127,128,129,130,131,132,133,134,135,136,137,138,139,140,141,142,143,144,145,146,147,148,149,150,151,152,153,154,155,156,157,158,159,160,161,162,163,164,165,166,167,168,169,170,171,172,173,174,175,176,177,178,179,180,181,182,183,184,185,186,187,188,189,190,191,192,193,194,195,196,197,198,199,200,201,202,203,204,205,206,207,208,209,210,211,212,213,214,215,216,217,218,219,220,221,222,223,224,225,226,227,228,229,230,231,232,233,234,235,236,237,238,239,240,241,242,243,244,245,246,247,248,249,250,251,252,253,254,255,256,257,258,259,260,261,262,263,264,265,266,267,268,269,270,271,272,273,274,275,276,277,278,279,280,281,282,283,284,285,286,287,288,289,290,291,292,293,294,295,296,297,298,299,300,301,302,303,304,305,306,307,308,309,310,311,312,313,314,315,316,317,318,319,320,321,322,323,324,325,326,327,328,329,330,331,332,333,334,335,336,337,338,339,340,341,342,343,344,345,346,347,348,349,350,351,352,353,354,355,356,357,358,359,360,361,362,363,364,365,366,367,368,369,370,371,372,373,374,375,376,377,378,379,380,381,382,383,384,385,386,387,388,389,390,391,392,393,394,395,396,397,398,399,400],"tree_info":[0,0,0,0,0,0,0,0,0,0,0,0,0,0,0,0,0,0,0,0,0,0,0,0,0,0,0,0,0,0,0,0,0,0,0,0,0,0,0,0,0,0,0,0,0,0,0,0,0,0,0,0,0,0,0,0,0,0,0,0,0,0,0,0,0,0,0,0,0,0,0,0,0,0,0,0,0,0,0,0,0,0,0,0,0,0,0,0,0,0,0,0,0,0,0,0,0,0,0,0,0,0,0,0,0,0,0,0,0,0,0,0,0,0,0,0,0,0,0,0,0,0,0,0,0,0,0,0,0,0,0,0,0,0,0,0,0,0,0,0,0,0,0,0,0,0,0,0,0,0,0,0,0,0,0,0,0,0,0,0,0,0,0,0,0,0,0,0,0,0,0,0,0,0,0,0,0,0,0,0,0,0,0,0,0,0,0,0,0,0,0,0,0,0,0,0,0,0,0,0,0,0,0,0,0,0,0,0,0,0,0,0,0,0,0,0,0,0,0,0,0,0,0,0,0,0,0,0,0,0,0,0,0,0,0,0,0,0,0,0,0,0,0,0,0,0,0,0,0,0,0,0,0,0,0,0,0,0,0,0,0,0,0,0,0,0,0,0,0,0,0,0,0,0,0,0,0,0,0,0,0,0,0,0,0,0,0,0,0,0,0,0,0,0,0,0,0,0,0,0,0,0,0,0,0,0,0,0,0,0,0,0,0,0,0,0,0,0,0,0,0,0,0,0,0,0,0,0,0,0,0,0,0,0,0,0,0,0,0,0,0,0,0,0,0,0,0,0,0,0,0,0,0,0,0,0,0,0,0,0,0,0,0,0,0,0,0,0,0,0,0,0,0,0,0,0,0,0,0,0,0,0,0,0,0,0,0,0,0,0,0,0,0,0,0,0,0,0,0,0],"trees":[{"base_weights":[-7.629452E-3,-4.0617622E-3,-2.5894761E-2,-8.184639E-3,3.8185918E-3,-1.7302077E-2,-4.666669E-2,1.6948915E-3,-1.3899637E-2,-1.0819696E-2,1.2359527E-2,-4.330711E-2,-1.3953726E-3,-1.5384639E-2,-2.636365E-3,6.837583E-3,-1.7073194E-2,-5.3140335E-3,-1.9422175E-2,-2.2404395E-2,5.6910333E-3,1.6207928E-2,5.769207E-3,-4.500001E-3,-3.3333357E-2,-6.010953E-3,2.1212097E-2,-3.6842126E-2,1.249999E-3,8.189644E-4,-1.0548642E-4,-2.6000012E-3,-3.5353654E-4,-5.4421887E-4,3.7189966E-4,-2.1428585E-3,-5.507571E-4,-2.078653E-3,-1.5789592E-4,1.2499988E-3,-1.1783255E-9,-1.1677352E-9,9.782597E-4,-4.4554574E-4,1.0185174E-3,1.8181807E-3,-2.586208E-3,-7.798177E-4,3.3333217E-4,2.4074062E-3,-3.5714295E-3,-0E0,-4.000001E-3],"categories":[],"categories_nodes":[],"categories_segments":[],"categories_sizes":[],"default_left":[0,0,0,0,0,0,0,0,0,0,0,0,0,0,0,0,0,0,0,0,0,0,0,0,0,0,0,0,0,0,0,0,0,0,0,0,0,0,0,0,0,0,0,0,0,0,0,0,0,0,0,0,0],"id":0,"left_children":[1,3,5,7,9,11,13,15,17,19,21,23,25,27,-1,29,31,33,35,37,39,41,43,-1,45,47,49,51,-1,-1,-1,-1,-1,-1,-1,-1,-1,-1,-1,-1,-1,-1,-1,-1,-1,-1,-1,-1,-1,-1,-1,-1,-1],"loss_changes":[1.8822347E-1,8.0457576E-2,7.7576846E-2,9.299399E-2,1.0505837E-1,1.3652545E-1,1.7972022E-2,5.603908E-2,4.6544388E-2,6.013675E-2,1.1252195E-2,4.381101E-2,2.104191E-2,2.4635632E-2,0E0,4.141589E-2,3.6695823E-2,2.9833328E-2,1.1688337E-1,6.290966E-2,1.6016256E-2,1.9750021E-2,4.5911536E-2,0E0,1.4184953E-1,2.3235077E-2,8.345839E-2,3.8210526E-2,0E0,0E0,0E0,0E0,0E0,0E0,0E0,0E0,0E0,0E0,0E0,0E0,0E0,0E0,0E0,0E0,0E0,0E0,0E0,0E0,0E0,0E0,0E0,0E0,0E0],"parents":[2147483647,0,0,1,1,2,2,3,3,4,4,5,5,6,6,7,7,8,8,9,9,10,10,11,11,12,12,13,13,15,15,16,16,17,17,18,18,19,19,20,20,21,21,22,22,24,24,25,25,26,26,27,27],"right_children":[2,4,6,8,10,12,14,16,18,20,22,24,26,28,-1,30,32,34,36,38,40,42,44,-1,46,48,50,52,-1,-1,-1,-1,-1,-1,-1,-1,-1,-1,-1,-1,-1,-1,-1,-1,-1,-1,-1,-1,-1,-1,-1,-1,-1],"split_conditions":[5E-1,4E-1,8E-1,4E-1,4E-1,3E-1,1E-1,4E-1,2E-1,3E-1,3E-1,1E-1,5E-1,1E0,0E0,2E-1,1E-1,9E-1,1E-1,2E-1,1E-1,5E-1,4E-1,-1.7131959E-1,2E-1,6E-1,7E-1,9E-1,1.6341248E-1,1.6341248E-1,4.902282E-2,0E0,1.6340863E-2,0E0,1.6341248E-1,0E0,0E0,0E0,8.170587E-2,1.6341248E-1,1.3072963E-1,1.3072978E-1,1.6341248E-1,0E0,1.6341248E-1,1.6341248E-1,0E0,0E0,1.6341248E-1,1.6341248E-1,0E0,1.6341244E-1,-4.0845773E-8],"split_indices":[3,2,1,1,1,1,2,3,3,3,3,2,2,1,0,2,2,1,2,1,1,1,3,0,2,1,1,1,0,0,0,0,0,0,0,0,0,0,0,0,0,0,0,0,0,0,0,0,0,0,0,0,0],"split_type":[0,0,0,0,0,0,0,0,0,0,0,0,0,0,0,0,0,0,0,0,0,0,0,0,0,0,0,0,0,0,0,0,0,0,0,0,0,0,0,0,0,0,0,0,0,0,0,0,0,0,0,0,0],"sum_hessian":[2.935E3,2.461E3,4.74E2,1.624E3,8.37E2,3.4E2,1.34E2,5.89E2,1.035E3,3.04E2,5.33E2,1.26E2,2.14E2,2.5E1,1.09E2,4.67E2,1.22E2,4.13E2,6.22E2,1.82E2,1.22E2,3.26E2,2.07E2,1.9E1,1.07E2,1.82E2,3.2E1,1.8E1,7E0,2.31E2,2.36E2,2.4E1,9.8E1,2.93E2,1.2E2,1.6E2,4.62E2,8.8E1,9.4E1,3.1E1,9.1E1,5.1E1,2.75E2,1E2,1.07E2,2.1E1,8.6E1,1.08E2,7.4E1,2.6E1,6E0,9E0,9E0],"tree_param":{"num_deleted":"0","num_feature":"4","num_nodes":"53","size_leaf_vector":"1"}},{"base_weights":[-1.1058369E-2,-4.9962783E-3,4.4809885E-2],"categories":[],"categories_nodes":[],"categories_segments":[],"categories_sizes":[],"default_left":[0,0,0],"id":1,"left_children":[1,-1,-1],"loss_changes":[2.3769331E2,0E0,0E0],"parents":[2147483647,0,0],"right_children":[2,-1,-1],"split_conditions":[1E0,-1.7131959E-1,1.6341248E-1],"split_indices":[0,0,0],"split_type":[0,0,0],"sum_hessian":[2.947E3,2.685E3,2.62E2],"tree_param":{"num_deleted":"0","num_feature":"4","num_nodes":"3","size_leaf_vector":"1"}},{"base_weights":[8.191054E-2,-4.9958606E-3,4.4907063E-2],"categories":[],"categories_nodes":[],"categories_segments":[],"categories_sizes":[],"default_left":[0,0,0],"id":2,"left_children":[1,-1,-1],"loss_changes":[4.382859E2,0E0,0E0],"parents":[2147483647,0,0],"right_children":[2,-1,-1],"split_conditions":[9E-1,-1.7092286E-1,1.5524292E-1],"split_indices":[0,0,0],"split_type":[0,0,0],"sum_hessian":[2.951E3,2.414E3,5.37E2],"tree_param":{"num_deleted":"0","num_feature":"4","num_nodes":"3","size_leaf_vector":"1"}},{"base_weights":[3.39858E-2,7.762533E-3,4.9277663E-2,9.879016E-4,4.0540516E-2,6.224897E-2,2.3199975E-2,1.5555532E-2,-1.2987037E-2,1.9047596E-2,5.6862723E-2,7.2146975E-2,1.3207523E-2,1.1464944E-2,3.461536E-2,-1.6286883E-3,5.2777752E-2,1.9999977E-2,-1.9587653E-2,4.2857118E-2,-2.3256047E-3,4.4594584E-3,3.6363613E-2,8.2885884E-2,5.7175376E-2,4.5161266E-2,-0E0,1.5624764E-3,1.7647035E-2,8.269228E-2,1.0047823E-2,-6.5573887E-4,2.0312488E-3,3.426965E-3,1.2499988E-3,1.7241262E-4,3.3333325E-3,-5.7993847E-4,-2.714287E-3,-1.2500011E-3,4.259258E-3,3.8235285E-3,-2.777779E-3,-1.2500011E-3,2.8431362E-3,2.3717936E-3,4.750566E-3,1.5693419E-3,4.939758E-3,4.374999E-3,1.3829776E-3,-8.5585704E-4,2.3170721E-3,8.139523E-4,-1.279071E-3,1.4516118E-3,2.6315672E-4,5.3773574E-3,2.6923066E-3,-2.6000012E-3,9.459448E-4],"categories":[],"categories_nodes":[],"categories_segments":[],"categories_sizes":[],"default_left":[0,0,0,0,0,0,0,0,0,0,0,0,0,0,0,0,0,0,0,0,0,0,0,0,0,0,0,0,0,0,0,0,0,0,0,0,0,0,0,0,0,0,0,0,0,0,0,0,0,0,0,0,0,0,0,0,0,0,0,0,0],"id":3,"left_children":[1,3,5,7,9,11,13,15,17,19,21,23,25,27,29,31,33,35,37,39,41,-1,43,45,47,49,51,53,55,57,59,-1,-1,-1,-1,-1,-1,-1,-1,-1,-1,-1,-1,-1,-1,-1,-1,-1,-1,-1,-1,-1,-1,-1,-1,-1,-1,-1,-1,-1,-1],"loss_changes":[1.1820838E0,2.3896146E-1,6.222229E-1,1.8592183E-1,5.6226075E-2,5.9485006E-1,7.872003E-2,2.9303655E-1,1.009439E-1,4.689922E-2,5.1793158E-2,1.4750051E-1,8.9470476E-2,1.7273914E-2,3.584082E-1,1.4677788E-1,5.1978797E-2,5.0689664E-2,1.0033509E-1,1.2878306E-1,1.8251254E-1,0E0,8.762923E-2,2.3743677E-1,4.550655E-1,3.2005847E-2,1.205713E-1,5.0617725E-2,2.2783384E-2,5.26343E-2,1.1271573E-1,0E0,0E0,0E0,0E0,0E0,0E0,0E0,0E0,0E0,0E0,0E0,0E0,0E0,0E0,0E0,0E0,0E0,0E0,0E0,0E0,0E0,0E0,0E0,0E0,0E0,0E0,0E0,0E0,0E0,0E0],"parents":[2147483647,0,0,1,1,2,2,3,3,4,4,5,5,6,6,7,7,8,8,9,9,10,10,11,11,12,12,13,13,14,14,15,15,16,16,17,17,18,18,19,19,20,20,22,22,23,23,24,24,25,25,26,26,27,27,28,28,29,29,30,30],"right_children":[2,4,6,8,10,12,14,16,18,20,22,24,26,28,30,32,34,36,38,40,42,-1,44,46,48,50,52,54,56,58,60,-1,-1,-1,-1,-1,-1,-1,-1,-1,-1,-1,-1,-1,-1,-1,-1,-1,-1,-1,-1,-1,-1,-1,-1,-1,-1,-1,-1,-1,-1],"split_conditions":[4E-1,5E-1,4E-1,2E-1,3E-1,5E-1,3E-1,4E-1,1E-1,2E-1,4E-1,8E-1,6E-1,7E-1,4E-1,4E-1,3E-1,4E-1,4E-1,1E-1,1E-1,1.474823E-1,1E-1,1E-1,3E-1,1E-1,3E-1,6E-1,9E-1,5E-1,5E-1,-1.6479492E-3,1.4666443E-1,8.0566405E-4,1.3930969E-1,1.3930969E-1,3.0140927E-2,-1.6479492E-3,-5.7312013E-3,-2.4967156E-2,1.3930969E-1,5.0802864E-2,-1.5420838E-1,-9.220282E-2,8.0566405E-4,8.0566405E-4,8.0566405E-4,8.0566405E-4,1.474823E-1,1.474823E-1,8.0566405E-4,-7.3669436E-3,1.2545916E-1,1.3930969E-1,-7.3669436E-3,1.3930969E-1,1.3930969E-1,1.03479125E-1,8.0566405E-4,-7.3669436E-3,7.005707E-2],"split_indices":[1,3,2,1,2,3,3,2,2,1,2,1,1,1,3,3,3,3,3,2,2,0,1,2,3,2,2,1,1,2,1,0,0,0,0,0,0,0,0,0,0,0,0,0,0,0,0,0,0,0,0,0,0,0,0,0,0,0,0,0,0],"split_type":[0,0,0,0,0,0,0,0,0,0,0,0,0,0,0,0,0,0,0,0,0,0,0,0,0,0,0,0,0,0,0,0,0,0,0,0,0,0,0,0,0,0,0,0,0,0,0,0,0,0,0,0,0,0,0,0,0,0,0,0,0],"sum_hessian":[2.962E3,1.094E3,1.868E3,9.1E2,1.84E2,1.244E3,6.24E2,4.49E2,4.61E2,8.3E1,1.01E2,1.033E3,2.11E2,3.13E2,3.11E2,3.06E2,1.43E2,7.4E1,3.87E2,4.1E1,4.2E1,3.6E1,6.5E1,5.95E2,4.38E2,6.1E1,1.5E2,1.27E2,1.86E2,1.03E2,2.08E2,2.43E2,6.3E1,8.8E1,5.5E1,5.7E1,1.7E1,3.18E2,6.9E1,1.5E1,2.6E1,1.6E1,2.6E1,1.5E1,5E1,1.55E2,4.4E2,2.73E2,1.65E2,1.5E1,4.6E1,1.1E2,4E1,8.5E1,4.2E1,9.2E1,9.4E1,5.2E1,5.1E1,2.4E1,1.84E2],"tree_param":{"num_deleted":"0","num_feature":"4","num_nodes":"61","size_leaf_vector":"1"}},{"base_weights":[2.8561713E-2,-6.2457874E-2,4.4821426E-2,-4.9958504E-3,2.8314173E-1,3.7928993E-1,1.0430105E-1,2E-2,2.333333E-1,6.666664E-2,1.3749999E-2,1.5588234E-2,1.249999E-3,5.3174593E-3,-4.375001E-3],"categories":[],"categories_nodes":[],"categories_segments":[],"categories_sizes":[],"default_left":[0,0,0,0,0,0,0,0,0,0,0,0,0,0,0],"id":4,"left_children":[1,3,-1,-1,5,7,9,-1,11,13,-1,-1,-1,-1,-1],"loss_changes":[2.3301039E2,3.456247E1,0E0,0E0,4.400032E0,3.541813E-1,5.449463E-1,0E0,3.506863E-1,4.88373E-1,0E0,0E0,0E0,0E0,0E0],"parents":[2147483647,0,0,1,1,4,4,5,5,6,6,8,8,9,9],"right_children":[2,4,-1,-1,6,8,10,-1,12,14,-1,-1,-1,-1,-1],"split_conditions":[1E0,9E-1,1.4744262E-1,-1.6588135E-1,4E-1,5E-1,5E-1,7.659912E-4,3E-1,4E-1,5.41687E-3,2.8713967E-3,7.659912E-4,7.659912E-4,-5.444336E-3],"split_indices":[0,0,0,0,2,3,3,0,2,3,0,0,0,0,0],"split_type":[0,0,0,0,0,0,0,0,0,0,0,0,0,0,0],"sum_hessian":[2.947E3,2.668E3,2.79E2,2.408E3,2.6E2,1.68E2,9.2E1,1.45E2,2.3E1,7.7E1,1.5E1,1.6E1,7E0,6.2E1,1.5E1],"tree_param":{"num_deleted":"0","num_feature":"4","num_nodes":"15","size_leaf_vector":"1"}},{"base_weights":[2.6925629E-2,-6.156402E-2,4.481884E-2,-4.99591E-3,2.8805968E-1,1.0879119E-1,3.7752807E-1,6.8831146E-2,2.9999998E-1,5.509434E-1,1.1917806E-1,7.499999E-3,-7.8947487E-4,1.7727273E-2,4.999999E-3,3.111111E-2,6.764705E-3,1.117647E-2,1.2499988E-3],"categories":[],"categories_nodes":[],"categories_segments":[],"categories_sizes":[],"default_left":[0,0,0,0,0,0,0,0,0,0,0,0,0,0,0,0,0,0,0],"id":5,"left_children":[1,3,-1,-1,5,7,9,11,13,15,17,-1,-1,-1,-1,-1,-1,-1,-1],"loss_changes":[2.2987383E2,3.6363194E1,0E0,0E0,4.2087116E0,6.377723E-1,7.8420563E0,5.4466856E-1,8.272731E-2,2.980526E0,6.8697417E-1,0E0,0E0,0E0,0E0,0E0,0E0,0E0,0E0],"parents":[2147483647,0,0,1,1,4,4,5,5,6,6,7,7,8,8,9,9,10,10],"right_children":[2,4,-1,-1,6,8,10,12,14,16,18,-1,-1,-1,-1,-1,-1,-1,-1],"split_conditions":[1E0,9E-1,1.4006959E-1,-1.6104737E-1,4E-1,5E-1,8E-1,2E-1,3E-1,5E-1,3E-1,7.263184E-4,-5.4626557E-4,6.5322868E-3,4.943848E-4,7.263184E-4,7.06787E-4,7.263184E-4,7.263184E-4],"split_indices":[0,0,0,0,1,3,1,1,1,3,3,0,0,0,0,0,0,0,0],"split_type":[0,0,0,0,0,0,0,0,0,0,0,0,0,0,0,0,0,0,0],"sum_hessian":[2.985E3,2.71E3,2.75E2,2.443E3,2.67E2,9E1,1.77E2,7.6E1,1.4E1,1.05E2,7.2E1,3.9E1,3.7E1,1E1,4E0,8.9E1,1.6E1,3.3E1,3.9E1],"tree_param":{"num_deleted":"0","num_feature":"4","num_nodes":"19","size_leaf_vector":"1"}},{"base_weights":[2.8205104E-2,-6.052047E-2,4.481818E-2,-4.995871E-3,2.9259256E-1,3.8022596E-1,1.23404235E-1,2.0657895E-2,1.6923074E-1,8.9873396E-2,2.7499998E-1,1.1666666E-2,5.555545E-4,6.7187487E-3,-4.375001E-3,1.7222222E-2,7.499999E-3],"categories":[],"categories_nodes":[],"categories_segments":[],"categories_sizes":[],"default_left":[0,0,0,0,0,0,0,0,0,0,0,0,0,0,0,0,0],"id":6,"left_children":[1,3,-1,-1,5,7,9,-1,11,13,15,-1,-1,-1,-1,-1,-1],"loss_changes":[2.2844843E2,3.74321E1,0E0,0E0,3.9058838E0,1.1017227E0,4.166118E-1,0E0,2.3649573E-1,6.4002377E-1,3.777778E-2,0E0,0E0,0E0,0E0,0E0,0E0],"parents":[2147483647,0,0,1,1,4,4,5,5,6,6,8,8,9,9,10,10],"right_children":[2,4,-1,-1,6,8,10,-1,12,14,16,-1,-1,-1,-1,-1,-1],"split_conditions":[1E0,9E-1,1.330658E-1,-1.5152445E-1,4E-1,5E-1,5E-1,6.896973E-4,3E-1,4E-1,5E-1,2.0678688E-3,6.896973E-4,6.896973E-4,-5.145264E-3,4.818726E-3,4.818726E-3],"split_indices":[0,0,0,0,2,3,3,0,2,3,2,0,0,0,0,0,0],"split_type":[0,0,0,0,0,0,0,0,0,0,0,0,0,0,0,0,0],"sum_hessian":[2.963E3,2.689E3,2.74E2,2.42E3,2.69E2,1.76E2,9.3E1,1.51E2,2.5E1,7.8E1,1.5E1,1.7E1,8E0,6.3E1,1.5E1,8E0,7E0],"tree_param":{"num_deleted":"0","num_feature":"4","num_nodes":"17","size_leaf_vector":"1"}},{"base_weights":[2.7523529E-2,-6.31501E-2,4.4822063E-2,-4.995876E-3,2.6802972E-1,3.5454544E-1,1.02127634E-1,3.7402594E-1,2.043478E-1,1.4193547E-1,2.1212097E-2,1.4444443E-2,1.9789916E-2,1.3749999E-2,1.249999E-3,1.4516118E-3,1.2187499E-2,-4.3333345E-3,5.526315E-3],"categories":[],"categories_nodes":[],"categories_segments":[],"categories_sizes":[],"default_left":[0,0,0,0,0,0,0,0,0,0,0,0,0,0,0,0,0,0,0],"id":7,"left_children":[1,3,-1,-1,5,7,9,11,13,15,17,-1,-1,-1,-1,-1,-1,-1,-1],"loss_changes":[2.3429764E2,3.278945E1,0E0,0E0,3.7791176E0,3.8069344E-1,2.834552E-1,1.0264778E-1,2.5456524E-1,6.783469E-1,3.2992348E-1,0E0,0E0,0E0,0E0,0E0,0E0,0E0,0E0],"parents":[2147483647,0,0,1,1,4,4,5,5,6,6,7,7,8,8,9,9,10,10],"right_children":[2,4,-1,-1,6,8,10,12,14,16,18,-1,-1,-1,-1,-1,-1,-1,-1],"split_conditions":[1E0,9E-1,1.2641297E-1,-1.4378357E-1,4E-1,5E-1,4E-1,1E-1,3E-1,5E-1,5E-1,6.5612793E-4,6.5612793E-4,3.0371074E-3,6.5612793E-4,6.5612793E-4,6.5612793E-4,-4.888916E-3,4.5776367E-3],"split_indices":[0,0,0,0,2,3,3,2,2,2,3,0,0,0,0,0,0,0,0],"split_type":[0,0,0,0,0,0,0,0,0,0,0,0,0,0,0,0,0,0,0],"sum_hessian":[2.971E3,2.691E3,2.8E2,2.423E3,2.68E2,1.75E2,9.3E1,1.53E2,2.2E1,6.1E1,3.2E1,3.5E1,1.18E2,1.5E1,7E0,3E1,3.1E1,1.4E1,1.8E1],"tree_param":{"num_deleted":"0","num_feature":"4","num_nodes":"19","size_leaf_vector":"1"}},{"base_weights":[2.5545461E-2,-6.260165E-2,4.481752E-2,-4.9958914E-3,2.686131E-1,3.804469E-1,5.6249976E-2,4.5913976E-1,2.9080456E-1,-8.695675E-3,1.1568625E-1,1.9218748E-2,3E-2,1.7580643E-2,6.5384605E-3,-2.1794883E-3,7.499999E-3,9.705882E-3,-1.6666679E-3],"categories":[],"categories_nodes":[],"categories_segments":[],"categories_sizes":[],"default_left":[0,0,0,0,0,0,0,0,0,0,0,0,0,0,0,0,0,0,0],"id":8,"left_children":[1,3,-1,-1,5,7,9,11,13,15,17,-1,-1,-1,-1,-1,-1,-1,-1],"loss_changes":[2.2880435E2,3.3455227E1,0E0,0E0,6.442257E0,1.0541897E0,3.822773E-1,6.503563E-1,7.524204E-1,2.506243E-1,6.186274E-1,0E0,0E0,0E0,0E0,0E0,0E0,0E0,0E0],"parents":[2147483647,0,0,1,1,4,4,5,5,6,6,7,7,8,8,9,9,10,10],"right_children":[2,4,-1,-1,6,8,10,12,14,16,18,-1,-1,-1,-1,-1,-1,-1,-1],"split_conditions":[1E0,9E-1,1.2009277E-1,-1.3708353E-1,4E-1,3E-1,5E-1,2E-1,3E-1,5E-1,4E-1,6.225586E-4,6.225586E-4,6.225586E-4,6.225586E-4,-3.2806396E-3,4.348755E-3,6.225586E-4,6.280498E-4],"split_indices":[0,0,0,0,2,3,2,3,2,3,3,0,0,0,0,0,0,0,0],"split_type":[0,0,0,0,0,0,0,0,0,0,0,0,0,0,0,0,0,0,0],"sum_hessian":[2.978E3,2.705E3,2.73E2,2.432E3,2.73E2,1.78E2,9.5E1,9.2E1,8.6E1,4.5E1,5E1,6.3E1,2.9E1,6.1E1,2.5E1,3.8E1,7E0,3.3E1,1.7E1],"tree_param":{"num_deleted":"0","num_feature":"4","num_nodes":"19","size_leaf_vector":"1"}},{"base_weights":[2.7934648E-2,-6.3096605E-2,4.482079E-2,-4.9958224E-3,2.6431224E-1,3.5197738E-1,9.3548365E-2,3.7741932E-1,1.6086954E-1,1.3437498E-1,-0E0,2.0263156E-2,1.6311474E-2,1.1666666E-2,5.555545E-4,3.333332E-3,9.285714E-3,-4.375001E-3,4.999999E-3],"categories":[],"categories_nodes":[],"categories_segments":[],"categories_sizes":[],"default_left":[0,0,0,0,0,0,0,0,0,0,0,0,0,0,0,0,0,0,0],"id":9,"left_children":[1,3,-1,-1,5,7,9,11,13,15,17,-1,-1,-1,-1,-1,-1,-1,-1],"loss_changes":[2.3249406E2,3.20887E1,0E0,0E0,3.949463E0,7.460556E-1,3.4175402E-1,1.556778E-2,2.225604E-1,1.8485105E-1,2.7249998E-1,0E0,0E0,0E0,0E0,0E0,0E0,0E0,0E0],"parents":[2147483647,0,0,1,1,4,4,5,5,6,6,7,7,8,8,9,9,10,10],"right_children":[2,4,-1,-1,6,8,10,12,14,16,18,-1,-1,-1,-1,-1,-1,-1,-1],"split_conditions":[1E0,9E-1,1.1408692E-1,-1.2973939E-1,4E-1,5E-1,4E-1,3E-1,3E-1,5E-1,5E-1,5.92041E-4,5.92041E-4,7.0800784E-4,5.92041E-4,7.8735355E-4,5.92041E-4,-4.597168E-3,4.2251586E-3],"split_indices":[0,0,0,0,2,3,3,3,2,2,3,0,0,0,0,0,0,0,0],"split_type":[0,0,0,0,0,0,0,0,0,0,0,0,0,0,0,0,0,0,0],"sum_hessian":[2.938E3,2.66E3,2.78E2,2.392E3,2.68E2,1.76E2,9.2E1,1.54E2,2.2E1,6.3E1,2.9E1,9.4E1,6E1,1.4E1,8E0,2.9E1,3.4E1,1.5E1,1.4E1],"tree_param":{"num_deleted":"0","num_feature":"4","num_nodes":"19","size_leaf_vector":"1"}},{"base_weights":[2.4662139E-2,-6.2407155E-2,4.4814125E-2,-4.995881E-3,2.7969924E-1,7.894734E-2,3.8837206E-1,1.4489794E-1,6.3829552E-3,5.09375E-1,3.333331E-2,1.2241378E-2,-0E0,-4.696971E-3,1.1666666E-2,2.9112149E-2,6.3636354E-3,-4.375001E-3,4.999999E-3],"categories":[],"categories_nodes":[],"categories_segments":[],"categories_sizes":[],"default_left":[0,0,0,0,0,0,0,0,0,0,0,0,0,0,0,0,0,0,0],"id":10,"left_children":[1,3,-1,-1,5,7,9,11,13,15,17,-1,-1,-1,-1,-1,-1,-1,-1],"loss_changes":[2.2477777E2,3.4555244E1,0E0,0E0,5.7257347E0,4.3858516E-1,7.317995E0,7.0950043E-1,1.105964E0,3.4188538E0,3.725E-1,0E0,0E0,0E0,0E0,0E0,0E0,0E0,0E0],"parents":[2147483647,0,0,1,1,4,4,5,5,6,6,7,7,8,8,9,9,10,10],"right_children":[2,4,-1,-1,6,8,10,12,14,16,18,-1,-1,-1,-1,-1,-1,-1,-1],"split_conditions":[1E0,9E-1,1.0838318E-1,-1.2325134E-1,4E-1,2E-1,9E-1,3E-1,4E-1,5E-1,2E-1,7.4768066E-4,3.4750344E-3,-1.7059327E-3,3.0853252E-3,5.615234E-4,2.6245118E-4,-7.6110843E-3,5.615234E-4],"split_indices":[0,0,0,0,1,1,1,3,3,3,3,0,0,0,0,0,0,0,0],"split_type":[0,0,0,0,0,0,0,0,0,0,0,0,0,0,0,0,0,0,0],"sum_hessian":[2.959E3,2.691E3,2.68E2,2.426E3,2.65E2,9.4E1,1.71E2,4.8E1,4.6E1,1.27E2,4.4E1,2.8E1,2E1,3.2E1,1.4E1,1.06E2,2.1E1,1.5E1,2.9E1],"tree_param":{"num_deleted":"0","num_feature":"4","num_nodes":"19","size_leaf_vector":"1"}},{"base_weights":[2.0572184E-2,-6.551985E-2,4.4809885E-2,-4.9958555E-3,2.4980986E-1,1.3402038E-2,3.850299E-1,-8.181821E-2,2.1249998E-1,5.6379306E-1,-1.9230792E-2,-1.6666679E-3,-4.7959196E-3,2.625E-2,-4.411766E-3,3.8835615E-2,9.772726E-3,-4.6296306E-3,2.6923066E-3],"categories":[],"categories_nodes":[],"categories_segments":[],"categories_sizes":[],"default_left":[0,0,0,0,0,0,0,0,0,0,0,0,0,0,0,0,0,0,0],"id":11,"left_children":[1,3,-1,-1,5,7,9,11,13,15,17,-1,-1,-1,-1,-1,-1,-1,-1],"loss_changes":[2.2147032E2,2.9013454E1,0E0,0E0,8.362337E0,1.8693955E0,1.2133875E1,2.8998166E-2,3.097353E0,8.848431E0,2.8763533E-1,0E0,0E0,0E0,0E0,0E0,0E0,0E0,0E0],"parents":[2147483647,0,0,1,1,4,4,5,5,6,6,7,7,8,8,9,9,10,10],"right_children":[2,4,-1,-1,6,8,10,12,14,16,18,-1,-1,-1,-1,-1,-1,-1,-1],"split_conditions":[1E0,9E-1,1.0296326E-1,-1.15261845E-1,4E-1,4E-1,4E-1,1E-1,2E-1,8E-1,5E-1,3.7780468E-4,-2.1362304E-5,2.000121E-3,-2.3587046E-3,5.340576E-4,5.340576E-4,-4.263611E-3,5.340576E-4],"split_indices":[0,0,0,0,1,2,2,2,1,1,2,0,0,0,0,0,0,0,0],"split_type":[0,0,0,0,0,0,0,0,0,0,0,0,0,0,0,0,0,0,0],"sum_hessian":[2.935E3,2.673E3,2.62E2,2.411E3,2.62E2,9.6E1,1.66E2,6.5E1,3.1E1,1.15E2,5.1E1,1.7E1,4.8E1,1.5E1,1.6E1,7.2E1,4.3E1,2.6E1,2.5E1],"tree_param":{"num_deleted":"0","num_feature":"4","num_nodes":"19","size_leaf_vector":"1"}},{"base_weights":[2.006743E-2,-6.765581E-2,4.4814814E-2,-4.995908E-3,2.4251966E-1,-2.380976E-3,3.6198828E-1,7.499997E-2,-7.333336E-2,4.7936505E-1,3.043476E-2,1.1666666E-2,-4.500001E-3,-4.743591E-3,2.1428561E-3,2.7692307E-2,5.869564E-3,-4.411766E-3,4.999999E-3],"categories":[],"categories_nodes":[],"categories_segments":[],"categories_sizes":[],"default_left":[0,0,0,0,0,0,0,0,0,0,0,0,0,0,0,0,0,0,0],"id":12,"left_children":[1,3,-1,-1,5,7,9,11,13,15,17,-1,-1,-1,-1,-1,-1,-1,-1],"loss_changes":[2.280501E2,2.6988815E1,0E0,0E0,7.468341E0,4.665238E-1,6.589182E0,1.0803332E0,1.2188277E-1,3.2648468E0,3.8974425E-1,0E0,0E0,0E0,0E0,0E0,0E0,0E0,0E0],"parents":[2147483647,0,0,1,1,4,4,5,5,6,6,7,7,8,8,9,9,10,10],"right_children":[2,4,-1,-1,6,8,10,12,14,16,18,-1,-1,-1,-1,-1,-1,-1,-1],"split_conditions":[1E0,9E-1,9.781494E-2,-1.11328125E-1,4E-1,2E-1,9E-1,3E-1,5E-1,5E-1,2E-1,6.1035156E-4,-1.0040288E-3,-2.1362304E-5,5.862427E-3,5.065918E-4,2.2277833E-4,-7.25708E-3,5.065918E-4],"split_indices":[0,0,0,0,1,1,1,3,3,3,3,0,0,0,0,0,0,0,0],"split_type":[0,0,0,0,0,0,0,0,0,0,0,0,0,0,0,0,0,0,0],"sum_hessian":[2.964E3,2.695E3,2.69E2,2.442E3,2.53E2,8.3E1,1.7E2,3.9E1,4.4E1,1.25E2,4.5E1,2E1,1.9E1,3.8E1,6E0,1.03E2,2.2E1,1.6E1,2.9E1],"tree_param":{"num_deleted":"0","num_feature":"4","num_nodes":"19","size_leaf_vector":"1"}},{"base_weights":[2.5883516E-2,3.764898E-3,3.860858E-2,1.8518494E-2,-1.0545478E-2,6.0298204E-2,9.741036E-3,9.374976E-3,6.1290298E-2,-2.4930986E-3,-1.2631591E-3,8.450702E-2,1.2637339E-2,2.7403822E-2,-8.585882E-3,1.824322E-2,-7.1895663E-3,7.9999976E-2,1.8181807E-3,-1.648354E-2,1.1111087E-2,4.3646384E-2,9.811319E-2,-0E0,2.4999976E-2,6.083914E-2,9.489028E-3,2.9411528E-3,-1.4942553E-2,6.722677E-4,1.7796599E-3,-1.3333345E-3,-8.064634E-5,8.823518E-4,5.2941167E-3,4.545443E-4,-1.4062512E-3,5.6178596E-5,9.782597E-4,5.937499E-3,1.3333322E-3,5.704224E-3,3.2386351E-3,2.4074062E-3,-4.1935602E-4,2.4468075E-3,7.971003E-4,4.3406584E-3,6.603762E-4,9.523798E-4,3.3555865E-5,-2.0833452E-4,1.0975598E-3,-1.9553192E-4,-1.8674711E-3],"categories":[],"categories_nodes":[],"categories_segments":[],"categories_sizes":[],"default_left":[0,0,0,0,0,0,0,0,0,0,0,0,0,0,0,0,0,0,0,0,0,0,0,0,0,0,0,0,0,0,0,0,0,0,0,0,0,0,0,0,0,0,0,0,0,0,0,0,0,0,0,0,0,0,0],"id":13,"left_children":[1,3,5,7,9,11,13,15,17,19,-1,21,23,25,27,29,31,33,-1,35,37,39,41,43,45,47,49,51,53,-1,-1,-1,-1,-1,-1,-1,-1,-1,-1,-1,-1,-1,-1,-1,-1,-1,-1,-1,-1,-1,-1,-1,-1,-1,-1],"loss_changes":[8.318374E-1,2.3091264E-1,1.1714044E0,2.0354466E-1,6.234328E-2,1.2272589E0,2.646414E-1,6.7047E-2,2.8826982E-2,6.942901E-2,0E0,3.7627077E-1,5.6868132E-2,2.4156839E-1,3.026042E-2,1.9257464E-2,1.3747411E-2,6.647059E-2,0E0,5.6344908E-2,1.31075345E-2,2.1311003E-1,2.5694466E-1,7.349582E-2,3.2625668E-2,1.657688E-1,2.1109875E-2,2.024629E-2,6.0244687E-2,0E0,0E0,0E0,0E0,0E0,0E0,0E0,0E0,0E0,0E0,0E0,0E0,0E0,0E0,0E0,0E0,0E0,0E0,0E0,0E0,0E0,0E0,0E0,0E0,0E0,0E0],"parents":[2147483647,0,0,1,1,2,2,3,3,4,4,5,5,6,6,7,7,8,8,9,9,11,11,12,12,13,13,14,14,15,15,16,16,17,17,19,19,20,20,21,21,22,22,23,23,24,24,25,25,26,26,27,27,28,28],"right_children":[2,4,6,8,10,12,14,16,18,20,-1,22,24,26,28,30,32,34,-1,36,38,40,42,44,46,48,50,52,54,-1,-1,-1,-1,-1,-1,-1,-1,-1,-1,-1,-1,-1,-1,-1,-1,-1,-1,-1,-1,-1,-1,-1,-1,-1,-1],"split_conditions":[4E-1,2E-1,8E-1,5E-1,4E-1,4E-1,3E-1,4E-1,3E-1,2E-1,-2.1365637E-5,1E-1,5E-1,9E-1,2E-1,4E-1,1E-1,1E-1,7.880738E-2,2E-1,3E-1,1E-1,4E-1,1E-1,5E-1,4E-1,3E-1,1E0,1E0,8.487244E-2,5.79834E-4,-6.8756104E-3,1.8353135E-3,3.9367678E-4,5.591118E-2,7.7825926E-2,-1.6204835E-3,7.7825926E-2,8.650818E-2,7.443475E-2,4.8217774E-4,9.292298E-2,4.9316394E-4,7.831665E-2,-3.968813E-3,7.946167E-2,1.5950674E-2,4.8217774E-4,7.7825926E-2,8.475037E-2,8.216279E-3,-3.8739187E-3,8.5546575E-2,-3.2943904E-3,-7.669683E-3],"split_indices":[1,1,1,2,3,2,3,3,3,3,0,2,2,1,2,2,2,3,0,2,2,3,3,3,1,2,2,1,1,0,0,0,0,0,0,0,0,0,0,0,0,0,0,0,0,0,0,0,0,0,0,0,0,0,0],"split_type":[0,0,0,0,0,0,0,0,0,0,0,0,0,0,0,0,0,0,0,0,0,0,0,0,0,0,0,0,0,0,0,0,0,0,0,0,0,0,0,0,0,0,0,0,0,0,0,0,0,0,0,0,0,0,0],"sum_hessian":[2.97E3,1.088E3,1.882E3,5.39E2,5.49E2,1.072E3,8.1E2,4.47E2,9.2E1,3.6E2,1.89E2,7.09E2,3.63E2,4.15E2,3.95E2,2.95E2,1.52E2,4.9E1,4.3E1,1.81E2,1.79E2,1.8E2,5.29E2,1.8E2,1.83E2,1.42E2,2.73E2,1.35E2,2.6E2,2.37E2,5.8E1,2.9E1,1.23E2,1.6E1,3.3E1,5.4E1,1.27E2,8.8E1,9.1E1,3.1E1,1.49E2,3.54E2,1.75E2,2.6E1,1.54E2,4.6E1,1.37E2,9E1,5.2E1,1.25E2,1.48E2,9.5E1,4E1,1.78E2,8.2E1],"tree_param":{"num_deleted":"0","num_feature":"4","num_nodes":"55","size_leaf_vector":"1"}},{"base_weights":[8.417484E-3,-8.4678344E-2,4.4822693E-2,-4.9958895E-3,5.8914706E-2,2.068963E-2,1.352941E-1,2.0769228E-1,-1.140942E-2,2.272727E-1,-2.903228E-2,2.1428561E-3,1.2499998E-2,-1.9767454E-3,1.2499988E-3,5.7142847E-3,1.2857142E-2,1.6666657E-3,-4.411766E-3],"categories":[],"categories_nodes":[],"categories_segments":[],"categories_sizes":[],"default_left":[0,0,0,0,0,0,0,0,0,0,0,0,0,0,0,0,0,0,0],"id":14,"left_children":[1,3,-1,-1,5,7,9,11,13,15,17,-1,-1,-1,-1,-1,-1,-1,-1],"loss_changes":[2.4569437E2,5.894266E0,0E0,0E0,7.3486125E-1,1.0664518E0,1.3111557E0,1.4131856E-1,1.5502264E-1,1.19090796E-1,1.22890584E-1,0E0,0E0,0E0,0E0,0E0,0E0,0E0,0E0],"parents":[2147483647,0,0,1,1,4,4,5,5,6,6,7,7,8,8,9,9,10,10],"right_children":[2,4,-1,-1,6,8,10,12,14,16,18,-1,-1,-1,-1,-1,-1,-1,-1],"split_conditions":[1E0,9E-1,9.289856E-2,-1.0719605E-1,4E-1,1E-1,4E-1,1E-1,4E-1,1E-1,5E-1,4.5776367E-4,4.5776367E-4,-1.538086E-3,4.797361E-4,3.5247784E-3,4.5776367E-4,1.9805897E-3,-6.2835723E-4],"split_indices":[0,0,0,0,3,2,2,3,2,2,2,0,0,0,0,0,0,0,0],"split_type":[0,0,0,0,0,0,0,0,0,0,0,0,0,0,0,0,0,0,0],"sum_hessian":[2.969E3,2.688E3,2.81E2,2.431E3,2.57E2,1.73E2,8.4E1,2.5E1,1.48E2,5.4E1,3E1,6E0,1.9E1,8.5E1,6.3E1,1.3E1,4.1E1,1.4E1,1.6E1],"tree_param":{"num_deleted":"0","num_feature":"4","num_nodes":"19","size_leaf_vector":"1"}},{"base_weights":[4.9114362E-3,-8.485296E-2,4.481752E-2,-4.995903E-3,4.590745E-2,1.7659572E-1,1.9148912E-2,5.555545E-4,2.0769228E-1,-2.2293018E-2,1.0253162E-1,1.3749999E-2,7.499999E-3,-2.9411883E-4,-3.4615397E-3,1.021739E-2,-1.7647072E-3],"categories":[],"categories_nodes":[],"categories_segments":[],"categories_sizes":[],"default_left":[0,0,0,0,0,0,0,0,0,0,0,0,0,0,0,0,0],"id":15,"left_children":[1,3,-1,-1,5,7,9,-1,11,13,15,-1,-1,-1,-1,-1,-1],"loss_changes":[2.396555E2,5.368162E0,0E0,0E0,9.597086E-1,2.1767414E-1,8.223616E-1,0E0,6.769228E-2,1.13015234E-1,1.1327162E0,0E0,0E0,0E0,0E0,0E0,0E0],"parents":[2147483647,0,0,1,1,4,4,5,5,6,6,8,8,9,9,10,10],"right_children":[2,4,-1,-1,6,8,10,-1,12,14,16,-1,-1,-1,-1,-1,-1],"split_conditions":[1E0,9E-1,8.825379E-2,-1.0183716E-1,1E-1,1E-1,4E-1,4.333496E-4,3E-1,3E-1,4E-1,4.333496E-4,5.3771964E-4,-1.3009689E-3,-3.19794E-3,4.333496E-4,-3.5339422E-4],"split_indices":[0,0,0,0,2,3,3,0,3,3,2,0,0,0,0,0,0],"split_type":[0,0,0,0,0,0,0,0,0,0,0,0,0,0,0,0,0],"sum_hessian":[2.992E3,2.719E3,2.73E2,2.439E3,2.8E2,4.6E1,2.34E2,8E0,3.8E1,1.56E2,7.8E1,1.5E1,2.3E1,1.18E2,3.8E1,4.5E1,3.3E1],"tree_param":{"num_deleted":"0","num_feature":"4","num_nodes":"17","size_leaf_vector":"1"}},{"base_weights":[4.416272E-3,-8.375332E-2,4.4809885E-2,-4.9958313E-3,6.412211E-2,-1.0869589E-2,1.0467834E-1,1.4999998E-1,-4.545457E-2,3.9130412E-2,2.333333E-1,1.7222222E-2,-3.7500008E-3,-3.3076934E-3,2.6923066E-3,-6.33804E-4,6.11111E-3,1.7972972E-2,-0E0],"categories":[],"categories_nodes":[],"categories_segments":[],"categories_sizes":[],"default_left":[0,0,0,0,0,0,0,0,0,0,0,0,0,0,0,0,0,0,0],"id":16,"left_children":[1,3,-1,-1,5,7,9,11,13,15,17,-1,-1,-1,-1,-1,-1,-1,-1],"loss_changes":[2.2982869E2,6.3654118E0,0E0,0E0,8.073604E-1,5.082213E-1,1.4056776E0,7.527778E-1,1.6306295E-1,5.0754374E-1,1.6774776E0,0E0,0E0,0E0,0E0,0E0,0E0,0E0,0E0],"parents":[2147483647,0,0,1,1,4,4,5,5,6,6,7,7,8,8,9,9,10,10],"right_children":[2,4,-1,-1,6,8,10,12,14,16,18,-1,-1,-1,-1,-1,-1,-1,-1],"split_conditions":[1E0,9E-1,8.3840944E-2,-9.7292505E-2,4E-1,1E-1,4E-1,2E-1,5E-1,8E-1,8E-1,5.889893E-4,-1.397705E-3,-6.423968E-4,4.812927E-3,-1.8005371E-4,5.9814454E-4,4.119873E-4,1.8554491E-4],"split_indices":[0,0,0,0,1,3,3,1,3,1,1,0,0,0,0,0,0,0,0],"split_type":[0,0,0,0,0,0,0,0,0,0,0,0,0,0,0,0,0,0,0],"sum_hessian":[2.92E3,2.658E3,2.62E2,2.397E3,2.61E2,9.1E1,1.7E2,1.5E1,7.6E1,1.14E2,5.6E1,8E0,7E0,6.4E1,1.2E1,7E1,4.4E1,3.6E1,2E1],"tree_param":{"num_deleted":"0","num_feature":"4","num_nodes":"19","size_leaf_vector":"1"}},{"base_weights":[4.833196E-3,1.5504659E-2,-3.0336055E-4,-2.4691382E-2,2.3749975E-2,1.9498368E-3,-2.2826111E-2,-3.061227E-2,1.2499989E-3,3.1172816E-2,-7.1895663E-3,4.278051E-3,-9.333357E-3,2.941153E-3,-3.8461562E-2,-4.3243267E-2,-1.6216239E-2,6.761542E-3,4.94565E-2,2.9032234E-2,-1.7073194E-2,-9.879492E-4,1.2627963E-2,-6.1290346E-2,-2.9629867E-3,-3.7037272E-3,1.6666657E-3,-6.470591E-2,-2.6190499E-2,-2.6119414E-3,1.249999E-3,-4.2307707E-3,-1.171664E-9,-7.534259E-4,7.416256E-4,3.5526305E-3,1.6820265E-3,2.1428561E-3,5.555544E-4,-1.6666679E-3,-0E0,1.0439549E-3,-3.2876834E-4,1.0137445E-3,2.364853E-4,-4.545456E-3,-0E0,3.921557E-4,-1.8656729E-3,2.6315678E-4,-5.5555673E-4,-1.8421063E-3,-4.375001E-3,-2.3170745E-3,-2.272739E-4],"categories":[],"categories_nodes":[],"categories_segments":[],"categories_sizes":[],"default_left":[0,0,0,0,0,0,0,0,0,0,0,0,0,0,0,0,0,0,0,0,0,0,0,0,0,0,0,0,0,0,0,0,0,0,0,0,0,0,0,0,0,0,0,0,0,0,0,0,0,0,0,0,0,0,0],"id":17,"left_children":[1,3,5,7,9,11,13,15,-1,17,19,21,23,25,27,29,31,33,35,37,39,41,43,45,47,49,-1,51,53,-1,-1,-1,-1,-1,-1,-1,-1,-1,-1,-1,-1,-1,-1,-1,-1,-1,-1,-1,-1,-1,-1,-1,-1,-1,-1],"loss_changes":[1.6257006E-1,3.1899565E-1,1.02512084E-1,4.898966E-2,1.8634984E-1,4.6688497E-2,7.779559E-2,2.0082742E-2,0E0,2.8326434E-1,5.40742E-2,6.695655E-2,9.268865E-2,1.681917E-2,2.6895061E-2,4.945746E-2,7.361746E-2,4.9709227E-2,1.12835765E-1,1.8074829E-3,3.414634E-2,1.1001318E-1,3.2796517E-2,6.536656E-2,1.03462234E-1,4.2300243E-3,0E0,5.9365183E-3,3.1338815E-2,0E0,0E0,0E0,0E0,0E0,0E0,0E0,0E0,0E0,0E0,0E0,0E0,0E0,0E0,0E0,0E0,0E0,0E0,0E0,0E0,0E0,0E0,0E0,0E0,0E0,0E0],"parents":[2147483647,0,0,1,1,2,2,3,3,4,4,5,5,6,6,7,7,9,9,10,10,11,11,12,12,13,13,14,14,15,15,16,16,17,17,18,18,19,19,20,20,21,21,22,22,23,23,24,24,25,25,27,27,28,28],"right_children":[2,4,6,8,10,12,14,16,-1,18,20,22,24,26,28,30,32,34,36,38,40,42,44,46,48,50,-1,52,54,-1,-1,-1,-1,-1,-1,-1,-1,-1,-1,-1,-1,-1,-1,-1,-1,-1,-1,-1,-1,-1,-1,-1,-1,-1,-1],"split_conditions":[2E-1,1E-1,1E0,1E0,9E-1,5E-1,2E-1,1E-1,6.726074E-2,4E-1,2E-1,3E-1,1E-1,5E-1,3E-1,9E-1,2E-1,1E-1,6E-1,1E0,1E0,2E-1,4E-1,5E-1,8E-1,3E-1,6.416321E-2,4E-1,4E-1,-3.277588E-3,6.726074E-2,-1.1691284E-2,5.3381857E-2,-7.0239278E-3,6.0684204E-2,7.4484855E-2,4.2114258E-4,6.726074E-2,6.726074E-2,-4.695134E-3,6.0502212E-2,6.0974096E-4,-2.7587896E-3,3.90625E-4,6.0635377E-2,-2.0534702E-2,8.0383286E-2,3.552238E-4,-3.6239624E-3,6.726074E-2,2.1347595E-2,3.990139E-3,-8.0837406E-2,-7.137765E-3,3.9703295E-2],"split_indices":[2,3,1,1,1,3,3,2,0,1,3,3,1,2,2,1,1,1,1,1,1,1,2,2,1,2,0,3,3,0,0,0,0,0,0,0,0,0,0,0,0,0,0,0,0,0,0,0,0,0,0,0,0,0,0],"split_type":[0,0,0,0,0,0,0,0,0,0,0,0,0,0,0,0,0,0,0,0,0,0,0,0,0,0,0,0,0,0,0,0,0,0,0,0,0,0,0,0,0,0,0,0,0,0,0,0,0,0,0,0,0,0,0],"sum_hessian":[2.937E3,9.6E2,1.977E3,1.61E2,7.99E2,1.794E3,1.83E2,1.46E2,1.5E1,6.47E2,1.52E2,1.495E3,2.99E2,6.7E1,1.16E2,7.3E1,7.3E1,2.8E2,3.67E2,3E1,1.22E2,9.1E2,5.85E2,3E1,2.69E2,5.3E1,1.4E1,3.3E1,8.3E1,6.6E1,7E0,1.2E1,6.1E1,7.2E1,2.08E2,1.51E2,2.16E2,1.3E1,1.7E1,6.2E1,6E1,1.81E2,7.29E2,2.9E2,2.95E2,2.1E1,9E0,2.03E2,6.6E1,1.8E1,3.5E1,1.8E1,1.5E1,4E1,4.3E1],"tree_param":{"num_deleted":"0","num_feature":"4","num_nodes":"55","size_leaf_vector":"1"}},{"base_weights":[-2.0587482E-3,-8.919322E-2,4.480916E-2,-4.995896E-3,8.614209E-3,-2.6946131E-2,6.831681E-2,-7.17949E-2,1.1111087E-2,1.4615382E-1,-6.7567594E-2,-4.767443E-3,-1.9444457E-3,5.4166657E-3,-1.1194042E-3,1.469697E-2,-1.5151632E-4,-4.6296306E-3,-0E0],"categories":[],"categories_nodes":[],"categories_segments":[],"categories_sizes":[],"default_left":[0,0,0,0,0,0,0,0,0,0,0,0,0,0,0,0,0,0,0],"id":18,"left_children":[1,3,-1,-1,5,7,9,11,13,15,17,-1,-1,-1,-1,-1,-1,-1,-1],"loss_changes":[2.3190681E2,2.8442707E0,0E0,0E0,5.7283086E-1,2.919049E-1,1.0859944E0,4.3323427E-2,3.0413765E-1,1.4630537E0,6.256254E-2,0E0,0E0,0E0,0E0,0E0,0E0,0E0,0E0],"parents":[2147483647,0,0,1,1,4,4,5,5,6,6,7,7,8,8,9,9,10,10],"right_children":[2,4,-1,-1,6,8,10,12,14,16,18,-1,-1,-1,-1,-1,-1,-1,-1],"split_conditions":[1E0,9E-1,7.9521485E-2,-9.275513E-2,7E-1,3E-1,4E-1,4E-1,2E-1,9E-1,1E0,-3.063965E-3,-3.112793E-3,5.6640623E-4,-4.8828126E-5,7.0495607E-4,-8.013945E-4,-3.348694E-3,8.5693237E-4],"split_indices":[0,0,0,0,1,2,2,1,1,1,1,0,0,0,0,0,0,0,0],"split_type":[0,0,0,0,0,0,0,0,0,0,0,0,0,0,0,0,0,0,0],"sum_hessian":[2.962E3,2.701E3,2.61E2,2.435E3,2.66E2,1.66E2,1E2,7.7E1,8.9E1,6.4E1,3.6E1,4.2E1,3.5E1,2.3E1,6.6E1,3.2E1,3.2E1,2.6E1,1E1],"tree_param":{"num_deleted":"0","num_feature":"4","num_nodes":"19","size_leaf_vector":"1"}},{"base_weights":[3.2847712E-3,-8.6145274E-2,4.4814125E-2,-4.9958727E-3,4.015149E-2,-0E0,1.2619045E-1,2.3188382E-2,-7.272729E-2,2.0357141E-1,-2.4137953E-2,6.3636354E-3,1.2820394E-4,-4.714287E-3,-0E0,6.5384605E-3,1.2741934E-2,2.6923066E-3,-4.411766E-3],"categories":[],"categories_nodes":[],"categories_segments":[],"categories_sizes":[],"default_left":[0,0,0,0,0,0,0,0,0,0,0,0,0,0,0,0,0,0,0],"id":19,"left_children":[1,3,-1,-1,5,7,9,11,13,15,17,-1,-1,-1,-1,-1,-1,-1,-1],"loss_changes":[2.3598724E2,4.6802254E0,0E0,0E0,9.1201293E-1,3.0693018E-1,9.999918E-1,2.8293E-1,7.841559E-2,1.3712668E-1,1.5314871E-1,0E0,0E0,0E0,0E0,0E0,0E0,0E0,0E0],"parents":[2147483647,0,0,1,1,4,4,5,5,6,6,7,7,8,8,9,9,10,10],"right_children":[2,4,-1,-1,6,8,10,12,14,16,18,-1,-1,-1,-1,-1,-1,-1,-1],"split_conditions":[1E0,9E-1,7.358398E-2,-8.810425E-2,4E-1,3E-1,4E-1,1E-1,5E-1,2E-1,5E-1,3.631592E-4,3.3569327E-4,-3.782654E-3,1.2847892E-3,7.574462E-4,4.0283203E-4,3.0694567E-3,-2.5756846E-3],"split_indices":[0,0,0,0,3,3,2,2,2,2,2,0,0,0,0,0,0,0,0],"split_type":[0,0,0,0,0,0,0,0,0,0,0,0,0,0,0,0,0,0,0],"sum_hessian":[2.952E3,2.684E3,2.68E2,2.421E3,2.63E2,1.8E2,8.3E1,1.37E2,4.3E1,5.5E1,2.8E1,2.1E1,1.16E2,3.4E1,9E0,2.5E1,3E1,1.2E1,1.6E1],"tree_param":{"num_deleted":"0","num_feature":"4","num_nodes":"19","size_leaf_vector":"1"}},{"base_weights":[5.405382E-3,-8.6145274E-2,4.481884E-2,-4.995862E-3,3.7037015E-2,5.981733E-2,-5.769233E-2,9.243674E-3,1.1782176E-1,3.3333325E-3,-4.7560986E-3,-1.7368433E-3,8.999999E-3,9.843749E-3,-7.8947487E-4],"categories":[],"categories_nodes":[],"categories_segments":[],"categories_sizes":[],"default_left":[0,0,0,0,0,0,0,0,0,0,0,0,0,0,0],"id":20,"left_children":[1,3,-1,-1,5,7,9,11,13,-1,-1,-1,-1,-1,-1],"loss_changes":[2.4160254E2,4.564989E0,0E0,0E0,5.8631384E-1,6.286399E-1,2.51232E-1,9.1446346E-1,1.0880196E0,0E0,0E0,0E0,0E0,0E0,0E0],"parents":[2147483647,0,0,1,1,4,4,5,5,6,6,7,7,8,8],"right_children":[2,4,-1,-1,6,8,10,12,14,-1,-1,-1,-1,-1,-1],"split_conditions":[1E0,9E-1,7.159973E-2,-8.331299E-2,5E-1,6E-1,2E-1,4E-1,9E-1,3.112793E-4,-2.8234865E-3,-1.164246E-3,5.493164E-4,5.9448223E-4,-2.5170932E-3],"split_indices":[0,0,0,0,2,1,1,2,1,0,0,0,0,0,0],"split_type":[0,0,0,0,0,0,0,0,0,0,0,0,0,0,0],"sum_hessian":[2.959E3,2.684E3,2.75E2,2.415E3,2.69E2,2.18E2,5.1E1,1.18E2,1E2,1.1E1,4E1,9.4E1,2.4E1,6.3E1,3.7E1],"tree_param":{"num_deleted":"0","num_feature":"4","num_nodes":"15","size_leaf_vector":"1"}},{"base_weights":[2.9361895E-3,-8.8029765E-2,4.481752E-2,-4.995867E-3,1.7647035E-2,-1.290325E-2,8.390802E-2,7.1428334E-3,-7.4468106E-2,1.5423727E-1,-5.8620714E-2,-5.4347946E-4,2.142856E-3,-4.743591E-3,5.555545E-4,8.9534875E-3,3.8235285E-3,-4.375001E-3,-7.1428687E-4],"categories":[],"categories_nodes":[],"categories_segments":[],"categories_sizes":[],"default_left":[0,0,0,0,0,0,0,0,0,0,0,0,0,0,0,0,0,0,0],"id":21,"left_children":[1,3,-1,-1,5,7,9,11,13,15,17,-1,-1,-1,-1,-1,-1,-1,-1],"loss_changes":[2.4096355E2,3.3892803E0,0E0,0E0,5.5879056E-1,2.368134E-1,8.9068574E-1,9.37267E-2,9.1498464E-2,7.4689746E-2,2.5701962E-2,0E0,0E0,0E0,0E0,0E0,0E0,0E0,0E0],"parents":[2147483647,0,0,1,1,4,4,5,5,6,6,7,7,8,8,9,9,10,10],"right_children":[2,4,-1,-1,6,8,10,12,14,16,18,-1,-1,-1,-1,-1,-1,-1,-1],"split_conditions":[1E0,9E-1,6.838989E-2,-7.950258E-2,4E-1,3E-1,4E-1,2E-1,5E-1,3E-1,5E-1,-1.0247807E-3,4.641724E-4,-3.5339356E-3,1.361084E-3,5.3253165E-4,3.500366E-4,-7.159424E-3,2.1362288E-3],"split_indices":[0,0,0,0,3,3,2,3,2,2,3,0,0,0,0,0,0,0,0],"split_type":[0,0,0,0,0,0,0,0,0,0,0,0,0,0,0,0,0,0,0],"sum_hessian":[2.962E3,2.689E3,2.73E2,2.418E3,2.71E2,1.85E2,8.6E1,1.39E2,4.6E1,5.8E1,2.8E1,9.1E1,4.8E1,3.8E1,8E0,4.2E1,1.6E1,1.5E1,1.3E1],"tree_param":{"num_deleted":"0","num_feature":"4","num_nodes":"19","size_leaf_vector":"1"}},{"base_weights":[3.0508237E-3,-8.797613E-2,4.4816848E-2,-4.9958653E-3,2.260534E-2,4.485979E-2,-7.5000025E-2,-8.9431135E-3,1.1739128E-1,3.3333325E-3,-4.767443E-3,-3.6956535E-3,1.4102552E-3,9.912279E-3,-5.5555673E-4],"categories":[],"categories_nodes":[],"categories_segments":[],"categories_sizes":[],"default_left":[0,0,0,0,0,0,0,0,0,0,0,0,0,0,0],"id":22,"left_children":[1,3,-1,-1,5,7,9,11,13,-1,-1,-1,-1,-1,-1],"loss_changes":[2.4003337E2,3.5462189E0,0E0,0E0,5.6728256E-1,8.4700936E-1,1.4759693E-1,3.0351824E-1,9.7679377E-1,0E0,0E0,0E0,0E0,0E0,0E0],"parents":[2147483647,0,0,1,1,4,4,5,5,6,6,7,7,8,8],"right_children":[2,4,-1,-1,6,8,10,12,14,-1,-1,-1,-1,-1,-1],"split_conditions":[1E0,9E-1,6.496521E-2,-7.5496845E-2,5E-1,6E-1,1E-1,2E-1,9E-1,3.479004E-4,-2.6275634E-3,-2.9174804E-3,3.9978023E-4,5.404662E-4,-1.5808136E-3],"split_indices":[0,0,0,0,2,1,1,2,1,0,0,0,0,0,0],"split_type":[0,0,0,0,0,0,0,0,0,0,0,0,0,0,0],"sum_hessian":[2.949E3,2.677E3,2.72E2,2.417E3,2.6E2,2.13E2,4.7E1,1.22E2,9.1E1,5E0,4.2E1,4.5E1,7.7E1,5.6E1,3.5E1],"tree_param":{"num_deleted":"0","num_feature":"4","num_nodes":"15","size_leaf_vector":"1"}},{"base_weights":[-2.3421587E-4,-8.890116E-2,4.4814125E-2,-4.9959193E-3,1.0294094E-2,-1.4000024E-2,7.808217E-2,-4.7058847E-2,5.3846132E-2,2.9130432E-1,-1.7647082E-2,2.5757565E-3,-3.942309E-3,-1.0975621E-3,8.999999E-3,2.3571428E-2,-0E0,-2.6086967E-3,1.1666666E-2],"categories":[],"categories_nodes":[],"categories_segments":[],"categories_sizes":[],"default_left":[0,0,0,0,0,0,0,0,0,0,0,0,0,0,0,0,0,0,0],"id":23,"left_children":[1,3,-1,-1,5,7,9,11,13,15,17,-1,-1,-1,-1,-1,-1,-1,-1],"loss_changes":[2.3759874E2,2.983656E0,0E0,0E0,4.5544493E-1,4.5043802E-1,1.5225528E0,4.3293774E-1,6.4129454E-1,1.1596898E0,4.3600172E-1,0E0,0E0,0E0,0E0,0E0,0E0,0E0,0E0],"parents":[2147483647,0,0,1,1,4,4,5,5,6,6,7,7,8,8,9,9,10,10],"right_children":[2,4,-1,-1,6,8,10,12,14,16,18,-1,-1,-1,-1,-1,-1,-1,-1],"split_conditions":[1E0,9E-1,6.1709594E-2,-7.139588E-2,8E-1,4E-1,9E-1,2E-1,5E-1,3E-1,5E-1,4.7821045E-4,-2.645264E-3,-5.06592E-5,4.119873E-4,6.469727E-4,5.7678163E-4,-3.319092E-3,1.0772705E-3],"split_indices":[0,0,0,0,1,3,1,1,1,3,3,0,0,0,0,0,0,0,0],"split_type":[0,0,0,0,0,0,0,0,0,0,0,0,0,0,0,0,0,0,0],"sum_hessian":[2.988E3,2.72E3,2.68E2,2.449E3,2.71E2,1.99E2,7.2E1,1.35E2,6.4E1,2.2E1,5E1,3.2E1,1.03E2,4E1,2.4E1,1.3E1,9E0,4.5E1,5E0],"tree_param":{"num_deleted":"0","num_feature":"4","num_nodes":"19","size_leaf_vector":"1"}},{"base_weights":[5.423705E-3,-8.683623E-2,4.4819493E-2,-4.995845E-3,3.0111501E-2,4.678897E-2,-3.8461562E-2,1.0100774E-3,8.3333306E-2,4.0909084E-3,-7.14286E-2,-2.2368433E-3,7.499999E-3,6.2244884E-3,-4.5652185E-3,-4.7368435E-3,4.999999E-3],"categories":[],"categories_nodes":[],"categories_segments":[],"categories_sizes":[],"default_left":[0,0,0,0,0,0,0,0,0,0,0,0,0,0,0,0,0],"id":24,"left_children":[1,3,-1,-1,5,7,9,11,13,-1,15,-1,-1,-1,-1,-1,-1],"loss_changes":[2.4265019E2,4.1005516E0,0E0,0E0,3.1026742E-1,3.5618672E-1,2.1099901E-1,6.9200426E-1,8.771813E-1,0E0,1.7676693E-1,0E0,0E0,0E0,0E0,0E0,0E0],"parents":[2147483647,0,0,1,1,4,4,5,5,6,6,7,7,8,8,10,10],"right_children":[2,4,-1,-1,6,8,10,12,14,-1,16,-1,-1,-1,-1,-1,-1],"split_conditions":[1E0,9E-1,5.8636475E-2,-6.782532E-2,5E-1,5E-1,2E-1,4E-1,4E-1,4.3975827E-4,1E0,-8.551026E-4,5.023193E-4,4.5776364E-4,-4.4357316E-3,-2.4017335E-3,1.5899659E-3],"split_indices":[0,0,0,0,2,1,1,2,2,0,1,0,0,0,0,0,0],"split_type":[0,0,0,0,0,0,0,0,0,0,0,0,0,0,0,0,0],"sum_hessian":[2.949E3,2.673E3,2.76E2,2.405E3,2.68E2,2.17E2,5.1E1,9.8E1,1.19E2,1E1,4.1E1,7.5E1,2.3E1,9.7E1,2.2E1,3.7E1,4E0],"tree_param":{"num_deleted":"0","num_feature":"4","num_nodes":"17","size_leaf_vector":"1"}},{"base_weights":[5.6361556E-3,-8.689015E-2,4.482079E-2,-4.9958606E-3,2.9151268E-2,-1.1475434E-2,1.1348312E-1,1.2676032E-2,-4.761906E-3,2.1578945E-1,-6.3636385E-2,5.4166657E-3,-2.9411883E-4,7.962962E-3,1.2741934E-2,-1.0000011E-3,-4.4736858E-3],"categories":[],"categories_nodes":[],"categories_segments":[],"categories_sizes":[],"default_left":[0,0,0,0,0,0,0,0,0,0,0,0,0,0,0,0,0],"id":25,"left_children":[1,3,-1,-1,5,7,9,11,-1,13,15,-1,-1,-1,-1,-1,-1],"loss_changes":[2.4437094E2,4.0688457E0,0E0,0E0,9.39983E-1,3.7967092E-1,1.641667E0,2.629674E-1,0E0,4.3830156E-2,2.4468899E-2,0E0,0E0,0E0,0E0,0E0,0E0],"parents":[2147483647,0,0,1,1,4,4,5,5,6,6,7,7,9,9,10,10],"right_children":[2,4,-1,-1,6,8,10,12,-1,14,16,-1,-1,-1,-1,-1,-1],"split_conditions":[1E0,9E-1,5.569153E-2,-6.421509E-2,4E-1,3E-1,4E-1,1E-1,-2.8076172E-3,2E-1,5E-1,4.0710447E-4,-6.756624E-4,6.423948E-4,3.765869E-4,1.9317613E-3,-3.881226E-3],"split_indices":[0,0,0,0,3,3,2,2,0,2,2,0,0,0,0,0,0],"split_type":[0,0,0,0,0,0,0,0,0,0,0,0,0,0,0,0,0],"sum_hessian":[2.962E3,2.684E3,2.78E2,2.414E3,2.7E2,1.82E2,8.8E1,1.41E2,4.1E1,5.6E1,3.2E1,2.3E1,1.18E2,2.6E1,3E1,1.4E1,1.8E1],"tree_param":{"num_deleted":"0","num_feature":"4","num_nodes":"17","size_leaf_vector":"1"}},{"base_weights":[2.378287E-4,-8.79851E-2,4.4810604E-2,-4.9958606E-3,2.0300727E-2,-3.3708103E-3,6.85393E-2,1.1111087E-2,-5.0000023E-2,1.7906974E-1,-3.1914916E-2,-3.030315E-4,1.4285702E-3,2.1428561E-3,-3.4210538E-3,4.374999E-3,2E-2,1.6666657E-3,-3.1818193E-3],"categories":[],"categories_nodes":[],"categories_segments":[],"categories_sizes":[],"default_left":[0,0,0,0,0,0,0,0,0,0,0,0,0,0,0,0,0,0,0],"id":26,"left_children":[1,3,-1,-1,5,7,9,11,13,15,17,-1,-1,-1,-1,-1,-1,-1,-1],"loss_changes":[2.327905E2,3.4727592E0,0E0,0E0,3.1048834E-1,1.246442E-1,1.0086197E0,4.290043E-2,8.075188E-2,7.861626E-1,1.024307E-1,0E0,0E0,0E0,0E0,0E0,0E0,0E0,0E0],"parents":[2147483647,0,0,1,1,4,4,5,5,6,6,7,7,8,8,9,9,10,10],"right_children":[2,4,-1,-1,6,8,10,12,14,16,18,-1,-1,-1,-1,-1,-1,-1,-1],"split_conditions":[1E0,9E-1,5.1817007E-2,-6.131592E-2,4E-1,3E-1,3E-1,3E-1,1E-1,2E-1,4E-1,-3.9550924E-4,4.6081544E-4,1.1077881E-3,-2.466431E-3,4.608153E-4,8.770751E-4,3.5552977E-4,-8.8104355E-4],"split_indices":[0,0,0,0,3,3,2,2,2,2,2,0,0,0,0,0,0,0,0],"split_type":[0,0,0,0,0,0,0,0,0,0,0,0,0,0,0,0,0,0,0],"sum_hessian":[2.942E3,2.679E3,2.63E2,2.414E3,2.65E2,1.77E2,8.8E1,1.34E2,4.3E1,4.2E1,4.6E1,6.5E1,6.9E1,6E0,3.7E1,3.1E1,1.1E1,1.4E1,3.2E1],"tree_param":{"num_deleted":"0","num_feature":"4","num_nodes":"19","size_leaf_vector":"1"}},{"base_weights":[4.8927376E-3,-8.7721914E-2,4.4822063E-2,-4.9958946E-3,2.2222199E-2,-1.7073194E-2,5.5405382E-2,-6.0000025E-2,5.9090886E-2,1.268041E-1,-7.69231E-2,-4.0476206E-3,5.555544E-4,1.6874999E-2,-4.6551735E-3,1.0151514E-2,-1.5625012E-3,-4.767443E-3,-0E0],"categories":[],"categories_nodes":[],"categories_segments":[],"categories_sizes":[],"default_left":[0,0,0,0,0,0,0,0,0,0,0,0,0,0,0,0,0,0,0],"id":27,"left_children":[1,3,-1,-1,5,7,9,11,13,15,17,-1,-1,-1,-1,-1,-1,-1,-1],"loss_changes":[2.4654976E2,3.6357174E0,0E0,0E0,3.5684463E-1,4.057827E-1,1.4130588E0,1.2707937E-1,1.920243E0,1.1921651E0,8.3237946E-2,0E0,0E0,0E0,0E0,0E0,0E0,0E0,0E0],"parents":[2147483647,0,0,1,1,4,4,5,5,6,6,7,7,8,8,9,9,10,10],"right_children":[2,4,-1,-1,6,8,10,12,14,16,18,-1,-1,-1,-1,-1,-1,-1,-1],"split_conditions":[1E0,9E-1,5.032837E-2,-5.815735E-2,5E-1,4E-1,4E-1,4E-1,2E-1,9E-1,1E0,-9.417725E-4,2.6184076E-4,1.8664537E-3,-1.3720711E-3,4.2541497E-4,-3.060303E-3,-2.6104737E-3,1.7730704E-3],"split_indices":[0,0,0,0,1,2,2,1,1,1,1,0,0,0,0,0,0,0,0],"split_type":[0,0,0,0,0,0,0,0,0,0,0,0,0,0,0,0,0,0,0],"sum_hessian":[2.983E3,2.703E3,2.8E2,2.434E3,2.69E2,1.22E2,1.47E2,7.9E1,4.3E1,9.6E1,5.1E1,6.2E1,1.7E1,1.5E1,2.8E1,6.5E1,3.1E1,4.2E1,9E0],"tree_param":{"num_deleted":"0","num_feature":"4","num_nodes":"19","size_leaf_vector":"1"}},{"base_weights":[3.0508237E-3,-8.6870596E-2,4.4814814E-2,-4.9958588E-3,3.0596992E-2,-5.4945294E-3,1.0689653E-1,1.3076921E-1,-2.8662443E-2,1.9824558E-1,-6.1290346E-2,2.1428561E-3,7.499999E-3,-3.1034495E-3,-4.0000118E-4,-7.1428687E-4,1.3181818E-2,-4.411766E-3,-1.0000011E-3],"categories":[],"categories_nodes":[],"categories_segments":[],"categories_sizes":[],"default_left":[0,0,0,0,0,0,0,0,0,0,0,0,0,0,0,0,0,0,0],"id":28,"left_children":[1,3,-1,-1,5,7,9,11,13,15,17,-1,-1,-1,-1,-1,-1,-1,-1],"loss_changes":[2.371084E2,4.1187553E0,0E0,0E0,7.4873686E-1,5.681018E-1,1.3624892E0,1.8241793E-2,1.0086736E-1,8.208637E-1,2.1901317E-2,0E0,0E0,0E0,0E0,0E0,0E0,0E0,0E0],"parents":[2147483647,0,0,1,1,4,4,5,5,6,6,7,7,8,8,9,9,10,10],"right_children":[2,4,-1,-1,6,8,10,12,14,16,18,-1,-1,-1,-1,-1,-1,-1,-1],"split_conditions":[1E0,9E-1,4.7799684E-2,-5.494873E-2,4E-1,1E-1,4E-1,1E-1,3E-1,1E-1,5E-1,4.058838E-4,4.241943E-4,-2.935181E-3,-8.850099E-4,4.5165954E-5,3.4240715E-4,-6.2438967E-3,1.8630968E-3],"split_indices":[0,0,0,0,3,2,2,3,2,2,3,0,0,0,0,0,0,0,0],"split_type":[0,0,0,0,0,0,0,0,0,0,0,0,0,0,0,0,0,0,0],"sum_hessian":[2.949E3,2.68E3,2.69E2,2.413E3,2.67E2,1.81E2,8.6E1,2.5E1,1.56E2,5.6E1,3E1,6E0,1.9E1,5.7E1,9.9E1,1.3E1,4.3E1,1.6E1,1.4E1],"tree_param":{"num_deleted":"0","num_feature":"4","num_nodes":"19","size_leaf_vector":"1"}},{"base_weights":[4.8196595E-3,-8.728627E-2,4.482014E-2,-4.995864E-3,2.4087567E-2,-6.521763E-3,8.681317E-2,9.999998E-2,-2.3750024E-2,1.6666664E-1,-6.250002E-2,1.249999E-3,6.11111E-3,-2.9411883E-4,-3.57143E-3,3.3333325E-3,1.0116278E-2,-1.0000011E-3,-4.444446E-3],"categories":[],"categories_nodes":[],"categories_segments":[],"categories_sizes":[],"default_left":[0,0,0,0,0,0,0,0,0,0,0,0,0,0,0,0,0,0,0],"id":29,"left_children":[1,3,-1,-1,5,7,9,11,13,15,17,-1,-1,-1,-1,-1,-1,-1,-1],"loss_changes":[2.438095E2,3.7941837E0,0E0,0E0,5.3467214E-1,3.3242393E-1,1.1058425E0,2.3888916E-2,1.2815335E-1,1.7356586E-1,2.3222223E-2,0E0,0E0,0E0,0E0,0E0,0E0,0E0,0E0],"parents":[2147483647,0,0,1,1,4,4,5,5,6,6,7,7,8,8,9,9,10,10],"right_children":[2,4,-1,-1,6,8,10,12,14,16,18,-1,-1,-1,-1,-1,-1,-1,-1],"split_conditions":[1E0,9E-1,4.5412596E-2,-5.2593995E-2,4E-1,1E-1,4E-1,1E-1,3E-1,1E-1,5E-1,3.845215E-4,5.242917E-4,-4.6722637E-4,-2.2680664E-3,1.2835687E-3,2.8198244E-4,1.1016828E-3,-2.1368419E-3],"split_indices":[0,0,0,0,3,2,2,3,3,2,2,0,0,0,0,0,0,0,0],"split_type":[0,0,0,0,0,0,0,0,0,0,0,0,0,0,0,0,0,0,0],"sum_hessian":[2.966E3,2.689E3,2.77E2,2.416E3,2.73E2,1.83E2,9E1,2.4E1,1.59E2,5.9E1,3.1E1,7E0,1.7E1,1.18E2,4.1E1,1.7E1,4.2E1,1.4E1,1.7E1],"tree_param":{"num_deleted":"0","num_feature":"4","num_nodes":"19","size_leaf_vector":"1"}},{"base_weights":[1.6834779E-3,-8.697746E-2,4.481343E-2,-4.9958914E-3,2.9151268E-2,1.1235718E-3,8.085104E-2,1.7647035E-2,-4.8837233E-2,1.6229506E-1,-6.470591E-2,-3.030315E-4,2.0422523E-3,3.3333325E-3,-3.4210538E-3,3.6206886E-3,1.1666666E-2,-1.2500011E-3,-4.4736858E-3],"categories":[],"categories_nodes":[],"categories_segments":[],"categories_sizes":[],"default_left":[0,0,0,0,0,0,0,0,0,0,0,0,0,0,0,0,0,0,0],"id":30,"left_children":[1,3,-1,-1,5,7,9,11,13,15,17,-1,-1,-1,-1,-1,-1,-1,-1],"loss_changes":[2.357237E2,4.0719185E0,0E0,0E0,3.8439763E-1,1.4468634E-1,1.1346061E0,7.8522004E-2,1.02003284E-1,3.4201443E-1,1.9752324E-2,0E0,0E0,0E0,0E0,0E0,0E0,0E0,0E0],"parents":[2147483647,0,0,1,1,4,4,5,5,6,6,7,7,8,8,9,9,10,10],"right_children":[2,4,-1,-1,6,8,10,12,14,16,18,-1,-1,-1,-1,-1,-1,-1,-1],"split_conditions":[1E0,9E-1,4.3139648E-2,-4.98993E-2,4E-1,3E-1,4E-1,3E-1,1E-1,2E-1,5E-1,-2.7526953E-4,4.1748048E-4,9.82666E-4,-2.230225E-3,4.6722378E-4,3.1555173E-4,1.3256822E-3,-2.5000002E-3],"split_indices":[0,0,0,0,3,3,2,2,2,2,2,0,0,0,0,0,0,0,0],"split_type":[0,0,0,0,0,0,0,0,0,0,0,0,0,0,0,0,0,0,0],"sum_hessian":[2.969E3,2.702E3,2.67E2,2.432E3,2.7E2,1.77E2,9.3E1,1.35E2,4.2E1,6E1,3.3E1,6.5E1,7E1,5E0,3.7E1,2.8E1,3.2E1,1.5E1,1.8E1],"tree_param":{"num_deleted":"0","num_feature":"4","num_nodes":"19","size_leaf_vector":"1"}},{"base_weights":[4.3623922E-3,-8.698227E-2,4.4819493E-2,-4.995901E-3,3.1578925E-2,2.2727035E-3,8.681317E-2,7.857141E-2,-1.140942E-2,1.6666664E-1,-6.250002E-2,-3.5714295E-3,6.3636354E-3,2.499999E-3,-1.7272739E-3,3.6206886E-3,1.2187499E-2,-1.0000011E-3,-4.444446E-3],"categories":[],"categories_nodes":[],"categories_segments":[],"categories_sizes":[],"default_left":[0,0,0,0,0,0,0,0,0,0,0,0,0,0,0,0,0,0,0],"id":31,"left_children":[1,3,-1,-1,5,7,9,11,13,15,17,-1,-1,-1,-1,-1,-1,-1,-1],"loss_changes":[2.4297511E2,4.157055E0,0E0,0E0,4.2147014E-1,1.9134402E-1,1.1058425E0,2.1922076E-1,2.1187676E-1,3.8665235E-1,2.3222223E-2,0E0,0E0,0E0,0E0,0E0,0E0,0E0,0E0],"parents":[2147483647,0,0,1,1,4,4,5,5,6,6,7,7,8,8,9,9,10,10],"right_children":[2,4,-1,-1,6,8,10,12,14,16,18,-1,-1,-1,-1,-1,-1,-1,-1],"split_conditions":[1E0,9E-1,4.083252E-2,-4.7772218E-2,4E-1,1E-1,4E-1,1E-1,1E-1,2E-1,5E-1,-2.584839E-3,3.7536616E-4,4.0283203E-4,-2.0172123E-3,4.4280972E-4,2.520752E-4,1.6464221E-3,-2.369385E-3],"split_indices":[0,0,0,0,3,2,2,3,3,2,2,0,0,0,0,0,0,0,0],"split_type":[0,0,0,0,0,0,0,0,0,0,0,0,0,0,0,0,0,0,0],"sum_hessian":[2.979E3,2.703E3,2.76E2,2.438E3,2.65E2,1.75E2,9E1,2.7E1,1.48E2,5.9E1,3.1E1,6E0,2.1E1,3.9E1,1.09E2,2.8E1,3.1E1,1.4E1,1.7E1],"tree_param":{"num_deleted":"0","num_feature":"4","num_nodes":"19","size_leaf_vector":"1"}},{"base_weights":[1.1540834E-3,-8.577813E-2,4.480843E-2,-4.9958653E-3,4.1263916E-2,7.3410384E-2,-1.5463941E-2,-4.2465776E-2,1.5742572E-1,2.8888887E-1,-8.500002E-2,-4.6296306E-3,-5.3191604E-4,1.1666666E-2,-1.3333345E-3,2.2777777E-2,4.999999E-3,-4.861112E-3,5.555545E-4],"categories":[],"categories_nodes":[],"categories_segments":[],"categories_sizes":[],"default_left":[0,0,0,0,0,0,0,0,0,0,0,0,0,0,0,0,0,0,0],"id":32,"left_children":[1,3,-1,-1,5,7,9,11,13,15,17,-1,-1,-1,-1,-1,-1,-1,-1],"loss_changes":[2.2937318E2,4.8347683E0,0E0,0E0,4.9747828E-1,1.7024009E0,2.0570261E0,1.0515678E-1,1.4382641E0,4.6555543E-1,1.0366666E-1,0E0,0E0,0E0,0E0,0E0,0E0,0E0,0E0],"parents":[2147483647,0,0,1,1,4,4,5,5,6,6,7,7,8,8,9,9,10,10],"right_children":[2,4,-1,-1,6,8,10,12,14,16,18,-1,-1,-1,-1,-1,-1,-1,-1],"split_conditions":[1E0,9E-1,3.894043E-2,-4.672306E-2,4E-1,5E-1,2E-1,2E-1,9E-1,5E-1,1E0,-5.1617436E-3,-2.0141732E-5,5.877684E-4,-3.0059817E-3,5.6762696E-4,3.7536616E-4,-2.0568848E-3,2.0568848E-3],"split_indices":[0,0,0,0,2,1,1,1,1,2,1,0,0,0,0,0,0,0,0],"split_type":[0,0,0,0,0,0,0,0,0,0,0,0,0,0,0,0,0,0,0],"sum_hessian":[2.945E3,2.685E3,2.6E2,2.417E3,2.68E2,1.72E2,9.6E1,7.2E1,1E2,1.7E1,7.9E1,2.6E1,4.6E1,7.1E1,2.9E1,8E0,9E0,7.1E1,8E0],"tree_param":{"num_deleted":"0","num_feature":"4","num_nodes":"19","size_leaf_vector":"1"}},{"base_weights":[2.306897E-3,-8.8876635E-2,4.4819493E-2,-4.9959314E-3,1.5830092E-2,-2.9914554E-2,5.3846132E-2,-7.17949E-2,4.999998E-2,1.3076921E-1,-7.7358514E-2,-4.7872355E-3,-1.5625012E-3,1.6428571E-2,-4.6296306E-3,9.999999E-3,-1.1525118E-9,-4.767443E-3,-0E0],"categories":[],"categories_nodes":[],"categories_segments":[],"categories_sizes":[],"default_left":[0,0,0,0,0,0,0,0,0,0,0,0,0,0,0,0,0,0,0],"id":33,"left_children":[1,3,-1,-1,5,7,9,11,13,15,17,-1,-1,-1,-1,-1,-1,-1,-1],"loss_changes":[2.4400362E2,3.1489925E0,0E0,0E0,4.5441273E-1,3.9735046E-1,1.4587083E0,6.0049802E-2,1.6429101E0,8.438461E-1,7.376042E-2,0E0,0E0,0E0,0E0,0E0,0E0,0E0,0E0],"parents":[2147483647,0,0,1,1,4,4,5,5,6,6,7,7,8,8,9,9,10,10],"right_children":[2,4,-1,-1,6,8,10,12,14,16,18,-1,-1,-1,-1,-1,-1,-1,-1],"split_conditions":[1E0,9E-1,3.699341E-2,-4.271241E-2,5E-1,4E-1,4E-1,3E-1,2E-1,9E-1,1E0,-3.0365025E-3,-1.9836483E-4,2.2711172E-3,-1.20514E-3,4.791258E-4,3.4789773E-4,-1.987305E-3,1.5557851E-3],"split_indices":[0,0,0,0,1,2,2,1,1,1,1,0,0,0,0,0,0,0,0],"split_type":[0,0,0,0,0,0,0,0,0,0,0,0,0,0,0,0,0,0,0],"sum_hessian":[2.99E3,2.714E3,2.76E2,2.456E3,2.58E2,1.16E2,1.42E2,7.7E1,3.9E1,9E1,5.2E1,4.6E1,3.1E1,1.3E1,2.6E1,5.9E1,3.1E1,4.2E1,1E1],"tree_param":{"num_deleted":"0","num_feature":"4","num_nodes":"19","size_leaf_vector":"1"}},{"base_weights":[9.760785E-4,-8.8087335E-2,4.4814125E-2,-4.9958914E-3,1.8081157E-2,-1.1475434E-2,7.977526E-2,5.9999976E-2,-2.3270464E-2,1.4137928E-1,-3.1250022E-2,-3.3333343E-3,4.999999E-3,-2.9411883E-4,-3.5365864E-3,1.6666654E-3,1.2241378E-2,-4.411766E-3,1.2499989E-3],"categories":[],"categories_nodes":[],"categories_segments":[],"categories_sizes":[],"default_left":[0,0,0,0,0,0,0,0,0,0,0,0,0,0,0,0,0,0,0],"id":34,"left_children":[1,3,-1,-1,5,7,9,11,13,15,17,-1,-1,-1,-1,-1,-1,-1,-1],"loss_changes":[2.3706447E2,3.4050255E0,0E0,0E0,5.019051E-1,1.5200229E-1,6.241557E-1,1.3666666E-1,1.2313896E-1,6.122991E-1,1.1110294E-1,0E0,0E0,0E0,0E0,0E0,0E0,0E0,0E0],"parents":[2147483647,0,0,1,1,4,4,5,5,6,6,7,7,8,8,9,9,10,10],"right_children":[2,4,-1,-1,6,8,10,12,14,16,18,-1,-1,-1,-1,-1,-1,-1,-1],"split_conditions":[1E0,9E-1,3.5144042E-2,-4.0463258E-2,4E-1,1E-1,4E-1,1E-1,3E-1,2E-1,5E-1,-2.44751E-3,3.1738277E-4,-3.2837046E-4,-1.8630984E-3,3.1433094E-4,2.7893065E-4,-5.41687E-3,1.3818347E-3],"split_indices":[0,0,0,0,3,2,2,3,3,2,3,0,0,0,0,0,0,0,0],"split_type":[0,0,0,0,0,0,0,0,0,0,0,0,0,0,0,0,0,0,0],"sum_hessian":[2.97E3,2.702E3,2.68E2,2.432E3,2.7E2,1.82E2,8.8E1,2.4E1,1.58E2,5.7E1,3.1E1,5E0,1.9E1,1.18E2,4E1,2.9E1,2.8E1,1.6E1,1.5E1],"tree_param":{"num_deleted":"0","num_feature":"4","num_nodes":"19","size_leaf_vector":"1"}},{"base_weights":[6.297877E-3,-8.740798E-2,4.4825174E-2,-4.995925E-3,2.8787855E-2,2.0407925E-3,1.0289853E-1,-2.5000025E-2,6.39344E-2,2.9999998E-1,-6.66669E-3,5.6060595E-3,-3.4615397E-3,-1.2500011E-3,4.7826073E-3,2.7142856E-2,-1.0865431E-9,-2.3170745E-3,1.5E-2],"categories":[],"categories_nodes":[],"categories_segments":[],"categories_sizes":[],"default_left":[0,0,0,0,0,0,0,0,0,0,0,0,0,0,0,0,0,0,0],"id":35,"left_children":[1,3,-1,-1,5,7,9,11,13,15,17,-1,-1,-1,-1,-1,-1,-1,-1],"loss_changes":[2.504951E2,3.9581585E0,0E0,0E0,5.126082E-1,3.3352792E-1,1.5214205E0,8.2831E-1,1.8152532E-1,1.8757141E0,5.3604877E-1,0E0,0E0,0E0,0E0,0E0,0E0,0E0,0E0],"parents":[2147483647,0,0,1,1,4,4,5,5,6,6,7,7,8,8,9,9,10,10],"right_children":[2,4,-1,-1,6,8,10,12,14,16,18,-1,-1,-1,-1,-1,-1,-1,-1],"split_conditions":[1E0,9E-1,3.3391114E-2,-3.88855E-2,8E-1,4E-1,9E-1,2E-1,2E-1,3E-1,5E-1,3.341674E-4,-1.7425538E-3,-1.1602811E-3,1.4526366E-4,8.2092284E-4,7.6293625E-5,-2.4694828E-3,1.147461E-3],"split_indices":[0,0,0,0,1,3,1,1,1,3,3,0,0,0,0,0,0,0,0],"split_type":[0,0,0,0,0,0,0,0,0,0,0,0,0,0,0,0,0,0,0],"sum_hessian":[3E3,2.715E3,2.85E2,2.452E3,2.63E2,1.95E2,6.8E1,1.35E2,6E1,2.4E1,4.4E1,3.2E1,1.03E2,1.5E1,4.5E1,1.3E1,1.1E1,4E1,4E0],"tree_param":{"num_deleted":"0","num_feature":"4","num_nodes":"19","size_leaf_vector":"1"}},{"base_weights":[2.1848502E-3,-8.8453025E-2,4.481752E-2,-4.9958928E-3,1.5241612E-2,-3.191513E-3,5.8536563E-2,9.999998E-2,-2.7272752E-2,9.999998E-2,-3.0303262E-3,1.5E-2,7.692296E-4,-4.318183E-3,2.4626856E-3,-7.1428687E-4,7.162161E-3,-4.4736858E-3,4.999999E-3],"categories":[],"categories_nodes":[],"categories_segments":[],"categories_sizes":[],"default_left":[0,0,0,0,0,0,0,0,0,0,0,0,0,0,0,0,0,0,0],"id":36,"left_children":[1,3,-1,-1,5,7,9,11,13,15,17,-1,-1,-1,-1,-1,-1,-1,-1],"loss_changes":[2.412697E2,3.2222404E0,0E0,0E0,2.2039981E-1,4.6263057E-1,2.1932739E-1,5.561539E-1,7.0435554E-1,2.6204634E-1,3.0180225E-1,0E0,0E0,0E0,0E0,0E0,0E0,0E0,0E0],"parents":[2147483647,0,0,1,1,4,4,5,5,6,6,7,7,8,8,9,9,10,10],"right_children":[2,4,-1,-1,6,8,10,12,14,16,18,-1,-1,-1,-1,-1,-1,-1,-1],"split_conditions":[1E0,9E-1,3.172913E-2,-3.6393445E-2,4E-1,2E-1,7E-1,1E-1,7E-1,2E-1,5E-1,2.4414062E-4,3.5095215E-4,-1.7883301E-3,5.480956E-4,1.0729962E-3,1.5197753E-4,-3.0212419E-5,1.019287E-3],"split_indices":[0,0,0,0,3,1,1,3,1,1,3,0,0,0,0,0,0,0,0],"split_type":[0,0,0,0,0,0,0,0,0,0,0,0,0,0,0,0,0,0,0],"sum_hessian":[2.974E3,2.701E3,2.73E2,2.433E3,2.68E2,1.87E2,8.1E1,3.4E1,1.53E2,4.9E1,3.2E1,9E0,2.5E1,8.7E1,6.6E1,1.3E1,3.6E1,1.8E1,1.4E1],"tree_param":{"num_deleted":"0","num_feature":"4","num_nodes":"19","size_leaf_vector":"1"}},{"base_weights":[5.09314E-4,-8.909637E-2,4.481343E-2,-4.9958485E-3,7.011046E-3,1.9815644E-2,-4.1818205E-2,-2.0689892E-3,6.438354E-2,3.3333325E-3,-3.6363646E-3,4.259258E-3,-1.134455E-3,-0E0,5.4651154E-3],"categories":[],"categories_nodes":[],"categories_segments":[],"categories_sizes":[],"default_left":[0,0,0,0,0,0,0,0,0,0,0,0,0,0,0],"id":37,"left_children":[1,3,-1,-1,5,7,9,11,13,-1,-1,-1,-1,-1,-1],"loss_changes":[2.3654134E2,2.7949505E0,0E0,0E0,1.6806816E-1,2.1801603E-1,1.8987879E-1,2.5656575E-1,2.1111819E-1,0E0,0E0,0E0,0E0,0E0,0E0],"parents":[2147483647,0,0,1,1,4,4,5,5,6,6,7,7,8,8],"right_children":[2,4,-1,-1,6,8,10,12,14,-1,-1,-1,-1,-1,-1],"split_conditions":[1E0,9E-1,2.9678345E-2,-3.512268E-2,5E-1,4E-1,1E-1,1E-1,2E-1,2.0202633E-4,-1.536255E-3,4.0710438E-4,-4.0283272E-4,1.004027E-4,2.20642E-4],"split_indices":[0,0,0,0,2,3,3,2,2,0,0,0,0,0,0],"split_type":[0,0,0,0,0,0,0,0,0,0,0,0,0,0,0],"sum_hessian":[2.944E3,2.677E3,2.67E2,2.407E3,2.7E2,2.16E2,5.4E1,1.44E2,7.2E1,1.1E1,4.3E1,2.6E1,1.18E2,3E1,4.2E1],"tree_param":{"num_deleted":"0","num_feature":"4","num_nodes":"15","size_leaf_vector":"1"}},{"base_weights":[3.8785597E-3,-8.986589E-2,4.4822693E-2,-4.995874E-3,3.0534114E-3,1.7117094E-2,-7.073173E-2,-6.6666906E-3,1.8571426E-1,1.249999E-3,-4.7058836E-3,2.8431362E-3,-1.4827598E-3,1.8529411E-2,-4.166668E-3],"categories":[],"categories_nodes":[],"categories_segments":[],"categories_sizes":[],"default_left":[0,0,0,0,0,0,0,0,0,0,0,0,0,0,0],"id":38,"left_children":[1,3,-1,-1,5,7,9,11,13,-1,-1,-1,-1,-1,-1],"loss_changes":[2.482546E2,2.5168095E0,0E0,0E0,2.6772422E-1,9.093359E-1,1.0105455E-1,2.8375253E-1,1.4523249E0,0E0,0E0,0E0,0E0,0E0,0E0],"parents":[2147483647,0,0,1,1,4,4,5,5,6,6,7,7,8,8],"right_children":[2,4,-1,-1,6,8,10,12,14,-1,-1,-1,-1,-1,-1],"split_conditions":[1E0,9E-1,2.8604126E-2,-3.336792E-2,9E-1,8E-1,1E-1,2E-1,4E-1,8.911133E-4,-3.080446E-3,2.5024413E-4,-7.476808E-5,7.3852536E-4,-1.025391E-3],"split_indices":[0,0,0,0,1,1,2,1,2,0,0,0,0,0,0],"split_type":[0,0,0,0,0,0,0,0,0,0,0,0,0,0,0],"sum_hessian":[2.964E3,2.683E3,2.81E2,2.422E3,2.61E2,2.21E2,4E1,1.94E2,2.7E1,7E0,3.3E1,5E1,1.44E2,1.6E1,1.1E1],"tree_param":{"num_deleted":"0","num_feature":"4","num_nodes":"15","size_leaf_vector":"1"}},{"base_weights":[8.54677E-4,-9.013557E-2,4.4814814E-2,-4.995828E-3,-0E0,-2.5000025E-2,5.116277E-2,4.7058802E-2,-4.2657368E-2,-4.2307707E-3,7.567565E-2,3.9285705E-3,-3.5714295E-3,-4.310346E-3,1.1403498E-3,7.195121E-3,-2.941188E-4],"categories":[],"categories_nodes":[],"categories_segments":[],"categories_sizes":[],"default_left":[0,0,0,0,0,0,0,0,0,0,0,0,0,0,0,0,0],"id":39,"left_children":[1,3,-1,-1,5,7,9,11,13,-1,15,-1,-1,-1,-1,-1,-1],"loss_changes":[2.3848001E2,2.341568E0,0E0,0E0,3.3511627E-1,2.255039E-1,2.917444E-1,1.332773E-1,4.159911E-1,0E0,4.2641708E-1,0E0,0E0,0E0,0E0,0E0,0E0],"parents":[2147483647,0,0,1,1,4,4,5,5,6,6,7,7,8,8,10,10],"right_children":[2,4,-1,-1,6,8,10,12,14,-1,16,-1,-1,-1,-1,-1,-1],"split_conditions":[1E0,9E-1,2.7215576E-2,-3.1393435E-2,4E-1,2E-1,2E-1,3E-1,7E-1,-2.9147344E-3,7E-1,3.4179687E-4,-4.0527345E-3,-1.9046024E-3,3.7689196E-4,1.4892578E-4,9.277322E-5],"split_indices":[0,0,0,0,3,1,1,3,1,0,1,0,0,0,0,0,0],"split_type":[0,0,0,0,0,0,0,0,0,0,0,0,0,0,0,0,0],"sum_hessian":[2.924E3,2.655E3,2.69E2,2.395E3,2.6E2,1.75E2,8.5E1,3.3E1,1.42E2,1.2E1,7.3E1,2.7E1,6E0,8.6E1,5.6E1,4E1,3.3E1],"tree_param":{"num_deleted":"0","num_feature":"4","num_nodes":"17","size_leaf_vector":"1"}},{"base_weights":[-9.187037E-4,-8.835389E-2,4.480843E-2,-4.9958467E-3,1.3553089E-2,2.564079E-3,7.499997E-2,-2.2137428E-2,3.461536E-2,1.7272726E-1,3.333331E-2,1.6666654E-3,-2.586208E-3,4.374999E-3,-2.3170745E-3,1.249999E-3,2E-2,-2.1739244E-4,7.499999E-3],"categories":[],"categories_nodes":[],"categories_segments":[],"categories_sizes":[],"default_left":[0,0,0,0,0,0,0,0,0,0,0,0,0,0,0,0,0,0,0],"id":40,"left_children":[1,3,-1,-1,5,7,9,11,13,15,17,-1,-1,-1,-1,-1,-1,-1,-1],"loss_changes":[2.305247E2,3.1668015E0,0E0,0E0,1.7639194E-1,1.872754E-1,1.3651519E-1,2.1856016E-1,4.534334E-1,3.1681818E-1,1.4710145E-1,0E0,0E0,0E0,0E0,0E0,0E0,0E0,0E0],"parents":[2147483647,0,0,1,1,4,4,5,5,6,6,7,7,8,8,9,9,10,10],"right_children":[2,4,-1,-1,6,8,10,12,14,16,18,-1,-1,-1,-1,-1,-1,-1,-1],"split_conditions":[1E0,9E-1,2.5854493E-2,-2.9733276E-2,5E-1,6E-1,3E-1,2E-1,9E-1,2E-1,8E-1,2.0599364E-4,-5.114748E-4,4.943847E-4,-3.1134041E-3,3.4179688E-3,2.420044E-3,7.659903E-5,1.171875E-3],"split_indices":[0,0,0,0,3,1,1,1,1,1,1,0,0,0,0,0,0,0,0],"split_type":[0,0,0,0,0,0,0,0,0,0,0,0,0,0,0,0,0,0,0],"sum_hessian":[2.938E3,2.678E3,2.6E2,2.406E3,2.72E2,2.33E2,3.9E1,1.3E2,1.03E2,1E1,2.9E1,4.4E1,8.6E1,6.3E1,4E1,7E0,3E0,2.2E1,7E0],"tree_param":{"num_deleted":"0","num_feature":"4","num_nodes":"19","size_leaf_vector":"1"}},{"base_weights":[9.1740733E-4,-8.797613E-2,4.481203E-2,-4.995862E-3,2.167298E-2,2.564079E-3,7.391302E-2,-3.0827092E-2,7.460315E-2,2.1999998E-1,-6.66669E-3,3.333332E-3,-2.9807703E-3,5.185184E-3,-4.000001E-3,2.1923076E-2,-3.846165E-4,-2.3170745E-3,1.5E-2],"categories":[],"categories_nodes":[],"categories_segments":[],"categories_sizes":[],"default_left":[0,0,0,0,0,0,0,0,0,0,0,0,0,0,0,0,0,0,0],"id":41,"left_children":[1,3,-1,-1,5,7,9,11,13,15,17,-1,-1,-1,-1,-1,-1,-1,-1],"loss_changes":[2.3438846E2,3.5163822E0,0E0,0E0,2.5470248E-1,4.7574386E-1,8.350435E-1,3.765577E-1,2.9410574E-1,1.29E0,5.3604877E-1,0E0,0E0,0E0,0E0,0E0,0E0,0E0,0E0],"parents":[2147483647,0,0,1,1,4,4,5,5,6,6,7,7,8,8,9,9,10,10],"right_children":[2,4,-1,-1,6,8,10,12,14,16,18,-1,-1,-1,-1,-1,-1,-1,-1],"split_conditions":[1E0,9E-1,2.456543E-2,-2.8631592E-2,8E-1,4E-1,9E-1,2E-1,7E-1,3E-1,5E-1,3.14331E-4,-1.5014649E-3,1.3916015E-4,-3.967287E-5,7.080078E-4,-1.3183622E-4,-2.9577645E-3,1.1138916E-3],"split_indices":[0,0,0,0,1,3,1,1,1,3,3,0,0,0,0,0,0,0,0],"split_type":[0,0,0,0,0,0,0,0,0,0,0,0,0,0,0,0,0,0,0],"sum_hessian":[2.942E3,2.677E3,2.65E2,2.415E3,2.62E2,1.94E2,6.8E1,1.32E2,6.2E1,2.4E1,4.4E1,2.9E1,1.03E2,5.3E1,9E0,1.2E1,1.2E1,4E1,4E0],"tree_param":{"num_deleted":"0","num_feature":"4","num_nodes":"19","size_leaf_vector":"1"}},{"base_weights":[2.3568785E-3,-8.879824E-2,4.481818E-2,-4.9958946E-3,1.4503793E-2,3.0841097E-2,-5.5102065E-2,4.0703494E-2,-4.375001E-3,4.0909084E-3,-4.743591E-3,6.6037616E-4,7.195121E-3],"categories":[],"categories_nodes":[],"categories_segments":[],"categories_sizes":[],"default_left":[0,0,0,0,0,0,0,0,0,0,0,0,0],"id":42,"left_children":[1,3,-1,-1,5,7,9,11,-1,-1,-1,-1,-1],"loss_changes":[2.4219543E2,3.1068382E0,0E0,0E0,2.972124E-1,2.486471E-1,2.7588648E-1,5.470618E-1,0E0,0E0,0E0,0E0,0E0],"parents":[2147483647,0,0,1,1,4,4,5,5,6,6,7,7],"right_children":[2,4,-1,-1,6,8,10,12,-1,-1,-1,-1,-1],"split_conditions":[1E0,9E-1,2.208251E-2,-2.8024292E-2,5E-1,1E0,2E-1,8E-1,-1.9641116E-3,1.5289303E-4,-1.4117433E-3,8.3618004E-5,5.822754E-4],"split_indices":[0,0,0,0,2,1,1,1,0,0,0,0,0],"split_type":[0,0,0,0,0,0,0,0,0,0,0,0,0],"sum_hessian":[2.969E3,2.695E3,2.74E2,2.434E3,2.61E2,2.13E2,4.8E1,1.98E2,1.5E1,1E1,3.8E1,1.58E2,4E1],"tree_param":{"num_deleted":"0","num_feature":"4","num_nodes":"13","size_leaf_vector":"1"}},{"base_weights":[-2.190789E-3,2.3368013E-3,-2.5514428E-2,-9.046478E-3,4.628713E-3,2.3456767E-2,-3.5468005E-2,9.756074E-3,-2.1951243E-2,6.951848E-3,-5.1020645E-3,7.499999E-3,8.108085E-3,-5.3246778E-2,-2.4110695E-2,-2.7027263E-3,2.0879097E-2,-2.702705E-2,9.999989E-4,3.1480002E-3,3.612563E-2,-1.1041033E-2,1.842103E-2,-3.5714295E-3,1.7647035E-2,-4.714287E-3,-4.0000025E-2,-0E0,-3.78049E-2,-1.7647072E-3,1.0975598E-3,1.5789462E-3,-1.2500011E-3,-1.1628024E-4,-1.6111123E-3,4.1775336E-4,-1.09891305E-4,2.272726E-3,1.0975598E-3,-1.9117659E-3,-1.6000119E-4,1.6666654E-3,-1.4705894E-3,5.5555435E-4,3.3333325E-3,-1.1290334E-3,-4.6428586E-3,3.0302914E-4,-6.0000113E-4,-2.375001E-3,-1.3529424E-3],"categories":[],"categories_nodes":[],"categories_segments":[],"categories_sizes":[],"default_left":[0,0,0,0,0,0,0,0,0,0,0,0,0,0,0,0,0,0,0,0,0,0,0,0,0,0,0,0,0,0,0,0,0,0,0,0,0,0,0,0,0,0,0,0,0,0,0,0,0,0,0],"id":43,"left_children":[1,3,5,7,9,11,13,15,17,19,21,-1,23,25,27,29,31,33,-1,35,37,39,41,-1,43,-1,45,47,49,-1,-1,-1,-1,-1,-1,-1,-1,-1,-1,-1,-1,-1,-1,-1,-1,-1,-1,-1,-1,-1,-1],"loss_changes":[3.1569222E-1,6.435417E-2,2.389282E-1,1.0067445E-1,4.71051E-2,1.4029698E-1,7.295954E-2,2.4601111E-2,5.362559E-2,1.8272582E-1,5.4228928E-2,0E0,5.202588E-2,6.65195E-2,8.731516E-2,6.1568502E-2,4.6119142E-2,2.4959266E-2,0E0,4.219335E-2,1.7517924E-2,6.332822E-2,5.5583067E-2,0E0,1.3267983E-2,0E0,9.684794E-2,6.024237E-3,8.345038E-3,0E0,0E0,0E0,0E0,0E0,0E0,0E0,0E0,0E0,0E0,0E0,0E0,0E0,0E0,0E0,0E0,0E0,0E0,0E0,0E0,0E0,0E0],"parents":[2147483647,0,0,1,1,2,2,3,3,4,4,5,5,6,6,7,7,8,8,9,9,10,10,12,12,13,13,14,14,15,15,16,16,17,17,19,19,20,20,21,21,22,22,24,24,26,26,27,27,28,28],"right_children":[2,4,6,8,10,12,14,16,18,20,22,-1,24,26,28,30,32,34,-1,36,38,40,42,-1,44,-1,46,48,50,-1,-1,-1,-1,-1,-1,-1,-1,-1,-1,-1,-1,-1,-1,-1,-1,-1,-1,-1,-1,-1,-1],"split_conditions":[5E-1,1E-1,1E-1,2E-1,9E-1,1E-1,3E-1,5E-1,1E0,8E-1,5E-1,3.2836914E-2,2E-1,3E-1,4E-1,1E-1,1E0,2E-1,7.6538087E-3,4E-1,4E-1,1E-1,4E-1,-1.8296205E-1,1E0,-1.4764406E-2,9E-1,8E-1,5E-1,-7.948621E-3,2.685547E-4,6.5124515E-3,-5.5120927E-3,3.1823602E-3,-2.75574E-3,2.0324659E-4,-3.4790464E-5,1.5100061E-2,3.4362793E-3,-8.9099165E-3,-1.351932E-3,3.5705566E-3,-3.6932447E-3,1.8109108E-3,7.220459E-3,-4.0106247E-3,-1.8849671E-1,7.836915E-3,4.58678E-3,-3.6041264E-3,-3.627016E-3],"split_indices":[3,2,2,3,1,1,2,1,1,1,2,0,1,1,2,3,1,1,0,1,2,3,3,0,1,0,1,1,2,0,0,0,0,0,0,0,0,0,0,0,0,0,0,0,0,0,0,0,0,0,0],"split_type":[0,0,0,0,0,0,0,0,0,0,0,0,0,0,0,0,0,0,0,0,0,0,0,0,0,0,0,0,0,0,0,0,0,0,0,0,0,0,0,0,0,0,0,0,0,0,0,0,0,0,0],"sum_hessian":[2.966E3,2.481E3,4.85E2,4.08E2,2.073E3,8E1,4.05E2,1.63E2,2.45E2,1.682E3,3.91E2,7E0,7.3E1,1.53E2,2.52E2,7.3E1,9E1,2.21E2,2.4E1,1.492E3,1.9E2,3.16E2,7.5E1,6E0,6.7E1,3.4E1,1.19E2,8.9E1,1.63E2,3.3E1,4E1,7.5E1,1.5E1,4.2E1,1.79E2,7.65E2,7.27E2,1.09E2,8.1E1,6.7E1,2.49E2,5.9E1,1.6E1,6.2E1,5E0,9.2E1,2.7E1,6.5E1,2.4E1,7.9E1,8.4E1],"tree_param":{"num_deleted":"0","num_feature":"4","num_nodes":"51","size_leaf_vector":"1"}},{"base_weights":[2.7376125E-4,-8.975906E-2,4.4812735E-2,-4.954072E-3,-3.8168177E-3,-3.0285738E-2,4.772725E-2,1.1111088E-2,-3.825506E-2,1.2499998E-1,-1.4285738E-2,-3.3333343E-3,1.8181807E-3,-3.1176484E-3,-2.307704E-4,1.8965505E-3,1.5833331E-2,5.555544E-4,-1.5625012E-3],"categories":[],"categories_nodes":[],"categories_segments":[],"categories_sizes":[],"default_left":[0,0,0,0,0,0,0,0,0,0,0,0,0,0,0,0,0,0,0],"id":44,"left_children":[1,3,-1,-1,5,7,9,11,13,15,17,-1,-1,-1,-1,-1,-1,-1,-1],"loss_changes":[2.3587209E2,2.1172829E0,0E0,0E0,3.5715204E-1,6.0872734E-2,4.3454546E-1,5.242424E-2,1.13801494E-1,6.2005746E-1,2.3472227E-2,0E0,0E0,0E0,0E0,0E0,0E0,0E0,0E0],"parents":[2147483647,0,0,1,1,4,4,5,5,6,6,7,7,8,8,9,9,10,10],"right_children":[2,4,-1,-1,6,8,10,12,14,16,18,-1,-1,-1,-1,-1,-1,-1,-1],"split_conditions":[1E0,9E-1,2.1646118E-2,-2.551422E-2,4E-1,1E-1,3E-1,1E-1,4E-1,2E-1,4E-1,-1.5777588E-3,3.5888652E-4,-3.219605E-4,7.4767835E-5,1.3183558E-4,8.42468E-3,7.5073214E-5,-4.0710552E-4],"split_indices":[0,0,0,0,3,2,2,3,2,2,2,0,0,0,0,0,0,0,0],"split_type":[0,0,0,0,0,0,0,0,0,0,0,0,0,0,0,0,0,0,0],"sum_hessian":[2.921E3,2.655E3,2.66E2,2.394E3,2.61E2,1.74E2,8.7E1,2.6E1,1.48E2,3.9E1,4.8E1,5E0,2.1E1,8.4E1,6.4E1,2.8E1,1.1E1,1.7E1,3.1E1],"tree_param":{"num_deleted":"0","num_feature":"4","num_nodes":"19","size_leaf_vector":"1"}},{"base_weights":[-3.738977E-3,-9.169786E-2,4.351301E-2,-4.9542254E-3,-2.5735319E-2,2.4999976E-2,-4.427863E-2,1.0384615E-2,-1.3333357E-2,-8.461541E-2,-1.774196E-2,-1.8627463E-3,4.999999E-3,-4.814816E-3,-2.6000012E-3,-2.7083345E-3,1.9480403E-4],"categories":[],"categories_nodes":[],"categories_segments":[],"categories_sizes":[],"default_left":[0,0,0,0,0,0,0,0,0,0,0,0,0,0,0,0,0],"id":45,"left_children":[1,3,-1,-1,5,7,9,-1,11,13,15,-1,-1,-1,-1,-1,-1],"loss_changes":[2.2617111E2,1.2878532E0,0E0,0E0,2.5893253E-1,5.26436E-1,2.0341417E-1,0E0,1.6011766E-1,9.879172E-3,1.0296991E-1,0E0,0E0,0E0,0E0,0E0,0E0],"parents":[2147483647,0,0,1,1,4,4,5,5,6,6,8,8,9,9,10,10],"right_children":[2,4,-1,-1,6,8,10,-1,12,14,16,-1,-1,-1,-1,-1,-1],"split_conditions":[1E0,9E-1,2.0693665E-2,-2.4362192E-2,3E-1,1E-1,6E-1,1.8005371E-4,5E-1,4E-1,2E-1,-1.4077764E-3,2.1911615E-3,-1.6662602E-3,-9.613038E-5,-2.1240239E-4,3.2653705E-5],"split_indices":[0,0,0,0,1,3,1,0,3,3,3,0,0,0,0,0,0],"split_type":[0,0,0,0,0,0,0,0,0,0,0,0,0,0,0,0,0],"sum_hessian":[2.941E3,2.673E3,2.68E2,2.402E3,2.71E2,7.1E1,2E2,1.2E1,5.9E1,7.7E1,1.23E2,5E1,9E0,5.3E1,2.4E1,4.7E1,7.6E1],"tree_param":{"num_deleted":"0","num_feature":"4","num_nodes":"17","size_leaf_vector":"1"}},{"base_weights":[-3.7002048E-4,-8.991101E-2,4.3381296E-2,-9.827234E-2,-1.2781979E-2,-4.995365E-3,-8.4727295E-2,5.0684907E-2,-3.7113424E-2,-6.888891E-2,-4.929079E-3,-3.0434806E-2,1.8571426E-1,6.1290298E-2,-5.6097586E-2,-3.9908267E-3,-9.259271E-4,-4.7058836E-3,6.5384605E-3,1.6428571E-2,1.6666657E-3,-4.2307707E-3,8.157893E-3,-1.7021289E-3,-4.154931E-3],"categories":[],"categories_nodes":[],"categories_segments":[],"categories_sizes":[],"default_left":[0,0,0,0,0,0,0,0,0,0,0,0,0,0,0,0,0,0,0,0,0,0,0,0,0],"id":46,"left_children":[1,3,-1,5,7,-1,9,11,13,15,-1,17,19,21,23,-1,-1,-1,-1,-1,-1,-1,-1,-1,-1],"loss_changes":[2.3106538E2,1.7262936E0,0E0,2.6906967E-2,4.1129208E-1,0E0,3.6804914E-2,8.2078874E-1,3.6533263E-1,6.299633E-2,0E0,4.8087546E-1,5.623811E-1,4.824148E-1,8.3120346E-2,0E0,0E0,0E0,0E0,0E0,0E0,0E0,0E0,0E0,0E0],"parents":[2147483647,0,0,1,1,3,3,4,4,6,6,7,7,8,8,9,9,11,11,12,12,13,13,14,14],"right_children":[2,4,-1,6,8,-1,10,12,14,16,-1,18,20,22,24,-1,-1,-1,-1,-1,-1,-1,-1,-1,-1],"split_conditions":[1E0,9E-1,1.9528199E-2,8E-1,3E-1,-2.020926E-1,3E-1,4E-1,1E-1,9E-1,-7.7825934E-3,2E-1,5E-1,6E-1,4E-1,-7.4584964E-3,-6.4618005E-3,-4.083252E-3,1.5155025E-3,2.1697988E-3,1.1138914E-4,-2.128601E-3,6.61926E-4,-6.2866275E-5,-1.2954713E-3],"split_indices":[0,0,0,0,1,0,2,2,2,1,0,1,2,1,2,0,0,0,0,0,0,0,0,0,0],"split_type":[0,0,0,0,0,0,0,0,0,0,0,0,0,0,0,0,0,0,0,0,0,0,0,0,0],"sum_hessian":[2.972E3,2.695E3,2.77E2,2.43E3,2.65E2,2.156E3,2.74E2,7.2E1,1.93E2,1.34E2,1.4E2,4.5E1,2.7E1,3E1,1.63E2,1.08E2,2.6E1,3.3E1,1.2E1,1.3E1,1.4E1,1.2E1,1.8E1,9.3E1,7E1],"tree_param":{"num_deleted":"0","num_feature":"4","num_nodes":"25","size_leaf_vector":"1"}},{"base_weights":[-3.2454599E-3,-9.173802E-2,4.352941E-2,-9.826664E-2,-3.1320777E-2,-4.9953396E-3,-8.494626E-2,2.4999976E-2,-5.2577343E-2,-4.957448E-3,-6.66669E-3,6.666664E-2,-1.3513537E-2,-8.400002E-2,-3.166669E-2,-1.9444457E-3,4.999999E-3,4.259258E-3,-0E0,-2.777779E-3,4.0909084E-3,-4.811322E-3,-2.3913055E-3,-2.4000013E-3,2.1428561E-3],"categories":[],"categories_nodes":[],"categories_segments":[],"categories_sizes":[],"default_left":[0,0,0,0,0,0,0,0,0,0,0,0,0,0,0,0,0,0,0,0,0,0,0,0,0],"id":47,"left_children":[1,3,-1,5,7,-1,9,11,13,-1,15,17,19,21,23,-1,-1,-1,-1,-1,-1,-1,-1,-1,-1],"loss_changes":[2.2873756E2,1.0438251E0,0E0,2.5964737E-2,3.2132638E-1,0E0,2.9894447E-1,1.2175676E-1,1.1324465E-1,0E0,1.5244444E-1,3.5925925E-2,1.5021294E-1,1.4163375E-2,1.486381E-1,0E0,0E0,0E0,0E0,0E0,0E0,0E0,0E0,0E0,0E0],"parents":[2147483647,0,0,1,1,3,3,4,4,6,6,7,7,8,8,10,10,11,11,12,12,13,13,14,14],"right_children":[2,4,-1,6,8,-1,10,12,14,-1,16,18,20,22,24,-1,-1,-1,-1,-1,-1,-1,-1,-1,-1],"split_conditions":[1E0,9E-1,1.8551636E-2,8E-1,3E-1,-1.8963318E-1,5E-1,3E-1,6E-1,-7.550049E-3,9E-1,2E-1,5E-1,4E-1,5E-1,-1.9097908E-3,7.0343013E-3,2.4414062E-4,1.1901852E-4,-3.330689E-3,3.0981442E-3,-1.3339234E-3,-6.347659E-5,-1.7089854E-4,5.361937E-4],"split_indices":[0,0,0,0,1,0,3,3,1,0,1,1,3,3,3,0,0,0,0,0,0,0,0,0,0],"split_type":[0,0,0,0,0,0,0,0,0,0,0,0,0,0,0,0,0,0,0,0,0,0,0,0,0],"sum_hessian":[2.957E3,2.686E3,2.71E2,2.422E3,2.64E2,2.144E3,2.78E2,7.1E1,1.93E2,2.34E2,4.4E1,3.5E1,3.6E1,7.4E1,1.19E2,3.5E1,9E0,2.6E1,9E0,2.6E1,1E1,5.2E1,2.2E1,9.9E1,2E1],"tree_param":{"num_deleted":"0","num_feature":"4","num_nodes":"25","size_leaf_vector":"1"}},{"base_weights":[-7.552283E-3,-9.2873074E-2,8.340659E-1,-9.868585E-2,-3.769233E-2,4.2999998E-2,3.4795918E-2,-4.9953884E-3,-8.805972E-2,6.3829552E-3,-4.7663577E-2,-4.9555567E-3,-2.727275E-2,-2.0000024E-2,7.499999E-3,-5.753427E-2,-2.4637705E-2,2.8947357E-3,-4.615386E-3,1.521738E-3,-4.444446E-3,-3.7356333E-3,-1.5000012E-3,-0E0,-4.500001E-3],"categories":[],"categories_nodes":[],"categories_segments":[],"categories_sizes":[],"default_left":[0,0,0,0,0,0,0,0,0,0,0,0,0,0,0,0,0,0,0,0,0,0,0,0,0],"id":48,"left_children":[1,3,5,7,9,-1,-1,-1,11,13,15,-1,17,19,-1,21,23,-1,-1,-1,-1,-1,-1,-1,-1],"loss_changes":[2.1298447E2,8.4675217E-1,2.2401428E-1,4.0225983E-3,1.1869848E-1,0E0,0E0,0E0,1.6469598E-1,1.940851E-1,3.900355E-2,0E0,2.524954E-1,1.4752658E-1,0E0,5.634448E-2,1.2011595E-1,0E0,0E0,0E0,0E0,0E0,0E0,0E0,0E0],"parents":[2147483647,0,0,1,1,2,2,3,3,4,4,8,8,9,9,10,10,12,12,13,13,15,15,16,16],"right_children":[2,4,6,8,10,-1,-1,-1,12,14,16,-1,18,20,-1,22,24,-1,-1,-1,-1,-1,-1,-1,-1],"split_conditions":[1E0,9E-1,5E-1,8E-1,1E-1,1.7892456E-2,1.543274E-2,-1.8245912E-1,5E-1,5E-1,4E-1,-7.2357184E-3,3E-1,3E-1,1.8493653E-3,4E-1,5E-1,3.0798323E-3,-6.6583254E-3,6.0119597E-5,-1.5380867E-4,-2.8503418E-4,-1.1535647E-3,8.239736E-5,-1.751709E-3],"split_indices":[0,0,2,0,2,0,0,0,3,3,3,0,2,3,0,2,2,0,0,0,0,0,0,0,0],"split_type":[0,0,0,0,0,0,0,0,0,0,0,0,0,0,0,0,0,0,0,0,0,0,0,0,0],"sum_hessian":[2.965E3,2.693E3,2.72E2,2.434E3,2.59E2,2.24E2,4.8E1,2.167E3,2.67E2,4.6E1,2.13E2,2.24E2,4.3E1,3.9E1,7E0,1.45E2,6.8E1,1.8E1,2.5E1,2.2E1,1.7E1,8.6E1,5.9E1,4.9E1,1.9E1],"tree_param":{"num_deleted":"0","num_feature":"4","num_nodes":"25","size_leaf_vector":"1"}},{"base_weights":[-5.739389E-3,-9.100039E-2,8.306569E-1,-9.868207E-2,-1.9083994E-2,4.3369565E-2,3.730769E-2,-4.995378E-3,-8.796995E-2,2.4999976E-2,-2.7354283E-2,-4.955753E-3,-2.1951243E-2,-3.0303262E-3,7.499999E-3,-5.9493694E-2,-8.965541E-3,2.499999E-3,-4.545456E-3,2.499999E-3,-4.2857155E-3,-4.000001E-3,-0E0,3.1914777E-4,-1.9230781E-3],"categories":[],"categories_nodes":[],"categories_segments":[],"categories_sizes":[],"default_left":[0,0,0,0,0,0,0,0,0,0,0,0,0,0,0,0,0,0,0,0,0,0,0,0,0],"id":49,"left_children":[1,3,5,7,9,-1,-1,-1,11,13,15,-1,17,19,-1,21,23,-1,-1,-1,-1,-1,-1,-1,-1],"loss_changes":[2.1122775E2,1.4718456E0,4.197693E-2,4.2972565E-3,9.644113E-2,0E0,0E0,0E0,1.8143678E-1,1.5530303E-1,1.24414444E-1,0E0,2.1206208E-1,1.5255412E-1,0E0,1.0437977E-1,6.90977E-2,0E0,0E0,0E0,0E0,0E0,0E0,0E0,0E0],"parents":[2147483647,0,0,1,1,2,2,3,3,4,4,8,8,9,9,10,10,12,12,13,13,15,15,16,16],"right_children":[2,4,6,8,10,-1,-1,-1,12,14,16,-1,18,20,-1,22,24,-1,-1,-1,-1,-1,-1,-1,-1],"split_conditions":[1E0,9E-1,4E-1,8E-1,1E-1,1.6975097E-2,1.4660644E-2,-1.7206392E-1,5E-1,5E-1,3E-1,-6.896363E-3,3E-1,3E-1,1.7578126E-3,4E-1,5E-1,2.5268549E-3,-6.083985E-3,7.6293916E-5,-8.51441E-4,-1.7974854E-3,7.934562E-5,1.0681152E-4,-9.783938E-4],"split_indices":[0,0,2,0,2,0,0,0,3,3,2,0,2,3,0,3,2,0,0,0,0,0,0,0,0],"split_type":[0,0,0,0,0,0,0,0,0,0,0,0,0,0,0,0,0,0,0,0,0,0,0,0,0],"sum_hessian":[2.961E3,2.688E3,2.73E2,2.427E3,2.61E2,1.83E2,9E1,2.162E3,2.65E2,3.9E1,2.22E2,2.25E2,4E1,3.2E1,7E0,7.8E1,1.44E2,1.9E1,2.1E1,1.9E1,1.3E1,5.9E1,1.9E1,9.3E1,5.1E1],"tree_param":{"num_deleted":"0","num_feature":"4","num_nodes":"25","size_leaf_vector":"1"}},{"base_weights":[-5.3836037E-3,-9.064243E-2,4.0714286E-2,-9.867989E-2,-1.7777802E-2,-4.9953586E-3,-8.8191904E-2,6.1764684E-2,-4.482761E-2,-4.9553583E-3,-3.3333357E-2,1.1666666E-2,2.2806995E-2,-6.204382E-2,-7.46271E-3,1.2499989E-3,-3.1818193E-3,2.0833216E-4,4.999999E-3,-4.824563E-3,-1.7901246E-3,-1.4444457E-3,1.521738E-3],"categories":[],"categories_nodes":[],"categories_segments":[],"categories_sizes":[],"default_left":[0,0,0,0,0,0,0,0,0,0,0,0,0,0,0,0,0,0,0,0,0,0,0],"id":50,"left_children":[1,3,-1,5,7,-1,9,11,13,-1,15,-1,17,19,21,-1,-1,-1,-1,-1,-1,-1,-1],"loss_changes":[2.0769682E2,1.5637474E0,0E0,3.578186E-3,5.8200943E-1,0E0,1.4572597E-1,4.2357075E-1,1.2317255E-1,0E0,9.030303E-2,0E0,7.118422E-2,1.07156634E-1,5.5128563E-2,0E0,0E0,0E0,0E0,0E0,0E0,0E0,0E0],"parents":[2147483647,0,0,1,1,3,3,4,4,6,6,7,7,8,8,10,10,12,12,13,13,14,14],"right_children":[2,4,-1,6,8,-1,10,12,14,-1,16,-1,18,20,22,-1,-1,-1,-1,-1,-1,-1,-1],"split_conditions":[1E0,9E-1,1.5881348E-2,8E-1,3E-1,-1.6290471E-1,5E-1,1E-1,4E-1,-6.5222173E-3,3E-1,1.00708006E-4,5E-1,6E-1,8E-1,1.2872313E-3,-5.8392338E-3,2.1179198E-4,3.0548093E-3,-1.2390137E-3,-1.4526401E-4,-2.7465847E-5,3.3020016E-4],"split_indices":[0,0,0,0,1,0,3,3,3,0,1,0,3,1,1,0,0,0,0,0,0,0,0],"split_type":[0,0,0,0,0,0,0,0,0,0,0,0,0,0,0,0,0,0,0,0,0,0,0],"sum_hessian":[2.971E3,2.692E3,2.79E2,2.423E3,2.69E2,2.153E3,2.7E2,6.7E1,2.02E2,2.23E2,4.7E1,1.1E1,5.6E1,1.36E2,6.6E1,1.5E1,3.2E1,4.7E1,9E0,5.6E1,8E1,4.4E1,2.2E1],"tree_param":{"num_deleted":"0","num_feature":"4","num_nodes":"23","size_leaf_vector":"1"}},{"base_weights":[-1.1005134E-2,-9.2048034E-2,7.888889E-1,-4.9751257E-3,-2.0784337E-2,8.4999996E-1,6.5824175E-1,6.279068E-2,-3.802819E-2,3.590909E-2,4.4270072E-2,2.1315789E-2,3.541096E-2,3.8888864E-2,7.499999E-3,-6.1445806E-2,-2.2137428E-2,2.6923066E-3,-0E0,-3.5135148E-3,-0E0,-4.4642977E-4,-4.500001E-3],"categories":[],"categories_nodes":[],"categories_segments":[],"categories_sizes":[],"default_left":[0,0,0,0,0,0,0,0,0,0,0,0,0,0,0,0,0,0,0,0,0,0,0],"id":51,"left_children":[1,3,5,-1,7,9,11,13,15,-1,-1,-1,-1,17,-1,19,21,-1,-1,-1,-1,-1,-1],"loss_changes":[1.9026645E2,1.4021702E0,1.445343E0,0E0,3.674062E-1,4.374695E-2,6.394043E-1,6.490956E-2,6.954375E-2,0E0,0E0,0E0,0E0,2.094017E-2,0E0,5.2031934E-2,1.0673009E-1,0E0,0E0,0E0,0E0,0E0,0E0],"parents":[2147483647,0,0,1,1,2,2,4,4,5,5,6,6,7,7,8,8,13,13,15,15,16,16],"right_children":[2,4,6,-1,8,10,12,14,16,-1,-1,-1,-1,18,-1,20,22,-1,-1,-1,-1,-1,-1],"split_conditions":[1E0,9E-1,4E-1,-2.190857E-2,1E-1,1E-1,1E-1,5E-1,3E-1,1.5634766E-2,1.5209961E-2,1.5777588E-2,1.2903747E-2,4E-1,1.5167237E-3,5E-1,5E-1,2.0385723E-4,2.197261E-5,-2.3071312E-4,9.982298E-3,-3.723174E-5,-9.1552814E-5],"split_indices":[0,0,2,0,2,2,3,3,2,0,0,0,0,3,0,3,3,0,0,0,0,0,0],"split_type":[0,0,0,0,0,0,0,0,0,0,0,0,0,0,0,0,0,0,0,0,0,0,0],"sum_hessian":[2.934E3,2.665E3,2.69E2,2.411E3,2.54E2,1.79E2,9E1,4.2E1,2.12E2,4.3E1,1.36E2,1.8E1,7.2E1,3.5E1,7E0,8.2E1,1.3E2,2.5E1,1E1,7.3E1,9E0,1.11E2,1.9E1],"tree_param":{"num_deleted":"0","num_feature":"4","num_nodes":"23","size_leaf_vector":"1"}},{"base_weights":[-1.9515501E-2,-2.9773055E-2,-9.016973E-3,-2.1839105E-2,-6.370109E-2,-3.7454568E-2,-2.4146782E-3,-1.4285738E-2,-3.7000023E-2,-4.9450573E-2,-4.4000014E-3,-2.4867749E-2,-6.3218415E-2,-1.3333357E-2,-2.3816321E-8,4.477588E-3,-2.3550749E-2,-6.640002E-2,-2.3188429E-2,-6.500002E-2,-1.746034E-2,-4.16669E-3,-4.4680875E-2,-4.8333346E-3,7.142834E-3,-2.6738206E-3,-4.5833346E-3,2.885798E-3,-1.2244922E-2,-1.9047632E-3,1.216215E-3,-3.6585485E-4,-2.7717405E-3,-4.8333346E-3,-1.8181831E-3,-3.3333452E-4,-1.7515935E-3,-3.7640461E-3,-1.5625012E-3,-1.5957458E-3,8.823518E-4,5.555544E-4,-7.3770614E-4,-1.7187512E-3,-3.0645174E-3,2.1428561E-3,-1.0000011E-3,-1.6129045E-3,5.5555435E-4,-1.7241498E-4,4.846927E-4,3.8461422E-4,-1.1363648E-3],"categories":[],"categories_nodes":[],"categories_segments":[],"categories_sizes":[],"default_left":[0,0,0,0,0,0,0,0,0,0,0,0,0,0,0,0,0,0,0,0,0,0,0,0,0,0,0,0,0,0,0,0,0,0,0,0,0,0,0,0,0,0,0,0,0,0,0,0,0,0,0,0,0],"id":52,"left_children":[1,3,5,7,9,11,13,15,17,19,-1,21,23,25,27,29,31,33,35,37,39,41,43,-1,45,47,-1,49,51,-1,-1,-1,-1,-1,-1,-1,-1,-1,-1,-1,-1,-1,-1,-1,-1,-1,-1,-1,-1,-1,-1,-1,-1],"loss_changes":[3.1590486E-1,3.9329147E-1,2.7285886E-1,1.3382328E-1,7.920575E-2,7.879764E-2,3.033083E-2,1.443897E-1,1.519258E-1,8.1151426E-2,0E0,7.244792E-2,2.1439406E-1,1.6567022E-1,3.602515E-2,2.2599109E-1,2.7903146E-1,9.681934E-2,4.9602672E-2,2.8632045E-2,3.3960115E-2,1.605647E-2,4.417032E-3,0E0,3.0285709E-2,7.873479E-2,0E0,3.5026923E-2,4.2640224E-2,0E0,0E0,0E0,0E0,0E0,0E0,0E0,0E0,0E0,0E0,0E0,0E0,0E0,0E0,0E0,0E0,0E0,0E0,0E0,0E0,0E0,0E0,0E0,0E0],"parents":[2147483647,0,0,1,1,2,2,3,3,4,4,5,5,6,6,7,7,8,8,9,9,11,11,12,12,13,13,14,14,15,15,16,16,17,17,18,18,19,19,20,20,21,21,22,22,24,24,25,25,27,27,28,28],"right_children":[2,4,6,8,10,12,14,16,18,20,-1,22,24,26,28,30,32,34,36,38,40,42,44,-1,46,48,-1,50,52,-1,-1,-1,-1,-1,-1,-1,-1,-1,-1,-1,-1,-1,-1,-1,-1,-1,-1,-1,-1,-1,-1,-1,-1],"split_conditions":[3E-1,9E-1,2E-1,2E-1,4E-1,4E-1,1E-1,3E-1,2E-1,2E-1,-3.720111E-3,1E-1,5E-1,1E0,5E-1,2E-1,4E-1,4E-1,4E-1,3E-1,3E-1,4E-1,5E-1,-6.75354E-3,1E-1,4E-1,-2.3193382E-4,3E-1,4E-1,-3.0694713E-3,2.8839053E-4,-7.263216E-5,-3.81897E-3,-6.9335983E-3,-1.3330108E-3,-2.2888188E-3,-2.803346E-3,-1.1535644E-3,-5.491944E-3,-1.9042973E-3,5.6576487E-3,2.9156494E-3,-5.414125E-3,-1.6534467E-3,-7.468262E-3,8.482053E-3,4.3792673E-3,-5.0488315E-3,7.3363906E-4,-5.9204813E-5,2.777091E-4,1.5472412E-3,-3.1433166E-3],"split_indices":[3,1,1,3,2,2,2,1,2,3,0,1,3,1,2,2,2,1,1,2,2,3,3,0,1,3,0,2,3,0,0,0,0,0,0,0,0,0,0,0,0,0,0,0,0,0,0,0,0,0,0,0,0],"split_type":[0,0,0,0,0,0,0,0,0,0,0,0,0,0,0,0,0,0,0,0,0,0,0,0,0,0,0,0,0,0,0,0,0,0,0,0,0,0,0,0,0,0,0,0,0,0,0,0,0,0,0,0,0],"sum_hessian":[2.971E3,1.497E3,1.474E3,1.217E3,2.8E2,2.74E2,1.2E3,8.18E2,3.99E2,1.81E2,9.9E1,1.88E2,8.6E1,2.09E2,9.91E2,2.67E2,5.51E2,1.24E2,2.75E2,1.19E2,6.2E1,9.5E1,9.3E1,5.9E1,2.7E1,1.86E2,2.3E1,7.96E2,1.95E2,8.3E1,1.84E2,3.68E2,1.83E2,5.9E1,6.5E1,1.19E2,1.56E2,8.8E1,3.1E1,4.6E1,1.6E1,3.5E1,6E1,6.3E1,3E1,1.3E1,1.4E1,6.1E1,1.25E2,4.05E2,3.91E2,6.4E1,1.31E2],"tree_param":{"num_deleted":"0","num_feature":"4","num_nodes":"53","size_leaf_vector":"1"}},{"base_weights":[-1.7437985E-2,-8.9237034E-2,7.037037E-1,-9.8688014E-2,-4.7272965E-3,6.5E-1,8.156626E-1,-4.995395E-3,-8.8104114E-2,8.309857E-2,-3.5609778E-2,3.3662792E-2,3.705882E-1,2.8333334E-2,4.3484848E-2,-4.955753E-3,-2.727275E-2,3.1666663E-1,3.333331E-2,-7.3494E-2,-8.9431135E-3,4.999999E-3,3.25E-2,-3.3783799E-3,7.499999E-3,2E-2,4.999999E-3,-0E0,8.636363E-3,-4.824563E-3,-9.259271E-4,-0E0,-2.3913055E-3],"categories":[],"categories_nodes":[],"categories_segments":[],"categories_sizes":[],"default_left":[0,0,0,0,0,0,0,0,0,0,0,0,0,0,0,0,0,0,0,0,0,0,0,0,0,0,0,0,0,0,0,0,0],"id":53,"left_children":[1,3,5,7,9,11,13,-1,15,17,19,-1,21,-1,-1,-1,23,25,27,29,31,-1,-1,-1,-1,-1,-1,-1,-1,-1,-1,-1,-1],"loss_changes":[1.5440121E2,2.156065E0,9.466553E-1,3.8852692E-3,7.440874E-1,8.677292E-1,4.8024368E-1,0E0,1.6483736E-1,7.797184E-1,1.9819939E-1,0E0,1.1452942E0,0E0,0E0,0E0,3.1619164E-1,1.2666667E-1,2.6151517E-1,9.1647774E-2,4.2771295E-2,0E0,0E0,0E0,0E0,0E0,0E0,0E0,0E0,0E0,0E0,0E0,0E0],"parents":[2147483647,0,0,1,1,2,2,3,3,4,4,5,5,6,6,8,8,9,9,10,10,12,12,16,16,17,17,18,18,19,19,20,20],"right_children":[2,4,6,8,10,12,14,-1,16,18,20,-1,22,-1,-1,-1,24,26,28,30,32,-1,-1,-1,-1,-1,-1,-1,-1,-1,-1,-1,-1],"split_conditions":[1E0,9E-1,4E-1,8E-1,3E-1,1E0,2E-1,-1.5526919E-1,5E-1,1E-1,6E-1,1.2850341E-2,2E-1,1.42443795E-2,1.5220337E-2,-5.171509E-3,9E-1,2E-1,5E-1,4E-1,1E0,6.036377E-3,1.0861206E-2,-4.0255743E-3,7.797241E-3,2.0751954E-4,4.272461E-5,1.8920848E-4,2.3760984E-3,-1.345826E-3,-9.155391E-6,-9.156229E-7,-1.3906865E-3],"split_indices":[0,0,3,0,1,1,1,0,3,3,1,0,3,0,0,0,1,1,3,3,1,0,0,0,0,0,0,0,0,0,0,0,0],"split_type":[0,0,0,0,0,0,0,0,0,0,0,0,0,0,0,0,0,0,0,0,0,0,0,0,0,0,0,0,0,0,0,0,0],"sum_hessian":[2.981E3,2.712E3,2.69E2,2.438E3,2.74E2,1.87E2,8.2E1,2.17E3,2.68E2,7E1,2.04E2,1.71E2,1.6E1,1.7E1,6.5E1,2.25E2,4.3E1,1.1E1,5.9E1,8.2E1,1.22E2,9E0,7E0,3.6E1,7E0,7E0,4E0,4.9E1,1E1,5.6E1,2.6E1,1E2,2.2E1],"tree_param":{"num_deleted":"0","num_feature":"4","num_nodes":"33","size_leaf_vector":"1"}},{"base_weights":[-2.5608132E-2,-8.990351E-2,6.228464E-1,-9.784771E-2,-2.043013E-2,6.4897114E-1,3.3999997E-1,-4.995322E-3,-8.1428595E-2,4.4736817E-2,-4.5098063E-2,5.8E-1,7.1512604E-1,3.3333325E-3,2.7142856E-2,-4.9579847E-3,1.6279047E-2,1.0384615E-2,9.374976E-3,-7.250002E-2,-2.6400024E-2,6.41573E-1,4.1351348E-1,4.7692305E-1,3.8617022E-2,2E-2,-1.0000012E-3,-1.8518636E-4,4.0909084E-3,-4.8076934E-3,-1.2068977E-3,-4.500001E-3,-6.6037854E-4,3.0064935E-2,4.1153844E-2,1.7413793E-2,2.8333334E-2,1.868421E-2,3.25E-2],"categories":[],"categories_nodes":[],"categories_segments":[],"categories_sizes":[],"default_left":[0,0,0,0,0,0,0,0,0,0,0,0,0,0,0,0,0,0,0,0,0,0,0,0,0,0,0,0,0,0,0,0,0,0,0,0,0,0,0],"id":54,"left_children":[1,3,5,7,9,11,13,-1,15,17,19,21,23,-1,-1,-1,25,-1,27,29,31,33,35,37,-1,-1,-1,-1,-1,-1,-1,-1,-1,-1,-1,-1,-1,-1,-1],"loss_changes":[1.2341289E2,1.4730186E0,1.6533966E0,5.539894E-2,4.5055565E-1,5.6446075E-1,1.2890475E0,0E0,4.9499178E-1,4.14289E-1,9.2718035E-2,9.1057587E-1,1.1285362E0,0E0,0E0,0E0,6.446046E-1,0E0,6.87521E-2,7.716575E-2,9.3370564E-2,1.32369995E-2,8.082914E-2,1.1931181E-1,0E0,0E0,0E0,0E0,0E0,0E0,0E0,0E0,0E0,0E0,0E0,0E0,0E0,0E0,0E0],"parents":[2147483647,0,0,1,1,2,2,3,3,4,4,5,5,6,6,8,8,9,9,10,10,11,11,12,12,16,16,18,18,19,19,20,20,21,21,22,22,23,23],"right_children":[2,4,6,8,10,12,14,-1,16,18,20,22,24,-1,-1,-1,26,-1,28,30,32,34,36,38,-1,-1,-1,-1,-1,-1,-1,-1,-1,-1,-1,-1,-1,-1,-1],"split_conditions":[1E0,9E-1,1E0,8E-1,3E-1,3E-1,2E-1,-1.4716187E-1,5E-1,1E-1,6E-1,7E-1,2E-1,5.6585693E-3,1.0007935E-2,-4.779053E-3,1E-1,1.6082759E-4,5E-1,4E-1,1E-1,6E-1,2E-1,5E-1,1.4175415E-2,3.0517578E-3,-8.4534E-4,1.2816844E-5,2.2570798E-3,-1.1547854E-3,-4.5776495E-5,-2.6916505E-3,-6.95801E-5,1.2191772E-2,1.2881468E-2,1.3934326E-2,1.383667E-2,7.597351E-3,2.3416137E-2],"split_indices":[0,0,1,0,1,3,3,0,3,3,1,1,1,0,0,0,1,0,3,3,3,1,3,3,0,0,0,0,0,0,0,0,0,0,0,0,0,0,0],"split_type":[0,0,0,0,0,0,0,0,0,0,0,0,0,0,0,0,0,0,0,0,0,0,0,0,0,0,0,0,0,0,0,0,0,0,0,0,0,0,0],"sum_hessian":[2.959E3,2.693E3,2.66E2,2.415E3,2.78E2,2.42E2,2.4E1,2.136E3,2.79E2,7.5E1,2.03E2,1.24E2,1.18E2,1.1E1,1.3E1,2.37E2,4.2E1,1.2E1,6.3E1,7.9E1,1.24E2,8.8E1,3.6E1,2.5E1,9.3E1,3E0,3.9E1,5.3E1,1E1,5.1E1,2.8E1,1.9E1,1.05E2,7.6E1,1.2E1,2.8E1,8E0,1.8E1,7E0],"tree_param":{"num_deleted":"0","num_feature":"4","num_nodes":"39","size_leaf_vector":"1"}},{"base_weights":[-2.8285254E-2,-9.132388E-2,5.9117645E-1,-4.954358E-3,-2.0000024E-2,6.9545454E-1,3.9484534E-1,5.5555534E-2,-3.574663E-2,5.25E-1,8.5505617E-1,6.4285713E-1,2.4920632E-1,-5.3846177E-2,1.9999997E-1,3.1147517E-2,-6.1490707E-2,2.7837837E-1,6.8846154E-1,4.3780487E-2,5.25E-1,1.6874999E-2,4.25E-2,3.6153844E-1,1.6315787E-1,-1.0865431E-9,-4.3333345E-3,1.7222222E-2,3.3333325E-3,-8.9743704E-4,5.869564E-3,-2.2043025E-3,-4.130436E-3,3.3888888E-2,7.068964E-3,4.364865E-2,1.0624999E-2,7.499999E-3,3.5E-2,1.3421051E-2,2.625E-2,5.526315E-3,9.999999E-3],"categories":[],"categories_nodes":[],"categories_segments":[],"categories_sizes":[],"default_left":[0,0,0,0,0,0,0,0,0,0,0,0,0,0,0,0,0,0,0,0,0,0,0,0,0,0,0,0,0,0,0,0,0,0,0,0,0,0,0,0,0,0,0],"id":55,"left_children":[1,3,5,-1,7,9,11,13,15,17,19,21,23,25,27,29,31,33,35,-1,37,-1,-1,39,41,-1,-1,-1,-1,-1,-1,-1,-1,-1,-1,-1,-1,-1,-1,-1,-1,-1,-1],"loss_changes":[1.1500631E2,1.4667225E0,5.185028E0,0E0,3.152871E-1,4.2011414E0,3.2542486E0,7.3649573E-1,3.8553995E-1,3.2592201E0,4.005432E-3,1.8082142E0,4.9750042E-1,3.7282042E-2,3.2111108E-1,2.703403E-1,4.2864442E-2,1.8468022E0,4.272604E0,0E0,3.349998E-1,0E0,0E0,1.7548609E-1,2.052641E-2,0E0,0E0,0E0,0E0,0E0,0E0,0E0,0E0,0E0,0E0,0E0,0E0,0E0,0E0,0E0,0E0,0E0,0E0],"parents":[2147483647,0,0,1,1,2,2,4,4,5,5,6,6,7,7,8,8,9,9,10,10,11,11,12,12,13,13,14,14,15,15,16,16,17,17,18,18,20,20,23,23,24,24],"right_children":[2,4,6,-1,8,10,12,14,16,18,20,22,24,26,28,30,32,34,36,-1,38,-1,-1,40,42,-1,-1,-1,-1,-1,-1,-1,-1,-1,-1,-1,-1,-1,-1,-1,-1,-1,-1],"split_conditions":[1E0,9E-1,4E-1,-1.9714355E-2,1E-1,2E-1,4E-1,6E-1,3E-1,4E-1,1E0,2E-1,7E-1,3E-1,8E-1,4E-1,4E-1,1E-1,9E-1,1.30554205E-2,3E-1,1.37762455E-2,1.3882446E-2,6E-1,5E-1,2.2033555E-4,-1.2268068E-3,1.5441895E-3,2.2460938E-4,-2.1118189E-4,3.2592763E-4,-1.1016857E-4,-1.1740118E-3,2.2244263E-2,1.0052185E-2,1.3459778E-2,6.9281007E-3,6.8511963E-3,5.630493E-3,7.2119124E-3,6.6833496E-3,9.91394E-3,1.0858155E-2],"split_indices":[0,0,2,0,2,2,1,1,1,1,1,1,1,1,1,2,2,1,1,0,2,0,0,1,2,0,0,0,0,0,0,0,0,0,0,0,0,0,0,0,0,0,0],"split_type":[0,0,0,0,0,0,0,0,0,0,0,0,0,0,0,0,0,0,0,0,0,0,0,0,0,0,0,0,0,0,0,0,0,0,0,0,0,0,0,0,0,0,0],"sum_hessian":[2.944E3,2.673E3,2.71E2,2.409E3,2.64E2,1.75E2,9.6E1,4.4E1,2.2E2,8.7E1,8.8E1,3.4E1,6.2E1,2.5E1,1.9E1,6E1,1.6E2,3.6E1,5.1E1,8.1E1,7E0,1.5E1,1.9E1,2.5E1,3.7E1,1.1E1,1.4E1,8E0,1.1E1,3.8E1,2.2E1,9.2E1,6.8E1,8E0,2.8E1,3.6E1,1.5E1,3E0,4E0,1.8E1,7E0,1.8E1,1.9E1],"tree_param":{"num_deleted":"0","num_feature":"4","num_nodes":"43","size_leaf_vector":"1"}},{"base_weights":[-2.8332788E-2,-2.4756942E-2,-6.4615406E-2,-1.5948541E-2,-4.2342365E-2,-4.8850584E-3,-4.712646E-2,-2.8988788E-2,-2.8953468E-3,-2.9505607E-2,-7.251911E-2,-7.634411E-2,-1.2195146E-2,-4.4239655E-2,-1.4223219E-2,1.9490017E-3,-1.7241403E-2,-1.5755652E-2,-4.2586774E-2,-4.926472E-3,-4.330711E-2,-5.2173935E-2,-4.7916677E-3,3.4482528E-3,-2.2222245E-2,1.7241262E-4,-2.8160932E-3,-1.6666679E-3,-4.5205597E-4,-1.9362305E-4,6.768547E-4,-1.02042E-4,-4.729731E-3,7.692296E-4,-3.0000012E-3,-2.8604665E-3,-5.339818E-4,1.2820397E-4,-3.2022484E-3,-4.6428586E-3,2.6315678E-4,-1.2500011E-3,2.1428561E-3,-1.1628024E-4,-4.166668E-3],"categories":[],"categories_nodes":[],"categories_segments":[],"categories_sizes":[],"default_left":[0,0,0,0,0,0,0,0,0,0,0,0,0,0,0,0,0,0,0,0,0,0,0,0,0,0,0,0,0,0,0,0,0,0,0,0,0,0,0,0,0,0,0,0,0],"id":56,"left_children":[1,3,5,7,9,-1,11,13,15,17,19,21,23,25,27,29,31,33,35,-1,37,39,-1,41,43,-1,-1,-1,-1,-1,-1,-1,-1,-1,-1,-1,-1,-1,-1,-1,-1,-1,-1,-1,-1],"loss_changes":[3.699937E-1,4.0769684E-1,1.3135815E-1,3.0090517E-1,3.3164382E-1,0E0,1.6780132E-1,1.9394165E-1,6.3971415E-2,1.0627043E-1,1.8062043E-1,2.4007678E-2,1.4816377E-2,2.5554162E-1,4.0718175E-2,4.6014473E-2,2.6293188E-1,4.3387437E-1,1.4050084E-1,0E0,1.2712364E-1,1.16737515E-1,0E0,3.5369452E-2,5.6899212E-2,0E0,0E0,0E0,0E0,0E0,0E0,0E0,0E0,0E0,0E0,0E0,0E0,0E0,0E0,0E0,0E0,0E0,0E0,0E0,0E0],"parents":[2147483647,0,0,1,1,2,2,3,3,4,4,6,6,7,7,8,8,9,9,10,10,11,11,12,12,13,13,14,14,15,15,16,16,17,17,18,18,20,20,21,21,23,23,24,24],"right_children":[2,4,6,8,10,-1,12,14,16,18,20,22,24,26,28,30,32,34,36,-1,38,40,-1,42,44,-1,-1,-1,-1,-1,-1,-1,-1,-1,-1,-1,-1,-1,-1,-1,-1,-1,-1,-1,-1],"split_conditions":[1E0,4E-1,2E-1,5E-1,7E-1,-1.1031495E-2,3E-1,2E-1,3E-1,3E-1,3E-1,4E-1,4E-1,1E-1,1E-1,2E-1,5E-1,4E-1,5E-1,-8.834246E-3,4E-1,3E-1,-4.6337894E-3,4E-1,5E-1,6.1889616E-4,-2.9772967E-3,-4.7155772E-3,-2.9296987E-4,-6.408692E-5,1.5786542E-3,5.810477E-4,-3.5803244E-3,1.4892525E-4,-5.2398704E-3,-4.4006356E-3,-5.22769E-4,5.60577E-3,-1.9381725E-3,-1.779175E-3,4.8291013E-3,6.1523065E-4,6.6778543E-3,-1.6381901E-3,-5.181276E-3],"split_indices":[1,2,2,1,1,0,3,2,2,3,3,2,3,1,1,2,3,1,3,0,3,2,0,2,2,0,0,0,0,0,0,0,0,0,0,0,0,0,0,0,0,0,0,0,0],"split_type":[0,0,0,0,0,0,0,0,0,0,0,0,0,0,0,0,0,0,0,0,0,0,0,0,0,0,0,0,0,0,0,0,0,0,0,0,0,0,0,0,0,0,0,0,0],"sum_hessian":[2.932E3,2.673E3,2.59E2,1.786E3,8.87E2,8.6E1,1.73E2,8.89E2,8.97E2,6.26E2,2.61E2,9.2E1,8.1E1,4.33E2,4.56E2,6.66E2,2.31E2,3.1E2,3.16E2,1.35E2,1.26E2,4.5E1,4.7E1,2.8E1,5.3E1,8.6E1,3.47E2,9.2E1,3.64E2,4.38E2,2.28E2,1.95E2,3.6E1,1.81E2,1.29E2,2.14E2,1.02E2,3.8E1,8.8E1,2.7E1,1.8E1,1.5E1,1.3E1,4.2E1,1.1E1],"tree_param":{"num_deleted":"0","num_feature":"4","num_nodes":"45","size_leaf_vector":"1"}},{"base_weights":[-2.4889667E-2,-9.018729E-2,6.065217E-1,-9.7836964E-2,-2.0599274E-2,3.2554585E-2,3.7916663E-1,-4.9952934E-3,-8.149469E-2,2.1621598E-2,-3.7113424E-2,9.047617E-2,2.8928569E-2,-4.9576284E-3,8.6956285E-3,1.7272726E-1,-3.1250236E-3,-5.806454E-2,-0E0,-0E0,7.499999E-3,1.1666666E-2,-1.0975621E-3,1.5E-2,2.1428561E-3,-1.1818194E-3,4.999999E-3,-4.310346E-3,2.6315675E-4,-8.064528E-4,4.999999E-3,-3.000001E-3,3.3333325E-3],"categories":[],"categories_nodes":[],"categories_segments":[],"categories_sizes":[],"default_left":[0,0,0,0,0,0,0,0,0,0,0,0,0,0,0,0,0,0,0,0,0,0,0,0,0,0,0,0,0,0,0,0,0],"id":57,"left_children":[1,3,5,7,9,-1,11,-1,13,15,17,19,-1,-1,21,23,25,27,29,31,-1,-1,-1,-1,-1,-1,-1,-1,-1,-1,-1,-1,-1],"loss_changes":[1.2142442E2,1.4074497E0,2.446869E0,5.4998398E-2,1.8851519E-1,0E0,2.643928E0,0E0,4.5742E-1,2.9421222E-1,1.5084803E-1,9.809524E-2,0E0,0E0,3.4294453E-1,1.3467535E-1,1.3010228E-1,2.2953984E-1,1.1612903E-1,4.4666663E-2,0E0,0E0,0E0,0E0,0E0,0E0,0E0,0E0,0E0,0E0,0E0,0E0,0E0],"parents":[2147483647,0,0,1,1,2,2,3,3,4,4,6,6,8,8,9,9,10,10,11,11,14,14,15,15,16,16,17,17,18,18,19,19],"right_children":[2,4,6,8,10,-1,12,-1,14,16,18,20,-1,-1,22,24,26,28,30,32,-1,-1,-1,-1,-1,-1,-1,-1,-1,-1,-1,-1,-1],"split_conditions":[1E0,9E-1,9E-1,8E-1,3E-1,1.2420654E-2,2E-1,-1.3908266E-1,5E-1,1E-1,8E-1,1E-1,1.080017E-2,-3.6901855E-3,1E-1,1E-1,5E-1,4E-1,5E-1,1E0,4.784546E-3,3.8543702E-3,-2.1401986E-3,4.272461E-5,5.4931643E-5,-1.0162375E-3,2.2644042E-3,-1.2728885E-3,3.9062434E-5,-6.2866224E-5,9.414671E-3,-1.0742188E-3,4.928589E-3],"split_indices":[0,0,1,0,1,0,3,0,3,3,1,3,0,0,1,1,3,3,3,1,0,0,0,0,0,0,0,0,0,0,0,0,0],"split_type":[0,0,0,0,0,0,0,0,0,0,0,0,0,0,0,0,0,0,0,0,0,0,0,0,0,0,0,0,0,0,0,0,0],"sum_hessian":[2.944E3,2.669E3,2.75E2,2.403E3,2.66E2,2.28E2,4.7E1,2.123E3,2.8E2,7.3E1,1.93E2,2E1,2.7E1,2.35E2,4.5E1,1E1,6.3E1,1.23E2,7E1,9E0,1.1E1,5E0,4E1,4E0,6E0,5.4E1,9E0,8.6E1,3.7E1,6.1E1,9E0,4E0,5E0],"tree_param":{"num_deleted":"0","num_feature":"4","num_nodes":"33","size_leaf_vector":"1"}},{"base_weights":[-3.0591458E-2,-9.282514E-2,5.928839E-1,-4.9543204E-3,-3.6059503E-2,7.079096E-1,3.6153844E-1,1.5384592E-2,-4.862388E-2,5.630435E-1,4.267442E-2,2.950617E-1,4.0454548E-2,-4.375001E-3,6.216214E-2,-6.7647085E-2,-3.907287E-2,2.3124998E-2,3.8103446E-2,3.285714E-1,8.157893E-3,7.499999E-3,1.6666654E-3,-1.8571441E-3,-4.7058836E-3,-1.2727286E-3,-3.57143E-3,9.705882E-3,1.8404255E-2],"categories":[],"categories_nodes":[],"categories_segments":[],"categories_sizes":[],"default_left":[0,0,0,0,0,0,0,0,0,0,0,0,0,0,0,0,0,0,0,0,0,0,0,0,0,0,0,0,0],"id":58,"left_children":[1,3,5,-1,7,9,11,13,15,17,-1,19,-1,-1,21,23,25,-1,-1,27,-1,-1,-1,-1,-1,-1,-1,-1,-1],"loss_changes":[1.1415805E2,9.340286E-1,6.7421646E0,0E0,1.7794356E-1,3.1106262E0,2.3582697E0,2.531653E-1,2.6293457E-2,1.3660717E0,0E0,2.5524235E-1,0E0,0E0,7.036036E-2,3.8285732E-2,5.5028617E-2,0E0,0E0,2.070322E-1,0E0,0E0,0E0,0E0,0E0,0E0,0E0,0E0,0E0],"parents":[2147483647,0,0,1,1,2,2,4,4,5,5,6,6,7,7,8,8,9,9,11,11,14,14,15,15,16,16,19,19],"right_children":[2,4,6,-1,8,10,12,14,16,18,-1,20,-1,-1,22,24,26,-1,-1,28,-1,-1,-1,-1,-1,-1,-1,-1,-1],"split_conditions":[1E0,9E-1,4E-1,-1.8127447E-2,1E-1,2E-1,5E-1,2E-1,2E-1,4E-1,1.1863403E-2,4E-1,1.286377E-2,-1.3977055E-3,3E-1,1E-1,5E-1,1.056213E-2,1.344299E-2,1E-1,3.4075927E-3,5.1879884E-5,1.5258784E-5,-6.866455E-5,-3.2775928E-4,-8.239767E-5,-6.3232466E-4,1.2399293E-2,9.902954E-3],"split_indices":[0,0,2,0,3,2,3,2,2,3,0,3,0,0,2,2,2,0,0,3,0,0,0,0,0,0,0,0,0],"split_type":[0,0,0,0,0,0,0,0,0,0,0,0,0,0,0,0,0,0,0,0,0,0,0,0,0,0,0,0,0],"sum_hessian":[2.941E3,2.675E3,2.66E2,2.407E3,2.68E2,1.76E2,9E1,5.1E1,2.17E2,9.1E1,8.5E1,8E1,1E1,1.5E1,3.6E1,6.7E1,1.5E2,6.3E1,2.8E1,6.2E1,1.8E1,7E0,2.9E1,3.4E1,3.3E1,1.09E2,4.1E1,1.6E1,4.6E1],"tree_param":{"num_deleted":"0","num_feature":"4","num_nodes":"29","size_leaf_vector":"1"}},{"base_weights":[-2.8043428E-2,-8.833211E-2,5.557971E-1,-9.783336E-2,-4.7272965E-3,5.9603524E-1,3.5999998E-1,-4.995322E-3,-8.030305E-2,4.6666645E-2,-2.4378134E-2,5.596858E-1,3.8243245E-2,3.6363613E-2,5.8965516E-1,-4.9553583E-3,2.1951197E-2,2.8461537E-1,-1.587325E-3,-3.3333357E-2,-1.2765981E-2,4.8139533E-1,6.169811E-1,-0E0,3.3333325E-3,3.5E-2,2.1666666E-2,-2.941188E-4,7.499999E-3,1.7222222E-2,4.999999E-3,1.6666654E-3,-1.7647072E-3,-2.714287E-3,1.2820397E-4,6.4516015E-4,-3.1818193E-3,2.8823528E-2,2.0471698E-2,2.7258063E-2,3.5E-2,-3.000001E-3,2.1428561E-3],"categories":[],"categories_nodes":[],"categories_segments":[],"categories_sizes":[],"default_left":[0,0,0,0,0,0,0,0,0,0,0,0,0,0,0,0,0,0,0,0,0,0,0,0,0,0,0,0,0,0,0,0,0,0,0,0,0,0,0,0,0,0,0],"id":59,"left_children":[1,3,5,7,9,11,13,-1,15,17,19,21,-1,23,25,-1,27,29,31,33,35,37,39,41,-1,-1,-1,-1,-1,-1,-1,-1,-1,-1,-1,-1,-1,-1,-1,-1,-1,-1,-1],"loss_changes":[1.0380413E2,2.1133728E0,1.864296E0,6.1178207E-2,2.7664062E-1,8.3252716E-1,3.6321936E0,0E0,5.175104E-1,8.8990235E-1,1.5866399E-2,4.4991302E-1,0E0,2.4242423E-2,8.3563805E-2,0E0,1.6142038E-1,6.470084E-2,7.552755E-2,8.654213E-2,1.286398E-1,2.5377274E-1,1.2588501E-1,3.0857142E-2,0E0,0E0,0E0,0E0,0E0,0E0,0E0,0E0,0E0,0E0,0E0,0E0,0E0,0E0,0E0,0E0,0E0,0E0,0E0],"parents":[2147483647,0,0,1,1,2,2,3,3,4,4,5,5,6,6,8,8,9,9,10,10,11,11,13,13,14,14,16,16,17,17,18,18,19,19,20,20,21,21,22,22,23,23],"right_children":[2,4,6,8,10,12,14,-1,16,18,20,22,-1,24,26,-1,28,30,32,34,36,38,40,42,-1,-1,-1,-1,-1,-1,-1,-1,-1,-1,-1,-1,-1,-1,-1,-1,-1,-1,-1],"split_conditions":[1E0,9E-1,9E-1,8E-1,3E-1,5E-1,2E-1,-1.3008426E-1,5E-1,1E-1,7E-1,4E-1,1.20404055E-2,1E0,1E0,-2.6019288E-3,9E-1,2E-1,3E-1,4E-1,4E-1,2E-1,3E-1,1E-1,4.015503E-3,1.6572567E-2,7.701111E-3,3.9611623E-4,9.53064E-3,1.6479492E-4,4.8828126E-5,3.631591E-4,-1.0662859E-3,-7.232667E-4,3.1738215E-5,1.8310524E-5,-1.2451186E-4,9.750366E-3,9.176634E-3,1.1205445E-2,1.15356445E-2,-1.638794E-3,4.0130615E-3],"split_indices":[0,0,1,0,1,3,3,0,3,3,1,1,0,1,1,0,1,1,3,3,3,3,3,3,0,0,0,0,0,0,0,0,0,0,0,0,0,0,0,0,0,0,0],"split_type":[0,0,0,0,0,0,0,0,0,0,0,0,0,0,0,0,0,0,0,0,0,0,0,0,0,0,0,0,0,0,0,0,0,0,0,0,0,0,0,0,0,0,0],"sum_hessian":[2.948E3,2.673E3,2.75E2,2.399E3,2.74E2,2.26E2,4.9E1,2.136E3,2.63E2,7.4E1,2E2,1.9E2,3.6E1,2.1E1,2.8E1,2.23E2,4E1,1.2E1,6.2E1,1.07E2,9.3E1,8.5E1,1.05E2,1E1,1.1E1,1.4E1,1.4E1,3.3E1,7E0,8E0,4E0,2.9E1,3.3E1,6.9E1,3.8E1,6.1E1,3.2E1,3.3E1,5.2E1,6.1E1,4.4E1,4E0,6E0],"tree_param":{"num_deleted":"0","num_feature":"4","num_nodes":"43","size_leaf_vector":"1"}},{"base_weights":[-3.0669354E-2,-8.966278E-2,5.521739E-1,-9.7476624E-2,-1.8382376E-2,6.5531915E-1,3.2696626E-1,-4.9954075E-3,-7.7935964E-2,7.0212744E-2,-3.7168164E-2,4.5319146E-1,4.2368423E-2,5.4516125E-1,2.0508473E-1,-2.666669E-2,-8.333336E-2,-4.7058836E-3,4.7142854E-1,-1.643838E-2,-7.283953E-2,9.999998E-2,6.5E-1,1.8529411E-2,3.5E-2,7.647057E-2,2.4883719E-1,2.1428561E-3,-2.500001E-3,-3.3846167E-3,-4.9187005E-3,3.785714E-2,7.499999E-3,-2.2727286E-3,7.1428454E-4,-4.1780835E-3,5.555545E-4,1.2499989E-3,7.499999E-3,4.151163E-2,8.888888E-3,6.11111E-3,5.555545E-4,2.4999999E-2,8.235293E-3],"categories":[],"categories_nodes":[],"categories_segments":[],"categories_sizes":[],"default_left":[0,0,0,0,0,0,0,0,0,0,0,0,0,0,0,0,0,0,0,0,0,0,0,0,0,0,0,0,0,0,0,0,0,0,0,0,0,0,0,0,0,0,0,0,0],"id":60,"left_children":[1,3,5,7,9,11,13,-1,15,17,19,21,-1,23,25,27,29,-1,31,33,35,37,39,-1,-1,41,43,-1,-1,-1,-1,-1,-1,-1,-1,-1,-1,-1,-1,-1,-1,-1,-1,-1,-1],"loss_changes":[1.0325818E2,1.5060444E0,6.098732E0,9.117317E-2,4.520028E-1,6.7837906E0,2.1800318E0,0E0,6.4536095E-2,3.180903E0,1.5699276E-1,6.394043E0,0E0,4.7147942E-1,2.8044438E-1,5.1523816E-2,3.6017537E-2,0E0,1.0814283E0,1.3392457E-1,8.108404E-2,1.10000014E-1,4.8581905E0,0E0,0E0,3.6143802E-2,7.597947E-1,0E0,0E0,0E0,0E0,0E0,0E0,0E0,0E0,0E0,0E0,0E0,0E0,0E0,0E0,0E0,0E0,0E0,0E0],"parents":[2147483647,0,0,1,1,2,2,3,3,4,4,5,5,6,6,8,8,9,9,10,10,11,11,13,13,14,14,15,15,16,16,18,18,19,19,20,20,21,21,22,22,25,25,26,26],"right_children":[2,4,6,8,10,12,14,-1,16,18,20,22,-1,24,26,28,30,-1,32,34,36,38,40,-1,-1,42,44,-1,-1,-1,-1,-1,-1,-1,-1,-1,-1,-1,-1,-1,-1,-1,-1,-1,-1],"split_conditions":[1E0,9E-1,4E-1,8E-1,2E-1,2E-1,4E-1,-1.23269044E-1,1E-1,4E-1,4E-1,4E-1,1.06781E-2,2E-1,6E-1,1E-1,3E-1,-3.50708E-3,5E-1,2E-1,1E0,1E-1,9E-1,1.1372986E-2,1.1499024E-2,5E-1,7E-1,4.550171E-3,-1.9519044E-3,-2.001953E-3,-3.516848E-3,2.206421E-3,1.5563965E-4,-2.4017335E-4,4.272458E-5,-1.2268069E-3,2.4108887E-3,1.186706E-2,8.544922E-3,1.0970459E-2,5.2026366E-3,5.0598145E-3,8.239746E-3,4.9346923E-3,8.270264E-3],"split_indices":[0,0,2,0,1,2,1,0,1,2,2,1,0,1,1,2,2,0,2,2,1,2,1,0,0,1,1,0,0,0,0,0,0,0,0,0,0,0,0,0,0,0,0,0,0],"split_type":[0,0,0,0,0,0,0,0,0,0,0,0,0,0,0,0,0,0,0,0,0,0,0,0,0,0,0,0,0,0,0,0,0,0,0,0,0,0,0,0,0,0,0,0,0],"sum_hessian":[3.002E3,2.727E3,2.75E2,2.456E3,2.71E2,1.87E2,8.8E1,2.176E3,2.8E2,4.6E1,2.25E2,9.3E1,9.4E1,3E1,5.8E1,2.9E1,2.51E2,3.3E1,1.3E1,1.45E2,8E1,3.4E1,5.9E1,1.6E1,1.4E1,1.6E1,4.2E1,6E0,2.3E1,1.29E2,1.22E2,6E0,7E0,7.6E1,6.9E1,7.2E1,8E0,1.5E1,1.9E1,4.2E1,1.7E1,8E0,8E0,9E0,3.3E1],"tree_param":{"num_deleted":"0","num_feature":"4","num_nodes":"45","size_leaf_vector":"1"}},{"base_weights":[-2.91088E-2,-9.020929E-2,5.630435E-1,-9.783966E-2,-2.1481505E-2,6.7777777E-1,3.4329894E-1,-4.9953023E-3,-8.1428595E-2,-1.1520761E-2,-5.9259284E-2,4.8333332E-1,8.381443E-1,6.0588235E-1,1.9687498E-1,