{"learner":{"attributes":{"scikit_learn":"{\"_estimator_type\": \"regressor\"}"},"feature_names":[],"feature_types":[],"gradient_booster":{"model":{"cats":{"enc":[],"feature_segments":[],"sorted_idx":[]},"gbtree_model_param":{"num_parallel_tree":"1","num_trees":"400"},"iteration_indptr":[0,1,2,3,4,5,6,7,8,9,10,11,12,13,14,15,16,17,18,19,20,21,22,23,24,25,26,27,28,29,30,31,32,33,34,35,36,37,38,39,40,41,42,43,44,45,46,47,48,49,50,51,52,53,54,55,56,57,58,59,60,61,62,63,64,65,66,67,68,69,70,71,72,73,74,75,76,77,78,79,80,81,82,83,84,85,86,87,88,89,90,91,92,93,94,95,96,97,98,99,100,101,102,103,104,105,106,107,108,109,110,111,112,113,114,115,116,117,118,119,120,121,122,123,124,125,126,127,128,129,130,131,132,133,134,135,136,137,138,139,140,141,142,143,144,145,146,147,148,149,150,151,152,153,154,155,156,157,158,159,160,161,162,163,164,165,166,167,168,169,170,171,172,173,174,175,176,177,178,179,180,181,182,183,184,185,186,187,188,189,190,191,192,193,194,195,196,197,198,199,200,201,202,203,204,205,206,207,208,209,210,211,212,213,214,215,216,217,218,219,220,221,222,223,224,225,226,227,228,229,230,231,232,233,234,235,236,237,238,239,240,241,242,243,244,245,246,247,248,249,250,251,252,253,254,255,256,257,258,259,260,261,262,263,264,265,266,267,268,269,270,271,272,273,274,275,276,277,278,279,280,281,282,283,284,285,286,287,288,289,290,291,292,293,294,295,296,297,298,299,300,301,302,303,304,305,306,307,308,309,310,311,312,313,314,315,316,317,318,319,320,321,322,323,324,325,326,327,328,329,330,331,332,333,334,335,336,337,338,339,340,341,342,343,344,345,346,347,348,349,350,351,352,353,354,355,356,357,358,359,360,361,362,363,364,365,366,367,368,369,370,371,372,373,374,375,376,377,378,379,380,381,382,383,384,385,386,387,388,389,390,391,392,393,394,395,396,397,398,399,400],"tree_info":[0,0,0,0,0,0,0,0,0,0,0,0,0,0,0,0,0,0,0,0,0,0,0,0,0,0,0,0,0,0,0,0,0,0,0,0,0,0,0,0,0,0,0,0,0,0,0,0,0,0,0,0,0,0,0,0,0,0,0,0,0,0,0,0,0,0,0,0,0,0,0,0,0,0,0,0,0,0,0,0,0,0,0,0,0,0,0,0,0,0,0,0,0,0,0,0,0,0,0,0,0,0,0,0,0,0,0,0,0,0,0,0,0,0,0,0,0,0,0,0,0,0,0,0,0,0,0,0,0,0,0,0,0,0,0,0,0,0,0,0,0,0,0,0,0,0,0,0,0,0,0,0,0,0,0,0,0,0,0,0,0,0,0,0,0,0,0,0,0,0,0,0,0,0,0,0,0,0,0,0,0,0,0,0,0,0,0,0,0,0,0,0,0,0,0,0,0,0,0,0,0,0,0,0,0,0,0,0,0,0,0,0,0,0,0,0,0,0,0,0,0,0,0,0,0,0,0,0,0,0,0,0,0,0,0,0,0,0,0,0,0,0,0,0,0,0,0,0,0,0,0,0,0,0,0,0,0,0,0,0,0,0,0,0,0,0,0,0,0,0,0,0,0,0,0,0,0,0,0,0,0,0,0,0,0,0,0,0,0,0,0,0,0,0,0,0,0,0,0,0,0,0,0,0,0,0,0,0,0,0,0,0,0,0,0,0,0,0,0,0,0,0,0,0,0,0,0,0,0,0,0,0,0,0,0,0,0,0,0,0,0,0,0,0,0,0,0,0,0,0,0,0,0,0,0,0,0,0,0,0,0,0,0,0,0,0,0,0,0,0,0,0,0,0,0,0,0,0,0,0,0,0,0,0,0,0,0,0,0,0,0,0,0,0,0,0,0,0,0,0],"trees":[{"base_weights":[-1.4986615E-3,2.2065705E-2,-1.4957289E-2,-5.992533E-3,5.0375916E-2,-3.87879E-2,-9.786155E-3,-2.4816275E-4,-2.2727296E-2,-7.575781E-3,6.957603E-2,-4.315792E-2,-8.695675E-3,-2.156664E-3,-1.9758696E-2,-6.0241204E-3,2.4999976E-2,-4.6511865E-3,-5.3191513E-2,-3.8461562E-2,1.1111087E-2,3.2812476E-2,8.6131364E-2,-1.25000235E-2,-4.873952E-2,-4.375001E-3,1.4516118E-3,-1.4157327E-2,9.839793E-3,-4.0271517E-2,-9.255103E-3,1.8586174E-5,-1.7187512E-3,-2.2727286E-3,2.8431362E-3,-4.375001E-3,6.338017E-4,1.249999E-3,-3.5000013E-3,-2.941188E-4,-4.4736858E-3,-1.1818194E-3,4.259258E-3,3.2278472E-3,-8.0000114E-4,3.5714272E-3,5.499999E-3,-4.3333345E-3,8.823518E-4,-1.8125012E-3,-3.607596E-3,-2.2346487E-4,-2.6136376E-3,1.3953476E-3,2.556806E-4,-9.7402715E-4,-2.5172427E-3,-1.184729E-9,-7.352953E-4],"categories":[],"categories_nodes":[],"categories_segments":[],"categories_sizes":[],"default_left":[0,0,0,0,0,0,0,0,0,0,0,0,0,0,0,0,0,0,0,0,0,0,0,0,0,0,0,0,0,0,0,0,0,0,0,0,0,0,0,0,0,0,0,0,0,0,0,0,0,0,0,0,0,0,0,0,0,0,0],"id":0,"left_children":[1,3,5,7,9,11,13,15,17,19,21,23,25,27,29,31,33,35,37,39,41,43,45,47,49,-1,-1,51,53,55,57,-1,-1,-1,-1,-1,-1,-1,-1,-1,-1,-1,-1,-1,-1,-1,-1,-1,-1,-1,-1,-1,-1,-1,-1,-1,-1,-1,-1],"loss_changes":[9.30754E-1,8.507066E-1,2.2545195E-1,4.9030595E-2,5.986726E-1,3.783551E-2,1.1516562E-1,5.7023384E-2,6.6657364E-2,7.934732E-2,2.2934115E-1,4.2036116E-2,1.4515078E-1,1.2740462E-1,1.375235E-1,6.361399E-2,1.653565E-1,1.3204798E-1,6.802128E-2,7.635865E-2,2.166532E-1,2.04228E-1,7.0156336E-2,1.157549E-1,5.613762E-2,0E0,0E0,1.5841436E-1,3.3870086E-2,3.8321733E-2,2.08777E-2,0E0,0E0,0E0,0E0,0E0,0E0,0E0,0E0,0E0,0E0,0E0,0E0,0E0,0E0,0E0,0E0,0E0,0E0,0E0,0E0,0E0,0E0,0E0,0E0,0E0,0E0,0E0,0E0],"parents":[2147483647,0,0,1,1,2,2,3,3,4,4,5,5,6,6,7,7,8,8,9,9,10,10,11,11,12,12,13,13,14,14,15,15,16,16,17,17,18,18,19,19,20,20,21,21,22,22,23,23,24,24,27,27,28,28,29,29,30,30],"right_children":[2,4,6,8,10,12,14,16,18,20,22,24,26,28,30,32,34,36,38,40,42,44,46,48,50,-1,-1,52,54,56,58,-1,-1,-1,-1,-1,-1,-1,-1,-1,-1,-1,-1,-1,-1,-1,-1,-1,-1,-1,-1,-1,-1,-1,-1,-1,-1,-1,-1],"split_conditions":[4E-1,3E-1,1E-1,3E-1,1E-1,1E0,8E-1,5E-1,2E-1,4E-1,2E-1,1E-1,2E-1,6E-1,9E-1,4E-1,1E-1,1E-1,1E-1,4E-1,4E-1,3E-1,3E-1,6E-1,8E-1,-1.3000034E-2,8.667433E-3,5E-1,2E-1,2E-1,3E-1,4.363944E-4,-3.581386E-3,-2.6956054E-3,1.8841747E-2,-1.7820448E-2,1.6069787E-2,1.7051239E-2,-1.4666812E-3,8.824398E-3,-1.8250788E-2,-6.154556E-4,2.017965E-2,2.0446453E-2,-3.7544547E-4,3.3214092E-3,2.1551311E-2,-1.8297689E-2,5.9893033E-3,-5.411425E-3,-8.97168E-3,-2.6805783E-4,-1.8960165E-3,1.0482358E-2,9.825411E-3,-8.531644E-3,-5.2486253E-3,3.9786007E-3,-4.993109E-3],"split_indices":[1,3,2,1,1,1,1,2,3,3,2,3,3,1,1,2,1,2,2,2,2,1,1,1,1,0,0,2,2,3,2,0,0,0,0,0,0,0,0,0,0,0,0,0,0,0,0,0,0,0,0,0,0,0,0,0,0,0,0],"split_type":[0,0,0,0,0,0,0,0,0,0,0,0,0,0,0,0,0,0,0,0,0,0,0,0,0,0,0,0,0,0,0,0,0,0,0,0,0,0,0,0,0,0,0,0,0,0,0,0,0,0,0,0,0,0,0,0,0,0,0],"sum_hessian":[2.935E3,1.064E3,1.871E3,5.33E2,5.31E2,3.29E2,1.542E3,4.02E2,1.31E2,1.31E2,4E2,2.84E2,4.5E1,8.8E2,6.62E2,3.31E2,7.1E1,8.5E1,4.6E1,5.1E1,8E1,1.27E2,2.73E2,4.7E1,2.37E2,1.5E1,3E1,4.44E2,4.36E2,2.2E2,4.42E2,2.68E2,6.3E1,2.1E1,5E1,1.5E1,7E1,7E0,3.9E1,3.3E1,1.8E1,5.4E1,2.6E1,7.8E1,4.9E1,1.74E2,9.9E1,1.4E1,3.3E1,1.59E2,7.8E1,3.57E2,8.7E1,8.5E1,3.51E2,7.6E1,1.44E2,1.71E2,2.71E2],"tree_param":{"num_deleted":"0","num_feature":"4","num_nodes":"59","size_leaf_vector":"1"}},{"base_weights":[-1.2211907E-3,4.481132E-2,-8.986589E-2,3.448252E-3,-4.995876E-3,1.4999998E-1,-8.072291E-2,-4.6774205E-3,2.6363635E-1,1.1111088E-2,-4.9285726E-3,-4.545456E-3,2.1666666E-2,-4.545456E-3,2E-2],"categories":[],"categories_nodes":[],"categories_segments":[],"categories_sizes":[],"default_left":[0,0,0,0,0,0,0,0,0,0,0,0,0,0,0],"id":1,"left_children":[1,-1,3,5,-1,7,9,-1,11,13,-1,-1,-1,-1,-1],"loss_changes":[2.3452502E2,0E0,2.5274696E0,3.2385833E0,0E0,2.698563E0,2.8193235E-1,0E0,4.0445447E0,1.1384848E0,0E0,0E0,0E0,0E0,0E0],"parents":[2147483647,0,0,2,2,3,3,5,5,6,6,8,8,9,9],"right_children":[2,-1,4,6,-1,8,10,-1,12,14,-1,-1,-1,-1,-1],"split_conditions":[1E-1,2.1110883E-2,2E-1,4E-1,-2.7397616E-2,2E-1,5E-1,-1.6437148E-3,1E-1,5E-1,-3.469044E-3,-5.246557E-4,3.195035E-3,-4.7562862E-4,1.1804678E-3],"split_indices":[0,0,0,1,0,3,1,0,1,3,0,0,0,0,0],"split_type":[0,0,0,0,0,0,0,0,0,0,0,0,0,0,0],"sum_hessian":[2.947E3,2.64E2,2.683E3,2.6E2,2.423E3,9.5E1,1.65E2,3E1,6.5E1,2.6E1,1.39E2,2.1E1,4.4E1,2.1E1,5E0],"tree_param":{"num_deleted":"0","num_feature":"4","num_nodes":"15","size_leaf_vector":"1"}},{"base_weights":[-5.7588313E-3,4.480237E-2,-9.029632E-2,-2.3745171E-8,-4.995901E-3,1.2413791E-1,-4.931974E-3,-4.6296306E-3,1.8888886E-1,-1.2068977E-3,1.4354837E-2],"categories":[],"categories_nodes":[],"categories_segments":[],"categories_sizes":[],"default_left":[0,0,0,0,0,0,0,0,0,0,0],"id":2,"left_children":[1,-1,3,5,-1,7,-1,-1,9,-1,-1],"loss_changes":[2.250503E2,0E0,2.3357792E0,3.2178583E0,0E0,1.6550064E0,0E0,0E0,1.9161079E0,0E0,0E0],"parents":[2147483647,0,0,2,2,3,3,5,5,8,8],"right_children":[2,-1,4,6,-1,8,-1,-1,10,-1,-1],"split_conditions":[1E-1,2.060992E-2,2E-1,5E-1,-2.6794827E-2,1E-1,-2.963834E-3,-5.976734E-4,2E-1,-1.397496E-4,2.6745552E-3],"split_indices":[0,0,0,1,0,1,0,0,2,0,0],"split_type":[0,0,0,0,0,0,0,0,0,0,0],"sum_hessian":[2.951E3,2.52E2,2.699E3,2.61E2,2.438E3,1.15E2,1.46E2,2.6E1,8.9E1,2.8E1,6.1E1],"tree_param":{"num_deleted":"0","num_feature":"4","num_nodes":"11","size_leaf_vector":"1"}},{"base_weights":[-7.08765E-4,1.506847E-2,-1.0005374E-2,-8.243752E-3,3.9405182E-2,-1.4328606E-2,5.586354E-4,-1.8382376E-2,1.0452725E-3,-6.3830023E-3,5.5778872E-2,-2.008981E-2,-2.4830939E-3,-1.8181842E-2,4.444421E-3,4.651139E-3,-2.9411789E-2,2.4999976E-2,-1.19565455E-2,1.7021254E-2,-5.416669E-2,2.8787855E-2,6.85393E-2,-1.54891545E-2,-4.1025665E-2,-1.5151539E-2,2.2448955E-2,-5.1111136E-2,1.363634E-2,1.6883094E-2,1.6042542E-3,1.8181807E-3,-1.279071E-3,-2.5555568E-3,-1.0839173E-3,1.4935053E-3,3.571417E-4,-2.3170745E-3,-6.944563E-5,-1.1677352E-9,1.976743E-3,-3.5365864E-3,1.249999E-3,1.2820397E-4,1.9148923E-3,4.248554E-3,1.8421041E-3,-1.2214996E-3,-4.4186166E-4,-1.2195134E-3,-2.866668E-3,3.3555865E-5,-1.5771823E-3,6.999999E-3,-4.0651586E-5,-2.1739244E-4,-4.5652185E-3,1.4516118E-3,-7.1428687E-4,-1.6666679E-3,1.6666654E-3,9.523798E-4,-1.5464037E-4],"categories":[],"categories_nodes":[],"categories_segments":[],"categories_sizes":[],"default_left":[0,0,0,0,0,0,0,0,0,0,0,0,0,0,0,0,0,0,0,0,0,0,0,0,0,0,0,0,0,0,0,0,0,0,0,0,0,0,0,0,0,0,0,0,0,0,0,0,0,0,0,0,0,0,0,0,0,0,0,0,0,0,0],"id":3,"left_children":[1,3,5,7,9,11,13,15,17,19,21,23,25,27,29,31,33,35,37,39,41,43,45,47,49,51,53,55,57,59,61,-1,-1,-1,-1,-1,-1,-1,-1,-1,-1,-1,-1,-1,-1,-1,-1,-1,-1,-1,-1,-1,-1,-1,-1,-1,-1,-1,-1,-1,-1,-1,-1],"loss_changes":[4.3424183E-1,6.2468135E-1,8.674349E-2,5.430421E-2,4.086458E-1,8.8662654E-2,3.7812196E-2,7.17134E-2,9.099076E-2,1.623227E-1,1.2537205E-1,7.953298E-2,1.3953207E-1,9.664647E-2,1.4021737E-2,8.446088E-2,2.299364E-2,5.1298738E-3,6.20222E-2,3.9975256E-2,6.928863E-2,2.8734818E-2,1.2375295E-1,4.023005E-2,3.2749683E-2,8.0140345E-2,4.1599968E-1,7.4618354E-2,2.0804353E-2,6.4718604E-2,3.2297127E-2,0E0,0E0,0E0,0E0,0E0,0E0,0E0,0E0,0E0,0E0,0E0,0E0,0E0,0E0,0E0,0E0,0E0,0E0,0E0,0E0,0E0,0E0,0E0,0E0,0E0,0E0,0E0,0E0,0E0,0E0,0E0,0E0],"parents":[2147483647,0,0,1,1,2,2,3,3,4,4,5,5,6,6,7,7,8,8,9,9,10,10,11,11,12,12,13,13,14,14,15,15,16,16,17,17,18,18,19,19,20,20,21,21,22,22,23,23,24,24,25,25,26,26,27,27,28,28,29,29,30,30],"right_children":[2,4,6,8,10,12,14,16,18,20,22,24,26,28,30,32,34,36,38,40,42,44,46,48,50,52,54,56,58,60,62,-1,-1,-1,-1,-1,-1,-1,-1,-1,-1,-1,-1,-1,-1,-1,-1,-1,-1,-1,-1,-1,-1,-1,-1,-1,-1,-1,-1,-1,-1,-1,-1],"split_conditions":[4E-1,3E-1,9E-1,3E-1,1E-1,4E-1,1E-1,1E-1,4E-1,5E-1,2E-1,5E-1,4E-1,3E-1,1E-1,2E-1,1E-1,3E-1,1E-1,4E-1,5E-1,2E-1,3E-1,6E-1,2E-1,5E-1,5E-1,1E0,5E-1,2E-1,2E-1,1.1233821E-2,-4.367511E-3,-5.747022E-3,-1.2684686E-3,1.2555534E-2,1.3712949E-2,-2.504078E-3,4.6693985E-4,1.0903613E-2,1.6799461E-2,-9.7053143E-4,1.794658E-2,1.7372636E-2,1.7023643E-2,3.6123383E-3,1.7721897E-2,-2.7937957E-3,-4.265064E-3,-2.8612192E-3,-3.3652037E-3,6.9468054E-3,-3.4317093E-3,1.844143E-2,-1.8883191E-4,-1.1834053E-3,-1.2539065E-2,5.1561627E-3,-7.1004767E-4,-7.769017E-3,6.7873816E-3,5.71643E-3,-4.0455326E-3],"split_indices":[1,3,1,2,1,2,3,3,2,3,2,3,3,2,2,1,1,1,1,3,2,1,1,1,2,2,1,1,2,3,3,0,0,0,0,0,0,0,0,0,0,0,0,0,0,0,0,0,0,0,0,0,0,0,0,0,0,0,0,0,0,0,0],"split_type":[0,0,0,0,0,0,0,0,0,0,0,0,0,0,0,0,0,0,0,0,0,0,0,0,0,0,0,0,0,0,0,0,0,0,0,0,0,0,0,0,0,0,0,0,0,0,0,0,0,0,0,0,0,0,0,0,0,0,0,0,0,0,0],"sum_hessian":[2.962E3,1.094E3,1.868E3,5.57E2,5.37E2,1.332E3,5.36E2,2.71E2,2.86E2,1.4E2,3.97E2,8.9E2,4.42E2,8.7E1,4.49E2,8.5E1,1.86E2,1.03E2,1.83E2,9.3E1,4.7E1,1.31E2,2.66E2,7.35E2,1.55E2,2.96E2,1.46E2,4.4E1,4.3E1,7.6E1,3.73E2,4.3E1,4.2E1,4.4E1,1.42E2,7.6E1,2.7E1,4E1,1.43E2,5.1E1,4.2E1,4E1,7E0,3.8E1,9.3E1,1.72E2,9.4E1,3.06E2,4.29E2,8.1E1,7.4E1,1.48E2,1.48E2,2.4E1,1.22E2,2.2E1,2.2E1,3E1,1.3E1,1.7E1,5.9E1,8.3E1,2.9E2],"tree_param":{"num_deleted":"0","num_feature":"4","num_nodes":"63","size_leaf_vector":"1"}},{"base_weights":[-3.934895E-3,4.481203E-2,-9.3216576E-2,-3.0268222E-2,-4.995874E-3,-4.534885E-3,2.7819525E-2,-4.7872355E-3,9.540228E-2,2.6271176E-3,8.793103E-3],"categories":[],"categories_nodes":[],"categories_segments":[],"categories_sizes":[],"default_left":[0,0,0,0,0,0,0,0,0,0,0],"id":4,"left_children":[1,-1,3,5,-1,-1,7,-1,9,-1,-1],"loss_changes":[2.369316E2,0E0,1.115675E0,9.2497647E-1,0E0,0E0,1.1197579E0,0E0,2.679388E-1,0E0,0E0],"parents":[2147483647,0,0,2,2,3,3,6,6,8,8],"right_children":[2,-1,4,6,-1,-1,8,-1,10,-1,-1],"split_conditions":[1E-1,1.8819405E-2,2E-1,3E-1,-2.431841E-2,-1.9072572E-3,2E-1,-1.8392459E-3,5E-1,1.1803317E-3,2.7915977E-3],"split_indices":[0,0,0,3,0,0,2,0,3,0,0],"split_type":[0,0,0,0,0,0,0,0,0,0,0],"sum_hessian":[2.947E3,2.65E2,2.682E3,2.6E2,2.422E3,1.28E2,1.32E2,4.6E1,8.6E1,5.8E1,2.8E1],"tree_param":{"num_deleted":"0","num_feature":"4","num_nodes":"11","size_leaf_vector":"1"}},{"base_weights":[-4.487633E-3,4.481132E-2,-9.2211634E-2,-2.3465728E-2,-4.9959132E-3,1.4358972E-1,-8.9000024E-2,-4.2105287E-2,3.146341E-1,-4.9390257E-3,-4.0540565E-2,-4.5833346E-3,1.6666657E-3,-4.375001E-3,2.7692307E-2,6.11111E-3,-4.6551735E-3],"categories":[],"categories_nodes":[],"categories_segments":[],"categories_sizes":[],"default_left":[0,0,0,0,0,0,0,0,0,0,0,0,0,0,0,0,0],"id":5,"left_children":[1,-1,3,5,-1,7,9,11,13,-1,15,-1,-1,-1,-1,-1,-1],"loss_changes":[2.3593875E2,0E0,1.4274292E0,3.0398781E0,0E0,2.5179436E0,7.6854706E-2,1.5096493E-1,4.0391045E0,0E0,3.2501295E-1,0E0,0E0,0E0,0E0,0E0,0E0],"parents":[2147483647,0,0,2,2,3,3,5,5,6,6,7,7,8,8,10,10],"right_children":[2,-1,4,6,-1,8,10,12,14,-1,16,-1,-1,-1,-1,-1,-1],"split_conditions":[1E-1,1.783309E-2,2E-1,3E-1,-2.4496665E-2,3E-1,5E-1,2E-1,1E-1,-1.629251E-3,5E-1,-1.6750982E-3,4.528579E-4,-6.8063254E-4,2.936416E-3,2.3171231E-4,-2.0680213E-3],"split_indices":[0,0,0,1,0,3,3,3,1,0,1,0,0,0,0,0,0],"split_type":[0,0,0,0,0,0,0,0,0,0,0,0,0,0,0,0,0],"sum_hessian":[2.985E3,2.64E2,2.721E3,2.76E2,2.445E3,7.7E1,1.99E2,3.7E1,4E1,1.63E2,3.6E1,2.3E1,1.4E1,1.5E1,2.5E1,8E0,2.8E1],"tree_param":{"num_deleted":"0","num_feature":"4","num_nodes":"17","size_leaf_vector":"1"}},{"base_weights":[-2.7665556E-3,4.4814125E-2,-9.2507444E-2,-2.4344593E-2,-4.995886E-3,-4.5312513E-3,3.571426E-2,-4.800001E-3,1.0879119E-1,4.0163924E-3,7.903225E-3],"categories":[],"categories_nodes":[],"categories_segments":[],"categories_sizes":[],"default_left":[0,0,0,0,0,0,0,0,0,0,0],"id":6,"left_children":[1,-1,3,5,-1,-1,7,-1,9,-1,-1],"loss_changes":[2.3914238E2,0E0,1.3469048E0,1.0715818E0,0E0,0E0,1.3592614E0,0E0,9.1089725E-2,0E0,0E0],"parents":[2147483647,0,0,2,2,3,3,6,6,8,8],"right_children":[2,-1,4,6,-1,-1,8,-1,10,-1,-1],"split_conditions":[1E-1,1.6976286E-2,2E-1,3E-1,-2.2631144E-2,-1.6999899E-3,2E-1,-1.5288056E-3,5E-1,1.3570966E-3,2.431199E-3],"split_indices":[0,0,0,3,0,0,2,0,3,0,0],"split_type":[0,0,0,0,0,0,0,0,0,0,0],"sum_hessian":[2.963E3,2.68E2,2.695E3,2.66E2,2.429E3,1.27E2,1.39E2,4.9E1,9E1,6E1,3E1],"tree_param":{"num_deleted":"0","num_feature":"4","num_nodes":"11","size_leaf_vector":"1"}},{"base_weights":[-5.7200775E-3,4.480843E-2,-9.255165E-2,-2.759859E-2,-4.9958928E-3,-8.394163E-2,2.5874102E-2,-4.8901113E-3,-5.3191513E-2,-4.7959196E-3,8.947366E-2,-4.6774205E-3,8.823518E-4,5.185184E-3,3.333332E-3],"categories":[],"categories_nodes":[],"categories_segments":[],"categories_sizes":[],"default_left":[0,0,0,0,0,0,0,0,0,0,0,0,0,0,0],"id":7,"left_children":[1,-1,3,5,-1,7,9,-1,11,-1,13,-1,-1,-1,-1],"loss_changes":[2.3274704E2,0E0,1.2820683E0,8.4855384E-1,0E0,3.8089752E-2,1.1156085E0,0E0,1.4360575E-1,0E0,6.881058E-3,0E0,0E0,0E0,0E0],"parents":[2147483647,0,0,2,2,3,3,5,5,6,6,8,8,10,10],"right_children":[2,-1,4,6,-1,8,10,-1,12,-1,14,-1,-1,-1,-1],"split_conditions":[1E-1,1.6183188E-2,2E-1,3E-1,-2.1419283E-2,2E-1,2E-1,-2.6843029E-3,4E-1,-1.4182047E-3,4E-1,-3.0112645E-4,3.430132E-4,1.1037148E-3,2.2187806E-3],"split_indices":[0,0,0,3,0,3,2,0,2,0,2,0,0,0,0],"split_type":[0,0,0,0,0,0,0,0,0,0,0,0,0,0,0],"sum_hessian":[2.971E3,2.6E2,2.711E3,2.78E2,2.433E3,1.36E2,1.42E2,9E1,4.6E1,4.8E1,9.4E1,3E1,1.6E1,5.3E1,4.1E1],"tree_param":{"num_deleted":"0","num_feature":"4","num_nodes":"15","size_leaf_vector":"1"}},{"base_weights":[-9.298447E-3,4.4604745E-2,-9.295932E-2,-2.9411789E-2,-4.9959295E-3,-8.3823554E-2,2.4087567E-2,-4.8901113E-3,-5.2173935E-2,-4.7916677E-3,8.888887E-2,-4.687501E-3,1.6666657E-3,1.6666654E-3,5.6557367E-3],"categories":[],"categories_nodes":[],"categories_segments":[],"categories_sizes":[],"default_left":[0,0,0,0,0,0,0,0,0,0,0,0,0,0,0],"id":8,"left_children":[1,-1,3,5,-1,7,9,-1,11,-1,13,-1,-1,-1,-1],"loss_changes":[2.2465344E2,0E0,1.1901283E0,7.997832E-1,0E0,4.0068686E-2,1.0724554E0,0E0,1.726993E-1,0E0,1.0271406E-1,0E0,0E0,0E0,0E0],"parents":[2147483647,0,0,2,2,3,3,5,5,6,6,8,8,10,10],"right_children":[2,-1,4,6,-1,8,10,-1,12,-1,14,-1,-1,-1,-1],"split_conditions":[1E-1,1.5475862E-2,2E-1,3E-1,-2.0024255E-2,4E-1,2E-1,-1.52003E-3,2E-1,-1.3131334E-3,4E-1,-2.437986E-3,4.980636E-4,7.422548E-4,2.016167E-3],"split_indices":[0,0,0,3,0,2,2,0,3,0,3,0,0,0,0],"split_type":[0,0,0,0,0,0,0,0,0,0,0,0,0,0,0],"sum_hessian":[2.978E3,2.52E2,2.726E3,2.71E2,2.455E3,1.35E2,1.36E2,9E1,4.5E1,4.7E1,8.9E1,3.1E1,1.4E1,2.9E1,6E1],"tree_param":{"num_deleted":"0","num_feature":"4","num_nodes":"15","size_leaf_vector":"1"}},{"base_weights":[-4.3212217E-3,4.4433963E-2,-9.2822455E-2,-2.558142E-2,-4.9958653E-3,-9.0551205E-2,3.6363613E-2,-4.9047633E-3,-4.782611E-2,-4.7872355E-3,1.09302305E-1,-4.2857155E-3,-0E0,6.956521E-3,3.5365843E-3],"categories":[],"categories_nodes":[],"categories_segments":[],"categories_sizes":[],"default_left":[0,0,0,0,0,0,0,0,0,0,0,0,0,0,0],"id":9,"left_children":[1,-1,3,5,-1,7,9,-1,11,-1,13,-1,-1,-1,-1],"loss_changes":[2.3227689E2,0E0,1.2610435E0,1.0470469E0,0E0,2.165103E-2,1.2837474E0,0E0,5.024845E-2,0E0,6.811488E-2,0E0,0E0,0E0,0E0],"parents":[2147483647,0,0,2,2,3,3,5,5,6,6,8,8,10,10],"right_children":[2,-1,4,6,-1,8,10,-1,12,-1,14,-1,-1,-1,-1],"split_conditions":[1E-1,1.4153021E-2,2E-1,3E-1,-1.9179337E-2,5E-1,2E-1,-1.7522101E-3,2E-1,-1.363126E-3,4E-1,-1.6169039E-3,4.2659023E-5,1.4271428E-3,2.2100674E-3],"split_indices":[0,0,0,3,0,2,2,0,3,0,2,0,0,0,0],"split_type":[0,0,0,0,0,0,0,0,0,0,0,0,0,0,0],"sum_hessian":[2.938E3,2.64E2,2.674E3,2.57E2,2.417E3,1.26E2,1.31E2,1.04E2,2.2E1,4.6E1,8.5E1,1.3E1,9E0,4.5E1,4E1],"tree_param":{"num_deleted":"0","num_feature":"4","num_nodes":"15","size_leaf_vector":"1"}},{"base_weights":[-6.689213E-3,4.369403E-2,-9.435576E-2,-4.1984756E-2,-4.9958895E-3,1.1126758E-1,-4.947918E-3,-4.6428586E-3,2.4090907E-1,-6.0000113E-4,2.7499998E-2],"categories":[],"categories_nodes":[],"categories_segments":[],"categories_sizes":[],"default_left":[0,0,0,0,0,0,0,0,0,0,0],"id":10,"left_children":[1,-1,3,5,-1,7,-1,-1,9,-1,-1],"loss_changes":[2.2850618E2,0E0,7.6605415E-1,2.2973905E0,0E0,1.9160507E0,0E0,0E0,3.499964E0,0E0,0E0],"parents":[2147483647,0,0,2,2,3,3,5,5,8,8],"right_children":[2,-1,4,6,-1,8,-1,-1,10,-1,-1],"split_conditions":[1E-1,1.39236E-2,2E-1,3E-1,-1.7471997E-2,1E-1,-1.4939466E-3,-1.3233813E-3,3E-1,1.8705401E-5,2.192735E-3],"split_indices":[0,0,0,1,0,1,0,0,3,0,0],"split_type":[0,0,0,0,0,0,0,0,0,0,0],"sum_hessian":[2.959E3,2.67E2,2.692E3,2.61E2,2.431E3,7E1,1.91E2,2.7E1,4.3E1,2.4E1,1.9E1],"tree_param":{"num_deleted":"0","num_feature":"4","num_nodes":"11","size_leaf_vector":"1"}},{"base_weights":[-5.9264544E-3,8.490909E-1,-9.429003E-2,4.4321265E-2,3.409091E-2,-4.3071184E-2,-4.995828E-3,1.1428569E-1,-4.9494966E-3,-4.6428586E-3,2.4883719E-1,-4.2857155E-3,2E-2],"categories":[],"categories_nodes":[],"categories_segments":[],"categories_sizes":[],"default_left":[0,0,0,0,0,0,0,0,0,0,0,0,0],"id":11,"left_children":[1,3,5,-1,-1,7,-1,9,-1,-1,11,-1,-1],"loss_changes":[2.218264E2,9.5617676E-1,7.485447E-1,0E0,0E0,2.3591695E0,0E0,1.9897008E0,0E0,0E0,2.2402992E0,0E0,0E0],"parents":[2147483647,0,0,1,1,2,2,5,5,7,7,10,10],"right_children":[2,4,6,-1,-1,8,-1,10,-1,-1,12,-1,-1],"split_conditions":[1E-1,9E-1,2E-1,1.3621171E-2,5.4989466E-3,3E-1,-1.747882E-2,1E-1,-1.2794925E-3,-1.24131E-3,2E-1,-5.7025824E-4,2.0830983E-3],"split_indices":[0,1,0,0,0,1,0,1,0,0,2,0,0],"split_type":[0,0,0,0,0,0,0,0,0,0,0,0,0],"sum_hessian":[2.935E3,2.74E2,2.661E3,2.2E2,5.4E1,2.66E2,2.395E3,6.9E1,1.97E2,2.7E1,4.2E1,1.3E1,2.9E1],"tree_param":{"num_deleted":"0","num_feature":"4","num_nodes":"13","size_leaf_vector":"1"}},{"base_weights":[-1.1568321E-2,8.353612E-1,-9.400668E-2,4.4029128E-2,6.5862066E-1,-4.0221427E-2,-4.9958914E-3,-3.7500008E-3,7.627451E-1,1.1126758E-1,-9.402987E-2,2.2272727E-2,4.1341465E-2,-6.571431E-2,2.7837837E-1,-4.9393955E-3,-6.7567594E-2,-4.4736858E-3,-1.4705894E-3,-4.2857155E-3,2.4166666E-2,-0E0,-4.6428586E-3],"categories":[],"categories_nodes":[],"categories_segments":[],"categories_sizes":[],"default_left":[0,0,0,0,0,0,0,0,0,0,0,0,0,0,0,0,0,0,0,0,0,0,0],"id":12,"left_children":[1,3,5,-1,7,9,-1,-1,11,13,15,-1,-1,17,19,-1,21,-1,-1,-1,-1,-1,-1],"loss_changes":[2.0701915E2,1.3681183E0,8.413372E-1,0E0,4.5564766E0,2.2177649E0,0E0,0E0,5.414543E-1,2.139426E0,1.9972324E-3,0E0,0E0,1.5668288E-2,2.8422265E0,0E0,7.250966E-2,0E0,0E0,0E0,0E0,0E0,0E0],"parents":[2147483647,0,0,1,1,2,2,4,4,5,5,8,8,9,9,10,10,13,13,14,14,16,16],"right_children":[2,4,6,-1,8,10,-1,-1,12,14,16,-1,-1,18,20,-1,22,-1,-1,-1,-1,-1,-1],"split_conditions":[1E-1,9E-1,2E-1,1.3186938E-2,1E-1,3E-1,-1.5763484E-2,-3.1739325E-4,2E-1,3E-1,5E-1,1.4526028E-3,5.2446444E-3,2E-1,1E-1,-1.8316578E-3,5E-1,-1.1041398E-3,2.206602E-4,-1.1393115E-3,2.2568519E-3,9.886912E-6,-1.5927447E-3],"split_indices":[0,1,0,0,3,1,0,0,3,3,3,0,0,3,1,0,1,0,0,0,0,0,0],"split_type":[0,0,0,0,0,0,0,0,0,0,0,0,0,0,0,0,0,0,0,0,0,0,0],"sum_hessian":[2.964E3,2.62E2,2.702E3,2.05E2,5.7E1,2.7E2,2.432E3,7E0,5E1,7E1,2E2,1E1,4E1,3.4E1,3.6E1,1.64E2,3.6E1,1.8E1,1.6E1,1.3E1,2.3E1,9E0,2.7E1],"tree_param":{"num_deleted":"0","num_feature":"4","num_nodes":"23","size_leaf_vector":"1"}},{"base_weights":[-1.2420084E-2,-3.8492486E-2,6.575381E-4,-3.296727E-3,-5.8544327E-2,2.0075023E-2,-6.43601E-3,9.289593E-3,-1.648354E-2,-7.750002E-2,-3.8658172E-2,-2.1111134E-2,4.1242912E-2,-2.4793413E-2,-2.6578312E-3,1.4516118E-3,4.57514E-3,-6.8182056E-3,-1.2105275E-3,-4.5864686E-2,-4.9468097E-3,-5.3846177E-2,-2.2784835E-2,-3.6046524E-3,-4.3478496E-3,3.448252E-3,7.6795556E-2,-0E0,-2.8301911E-2,-4.9765497E-3,1.428569E-2,-1.0714297E-3,5.5555435E-4,7.692296E-4,-8.7301707E-4,-4.5652185E-3,-1.7567578E-3,-1.8421066E-3,-4.767443E-3,7.692296E-4,-2.102805E-3,8.510627E-4,-2.5555568E-3,-8.620702E-4,1.2499988E-3,1.7796599E-3,4.7560963E-3,1.2499988E-3,-3.7500008E-3,-1.8055568E-3,-5.072476E-4,1.4469335E-4,-4.1721977E-4,1.4935053E-3,-1.5625118E-4],"categories":[],"categories_nodes":[],"categories_segments":[],"categories_sizes":[],"default_left":[0,0,0,0,0,0,0,0,0,0,0,0,0,0,0,0,0,0,0,0,0,0,0,0,0,0,0,0,0,0,0,0,0,0,0,0,0,0,0,0,0,0,0,0,0,0,0,0,0,0,0,0,0,0,0],"id":13,"left_children":[1,3,5,7,9,11,13,15,17,19,21,23,25,27,29,-1,31,33,-1,35,-1,37,39,-1,41,43,45,47,49,51,53,-1,-1,-1,-1,-1,-1,-1,-1,-1,-1,-1,-1,-1,-1,-1,-1,-1,-1,-1,-1,-1,-1,-1,-1],"loss_changes":[1.0168159E0,6.958339E-1,2.7380285E-1,6.128686E-2,2.2362447E-1,4.6756613E-1,9.7410634E-2,1.3539303E-2,1.0324568E-2,1.979872E-1,6.656936E-2,1.4587486E-1,4.673807E-1,2.105099E-2,4.644204E-2,0E0,2.5210077E-2,2.1269292E-2,0E0,4.899171E-2,0E0,9.335941E-2,1.1953473E-1,0E0,1.4218092E-1,7.87931E-2,1.20214105E-1,5.9999995E-2,2.5067896E-2,2.8798455E-2,4.0754866E-2,0E0,0E0,0E0,0E0,0E0,0E0,0E0,0E0,0E0,0E0,0E0,0E0,0E0,0E0,0E0,0E0,0E0,0E0,0E0,0E0,0E0,0E0,0E0,0E0],"parents":[2147483647,0,0,1,1,2,2,3,3,4,4,5,5,6,6,7,7,8,8,9,9,10,10,11,11,12,12,13,13,14,14,16,16,17,17,19,19,21,21,22,22,24,24,25,25,26,26,27,27,28,28,29,29,30,30],"right_children":[2,4,6,8,10,12,14,16,18,20,22,24,26,28,30,-1,32,34,-1,36,-1,38,40,-1,42,44,46,48,50,52,54,-1,-1,-1,-1,-1,-1,-1,-1,-1,-1,-1,-1,-1,-1,-1,-1,-1,-1,-1,-1,-1,-1,-1,-1],"split_conditions":[2E-1,4E-1,3E-1,2E-1,1E-1,1E-1,1E-1,1E-1,3E-1,7E-1,3E-1,3E-1,4E-1,4E-1,1E0,4.539068E-3,2E-1,2E-1,-2.677763E-3,1E-1,-8.856915E-3,9E-1,4E-1,-3.2412016E-3,5E-1,3E-1,2E-1,5E-1,9E-1,5E-1,4E-1,-3.5442848E-4,4.8565376E-3,6.9017983E-3,-5.2264286E-4,-7.8868335E-3,-5.882416E-3,-5.8881105E-3,-9.669715E-3,8.098515E-4,-6.0106562E-3,7.3183947E-3,-1.469686E-3,-2.3891035E-4,7.5128704E-4,1.0682499E-2,1.448214E-2,7.864531E-3,-1.9008167E-3,-4.048671E-3,-2.4040628E-4,9.220453E-6,-1.7200314E-3,1.5911183E-3,-4.3824158E-4],"split_indices":[3,1,1,1,3,1,2,2,1,1,2,3,3,1,1,0,2,2,0,2,0,1,2,0,3,2,2,3,1,1,2,0,0,0,0,0,0,0,0,0,0,0,0,0,0,0,0,0,0,0,0,0,0,0,0],"split_type":[0,0,0,0,0,0,0,0,0,0,0,0,0,0,0,0,0,0,0,0,0,0,0,0,0,0,0,0,0,0,0,0,0,0,0,0,0,0,0,0,0,0,0,0,0,0,0,0,0,0,0,0,0,0,0],"sum_hessian":[2.97E3,9.94E2,1.976E3,3.63E2,6.31E2,5.32E2,1.444E3,1.82E2,1.81E2,3.19E2,3.12E2,1.79E2,3.53E2,2.41E2,1.203E3,3E1,1.52E2,8.7E1,9.4E1,1.32E2,1.87E2,1.55E2,1.57E2,4.2E1,1.37E2,1.73E2,1.8E2,3E1,2.11E2,1.064E3,1.39E2,2.7E1,1.25E2,2.5E1,6.2E1,2.2E1,1.1E2,1.13E2,4.2E1,5.1E1,1.06E2,9.3E1,4.4E1,8.6E1,8.7E1,5.8E1,1.22E2,2.3E1,7E0,1.43E2,6.8E1,3.1E2,7.54E2,7.6E1,6.3E1],"tree_param":{"num_deleted":"0","num_feature":"4","num_nodes":"55","size_leaf_vector":"1"}},{"base_weights":[-1.2727297E-2,8.353612E-1,-9.512558E-2,3.2209303E-2,4.3416288E-2,-5.1291537E-2,-4.9958997E-3,-4.55224E-3,-1.1594227E-2,-7.250002E-2,6.9491506E-2,-4.8076934E-3,-1.2068977E-3,6.3636354E-3,1.5789462E-3],"categories":[],"categories_nodes":[],"categories_segments":[],"categories_sizes":[],"default_left":[0,0,0,0,0,0,0,0,0,0,0,0,0,0,0],"id":14,"left_children":[1,3,5,-1,-1,7,-1,-1,9,11,13,-1,-1,-1,-1],"loss_changes":[2.0755211E2,9.468231E-1,5.4862595E-1,0E0,0E0,4.1634494E-1,0E0,0E0,6.8686455E-1,7.716575E-2,1.0934314E-1,0E0,0E0,0E0,0E0],"parents":[2147483647,0,0,1,1,2,2,5,5,8,8,9,9,10,10],"right_children":[2,4,6,-1,-1,8,-1,-1,10,12,14,-1,-1,-1,-1],"split_conditions":[1E-1,1E-1,2E-1,8.27655E-3,1.1948593E-2,3E-1,-1.5760431E-2,-1.4723584E-3,3E-1,5E-1,4E-1,-7.182948E-4,-2.0623898E-4,4.953418E-4,9.030085E-4],"split_indices":[0,3,0,0,0,3,0,0,2,3,2,0,0,0,0],"split_type":[0,0,0,0,0,0,0,0,0,0,0,0,0,0,0],"sum_hessian":[2.969E3,2.62E2,2.707E3,4.2E1,2.2E2,2.7E2,2.437E3,1.33E2,1.37E2,7.9E1,5.8E1,5.1E1,2.8E1,2.1E1,3.7E1],"tree_param":{"num_deleted":"0","num_feature":"4","num_nodes":"15","size_leaf_vector":"1"}},{"base_weights":[-1.5736742E-2,8.0636704E-1,-9.6259646E-2,5.1363635E-1,4.299107E-2,-6.2222246E-2,-4.995933E-3,2.2631578E-2,3.785714E-2,-4.3785325E-3,-1.2765981E-2,-7.69231E-2,6.279068E-2,-4.7222236E-3,-1.4705894E-3,1.8965505E-3,4.999999E-3],"categories":[],"categories_nodes":[],"categories_segments":[],"categories_sizes":[],"default_left":[0,0,0,0,0,0,0,0,0,0,0,0,0,0,0,0,0],"id":15,"left_children":[1,3,5,7,-1,9,-1,-1,-1,-1,11,13,15,-1,-1,-1,-1],"loss_changes":[1.9813777E2,3.5989685E0,3.171997E-1,1.8993759E-1,0E0,3.273306E-1,0E0,0E0,0E0,0E0,4.6190807E-1,2.812466E-2,2.218926E-2,0E0,0E0,0E0,0E0],"parents":[2147483647,0,0,1,1,2,2,3,3,5,5,10,10,11,11,12,12],"right_children":[2,4,6,8,-1,10,-1,-1,-1,-1,12,14,16,-1,-1,-1,-1],"split_conditions":[1E-1,1E-1,2E-1,5E-1,1.136368E-2,4E-1,-1.4308849E-2,7.005562E-3,8.155013E-3,-1.0502478E-3,3E-1,2E-1,5E-1,-9.953945E-4,1.4028546E-5,7.461805E-4,1.592591E-3],"split_indices":[0,3,0,2,0,3,0,0,0,0,2,2,2,0,0,0,0],"split_type":[0,0,0,0,0,0,0,0,0,0,0,0,0,0,0,0,0],"sum_hessian":[2.992E3,2.66E2,2.726E3,4.3E1,2.23E2,2.69E2,2.457E3,3.7E1,6E0,1.76E2,9.3E1,5.1E1,4.2E1,3.5E1,1.6E1,2.8E1,1.4E1],"tree_param":{"num_deleted":"0","num_feature":"4","num_nodes":"17","size_leaf_vector":"1"}},{"base_weights":[-1.7767912E-2,7.793774E-1,-9.46717E-2,8.267241E-1,3.230769E-1,-4.5173768E-2,-4.9958467E-3,5.578947E-1,4.3717947E-2,-3.88889E-3,2.5555555E-2,9.999998E-2,-9.384618E-2,4.1153844E-2,-7.6923296E-3,-4.5833346E-3,2.0952378E-1,-5.3846177E-2,-4.941178E-3,3.3333325E-3,-3.7500008E-3,-4.2307707E-3,1.6666666E-2,-1.0865431E-9,-4.3333345E-3],"categories":[],"categories_nodes":[],"categories_segments":[],"categories_sizes":[],"default_left":[0,0,0,0,0,0,0,0,0,0,0,0,0,0,0,0,0,0,0,0,0,0,0,0,0],"id":16,"left_children":[1,3,5,7,9,11,-1,13,-1,-1,-1,15,17,-1,19,-1,21,23,-1,-1,-1,-1,-1,-1,-1],"loss_changes":[1.7907281E2,5.1702576E0,6.728878E-1,2.3398743E0,2.0428205E0,1.8388518E0,0E0,5.787245E0,0E0,0E0,0E0,1.3954761E0,1.8235326E-2,0E0,7.089744E-2,0E0,1.5826007E0,3.7282042E-2,0E0,0E0,0E0,0E0,0E0,0E0,0E0],"parents":[2147483647,0,0,1,1,2,2,3,3,4,4,5,5,7,7,11,11,12,12,14,14,16,16,17,17],"right_children":[2,4,6,8,10,12,-1,14,-1,-1,-1,16,18,-1,20,-1,22,24,-1,-1,-1,-1,-1,-1,-1],"split_conditions":[1E-1,1E0,2E-1,1E-1,2E-1,3E-1,-1.419767E-2,7E-1,1.1660426E-2,-1.7203316E-4,3.3420566E-3,1E-1,4E-1,7.601175E-3,8E-1,-1.080374E-3,2E-1,3E-1,-1.7661036E-3,7.1323666E-5,-4.6651458E-4,-3.7038003E-4,1.0172137E-3,-5.8727986E-5,-4.9316144E-4],"split_indices":[0,1,0,3,3,1,0,1,0,0,0,1,1,0,1,0,3,3,0,0,0,0,0,0,0],"split_type":[0,0,0,0,0,0,0,0,0,0,0,0,0,0,0,0,0,0,0,0,0,0,0,0,0],"sum_hessian":[2.92E3,2.56E2,2.664E3,2.31E2,2.5E1,2.58E2,2.406E3,3.7E1,1.94E2,8E0,1.7E1,6.4E1,1.94E2,2.5E1,1.2E1,2.3E1,4.1E1,2.5E1,1.69E2,5E0,7E0,1.2E1,2.9E1,1.1E1,1.4E1],"tree_param":{"num_deleted":"0","num_feature":"4","num_nodes":"25","size_leaf_vector":"1"}},{"base_weights":[-2.1647403E-2,-3.5871856E-3,-4.281484E-2,-1.4250333E-2,7.27967E-3,-7.782611E-2,-2.4579149E-2,-2.3737397E-2,-4.8543927E-3,2.1052608E-2,-5.4455684E-3,-4.9450573E-2,-4.7849473E-3,-6.6879004E-2,-1.5374173E-2,-2.2222458E-3,-3.435117E-2,1.2781931E-2,-1.3571452E-2,-1.6417934E-2,4.170038E-2,1.1888089E-2,-1.5267199E-2,-6.623379E-2,1.8965505E-3,-3.636366E-2,-4.3478273E-3,-3.013701E-2,-1.15254475E-2,2.142856E-3,-1.170214E-3,-1.2285727E-3,-2.6136376E-3,-1.1628024E-4,1.0439549E-3,-2.356033E-4,-1.5555568E-3,6.1797636E-4,-3.6956535E-3,9.999989E-4,2.5144496E-3,1.521738E-3,1.0203964E-4,-1.1363755E-4,-2.0114954E-3,-4.8333346E-3,-2.2631593E-3,-2.6595758E-3,-0E0,-1.5151632E-4,-1.8421066E-3,5.921041E-4,-9.908896E-4],"categories":[],"categories_nodes":[],"categories_segments":[],"categories_sizes":[],"default_left":[0,0,0,0,0,0,0,0,0,0,0,0,0,0,0,0,0,0,0,0,0,0,0,0,0,0,0,0,0,0,0,0,0,0,0,0,0,0,0,0,0,0,0,0,0,0,0,0,0,0,0,0,0],"id":17,"left_children":[1,3,5,7,9,11,13,15,17,19,21,23,-1,25,27,29,31,33,35,37,39,41,43,45,-1,47,-1,49,51,-1,-1,-1,-1,-1,-1,-1,-1,-1,-1,-1,-1,-1,-1,-1,-1,-1,-1,-1,-1,-1,-1,-1,-1],"loss_changes":[1.1183697E0,1.84926E-1,8.497603E-1,6.8961486E-2,1.3890699E-1,2.1404243E-1,3.3767432E-1,8.6695656E-2,6.359202E-2,2.9721254E-1,6.92983E-2,2.7225363E-1,0E0,8.069563E-2,3.7247732E-2,1.2796557E-1,3.6951363E-2,1.8173559E-2,3.9780512E-2,2.2878046E-1,3.8000286E-2,2.2807075E-2,8.064498E-2,7.971376E-2,0E0,4.5706004E-2,0E0,2.243711E-2,1.1535749E-1,0E0,0E0,0E0,0E0,0E0,0E0,0E0,0E0,0E0,0E0,0E0,0E0,0E0,0E0,0E0,0E0,0E0,0E0,0E0,0E0,0E0,0E0,0E0,0E0],"parents":[2147483647,0,0,1,1,2,2,3,3,4,4,5,5,6,6,7,7,8,8,9,9,10,10,11,11,13,13,14,14,15,15,16,16,17,17,18,18,19,19,20,20,21,21,22,22,23,23,25,25,27,27,28,28],"right_children":[2,4,6,8,10,12,14,16,18,20,22,24,-1,26,28,30,32,34,36,38,40,42,44,46,-1,48,-1,50,52,-1,-1,-1,-1,-1,-1,-1,-1,-1,-1,-1,-1,-1,-1,-1,-1,-1,-1,-1,-1,-1,-1,-1,-1],"split_conditions":[6E-1,3E-1,2E-1,3E-1,3E-1,8E-1,1E-1,1E-1,4E-1,1E-1,4E-1,5E-1,-6.3999705E-3,8E-1,2E-1,2E-1,2E-1,2E-1,4E-1,5E-1,4E-1,2E-1,5E-1,2E-1,7.582808E-4,5E-1,-5.7784454E-3,7E-1,3E-1,4.2313626E-3,-4.9508703E-3,-3.2469467E-3,-8.4819656E-4,2.9290717E-3,4.284386E-3,-4.2974065E-5,-1.923648E-3,5.1114797E-3,-1.0682989E-3,3.987971E-3,7.935292E-3,5.3595863E-3,5.8588567E-3,-6.1289895E-5,-1.149571E-3,-2.2106718E-3,-5.4869507E-3,-4.975667E-3,2.5603701E-3,2.4278404E-4,-4.5480398E-3,7.0145394E-4,-3.4688674E-3],"split_indices":[1,3,3,2,1,1,2,2,2,1,3,2,0,1,2,1,3,1,1,3,3,2,1,2,0,3,0,1,2,0,0,0,0,0,0,0,0,0,0,0,0,0,0,0,0,0,0,0,0,0,0,0,0],"split_type":[0,0,0,0,0,0,0,0,0,0,0,0,0,0,0,0,0,0,0,0,0,0,0,0,0,0,0,0,0,0,0,0,0,0,0,0,0,0,0,0,0,0,0,0,0,0,0,0,0,0,0,0,0],"sum_hessian":[2.937E3,1.588E3,1.349E3,8.06E2,7.82E2,4.59E2,8.9E2,3.95E2,4.11E2,3.79E2,4.03E2,1.81E2,2.78E2,1.56E2,7.34E2,1.34E2,2.61E2,1.32E2,2.79E2,1.33E2,2.46E2,1.42E2,2.61E2,1.53E2,2.8E1,6.5E1,9.1E1,1.45E2,5.89E2,4.1E1,9.3E1,1.74E2,8.7E1,4.2E1,9E1,1.9E2,8.9E1,8.8E1,4.5E1,7.4E1,1.72E2,4.5E1,9.7E1,1.75E2,8.6E1,5.9E1,9.4E1,4.6E1,1.9E1,3.2E1,1.13E2,1.51E2,4.38E2],"tree_param":{"num_deleted":"0","num_feature":"4","num_nodes":"53","size_leaf_vector":"1"}},{"base_weights":[-1.9271033E-2,7.710937E-1,-9.401775E-2,4.4056606E-2,5.836734E-1,-4.04412E-2,-4.995898E-3,3.6428568E-1,3.3028167E-2,7.7215165E-2,-8.8659815E-2,2.2499999E-2,6.11111E-3,-7.000002E-2,2.2499998E-1,-5.5102065E-2,-4.931508E-3,-4.615386E-3,-1.0000011E-3,-4.2857155E-3,1.9074073E-2,-4.6428586E-3,-1.1345203E-9],"categories":[],"categories_nodes":[],"categories_segments":[],"categories_sizes":[],"default_left":[0,0,0,0,0,0,0,0,0,0,0,0,0,0,0,0,0,0,0,0,0,0,0],"id":18,"left_children":[1,3,5,-1,7,9,-1,11,-1,13,15,-1,-1,17,19,21,-1,-1,-1,-1,-1,-1,-1],"loss_changes":[1.7505045E2,4.61882E0,8.379574E-1,0E0,1.3100166E0,1.5511081E0,0E0,4.687302E-1,0E0,1.7499874E0,4.410112E-2,0E0,0E0,3.1538457E-2,2.0071163E0,9.2653066E-2,0E0,0E0,0E0,0E0,0E0,0E0,0E0],"parents":[2147483647,0,0,1,1,2,2,4,4,5,5,7,7,9,9,10,10,13,13,14,14,15,15],"right_children":[2,4,6,-1,8,10,-1,12,-1,14,16,-1,-1,18,20,22,-1,-1,-1,-1,-1,-1,-1],"split_conditions":[1E-1,7E-1,2E-1,1.1737431E-2,2E-1,3E-1,-1.2405393E-2,1E0,3.8823315E-3,3E-1,5E-1,2.4899489E-3,1.066209E-3,2E-1,1E-1,3E-1,-2.6523883E-3,-1.1969561E-3,-3.3717264E-5,-1.2501836E-3,9.503344E-4,-5.594558E-4,-1.2789354E-5],"split_indices":[0,1,0,0,2,1,0,1,0,2,1,0,0,2,1,2,0,0,0,0,0,0,0],"split_type":[0,0,0,0,0,0,0,0,0,0,0,0,0,0,0,0,0,0,0,0,0,0,0],"sum_hessian":[2.962E3,2.55E2,2.707E3,1.58E2,9.7E1,2.71E2,2.436E3,2.7E1,7E1,7.8E1,1.93E2,1.9E1,8E0,3.9E1,3.9E1,4.8E1,1.45E2,2.5E1,1.4E1,1.3E1,2.6E1,2.7E1,2.1E1],"tree_param":{"num_deleted":"0","num_feature":"4","num_nodes":"23","size_leaf_vector":"1"}},{"base_weights":[-2.3061318E-2,7.294573E-1,-9.510388E-2,4.8620686E-1,4.238372E-2,-5.0746292E-2,-4.9958844E-3,3.4186044E-1,6.111111E-1,-4.928059E-3,-0E0,2.4999997E-1,2E-2,2.625E-2,3.785714E-2,-5.280901E-2,1.1428569E-1,1.6428571E-2,2.1428561E-3,-4.761906E-3,-6.250012E-4,3.6206886E-3,9.285714E-3],"categories":[],"categories_nodes":[],"categories_segments":[],"categories_sizes":[],"default_left":[0,0,0,0,0,0,0,0,0,0,0,0,0,0,0,0,0,0,0,0,0,0,0],"id":19,"left_children":[1,3,5,7,-1,9,-1,11,13,-1,15,17,-1,-1,-1,19,21,-1,-1,-1,-1,-1,-1],"loss_changes":[1.6009804E2,6.873596E0,5.5553436E-1,1.2643528E0,0E0,6.601385E-1,0E0,6.465101E-2,4.0161133E-2,0E0,7.967737E-1,2.742858E-1,0E0,0E0,0E0,1.4025013E-1,8.635467E-2,0E0,0E0,0E0,0E0,0E0,0E0],"parents":[2147483647,0,0,1,1,2,2,3,3,5,5,7,7,8,8,10,10,11,11,15,15,16,16],"right_children":[2,4,6,8,-1,10,-1,12,14,-1,16,18,-1,-1,-1,20,22,-1,-1,-1,-1,-1,-1],"split_conditions":[1E-1,2E-1,2E-1,3E-1,1.0092454E-2,3E-1,-1.2452201E-2,1E-1,5E-1,-8.069047E-4,4E-1,2E-1,7.731344E-3,7.466974E-3,8.309463E-3,2E-1,5E-1,5.27721E-3,2.138104E-3,-1.7365657E-3,1.8319679E-5,2.956593E-4,1.0243332E-3],"split_indices":[0,3,0,2,0,2,0,3,2,0,3,2,0,0,0,3,2,0,0,0,0,0,0],"split_type":[0,0,0,0,0,0,0,0,0,0,0,0,0,0,0,0,0,0,0,0,0,0,0],"sum_hessian":[2.952E3,2.57E2,2.695E3,8.6E1,1.71E2,2.67E2,2.428E3,4.2E1,4.4E1,1.38E2,1.29E2,1.9E1,2.3E1,3.1E1,1.3E1,8.8E1,4.1E1,1.3E1,6E0,4.1E1,4.7E1,2.8E1,1.3E1],"tree_param":{"num_deleted":"0","num_feature":"4","num_nodes":"23","size_leaf_vector":"1"}},{"base_weights":[-2.6621645E-2,6.953668E-1,-9.5854945E-2,8.575757E-1,4.0526313E-1,-5.7088148E-2,-4.9959063E-3,4.4275362E-2,3.4285713E-2,2.7777776E-1,2.5392158E-2,5.2777756E-2,-4.9473695E-3,1.84375E-2,4.285712E-2,-6.571431E-2,1.6315787E-1,-3.000001E-3,4.999999E-3,-4.5833346E-3,-1.0865431E-9,-4.2857155E-3,1.5E-2],"categories":[],"categories_nodes":[],"categories_segments":[],"categories_sizes":[],"default_left":[0,0,0,0,0,0,0,0,0,0,0,0,0,0,0,0,0,0,0,0,0,0,0],"id":20,"left_children":[1,3,5,7,9,11,-1,-1,-1,13,-1,15,-1,-1,17,19,21,-1,-1,-1,-1,-1,-1],"loss_changes":[1.4796419E2,1.1714035E1,4.0420532E-1,2.773285E-2,1.022728E0,1.210153E0,0E0,0E0,0E0,9.04742E-1,0E0,9.6216613E-1,0E0,0E0,9.228571E-2,5.0523803E-2,1.3412783E0,0E0,0E0,0E0,0E0,0E0,0E0],"parents":[2147483647,0,0,1,1,2,2,3,3,4,4,5,5,9,9,11,11,14,14,15,15,16,16],"right_children":[2,4,6,8,10,12,-1,-1,-1,14,-1,16,-1,-1,18,20,22,-1,-1,-1,-1,-1,-1],"split_conditions":[1E-1,7E-1,2E-1,6E-1,3E-1,3E-1,-1.1367078E-2,1.0654127E-2,4.326373E-3,1E0,3.412385E-3,3E-1,-1.2288496E-3,1.9012025E-3,1E-1,2E-1,1E-1,-1.1163662E-3,1.3932497E-3,-7.425228E-4,3.4776604E-5,-5.904576E-4,9.0030435E-4],"split_indices":[0,1,0,1,2,1,0,0,0,1,0,2,0,0,2,2,1,0,0,0,0,0,0],"split_type":[0,0,0,0,0,0,0,0,0,0,0,0,0,0,0,0,0,0,0,0,0,0,0],"sum_hessian":[2.959E3,2.58E2,2.701E3,1.64E2,9.4E1,2.6E2,2.441E3,1.37E2,2.7E1,4.4E1,5E1,7.1E1,1.89E2,3.1E1,1.3E1,3.4E1,3.7E1,4E0,9E0,2.3E1,1.1E1,1.3E1,2.4E1],"tree_param":{"num_deleted":"0","num_feature":"4","num_nodes":"23","size_leaf_vector":"1"}},{"base_weights":[-2.8720915E-2,7.145161E-1,-9.661269E-2,2.4268292E-2,8.2215565E-1,-6.541356E-2,-4.995921E-3,3.25E-2,4.25E-2,-4.57143E-3,-3.5433095E-2,-6.1111134E-2,9.999998E-2,-4.78261E-3,-1.6666679E-3,1.3749999E-2,-3.846165E-4],"categories":[],"categories_nodes":[],"categories_segments":[],"categories_sizes":[],"default_left":[0,0,0,0,0,0,0,0,0,0,0,0,0,0,0,0,0],"id":21,"left_children":[1,3,5,-1,7,9,-1,-1,-1,-1,11,13,15,-1,-1,-1,-1],"loss_changes":[1.4951927E2,5.5872726E0,2.5704765E-1,0E0,9.802246E-2,1.9153893E-1,0E0,0E0,0E0,0E0,4.438845E-1,8.7536246E-2,4.0576926E-1,0E0,0E0,0E0,0E0],"parents":[2147483647,0,0,1,1,2,2,4,4,5,5,10,10,11,11,12,12],"right_children":[2,4,6,-1,8,10,-1,-1,-1,-1,12,14,16,-1,-1,-1,-1],"split_conditions":[1E-1,2E-1,2E-1,5.8280486E-3,1E-1,3E-1,-1.0480927E-2,6.553174E-3,1.0186936E-2,-6.745042E-4,5E-1,2E-1,4E-1,-1.709391E-3,-1.0083972E-4,4.2247027E-4,6.2173966E-4],"split_indices":[0,3,0,0,2,2,0,0,0,0,3,3,2,0,0,0,0],"split_type":[0,0,0,0,0,0,0,0,0,0,0,0,0,0,0,0,0],"sum_hessian":[2.962E3,2.47E2,2.715E3,8.1E1,1.66E2,2.65E2,2.45E3,2.7E1,1.39E2,1.39E2,1.26E2,1.07E2,1.9E1,4.5E1,6.2E1,7E0,1.2E1],"tree_param":{"num_deleted":"0","num_feature":"4","num_nodes":"17","size_leaf_vector":"1"}},{"base_weights":[-2.9423753E-2,6.5384614E-1,-9.546639E-2,8.4375E-1,3.4554452E-1,-5.430714E-2,-4.9958774E-3,4.390511E-2,3.0416666E-2,4.1351348E-1,1.4999998E-1,4.492751E-2,-8.894475E-2,3.1666663E-1,2.4487179E-2,-1.4285737E-2,1.5E-2,-6.842107E-2,1.8124998E-1,-5.6000024E-2,-4.9333344E-3,2E-2,1.2391304E-2,-3.88889E-3,3.3333325E-3,-4.600001E-3,-7.1428687E-4,-4.0909103E-3,1.5454545E-2,-4.6428586E-3,-2.1739244E-4],"categories":[],"categories_nodes":[],"categories_segments":[],"categories_sizes":[],"default_left":[0,0,0,0,0,0,0,0,0,0,0,0,0,0,0,0,0,0,0,0,0,0,0,0,0,0,0,0,0,0,0],"id":22,"left_children":[1,3,5,7,9,11,-1,-1,-1,13,15,17,19,21,-1,23,-1,25,27,29,-1,-1,-1,-1,-1,-1,-1,-1,-1,-1,-1],"loss_changes":[1.3312518E2,1.4811897E1,4.7216034E-1,6.1112213E-1,1.2240086E0,9.2614377E-1,0E0,0E0,0E0,3.105898E-1,7.2285724E-1,1.0898694E0,4.2744994E-2,4.2608738E-2,0E0,7.825398E-2,0E0,3.6562398E-2,1.1242044E0,8.506337E-2,0E0,0E0,0E0,0E0,0E0,0E0,0E0,0E0,0E0,0E0,0E0],"parents":[2147483647,0,0,1,1,2,2,3,3,4,4,5,5,9,9,10,10,11,11,12,12,13,13,15,15,17,17,18,18,19,19],"right_children":[2,4,6,8,10,12,-1,-1,-1,14,16,18,20,22,-1,24,-1,26,28,30,-1,-1,-1,-1,-1,-1,-1,-1,-1,-1,-1],"split_conditions":[1E-1,7E-1,2E-1,6E-1,1E0,3E-1,-1.0549246E-2,9.697138E-3,3.0157722E-3,3E-1,3E-1,3E-1,5E-1,8E-1,2.9184553E-3,2E-1,2.3651887E-3,2E-1,1E-1,3E-1,-2.4439904E-3,2.078483E-3,1.1884759E-3,-7.073358E-5,8.142406E-4,-9.745951E-4,4.9120754E-5,-3.85615E-4,4.2497498E-4,-3.9597065E-4,2.2563693E-6],"split_indices":[0,1,0,1,1,1,0,0,0,2,2,2,1,1,0,2,0,2,1,2,0,0,0,0,0,0,0,0,0,0,0],"split_type":[0,0,0,0,0,0,0,0,0,0,0,0,0,0,0,0,0,0,0,0,0,0,0,0,0,0,0,0,0,0,0],"sum_hessian":[2.949E3,2.59E2,2.69E3,1.59E2,1E2,2.66E2,2.424E3,1.36E2,2.3E1,7.3E1,2.7E1,6.8E1,1.98E2,3.5E1,3.8E1,1.3E1,1.4E1,3.7E1,3.1E1,4.9E1,1.49E2,1.3E1,2.2E1,8E0,5E0,2.4E1,1.3E1,1E1,2.1E1,2.7E1,2.2E1],"tree_param":{"num_deleted":"0","num_feature":"4","num_nodes":"31","size_leaf_vector":"1"}},{"base_weights":[-3.235198E-2,6.4703554E-1,-9.5177226E-2,4.3518517E-2,3.8739493E-1,-5.0561823E-2,-4.9959547E-3,4.754096E-2,7.3050845E-1,3.6986277E-2,-8.358977E-2,-4.761907E-2,2.4999997E-1,4.0652175E-2,3.9999998E-1,-4.6428586E-3,1.1739128E-1,-4.937108E-3,-1.3513537E-2,6.11111E-3,-4.7058836E-3,2.4999999E-2,-0E0,4.999999E-3,2.4999999E-2,-6.0000113E-4,1.3181818E-2,4.999999E-3,-4.5652185E-3],"categories":[],"categories_nodes":[],"categories_segments":[],"categories_sizes":[],"default_left":[0,0,0,0,0,0,0,0,0,0,0,0,0,0,0,0,0,0,0,0,0,0,0,0,0,0,0,0,0],"id":23,"left_children":[1,3,5,-1,7,9,-1,11,13,15,17,19,21,-1,23,-1,25,-1,27,-1,-1,-1,-1,-1,-1,-1,-1,-1,-1],"loss_changes":[1.2758495E2,1.4207695E1,5.589409E-1,0E0,1.3763876E1,7.797917E-1,0E0,1.2073693E0,1.1629105E0,7.7547866E-1,1.9449544E-1,3.4038284E-1,1.25E0,0E0,3.0999994E-1,0E0,8.9877796E-1,0E0,3.349824E-1,0E0,0E0,0E0,0E0,0E0,0E0,0E0,0E0,0E0,0E0],"parents":[2147483647,0,0,1,1,2,2,4,4,5,5,7,7,8,8,9,9,10,10,11,11,12,12,14,14,16,16,18,18],"right_children":[2,4,6,-1,8,10,-1,12,14,16,18,20,22,-1,24,-1,26,-1,28,-1,-1,-1,-1,-1,-1,-1,-1,-1,-1],"split_conditions":[1E-1,6E-1,2E-1,8.499276E-3,3E-1,3E-1,-1.0095906E-2,2E-1,1E0,1E-1,5E-1,7E-1,9E-1,2.9350333E-3,4E-1,-9.843528E-4,3E-1,-1.4293601E-3,6E-1,4.3908885E-4,-9.360228E-4,1.6612435E-3,1.1605325E-4,2.765244E-4,2.3532482E-3,2.6949429E-5,7.512746E-4,7.6742086E-5,-2.6800742E-3],"split_indices":[0,1,0,0,3,1,0,3,1,1,3,1,1,0,3,0,3,0,1,0,0,0,0,0,0,0,0,0,0],"split_type":[0,0,0,0,0,0,0,0,0,0,0,0,0,0,0,0,0,0,0,0,0,0,0,0,0,0,0,0,0],"sum_hessian":[2.988E3,2.52E2,2.736E3,1.34E2,1.18E2,2.66E2,2.47E3,6E1,5.8E1,7.2E1,1.94E2,4.1E1,1.9E1,4.5E1,1.3E1,2.7E1,4.5E1,1.58E2,3.6E1,8E0,3.3E1,9E0,1E1,4E0,9E0,2.4E1,2.1E1,1.4E1,2.2E1],"tree_param":{"num_deleted":"0","num_feature":"4","num_nodes":"29","size_leaf_vector":"1"}},{"base_weights":[-2.8745787E-2,6.3033706E-1,-9.433684E-2,8.489051E-1,3.961832E-1,-4.5384638E-2,-4.975259E-3,4.4122808E-2,3.25E-2,4.9210525E-1,2.5714284E-1,2.3711316E-2,-8.658539E-2,1.7916666E-2,2.707547E-2,7.857141E-2,2.0862069E-2,-3.636366E-2,1.4999998E-1,-5.2173935E-2,-4.9159676E-3,-3.88889E-3,7.499999E-3,-4.411766E-3,-8.0000114E-4,-4.0909103E-3,1.3181818E-2,-4.5833346E-3,-2.1739244E-4],"categories":[],"categories_nodes":[],"categories_segments":[],"categories_sizes":[],"default_left":[0,0,0,0,0,0,0,0,0,0,0,0,0,0,0,0,0,0,0,0,0,0,0,0,0,0,0,0,0],"id":24,"left_children":[1,3,5,7,9,11,-1,-1,-1,13,15,17,19,-1,-1,21,-1,23,25,27,-1,-1,-1,-1,-1,-1,-1,-1,-1],"loss_changes":[1.2753417E2,1.3203842E1,6.6005135E-1,1.874237E-1,1.5456867E0,7.4850976E-1,0E0,0E0,0E0,2.1825027E-1,1.5186212E0,7.527366E-1,4.604137E-2,0E0,0E0,3.315873E-1,0E0,5.7880208E-2,8.827274E-1,7.688406E-2,0E0,0E0,0E0,0E0,0E0,0E0,0E0,0E0,0E0],"parents":[2147483647,0,0,1,1,2,2,3,3,4,4,5,5,9,9,10,10,11,11,12,12,15,15,17,17,18,18,19,19],"right_children":[2,4,6,8,10,12,-1,-1,-1,14,16,18,20,-1,-1,22,-1,24,26,28,-1,-1,-1,-1,-1,-1,-1,-1,-1],"split_conditions":[1E-1,6E-1,2E-1,5E-1,9E-1,4E-1,-1.0007392E-2,8.806865E-3,4.467364E-3,2E-1,3E-1,4E-1,6E-1,1.7259531E-3,2.7171744E-3,1E-1,2.0972644E-3,1E-1,1E-1,3E-1,-3.074087E-3,-8.029426E-5,7.060035E-4,-4.959946E-4,-6.326319E-6,-1.0169639E-3,8.0302637E-4,-5.3752994E-4,-5.0667277E-5],"split_indices":[0,1,0,1,1,1,0,0,0,2,2,2,1,0,0,2,0,1,1,2,0,0,0,0,0,0,0,0,0],"split_type":[0,0,0,0,0,0,0,0,0,0,0,0,0,0,0,0,0,0,0,0,0,0,0,0,0,0,0,0,0],"sum_hessian":[2.949E3,2.66E2,2.683E3,1.36E2,1.3E2,2.59E2,2.424E3,1.13E2,2.3E1,7.5E1,5.5E1,9.6E1,1.63E2,2.3E1,5.2E1,2.7E1,2.8E1,6.5E1,3.1E1,4.5E1,1.18E2,8E0,1.9E1,1.6E1,4.9E1,1E1,2.1E1,2.3E1,2.2E1],"tree_param":{"num_deleted":"0","num_feature":"4","num_nodes":"29","size_leaf_vector":"1"}},{"base_weights":[-3.2770865E-2,6.093023E-1,-9.4013326E-2,3.175824E-1,7.630952E-1,-5.3787902E-2,-9.8280825E-2,1.1279069E-2,1.9489795E-2,2.8333334E-2,8.2741934E-1,-8.2222246E-2,5.8823293E-3,-8.313256E-2,-4.9954457E-3,3.195652E-2,4.3039214E-2,-4.60265E-3,-2.666669E-2,-4.666669E-2,1.3076921E-1,-9.431282E-2,-1.7948741E-2,-2.500001E-3,2.1428561E-3,-4.6774205E-3,-0E0,2.6923066E-3,9.285714E-3,-4.943183E-3,-3.3333346E-3,-3.1818193E-3,9.285714E-3],"categories":[],"categories_nodes":[],"categories_segments":[],"categories_sizes":[],"default_left":[0,0,0,0,0,0,0,0,0,0,0,0,0,0,0,0,0,0,0,0,0,0,0,0,0,0,0,0,0,0,0,0,0],"id":25,"left_children":[1,3,5,7,9,11,13,-1,-1,-1,15,17,19,21,-1,-1,-1,-1,23,25,27,29,31,-1,-1,-1,-1,-1,-1,-1,-1,-1,-1],"loss_changes":[1.16517265E2,1.1224609E1,4.4402313E-1,4.551096E-1,1.5144272E0,4.5604217E-1,3.3639908E-2,0E0,0E0,0E0,7.884979E-2,8.39808E-2,5.7234085E-1,1.6854548E-1,0E0,0E0,0E0,0E0,5.1523816E-2,1.4062369E-1,7.593408E-2,3.4025908E-3,3.6250085E-1,0E0,0E0,0E0,0E0,0E0,0E0,0E0,0E0,0E0,0E0],"parents":[2147483647,0,0,1,1,2,2,3,3,4,4,5,5,6,6,10,10,11,11,12,12,13,13,18,18,19,19,20,20,21,21,22,22],"right_children":[2,4,6,8,10,12,14,-1,-1,-1,16,18,20,22,-1,-1,-1,-1,24,26,28,30,32,-1,-1,-1,-1,-1,-1,-1,-1,-1,-1],"split_conditions":[1E-1,2E-1,2E-1,3E-1,3E-1,4E-1,3E-1,3.765807E-3,5.2140146E-3,7.1551437E-3,1E-1,5E-1,4E-1,5E-1,-2.5632733E-2,4.5683812E-3,8.750684E-3,-5.8660953E-4,3E-1,2E-1,5E-1,5E-1,5E-1,-8.027306E-5,3.4285113E-4,-1.4560701E-3,2.3583442E-4,1.0668797E-4,7.980508E-4,-1.8684494E-3,-6.630802E-4,-1.2989593E-3,7.6479017E-4],"split_indices":[0,3,0,2,3,2,0,0,0,0,2,3,3,2,0,0,0,0,2,3,2,3,3,0,0,0,0,0,0,0,0,0,0],"split_type":[0,0,0,0,0,0,0,0,0,0,0,0,0,0,0,0,0,0,0,0,0,0,0,0,0,0,0,0,0,0,0,0,0],"sum_hessian":[2.962E3,2.57E2,2.705E3,9E1,1.67E2,2.63E2,2.442E3,4.2E1,4.8E1,4.4E1,1.23E2,1.79E2,8.4E1,2.48E2,2.194E3,2.2E1,1.01E2,1.5E2,2.9E1,5.9E1,2.5E1,2.1E2,3.8E1,2.3E1,6E0,3E1,2.9E1,1.2E1,1.3E1,1.75E2,3.5E1,3.2E1,6E0],"tree_param":{"num_deleted":"0","num_feature":"4","num_nodes":"33","size_leaf_vector":"1"}},{"base_weights":[-3.163441E-2,5.97318E-1,-9.284385E-2,3.885496E-1,8.007633E-1,-4.5384638E-2,-9.785481E-2,3.222222E-1,2.5952382E-2,3.3541664E-2,4.3214288E-2,-8.212293E-2,3.4146316E-2,-7.984498E-2,-4.9953866E-3,1.3181818E-2,3.680851E-1,-4.591838E-3,-3.3333357E-2,-2.5000023E-2,1.5925923E-1,-9.441863E-2,-4.5454777E-3,1.1666666E-2,2.0757576E-2,-4.6296306E-3,9.285714E-3,1.7241265E-4,-2.857144E-3,2.1428561E-3,1.2857142E-2,-4.9441354E-3,-3.3783799E-3,-4.500001E-3,2.9999989E-3],"categories":[],"categories_nodes":[],"categories_segments":[],"categories_sizes":[],"default_left":[0,0,0,0,0,0,0,0,0,0,0,0,0,0,0,0,0,0,0,0,0,0,0,0,0,0,0,0,0,0,0,0,0,0,0],"id":26,"left_children":[1,3,5,7,9,11,13,15,-1,-1,-1,17,19,21,-1,-1,23,-1,25,27,29,31,33,-1,-1,-1,-1,-1,-1,-1,-1,-1,-1,-1,-1],"loss_changes":[1.13304115E2,1.065538E1,6.192951E-1,8.825073E-1,3.4789276E-1,7.6727796E-1,6.367111E-2,8.1609726E-2,0E0,0E0,0E0,6.925595E-2,6.2420505E-1,2.7280056E-1,0E0,0E0,1.3637018E-1,0E0,4.3624339E-1,5.67734E-2,2.6661384E-1,2.444744E-3,2.5109094E-1,0E0,0E0,0E0,0E0,0E0,0E0,0E0,0E0,0E0,0E0,0E0,0E0],"parents":[2147483647,0,0,1,1,2,2,3,3,4,4,5,5,6,6,7,7,11,11,12,12,13,13,16,16,18,18,19,19,20,20,21,21,22,22],"right_children":[2,4,6,8,10,12,14,16,-1,-1,-1,18,20,22,-1,-1,24,-1,26,28,30,32,34,-1,-1,-1,-1,-1,-1,-1,-1,-1,-1,-1,-1],"split_conditions":[1E-1,3E-1,2E-1,2E-1,2E-1,4E-1,3E-1,1E-1,6.8378574E-3,5.032332E-3,8.403379E-3,5E-1,4E-1,5E-1,-2.398001E-2,3.7035425E-3,2E-1,-7.7713974E-4,3E-1,5E-1,5E-1,5E-1,3E-1,3.6057949E-3,5.3232936E-3,-5.145612E-4,3.2570885E-4,2.6999996E-5,-2.7158493E-4,9.3573755E-5,7.5814844E-4,-1.9278601E-3,-1.1435578E-3,-1.8240303E-3,3.5898353E-4],"split_indices":[0,3,0,3,2,2,0,3,0,0,0,3,3,3,0,0,2,0,2,2,2,2,2,0,0,0,0,0,0,0,0,0,0,0,0],"split_type":[0,0,0,0,0,0,0,0,0,0,0,0,0,0,0,0,0,0,0,0,0,0,0,0,0,0,0,0,0,0,0,0,0,0,0],"sum_hessian":[2.942E3,2.6E2,2.682E3,1.3E2,1.3E2,2.59E2,2.423E3,8.9E1,4.1E1,4.7E1,8.3E1,1.78E2,8.1E1,2.57E2,2.166E3,4.3E1,4.6E1,1.46E2,3.2E1,5.5E1,2.6E1,2.14E2,4.3E1,1.4E1,3.2E1,2.6E1,6E0,2.8E1,2.7E1,1.3E1,1.3E1,1.78E2,3.6E1,1.9E1,2.4E1],"tree_param":{"num_deleted":"0","num_feature":"4","num_nodes":"35","size_leaf_vector":"1"}},{"base_weights":[-3.726544E-2,5.4960626E-1,-9.1871135E-2,7.679245E-1,1.8124998E-1,-5.8192115E-2,-4.995458E-3,4.2767856E-2,5.458333E-1,8.6956285E-3,1.6568627E-2,3.9860114E-2,-9.43445E-2,2.2272727E-2,3.5625E-2,1.1428569E-1,-3.3333357E-2,-4.4680875E-2,1.9999997E-1,-7.962965E-2,-4.9645402E-3,1.249999E-3,9.285714E-3,-0E0,-4.2307707E-3,-4.076924E-3,1.6666654E-3,-4.523811E-3,2E-2,-2.8846166E-3,-4.824563E-3],"categories":[],"categories_nodes":[],"categories_segments":[],"categories_sizes":[],"default_left":[0,0,0,0,0,0,0,0,0,0,0,0,0,0,0,0,0,0,0,0,0,0,0,0,0,0,0,0,0,0,0],"id":27,"left_children":[1,3,5,7,9,11,-1,-1,13,15,-1,17,19,-1,-1,21,23,25,27,29,-1,-1,-1,-1,-1,-1,-1,-1,-1,-1,-1],"loss_changes":[9.5631584E1,2.0192299E1,7.176914E-1,2.4804688E0,2.4499242E0,1.8915092E0,0E0,0E0,3.698492E-1,2.1604554E-1,0E0,1.9604567E0,2.5146008E-3,0E0,0E0,6.357144E-2,5.6410257E-2,2.778276E-1,2.9719052E0,1.8963873E-2,0E0,0E0,0E0,0E0,0E0,0E0,0E0,0E0,0E0,0E0,0E0],"parents":[2147483647,0,0,1,1,2,2,3,3,4,4,5,5,8,8,9,9,11,11,12,12,15,15,16,16,17,17,18,18,19,19],"right_children":[2,4,6,8,10,12,-1,-1,14,16,-1,18,20,-1,-1,22,24,26,28,30,-1,-1,-1,-1,-1,-1,-1,-1,-1,-1,-1],"split_conditions":[1E-1,7E-1,3E-1,5E-1,3E-1,3E-1,-2.3271373E-2,7.7447654E-3,4E-1,8E-1,1.4461827E-3,4E-1,5E-1,2.4199912E-3,4.2636096E-3,2E-1,1E0,3E-1,1E-1,2E-1,-2.3863667E-3,5.635063E-4,1.0696147E-3,1.8509447E-4,-4.3878923E-4,-4.850359E-4,6.217807E-5,-1.2712539E-3,6.811611E-4,-4.0678456E-4,-8.771987E-4],"split_indices":[0,1,0,1,2,1,0,0,2,1,0,2,1,0,0,2,1,2,1,0,0,0,0,0,0,0,0,0,0,0,0],"split_type":[0,0,0,0,0,0,0,0,0,0,0,0,0,0,0,0,0,0,0,0,0,0,0,0,0,0,0,0,0,0,0],"sum_hessian":[2.983E3,2.53E2,2.73E3,1.58E2,9.5E1,5.3E2,2.2E3,1.11E2,4.7E1,4.5E1,5E1,1.42E2,3.88E2,3.2E1,1.5E1,1.3E1,3.2E1,9.3E1,4.9E1,1.07E2,2.81E2,7E0,6E0,2E1,1.2E1,6.4E1,2.9E1,2E1,2.9E1,5.1E1,5.6E1],"tree_param":{"num_deleted":"0","num_feature":"4","num_nodes":"31","size_leaf_vector":"1"}},{"base_weights":[-3.789833E-2,5.317829E-1,-9.249909E-2,3.126984E-1,7.345864E-1,-4.6415117E-2,-9.744753E-2,1.2213114E-2,3.6969694E-1,6.2463766E-1,4.1923076E-2,-7.18182E-2,7.391302E-2,-7.7121794E-2,-4.99537E-3,1.2499998E-2,2.0531913E-2,2.3571428E-2,3.377551E-2,-4.6052644E-3,-2.4637705E-2,-1.2000022E-2,1.7272726E-1,-9.354841E-2,-3.9534908E-2,-3.0357155E-3,5.7142847E-3,-4.000001E-3,1.2499989E-3,1.3749999E-2,4.999999E-3,-4.935066E-3,-3.1818193E-3,-4.78261E-3,1.0975598E-3],"categories":[],"categories_nodes":[],"categories_segments":[],"categories_sizes":[],"default_left":[0,0,0,0,0,0,0,0,0,0,0,0,0,0,0,0,0,0,0,0,0,0,0,0,0,0,0,0,0,0,0,0,0,0,0],"id":28,"left_children":[1,3,5,7,9,11,13,-1,15,17,-1,19,21,23,-1,-1,-1,-1,-1,-1,25,27,29,31,33,-1,-1,-1,-1,-1,-1,-1,-1,-1,-1],"loss_changes":[9.17651E1,1.1128792E1,5.9521294E-1,3.3979702E-1,8.489456E-1,8.1512594E-1,9.6035E-2,0E0,1.5471268E-1,1.04644775E-1,0E0,1.9663048E-1,4.0865925E-1,1.5031552E-1,0E0,0E0,0E0,0E0,0E0,0E0,3.4740168E-1,7.04E-2,9.863639E-2,6.1541796E-3,3.0620706E-1,0E0,0E0,0E0,0E0,0E0,0E0,0E0,0E0,0E0,0E0],"parents":[2147483647,0,0,1,1,2,2,3,3,4,4,5,5,6,6,8,8,9,9,11,11,12,12,13,13,20,20,21,21,22,22,23,23,24,24],"right_children":[2,4,6,8,10,12,14,-1,16,18,-1,20,22,24,-1,-1,-1,-1,-1,-1,26,28,30,32,34,-1,-1,-1,-1,-1,-1,-1,-1,-1,-1],"split_conditions":[1E-1,3E-1,2E-1,3E-1,3E-1,5E-1,3E-1,3.090909E-3,1E-1,4E-1,7.810282E-3,4E-1,3E-1,4E-1,-2.1906637E-2,3.0305018E-3,5.785716E-3,3.9546927E-3,4.9563874E-3,-5.752903E-4,4E-1,1E-1,4E-1,5E-1,3E-1,-5.6356675E-4,1.2300847E-4,-1.410222E-3,2.9765946E-5,3.0631424E-4,6.7966984E-4,-2.2503796E-3,-3.345984E-4,-1.3727284E-3,5.941862E-5],"split_indices":[0,3,0,2,2,3,0,0,3,3,0,2,2,2,0,0,0,0,0,0,3,2,2,3,3,0,0,0,0,0,0,0,0,0,0],"split_type":[0,0,0,0,0,0,0,0,0,0,0,0,0,0,0,0,0,0,0,0,0,0,0,0,0,0,0,0,0,0,0,0,0,0,0],"sum_hessian":[2.949E3,2.57E2,2.692E3,1.25E2,1.32E2,2.64E2,2.428E3,6E1,6.5E1,6.8E1,6.4E1,2.19E2,4.5E1,2.7E2,2.158E3,1.9E1,4.6E1,2E1,4.8E1,1.51E2,6.8E1,2.4E1,2.1E1,1.85E2,8.5E1,5.5E1,1.3E1,9E0,1.5E1,7E0,1.4E1,1.53E2,3.2E1,4.5E1,4E1],"tree_param":{"num_deleted":"0","num_feature":"4","num_nodes":"35","size_leaf_vector":"1"}},{"base_weights":[-3.9265275E-2,4.9386972E-1,-9.069083E-2,3.0650404E-1,6.553957E-1,-3.106063E-2,-9.7054034E-2,2.333333E-1,1.8770492E-2,5.3013694E-1,3.9029848E-2,-4.8850584E-3,1.1235718E-3,-7.343176E-2,-4.9954015E-3,1.7272726E-1,2.5714284E-1,3.9999998E-1,2.9782608E-2,-5.531917E-2,6.4705856E-2,-4.929079E-3,-4.503819E-2,1.1666666E-2,1.249999E-3,8.999999E-3,1.7222222E-2,9.999999E-3,2.3947367E-2,-3.983052E-3,-5.5555673E-4,-2.272739E-4,6.904761E-3,-4.8484863E-3,3.0302914E-4],"categories":[],"categories_nodes":[],"categories_segments":[],"categories_sizes":[],"default_left":[0,0,0,0,0,0,0,0,0,0,0,0,0,0,0,0,0,0,0,0,0,0,0,0,0,0,0,0,0,0,0,0,0,0,0],"id":29,"left_children":[1,3,5,7,9,11,13,15,-1,17,-1,-1,19,21,-1,23,25,27,-1,29,31,-1,33,-1,-1,-1,-1,-1,-1,-1,-1,-1,-1,-1,-1],"loss_changes":[8.135E1,7.6019363E0,1.0113182E0,4.716816E-1,1.6349831E0,5.759876E-1,1.4009857E-1,3.5066605E-3,0E0,2.845688E-1,0E0,0E0,6.433172E-1,1.7471743E-1,0E0,1.6530311E-1,1.6841269E-1,2.7842093E-1,0E0,9.119165E-2,4.459791E-1,0E0,3.5730514E-1,0E0,0E0,0E0,0E0,0E0,0E0,0E0,0E0,0E0,0E0,0E0,0E0],"parents":[2147483647,0,0,1,1,2,2,3,3,4,4,5,5,6,6,7,7,9,9,12,12,13,13,15,15,16,16,17,17,19,19,20,20,22,22],"right_children":[2,4,6,8,10,12,14,16,-1,18,-1,-1,20,22,-1,24,26,28,-1,30,32,-1,34,-1,-1,-1,-1,-1,-1,-1,-1,-1,-1,-1,-1],"split_conditions":[1E-1,3E-1,2E-1,3E-1,3E-1,2E-1,3E-1,1E-1,4.833437E-3,4E-1,7.3190206E-3,-2.160047E-3,3E-1,3E-1,-2.1137469E-2,2E-1,2E-1,1E-1,4.7355867E-3,2E-1,4E-1,-2.6808337E-3,3E-1,2.3555094E-3,3.0436653E-3,3.5580632E-3,5.724289E-3,3.1010255E-3,4.0628063E-3,-6.7562575E-4,-4.6150766E-5,5.030563E-5,2.1344156E-4,-1.7432366E-3,1.8697941E-6],"split_indices":[0,3,0,2,2,3,0,3,0,3,0,0,2,3,0,2,2,2,0,2,3,0,2,0,0,0,0,0,0,0,0,0,0,0,0],"split_type":[0,0,0,0,0,0,0,0,0,0,0,0,0,0,0,0,0,0,0,0,0,0,0,0,0,0,0,0,0,0,0,0,0,0,0],"sum_hessian":[2.966E3,2.6E2,2.706E3,1.22E2,1.38E2,2.63E2,2.443E3,6.2E1,6E1,7.2E1,6.6E1,8.6E1,1.77E2,2.7E2,2.173E3,2.1E1,4.1E1,2.7E1,4.5E1,9.3E1,8.4E1,1.4E2,1.3E2,1.4E1,7E0,2.4E1,1.7E1,9E0,1.8E1,5.8E1,3.5E1,4.3E1,4.1E1,6.5E1,6.5E1],"tree_param":{"num_deleted":"0","num_feature":"4","num_nodes":"35","size_leaf_vector":"1"}},{"base_weights":[-4.2693626E-2,4.433962E-1,-9.031784E-2,3.2458097E-1,6.8160915E-1,-5.037881E-2,-4.995412E-3,2.296703E-1,4.168539E-1,2.982143E-2,4.03125E-2,-6.55329E-2,2.4999976E-2,2.0263155E-1,1.6874999E-2,2.7931032E-1,2.3688523E-2,-8.6000025E-2,-2.1126784E-2,-1.5068517E-2,2.1249998E-1,1.1666666E-2,2.1428561E-3,8.636363E-3,1.6052632E-2,-3.590605E-3,-4.9342117E-3,-3.7058834E-3,2.7586196E-3,-2.6086967E-3,2.142856E-3,1.3749999E-2,6.11111E-3],"categories":[],"categories_nodes":[],"categories_segments":[],"categories_sizes":[],"default_left":[0,0,0,0,0,0,0,0,0,0,0,0,0,0,0,0,0,0,0,0,0,0,0,0,0,0,0,0,0,0,0,0,0],"id":30,"left_children":[1,3,5,7,9,11,-1,13,15,-1,-1,17,19,21,-1,23,-1,25,27,29,31,-1,-1,-1,-1,-1,-1,-1,-1,-1,-1,-1,-1],"loss_changes":[6.875918E1,7.178528E0,1.0164204E0,1.4072342E0,3.0253983E-1,6.088246E-1,0E0,1.4291668E-1,4.890995E-1,0E0,0E0,3.8828003E-1,6.8407536E-1,3.3518767E-1,0E0,2.4189234E-2,0E0,2.985239E-2,5.8011264E-1,1.6007063E-1,1.6944468E-2,0E0,0E0,0E0,0E0,0E0,0E0,0E0,0E0,0E0,0E0,0E0,0E0],"parents":[2147483647,0,0,1,1,2,2,3,3,4,4,5,5,7,7,8,8,11,11,12,12,13,13,15,15,17,17,18,18,19,19,20,20],"right_children":[2,4,6,8,10,12,-1,14,16,-1,-1,18,20,22,-1,24,-1,26,28,30,32,-1,-1,-1,-1,-1,-1,-1,-1,-1,-1,-1,-1],"split_conditions":[1E-1,4E-1,3E-1,2E-1,4E-1,5E-1,-1.9746615E-2,5E-1,2E-1,4.6839383E-3,7.4263224E-3,4E-1,5E-1,4E-1,4.267869E-3,3E-1,5.672437E-3,2E-1,3E-1,3E-1,2E-1,2.6047956E-3,4.6772473E-3,3.1458908E-3,2.7601998E-3,-4.8267265E-4,-2.2283925E-3,-8.483559E-4,8.148349E-5,-4.8676736E-4,9.4877694E-5,6.67581E-4,6.714791E-4],"split_indices":[0,3,0,3,2,3,0,2,2,0,0,2,2,2,0,3,0,0,3,2,0,0,0,0,0,0,0,0,0,0,0,0,0],"split_type":[0,0,0,0,0,0,0,0,0,0,0,0,0,0,0,0,0,0,0,0,0,0,0,0,0,0,0,0,0,0,0,0,0],"sum_hessian":[2.969E3,2.64E2,2.705E3,1.78E2,8.6E1,5.27E2,2.178E3,9E1,8.8E1,5.5E1,3.1E1,4.4E2,8.7E1,7.5E1,1.5E1,2.8E1,6E1,2.99E2,1.41E2,7.2E1,1.5E1,6.2E1,1.3E1,1E1,1.8E1,1.48E2,1.51E2,8.4E1,5.7E1,4.5E1,2.7E1,7E0,8E0],"tree_param":{"num_deleted":"0","num_feature":"4","num_nodes":"33","size_leaf_vector":"1"}},{"base_weights":[-4.5906063E-2,3.981949E-1,-9.1420144E-2,2.3823527E-1,5.478873E-1,-3.533837E-2,-9.7458E-2,1.6666664E-1,2.695652E-1,4.5999998E-1,6.352941E-1,-5.3424682E-2,4.583331E-2,-7.677905E-2,-4.9953996E-3,1.3749999E-2,1.3684209E-1,1.5925923E-1,1.5454545E-2,1.5689654E-2,2.6914893E-2,2.7978722E-2,3.818182E-2,-4.8550735E-3,-3.2450356E-2,-0E0,1.3749999E-2,-9.013455E-2,-6.66669E-3,4.677418E-3,1.3749999E-2,4.374999E-3,1.1666666E-2,-3.983052E-3,-5.376462E-5,-4.0909103E-3,1.4516118E-3,-4.9248133E-3,-3.79121E-3,-4.5652185E-3,3.6956512E-3],"categories":[],"categories_nodes":[],"categories_segments":[],"categories_sizes":[],"default_left":[0,0,0,0,0,0,0,0,0,0,0,0,0,0,0,0,0,0,0,0,0,0,0,0,0,0,0,0,0,0,0,0,0,0,0,0,0,0,0,0,0],"id":31,"left_children":[1,3,5,7,9,11,13,15,17,19,21,23,25,27,-1,-1,29,31,-1,-1,-1,-1,-1,-1,33,35,-1,37,39,-1,-1,-1,-1,-1,-1,-1,-1,-1,-1,-1,-1],"loss_changes":[6.0240005E1,6.4235535E0,8.9888763E-1,2.1639395E-1,6.8907166E-1,3.9372137E-1,9.8228455E-2,6.6578984E-2,3.050518E-1,6.04455E-1,1.0119438E-1,1.8451786E-1,5.0416666E-1,2.3973393E-1,0E0,0E0,1.6471136E-1,9.101862E-2,0E0,0E0,0E0,0E0,0E0,0E0,2.155077E-1,9.97654E-2,0E0,1.7834902E-3,3.1539133E-1,0E0,0E0,0E0,0E0,0E0,0E0,0E0,0E0,0E0,0E0,0E0,0E0],"parents":[2147483647,0,0,1,1,2,2,3,3,4,4,5,5,6,6,7,7,8,8,9,9,10,10,11,11,12,12,13,13,16,16,17,17,24,24,25,25,27,27,28,28],"right_children":[2,4,6,8,10,12,14,16,18,20,22,24,26,28,-1,-1,30,32,-1,-1,-1,-1,-1,-1,34,36,-1,38,40,-1,-1,-1,-1,-1,-1,-1,-1,-1,-1,-1,-1],"split_conditions":[1E-1,3E-1,2E-1,1E-1,3E-1,5E-1,3E-1,1E-1,2E-1,4E-1,5E-1,2E-1,5E-1,5E-1,-1.8833227E-2,9.615958E-4,5E-1,2E-1,4.740321E-3,2.876036E-3,4.2556035E-3,6.4572813E-3,7.444091E-3,-1.2483125E-3,2E-1,1E-1,6.342016E-4,3E-1,3E-1,2.4962283E-3,2.7530275E-3,2.4515036E-3,3.1536208E-3,-1.2514055E-3,-5.1981042E-5,-1.2893828E-3,1.07348955E-4,-2.0730363E-3,-2.2638678E-4,-1.1712951E-3,4.6362655E-4],"split_indices":[0,3,0,3,2,3,0,2,2,3,3,2,2,2,0,0,2,3,0,0,0,0,0,0,3,2,0,2,3,0,0,0,0,0,0,0,0,0,0,0,0],"split_type":[0,0,0,0,0,0,0,0,0,0,0,0,0,0,0,0,0,0,0,0,0,0,0,0,0,0,0,0,0,0,0,0,0,0,0,0,0,0,0,0,0],"sum_hessian":[2.979E3,2.76E2,2.703E3,1.35E2,1.41E2,2.65E2,2.438E3,4.4E1,9.1E1,7.4E1,6.7E1,2.18E2,4.7E1,2.66E2,2.172E3,7E0,3.7E1,2.6E1,6.5E1,2.8E1,4.6E1,4.6E1,2.1E1,6.8E1,1.5E2,4E1,7E0,2.22E2,4.4E1,3E1,7E0,1.5E1,1.1E1,5.8E1,9.2E1,1E1,3E1,1.32E2,9E1,2.2E1,2.2E1],"tree_param":{"num_deleted":"0","num_feature":"4","num_nodes":"41","size_leaf_vector":"1"}},{"base_weights":[-5.0033968E-2,3.8249025E-1,-9.1375485E-2,7.8034186E-1,4.8936147E-2,-5.7195596E-2,-4.995348E-3,4.4166663E-1,4.287234E-2,2.4693875E-1,-5.4838732E-2,4.383559E-2,-9.445846E-2,6.11111E-3,2.9375E-2,3.5833332E-1,1.3076921E-1,7.142834E-3,-8.181821E-2,-4.803923E-3,1.18749976E-1,-4.970061E-3,-6.562503E-2,4.999999E-3,2E-2,3.3333325E-3,1.1666666E-2,-4.000001E-3,2.8947357E-3,-4.82143E-3,-0E0,-4.7058836E-3,1.1666666E-2,-9.259271E-4,-4.7368435E-3],"categories":[],"categories_nodes":[],"categories_segments":[],"categories_sizes":[],"default_left":[0,0,0,0,0,0,0,0,0,0,0,0,0,0,0,0,0,0,0,0,0,0,0,0,0,0,0,0,0,0,0,0,0,0,0],"id":32,"left_children":[1,3,5,7,9,11,-1,13,-1,15,17,19,21,-1,-1,23,25,27,29,-1,31,-1,33,-1,-1,-1,-1,-1,-1,-1,-1,-1,-1,-1,-1],"loss_changes":[5.268388E1,3.398408E1,7.6299286E-1,2.546669E0,2.929977E0,2.0496767E0,0E0,9.752779E-1,0E0,5.383227E-1,1.6356936E-1,1.5439863E0,3.3553362E-2,0E0,0E0,1.6833329E-1,1.2538466E-1,1.2625565E-1,7.8896075E-2,0E0,2.3774261E0,0E0,7.4686885E-2,0E0,0E0,0E0,0E0,0E0,0E0,0E0,0E0,0E0,0E0,0E0,0E0],"parents":[2147483647,0,0,1,1,2,2,3,3,4,4,5,5,7,7,9,9,10,10,11,11,12,12,15,15,16,16,17,17,18,18,20,20,22,22],"right_children":[2,4,6,8,10,12,-1,14,-1,16,18,20,22,-1,-1,24,26,28,30,-1,32,-1,34,-1,-1,-1,-1,-1,-1,-1,-1,-1,-1,-1,-1],"split_conditions":[1E-1,5E-1,3E-1,1E-1,7E-1,3E-1,-1.7658258E-2,2E-1,6.296278E-3,6E-1,8E-1,1E-1,5E-1,1.9848098E-3,2.062247E-3,1E-1,4E-1,2E-1,5E-1,-1.1370124E-3,2E-1,-1.5576947E-3,6E-1,9.950936E-4,2.4141592E-3,2.7538888E-4,1.221969E-3,-3.962449E-4,2.5647914E-4,-5.012352E-4,2.9745657E-5,-1.2551211E-3,2.3065657E-4,-1.9304214E-4,-2.3059833E-3],"split_indices":[0,1,0,1,1,1,0,2,0,1,1,1,2,0,0,2,2,2,2,0,2,0,1,0,0,0,0,0,0,0,0,0,0,0,0],"split_type":[0,0,0,0,0,0,0,0,0,0,0,0,0,0,0,0,0,0,0,0,0,0,0,0,0,0,0,0,0,0,0,0,0,0,0],"sum_hessian":[2.945E3,2.56E2,2.689E3,1.16E2,1.4E2,5.41E2,2.148E3,2.3E1,9.3E1,4.8E1,9.2E1,1.45E2,3.96E2,8E0,1.5E1,2.3E1,2.5E1,2.7E1,6.5E1,5E1,9.5E1,3.33E2,6.3E1,4E0,1.9E1,1.7E1,8E0,9E0,1.8E1,5.5E1,1E1,3.3E1,6.2E1,2.6E1,3.7E1],"tree_param":{"num_deleted":"0","num_feature":"4","num_nodes":"35","size_leaf_vector":"1"}},{"base_weights":[-5.112005E-2,3.416058E-1,-9.07285E-2,6.708333E-1,-2.2137428E-2,-3.3333357E-2,-9.705644E-2,7.264463E-1,3.5833332E-1,1.5925923E-1,-6.952383E-2,8.666664E-2,-7.8894496E-2,-7.3134355E-2,-4.995412E-3,3.8148147E-1,4.0789474E-2,6.11111E-3,2.3124998E-2,1.1052629E-1,1.1666666E-2,-8.620692E-2,5.2631353E-3,-4.6551735E-3,1.9787231E-1,-4.4000022E-2,-4.9200016E-3,-2.3490024E-8,-4.9492395E-3,7.499999E-3,2.625E-2,7.499999E-3,-2.500001E-3,-2.3913055E-3,-4.846155E-3,-3.3333343E-3,2.1428561E-3,-4.2857155E-3,1.5588234E-2,-3.166668E-3,1.2499989E-3,-3.6956535E-3,6.11111E-3],"categories":[],"categories_nodes":[],"categories_segments":[],"categories_sizes":[],"default_left":[0,0,0,0,0,0,0,0,0,0,0,0,0,0,0,0,0,0,0,0,0,0,0,0,0,0,0,0,0,0,0,0,0,0,0,0,0,0,0,0,0,0,0],"id":33,"left_children":[1,3,5,7,9,11,13,15,17,19,21,23,25,27,-1,29,-1,-1,-1,31,-1,33,35,-1,37,39,-1,41,-1,-1,-1,-1,-1,-1,-1,-1,-1,-1,-1,-1,-1,-1,-1],"loss_changes":[4.65317E1,3.2892395E1,9.708843E-1,2.1337967E0,1.1281401E0,1.4986432E0,1.4225578E-1,3.2983131E0,4.752779E-1,3.7290514E-2,1.3955426E-1,1.5282588E0,1.1687684E-1,4.9677026E-1,0E0,7.50741E-1,0E0,0E0,0E0,1.3789473E-1,0E0,1.6672313E-2,5.185463E-2,0E0,1.5673501E0,1.05466664E-1,0E0,6.546377E-1,0E0,0E0,0E0,0E0,0E0,0E0,0E0,0E0,0E0,0E0,0E0,0E0,0E0,0E0,0E0],"parents":[2147483647,0,0,1,1,2,2,3,3,4,4,5,5,6,6,7,7,8,8,9,9,10,10,11,11,12,12,13,13,15,15,19,19,21,21,22,22,24,24,25,25,27,27],"right_children":[2,4,6,8,10,12,14,16,18,20,22,24,26,28,-1,30,-1,-1,-1,32,-1,34,36,-1,38,40,-1,42,-1,-1,-1,-1,-1,-1,-1,-1,-1,-1,-1,-1,-1,-1,-1],"split_conditions":[1E-1,6E-1,2E-1,5E-1,7E-1,3E-1,3E-1,1E-1,2E-1,4E-1,5E-1,1E-1,6E-1,3E-1,-1.7178468E-2,2E-1,5.7737147E-3,9.45339E-4,2.4297356E-3,3E-1,1.1608705E-3,8E-1,8E-1,-5.687355E-4,2E-1,5E-1,-2.5629292E-3,4E-1,-1.4443226E-3,2.5951932E-3,1.9591346E-3,5.3750275E-4,-2.9312074E-4,-3.333038E-4,-5.8596005E-4,-8.585565E-5,7.916055E-5,-5.739402E-4,4.189677E-4,-3.0235664E-4,1.529016E-4,-1.7588322E-4,3.0503163E-4],"split_indices":[0,1,0,1,1,1,0,1,2,2,2,1,1,1,0,2,0,0,0,2,0,1,1,0,2,2,0,2,0,0,0,0,0,0,0,0,0,0,0,0,0,0,0],"split_type":[0,0,0,0,0,0,0,0,0,0,0,0,0,0,0,0,0,0,0,0,0,0,0,0,0,0,0,0,0,0,0,0,0,0,0,0,0,0,0,0,0,0,0],"sum_hessian":[2.99E3,2.73E2,2.717E3,1.43E2,1.3E2,2.72E2,2.445E3,1.2E2,2.3E1,2.6E1,1.04E2,7.4E1,1.98E2,2.67E2,2.178E3,2.6E1,9.4E1,8E0,1.5E1,1.8E1,8E0,8.6E1,1.8E1,2.8E1,4.6E1,7.4E1,1.24E2,7.1E1,1.96E2,1.1E1,1.5E1,1.5E1,3E0,2.2E1,6.4E1,5E0,1.3E1,1.3E1,3.3E1,5.9E1,1.5E1,4.5E1,2.6E1],"tree_param":{"num_deleted":"0","num_feature":"4","num_nodes":"43","size_leaf_vector":"1"}},{"base_weights":[-5.5839807E-2,3.319066E-1,-9.2559874E-2,1.7343748E-1,4.8461536E-1,-4.5593895E-2,-9.747457E-2,1.0731705E-1,2.829787E-1,3.5454544E-1,2.7183909E-2,-6.25571E-2,3.953486E-2,-7.7205904E-2,-4.9954224E-3,3.108107E-3,6.956521E-3,1.1428569E-1,1.7058823E-2,9.705882E-3,2.1785714E-2,-4.887642E-3,-3.7404604E-2,-1.1111135E-2,1.3749999E-2,-9.351354E-2,-4.0909115E-2,1.249999E-3,9.285714E-3,-4.800001E-3,-1.1766467E-9,-2.500001E-3,2.6923066E-3,-4.937501E-3,-2.692309E-3,-4.78261E-3,8.1395236E-4],"categories":[],"categories_nodes":[],"categories_segments":[],"categories_sizes":[],"default_left":[0,0,0,0,0,0,0,0,0,0,0,0,0,0,0,0,0,0,0,0,0,0,0,0,0,0,0,0,0,0,0,0,0,0,0,0,0],"id":34,"left_children":[1,3,5,7,9,11,13,15,17,19,-1,21,23,25,-1,-1,-1,27,-1,-1,-1,-1,29,31,-1,33,35,-1,-1,-1,-1,-1,-1,-1,-1,-1,-1],"loss_changes":[4.2308105E1,6.0694466E0,6.0793495E-1,8.576944E-1,7.1611786E-1,3.8167423E-1,9.5682144E-2,8.901751E-2,3.7688756E-1,4.253931E-1,0E0,1.7669982E-1,5.4223514E-1,1.4373302E-1,0E0,0E0,0E0,6.357144E-2,0E0,0E0,0E0,0E0,2.7751753E-1,9.324787E-2,0E0,1.7850876E-2,2.8499222E-1,0E0,0E0,0E0,0E0,0E0,0E0,0E0,0E0,0E0,0E0],"parents":[2147483647,0,0,1,1,2,2,3,3,4,4,5,5,6,6,7,7,8,8,9,9,11,11,12,12,13,13,17,17,22,22,23,23,25,25,26,26],"right_children":[2,4,6,8,10,12,14,16,18,20,-1,22,24,26,-1,-1,-1,28,-1,-1,-1,-1,30,32,-1,34,36,-1,-1,-1,-1,-1,-1,-1,-1,-1,-1],"split_conditions":[1E-1,3E-1,2E-1,4E-1,4E-1,5E-1,3E-1,2E-1,1E-1,2E-1,5.464965E-3,2E-1,5E-1,4E-1,-1.596921E-2,1.2874844E-3,3.1079287E-3,5E-1,4.5258617E-3,2.26488E-3,5.365873E-3,-1.7469077E-3,2E-1,3E-1,5.700104E-4,5E-1,3E-1,2.9870775E-3,1.980617E-3,-1.0169239E-3,2.5291198E-5,-7.202903E-5,1.9845406E-4,-1.8018695E-3,-2.2324818E-4,-1.0439958E-3,3.5841145E-5],"split_indices":[0,3,0,2,3,3,0,2,3,2,0,3,2,2,0,0,0,2,0,0,0,0,2,2,0,3,3,0,0,0,0,0,0,0,0,0,0],"split_type":[0,0,0,0,0,0,0,0,0,0,0,0,0,0,0,0,0,0,0,0,0,0,0,0,0,0,0,0,0,0,0,0,0,0,0,0,0],"sum_hessian":[2.97E3,2.56E2,2.714E3,1.27E2,1.29E2,2.6E2,2.454E3,8.1E1,4.6E1,4.3E1,8.6E1,2.18E2,4.2E1,2.71E2,2.183E3,3.6E1,4.5E1,1.3E1,3.3E1,1.6E1,2.7E1,8.8E1,1.3E2,3.5E1,7E0,1.84E2,8.7E1,7E0,6E0,4.9E1,8.1E1,2.3E1,1.2E1,1.59E2,2.5E1,4.5E1,4.2E1],"tree_param":{"num_deleted":"0","num_feature":"4","num_nodes":"37","size_leaf_vector":"1"}},{"base_weights":[-5.428193E-2,3.102564E-1,-9.076587E-2,6.39726E-1,-6.7187525E-2,-5.350556E-2,-4.995431E-3,4.9999997E-1,4.403846E-2,3.793101E-2,-4.9000015E-3,4.78873E-2,-8.9526206E-2,5.7901233E-1,3.3333313E-2,-4.523811E-3,1.7222222E-2,-6.7647085E-2,1.533333E-1,-6.0747687E-2,-4.966103E-3,5.526315E-3,3.547619E-2,-3.3333343E-3,4.999999E-3,-4.7500012E-3,-1.2068977E-3,-4.6551735E-3,1.5212766E-2,-4.861112E-3,5.555544E-4],"categories":[],"categories_nodes":[],"categories_segments":[],"categories_sizes":[],"default_left":[0,0,0,0,0,0,0,0,0,0,0,0,0,0,0,0,0,0,0,0,0,0,0,0,0,0,0,0,0,0,0],"id":35,"left_children":[1,3,5,7,9,11,-1,13,-1,15,-1,17,19,21,23,-1,-1,25,27,29,-1,-1,-1,-1,-1,-1,-1,-1,-1,-1,-1],"loss_changes":[3.9918896E1,3.4049507E1,9.089794E-1,4.3388176E0,4.2431164E-1,1.9879633E0,0E0,3.422346E0,0E0,1.1979584E0,0E0,1.7488759E0,9.1005325E-2,4.792139E0,1.0999999E-1,0E0,0E0,6.672007E-2,2.8388972E0,2.9014015E-1,0E0,0E0,0E0,0E0,0E0,0E0,0E0,0E0,0E0,0E0,0E0],"parents":[2147483647,0,0,1,1,2,2,3,3,4,4,5,5,7,7,9,9,11,11,12,12,13,13,14,14,17,17,18,18,19,19],"right_children":[2,4,6,8,10,12,-1,14,-1,16,-1,18,20,22,24,-1,-1,26,28,30,-1,-1,-1,-1,-1,-1,-1,-1,-1,-1,-1],"split_conditions":[1E-1,6E-1,3E-1,4E-1,7E-1,3E-1,-1.528464E-2,5E-1,5.614133E-3,4E-1,-5.7140324E-4,3E-1,5E-1,1E-1,2E-1,-5.7027023E-4,8.2957896E-4,2E-1,1E-1,4E-1,-2.0171579E-3,3.3171833E-4,4.326613E-3,-1.5158382E-3,5.394346E-4,-1.0417462E-3,-1.7986922E-4,-8.283802E-4,3.0238085E-4,-9.752257E-4,8.2976796E-5],"split_indices":[0,1,0,3,1,1,0,1,0,3,0,3,1,1,3,0,0,1,1,3,0,0,0,0,0,0,0,0,0,0,0],"split_type":[0,0,0,0,0,0,0,0,0,0,0,0,0,0,0,0,0,0,0,0,0,0,0,0,0,0,0,0,0,0,0],"sum_hessian":[3E3,2.72E2,2.728E3,1.45E2,1.27E2,5.41E2,2.187E3,9.4E1,5.1E1,2.8E1,9.9E1,1.41E2,4E2,8E1,1.4E1,2E1,8E0,6.7E1,7.4E1,1.06E2,2.94E2,1.8E1,6.2E1,5E0,9E0,3.9E1,2.8E1,2.8E1,4.6E1,7.1E1,3.5E1],"tree_param":{"num_deleted":"0","num_feature":"4","num_nodes":"31","size_leaf_vector":"1"}},{"base_weights":[-5.489078E-2,3.0449435E-1,-9.032856E-2,6.8225807E-1,-2.2222245E-2,-4.9420875E-2,-4.995439E-3,3.347826E-1,7.5294113E-1,1.2916665E-1,-4.8969085E-3,4.598538E-2,-8.376966E-2,1.6666664E-1,2.8333334E-2,8.135802E-1,4.9090907E-1,-6.470591E-2,5.6666666E-1,-4.7777793E-3,1.1505374E-1,-4.8000023E-2,-4.787987E-3,9.999999E-3,3.3333325E-3,2.5769232E-2,4.2826086E-2,-3.3333343E-3,3.3235293E-2,-1.0000011E-3,-4.500001E-3,3.785714E-2,1.7222222E-2,-6.250012E-4,1.2391304E-2,-4.1176486E-3,1.0606049E-3],"categories":[],"categories_nodes":[],"categories_segments":[],"categories_sizes":[],"default_left":[0,0,0,0,0,0,0,0,0,0,0,0,0,0,0,0,0,0,0,0,0,0,0,0,0,0,0,0,0,0,0,0,0,0,0,0,0],"id":36,"left_children":[1,3,5,7,9,11,-1,13,15,17,-1,19,21,23,-1,25,27,29,31,-1,33,35,-1,-1,-1,-1,-1,-1,-1,-1,-1,-1,-1,-1,-1,-1,-1],"loss_changes":[3.7895126E1,3.3034748E1,1.0418015E0,2.6846771E0,1.6601346E0,1.7051626E0,0E0,7.288406E-1,1.0908737E0,4.158186E0,0E0,1.3522562E0,1.4485979E-1,1.000002E-2,0E0,4.585762E-1,2.2360249E0,2.564706E-2,2.6396847E-1,0E0,1.6016419E0,2.4562494E-1,0E0,0E0,0E0,0E0,0E0,0E0,0E0,0E0,0E0,0E0,0E0,0E0,0E0,0E0,0E0],"parents":[2147483647,0,0,1,1,2,2,3,3,4,4,5,5,7,7,8,8,9,9,11,11,12,12,13,13,15,15,16,16,17,17,18,18,20,20,21,21],"right_children":[2,4,6,8,10,12,-1,14,16,18,-1,20,22,24,-1,26,28,30,32,-1,34,36,-1,-1,-1,-1,-1,-1,-1,-1,-1,-1,-1,-1,-1,-1,-1],"split_conditions":[1E-1,5E-1,3E-1,1E-1,7E-1,3E-1,-1.4422707E-2,4E-1,4E-1,4E-1,-5.474291E-4,1E-1,5E-1,3E-1,2.088885E-3,1E-1,2E-1,6E-1,6E-1,-9.5989247E-4,3E-1,4E-1,-1.9729703E-3,1.844853E-4,1.490964E-3,2.3439291E-3,5.230873E-3,-4.4109672E-4,2.6075551E-3,1.9146964E-5,-5.182449E-4,1.958721E-3,7.8810006E-4,-8.541252E-5,3.1211856E-4,-8.9845195E-4,8.577837E-5],"split_indices":[0,1,0,1,1,1,0,3,1,3,0,1,1,3,0,3,3,1,1,0,3,3,0,0,0,0,0,0,0,0,0,0,0,0,0,0,0],"split_type":[0,0,0,0,0,0,0,0,0,0,0,0,0,0,0,0,0,0,0,0,0,0,0,0,0,0,0,0,0,0,0,0,0,0,0,0,0],"sum_hessian":[2.974E3,2.66E2,2.708E3,1.23E2,1.43E2,5.17E2,2.191E3,2.2E1,1.01E2,4.7E1,9.6E1,1.36E2,3.81E2,1.4E1,8E0,8E1,2.1E1,3.3E1,1.4E1,4.4E1,9.2E1,9.9E1,2.82E2,9E0,5E0,1.2E1,6.8E1,5E0,1.6E1,1.4E1,1.9E1,6E0,8E0,4.7E1,4.5E1,6.7E1,3.2E1],"tree_param":{"num_deleted":"0","num_feature":"4","num_nodes":"37","size_leaf_vector":"1"}},{"base_weights":[-5.6468613E-2,2.984674E-1,-9.098699E-2,2.0232555E-1,4.7777775E-1,-3.1320777E-2,-9.7439095E-2,1.4347824E-1,3.137931E-1,2.0510202E-2,2.7142856E-2,-7.681162E-2,1.7187476E-2,-7.63359E-2,-4.9953717E-3,6.9491506E-2,2.1578945E-1,1.8571426E-1,1.7222222E-2,-4.3333345E-3,-5.5102065E-2,-4.022991E-2,1.3809521E-1,-4.502264E-3,-2.3238716E-8,-7.1428687E-4,4.7826073E-3,7.790697E-3,1.8333333E-2,2.1428561E-3,1.3749999E-2,-1.2068977E-3,-4.523811E-3,-3.666668E-3,-1.1628024E-4,3.6206886E-3,1.2857142E-2,-4.545456E-3,4.5238086E-3],"categories":[],"categories_nodes":[],"categories_segments":[],"categories_sizes":[],"default_left":[0,0,0,0,0,0,0,0,0,0,0,0,0,0,0,0,0,0,0,0,0,0,0,0,0,0,0,0,0,0,0,0,0,0,0,0,0,0,0],"id":37,"left_children":[1,3,5,7,9,11,13,15,17,-1,-1,19,21,23,-1,25,27,29,-1,-1,31,33,35,-1,37,-1,-1,-1,-1,-1,-1,-1,-1,-1,-1,-1,-1,-1,-1],"loss_changes":[3.6088E1,4.3347607E0,1.0177231E0,1.0374961E0,7.779884E-2,5.920531E-1,1.00860596E-1,5.717344E-1,1.10711575E-1,0E0,0E0,1.0572612E-2,9.0394443E-1,2.6518297E-1,0E0,1.3881147E-1,4.0640974E-1,1.3500002E-1,0E0,0E0,4.00258E-2,1.0142796E-1,2.768309E-1,0E0,3.5372293E-1,0E0,0E0,0E0,0E0,0E0,0E0,0E0,0E0,0E0,0E0,0E0,0E0,0E0,0E0],"parents":[2147483647,0,0,1,1,2,2,3,3,4,4,5,5,6,6,7,7,8,8,11,11,12,12,13,13,15,15,16,16,17,17,20,20,21,21,22,22,24,24],"right_children":[2,4,6,8,10,12,14,16,18,-1,-1,20,22,24,-1,26,28,30,-1,-1,32,34,36,-1,38,-1,-1,-1,-1,-1,-1,-1,-1,-1,-1,-1,-1,-1,-1],"split_conditions":[1E-1,4E-1,2E-1,4E-1,5E-1,3E-1,3E-1,2E-1,1E-1,4.379845E-3,4.720713E-3,4E-1,4E-1,5E-1,-1.3684741E-2,1E-1,3E-1,5E-1,4.218144E-3,-1.1898596E-3,2E-1,2E-1,5E-1,-8.552542E-4,3E-1,2.698044E-4,1.6974555E-3,2.0972097E-3,3.8409051E-3,2.5041965E-3,1.5793185E-3,-1.6099158E-4,-1.3398571E-4,-1.055464E-3,1.9435041E-5,1.18529424E-4,4.8473148E-4,-1.0602701E-3,4.4308617E-4],"split_indices":[0,3,0,2,3,2,0,3,3,0,0,3,3,2,0,2,2,2,0,0,2,3,2,0,3,0,0,0,0,0,0,0,0,0,0,0,0,0,0],"split_type":[0,0,0,0,0,0,0,0,0,0,0,0,0,0,0,0,0,0,0,0,0,0,0,0,0,0,0,0,0,0,0,0,0,0,0,0,0,0,0],"sum_hessian":[2.944E3,2.6E2,2.684E3,1.71E2,8.9E1,2.64E2,2.42E3,1.14E2,5.7E1,4.8E1,4.1E1,1.37E2,1.27E2,2.61E2,2.159E3,5.8E1,5.6E1,1.3E1,4.4E1,8.9E1,4.8E1,8.6E1,4.1E1,2.2E2,4.1E1,1.3E1,4.5E1,4.2E1,1.4E1,6E0,7E0,2.8E1,2E1,4.4E1,4.2E1,2.8E1,1.3E1,2.1E1,2E1],"tree_param":{"num_deleted":"0","num_feature":"4","num_nodes":"39","size_leaf_vector":"1"}},{"base_weights":[-6.384488E-2,2.3067726E-1,-9.108658E-2,5.8518517E-1,-3.6111135E-2,-3.2089576E-2,-9.746734E-2,5.869564E-3,7.023256E-1,1.9999997E-1,-7.440002E-2,4.9999975E-2,-8.106511E-2,-7.66038E-2,-4.9954224E-3,3.3749998E-1,7.7323943E-1,6.666665E-2,1.7222222E-2,1.5384592E-2,-4.9000015E-3,-4.6428586E-3,1.0547943E-1,-3.7254926E-2,-4.9159676E-3,-1.267608E-2,-4.9487194E-3,2.8333334E-2,1.249999E-3,4.1363638E-2,2.7352942E-2,7.499999E-3,5.555545E-4,-4.000001E-3,3.8235285E-3,1.1666666E-2,1.999999E-3,-4.6296306E-3,9.999989E-4,-4.7222236E-3,3.333332E-3],"categories":[],"categories_nodes":[],"categories_segments":[],"categories_sizes":[],"default_left":[0,0,0,0,0,0,0,0,0,0,0,0,0,0,0,0,0,0,0,0,0,0,0,0,0,0,0,0,0,0,0,0,0,0,0,0,0,0,0,0,0],"id":38,"left_children":[1,3,5,7,9,11,13,-1,15,17,19,21,23,25,-1,27,29,31,-1,33,-1,-1,35,37,-1,39,-1,-1,-1,-1,-1,-1,-1,-1,-1,-1,-1,-1,-1,-1,-1],"loss_changes":[2.3796087E1,2.3815266E1,1.0059681E0,5.7537155E0,1.3041422E0,1.0846215E0,9.937096E-2,0E0,1.8528786E0,3.2111108E-1,2.7463388E-1,8.0362034E-1,1.1052871E-1,3.6655688E-1,0E0,1.0725E0,2.7771378E-1,3.777779E-2,0E0,1.5725791E-1,0E0,0E0,5.744749E-1,1.7069715E-1,0E0,4.6970266E-1,0E0,0E0,0E0,0E0,0E0,0E0,0E0,0E0,0E0,0E0,0E0,0E0,0E0,0E0,0E0],"parents":[2147483647,0,0,1,1,2,2,3,3,4,4,5,5,6,6,8,8,9,9,10,10,11,11,12,12,13,13,15,15,16,16,17,17,19,19,22,22,23,23,25,25],"right_children":[2,4,6,8,10,12,14,-1,16,18,20,22,24,26,-1,28,30,32,-1,34,-1,-1,36,38,-1,40,-1,-1,-1,-1,-1,-1,-1,-1,-1,-1,-1,-1,-1,-1,-1],"split_conditions":[1E-1,5E-1,2E-1,1E-1,6E-1,4E-1,3E-1,1.0247334E-3,1E-1,4E-1,7E-1,1E-1,6E-1,3E-1,-1.346363E-2,3E-1,4E-1,1E-1,1.6247496E-3,2E-1,-7.344539E-4,-4.2524916E-4,2E-1,3E-1,-2.38076E-3,3E-1,-1.2021575E-3,1.9779727E-3,3.4646245E-4,4.7235745E-3,2.2411419E-3,1.0145828E-5,6.395176E-4,-3.639825E-4,3.518484E-4,4.172357E-4,1.5728617E-4,-2.590085E-4,1.0131185E-4,-1.4040812E-3,5.502815E-5],"split_indices":[0,1,0,1,1,1,0,0,2,2,1,1,1,1,0,1,1,2,0,2,0,0,1,2,0,2,0,0,0,0,0,0,0,0,0,0,0,0,0,0,0],"split_type":[0,0,0,0,0,0,0,0,0,0,0,0,0,0,0,0,0,0,0,0,0,0,0,0,0,0,0,0,0,0,0,0,0,0,0,0,0,0,0,0,0],"sum_hessian":[2.964E3,2.5E2,2.714E3,1.07E2,1.43E2,2.67E2,2.447E3,2.2E1,8.5E1,1.9E1,1.24E2,9.9E1,1.68E2,2.64E2,2.183E3,1.5E1,7E1,1.1E1,8E0,2.5E1,9.9E1,2.7E1,7.2E1,5E1,1.18E2,7E1,1.94E2,8E0,7E0,5.4E1,1.6E1,3E0,8E0,9E0,1.6E1,2.3E1,4.9E1,2.6E1,2.4E1,3.5E1,3.5E1],"tree_param":{"num_deleted":"0","num_feature":"4","num_nodes":"41","size_leaf_vector":"1"}},{"base_weights":[-6.198293E-2,2.4241243E-1,-9.130763E-2,6.142857E-1,-4.383564E-2,-5.4420456E-2,-4.9953735E-3,1.3809521E-1,7.1521735E-1,1.6086954E-1,-8.225809E-2,3.6363613E-2,-8.624341E-2,-4.000001E-3,1.5833331E-2,5.222222E-1,4.3958332E-2,-4.375001E-3,3.25E-2,-1.5384639E-2,-4.898991E-3,-4.7916677E-3,1.11764684E-1,-5.0476216E-2,-4.963505E-3,3.9E-2,9.285714E-3,-4.523811E-3,1.1666666E-2,2.6388878E-3,2E-2,-3.7058834E-3,2.1428561E-3],"categories":[],"categories_nodes":[],"categories_segments":[],"categories_sizes":[],"default_left":[0,0,0,0,0,0,0,0,0,0,0,0,0,0,0,0,0,0,0,0,0,0,0,0,0,0,0,0,0,0,0,0,0],"id":39,"left_children":[1,3,5,7,9,11,-1,13,15,17,19,21,23,-1,-1,25,-1,-1,-1,27,-1,-1,29,31,-1,-1,-1,-1,-1,-1,-1,-1,-1],"loss_changes":[2.6116459E1,2.7441107E1,8.2579994E-1,5.198925E0,1.1537018E0,1.4786341E0,0E0,8.668571E-1,2.3117523E0,2.9072828E0,1.1752558E-1,1.3280525E0,1.5613508E-1,0E0,0E0,3.6620636E0,0E0,0E0,0E0,4.924176E-1,0E0,0E0,1.3787909E0,2.3798877E-1,0E0,0E0,0E0,0E0,0E0,0E0,0E0,0E0,0E0],"parents":[2147483647,0,0,1,1,2,2,3,3,4,4,5,5,7,7,8,8,9,9,10,10,11,11,12,12,15,15,19,19,22,22,23,23],"right_children":[2,4,6,8,10,12,-1,14,16,18,20,22,24,-1,-1,26,-1,-1,-1,28,-1,-1,30,32,-1,-1,-1,-1,-1,-1,-1,-1,-1],"split_conditions":[1E-1,5E-1,3E-1,1E-1,6E-1,3E-1,-1.2215701E-2,3E-1,3E-1,4E-1,7E-1,1E-1,5E-1,-8.688273E-5,1.132119E-3,3E-1,4.4918074E-3,-2.1640708E-4,1.5435122E-3,4E-1,-6.957687E-4,-1.0108505E-3,5E-1,5E-1,-1.7589469E-3,3.5456053E-3,1.0059768E-3,-6.359758E-4,4.950673E-4,3.172933E-5,5.045849E-4,-5.2723935E-4,7.368094E-5],"split_indices":[0,1,0,1,1,1,0,3,3,3,1,1,1,0,0,1,0,0,0,3,0,0,3,3,0,0,0,0,0,0,0,0,0],"split_type":[0,0,0,0,0,0,0,0,0,0,0,0,0,0,0,0,0,0,0,0,0,0,0,0,0,0,0,0,0,0,0,0,0],"sum_hessian":[2.924E3,2.56E2,2.668E3,1.11E2,1.45E2,5.08E2,2.16E3,2E1,9.1E1,2.2E1,1.23E2,1.31E2,3.77E2,9E0,1.1E1,4.4E1,4.7E1,1.5E1,7E0,2.5E1,9.8E1,4.7E1,8.4E1,1.04E2,2.73E2,2.4E1,2E1,2E1,5E0,7.1E1,1.3E1,8.4E1,2E1],"tree_param":{"num_deleted":"0","num_feature":"4","num_nodes":"33","size_leaf_vector":"1"}},{"base_weights":[-6.4205535E-2,2.2015809E-1,-9.0993695E-2,5.545454E-1,-3.6111135E-2,-5.4253332E-2,-4.99537E-3,1.3999997E-1,6.6744184E-1,9.999998E-2,-4.9000015E-3,2.2448955E-2,-8.3812036E-2,-2.9411787E-2,4.5555553E-1,4.1739132E-2,4.609756E-1,-6.1290346E-2,2.1666666E-2,-4.803923E-3,8.556699E-2,-5.1401895E-2,-4.7833947E-3,-4.166668E-3,3.3333325E-3,1.1666666E-2,3.25E-2,3.8235285E-3,3.5E-2,-4.545456E-3,-0E0,-8.823541E-4,9.893616E-3,-4.1176486E-3,-0E0],"categories":[],"categories_nodes":[],"categories_segments":[],"categories_sizes":[],"default_left":[0,0,0,0,0,0,0,0,0,0,0,0,0,0,0,0,0,0,0,0,0,0,0,0,0,0,0,0,0,0,0,0,0,0,0],"id":40,"left_children":[1,3,5,7,9,11,-1,13,15,17,-1,19,21,23,25,-1,27,29,-1,-1,31,33,-1,-1,-1,-1,-1,-1,-1,-1,-1,-1,-1,-1,-1],"loss_changes":[2.239518E1,2.1752247E1,8.591347E-1,4.973892E0,1.2226223E0,1.2073773E0,0E0,1.3924835E0,2.4569283E0,2.4831183E0,0E0,1.1069088E0,1.2754321E-1,9.529412E-2,1.4888918E-1,0E0,3.6369734E0,6.536656E-2,0E0,0E0,1.1458889E0,1.7846617E-1,0E0,0E0,0E0,0E0,0E0,0E0,0E0,0E0,0E0,0E0,0E0,0E0,0E0],"parents":[2147483647,0,0,1,1,2,2,3,3,4,4,5,5,7,7,8,8,9,9,11,11,12,12,13,13,14,14,16,16,17,17,20,20,21,21],"right_children":[2,4,6,8,10,12,-1,14,16,18,-1,20,22,24,26,-1,28,30,-1,-1,32,34,-1,-1,-1,-1,-1,-1,-1,-1,-1,-1,-1,-1,-1],"split_conditions":[1E-1,5E-1,3E-1,1E-1,7E-1,3E-1,-1.2095463E-2,4E-1,3E-1,4E-1,-6.865521E-4,1E-1,5E-1,3E-1,5E-1,4.332608E-3,3E-1,3E-1,1.2959805E-3,-8.8201475E-4,3E-1,4E-1,-1.572016E-3,-9.5592084E-5,1.0976661E-3,2.4182424E-4,1.6405631E-3,4.779666E-4,1.9476999E-3,-9.1468944E-4,2.3018107E-4,-1.3827176E-4,2.1560815E-4,-7.737294E-4,3.6093494E-5],"split_indices":[0,1,0,1,1,1,0,3,1,3,0,1,1,3,3,0,3,3,0,0,3,3,0,0,0,0,0,0,0,0,0,0,0,0,0],"split_type":[0,0,0,0,0,0,0,0,0,0,0,0,0,0,0,0,0,0,0,0,0,0,0,0,0,0,0,0,0,0,0,0,0,0,0],"sum_hessian":[2.938E3,2.52E2,2.686E3,1.09E2,1.43E2,5.28E2,2.158E3,2.4E1,8.5E1,4.4E1,9.9E1,1.46E2,3.82E2,1.6E1,8E0,4.5E1,4E1,3E1,1.4E1,5E1,9.6E1,1.06E2,2.76E2,1.1E1,5E0,5E0,3E0,1.6E1,2.4E1,2.1E1,9E0,5E1,4.6E1,6.7E1,3.9E1],"tree_param":{"num_deleted":"0","num_feature":"4","num_nodes":"35","size_leaf_vector":"1"}},{"base_weights":[-6.663271E-2,2.0327866E-1,-9.103706E-2,5.296296E-1,-5.474455E-2,-3.879006E-2,-9.702482E-2,9.230767E-2,6.590361E-1,1.1739128E-1,-8.956524E-2,5.9999976E-2,-7.487925E-2,-7.352944E-2,-4.995348E-3,-3.3333357E-2,1.7222222E-2,4.142857E-2,4.7142854E-1,-2.9411787E-2,2.3571428E-2,-4.8969085E-3,-3.6842126E-2,1.1111087E-2,2.8461537E-1,-3.3333357E-2,-4.923078E-3,-1.6216239E-2,-9.3969874E-2,-4.2307707E-3,3.3333325E-3,3.8235285E-3,3.5384614E-2,-4.0909103E-3,2.1428561E-3,7.499999E-3,-4.375001E-3,-4.5833346E-3,3.7499988E-3,3.3333325E-3,2E-2,-3.8888901E-3,2.9999989E-3,-4.7368435E-3,3.108107E-3,-4.9397605E-3,-3.2352954E-3],"categories":[],"categories_nodes":[],"categories_segments":[],"categories_sizes":[],"default_left":[0,0,0,0,0,0,0,0,0,0,0,0,0,0,0,0,0,0,0,0,0,0,0,0,0,0,0,0,0,0,0,0,0,0,0,0,0,0,0,0,0,0,0,0,0,0,0],"id":41,"left_children":[1,3,5,7,9,11,13,15,17,19,21,23,25,27,-1,29,-1,-1,31,33,-1,-1,35,37,39,41,-1,43,45,-1,-1,-1,-1,-1,-1,-1,-1,-1,-1,-1,-1,-1,-1,-1,-1,-1,-1],"loss_changes":[1.9392853E1,2.0622774E1,8.2732964E-1,5.9760017E0,8.2889426E-1,1.0078167E0,1.3918495E-1,8.6623925E-1,2.1192932E0,1.2534637E0,3.368008E-2,7.9085463E-1,1.8634629E-1,3.061074E-1,0E0,9.97436E-2,0E0,0E0,3.786664E0,7.178763E-2,0E0,0E0,1.8671054E-1,4.1888887E-1,2.5358975E-1,3.3E-1,0E0,4.6456614E-1,5.3578615E-3,0E0,0E0,0E0,0E0,0E0,0E0,0E0,0E0,0E0,0E0,0E0,0E0,0E0,0E0,0E0,0E0,0E0,0E0],"parents":[2147483647,0,0,1,1,2,2,3,3,4,4,5,5,6,6,7,7,8,8,9,9,10,10,11,11,12,12,13,13,15,15,18,18,19,19,22,22,23,23,24,24,25,25,27,27,28,28],"right_children":[2,4,6,8,10,12,14,16,18,20,22,24,26,28,-1,30,-1,-1,32,34,-1,-1,36,38,40,42,-1,44,46,-1,-1,-1,-1,-1,-1,-1,-1,-1,-1,-1,-1,-1,-1,-1,-1,-1,-1],"split_conditions":[1E-1,5E-1,2E-1,1E-1,6E-1,3E-1,3E-1,4E-1,3E-1,4E-1,5E-1,5E-1,6E-1,3E-1,-1.1415233E-2,3E-1,1.5585348E-3,4.165936E-3,3E-1,3E-1,1.4015373E-3,-8.5792114E-4,7E-1,1E-1,1E-1,4E-1,-2.003637E-3,3E-1,5E-1,-9.7339245E-5,1.0427826E-3,1.2699935E-3,2.004508E-3,-1.596287E-4,2.1867231E-4,4.055146E-4,-1.7089931E-4,-1.0122318E-3,7.981801E-5,2.0420552E-5,4.2967722E-4,-6.408373E-4,8.0987425E-5,-9.5957186E-4,9.231295E-5,-1.5143658E-3,-4.19183E-4],"split_indices":[0,1,0,1,1,1,0,3,1,3,3,3,1,1,0,3,0,0,3,3,0,0,1,1,1,3,0,3,3,0,0,0,0,0,0,0,0,0,0,0,0,0,0,0,0,0,0],"split_type":[0,0,0,0,0,0,0,0,0,0,0,0,0,0,0,0,0,0,0,0,0,0,0,0,0,0,0,0,0,0,0,0,0,0,0,0,0,0,0,0,0,0,0,0,0,0,0],"sum_hessian":[2.942E3,2.43E2,2.699E3,1.07E2,1.36E2,2.8E2,2.419E3,2.5E1,8.2E1,2.2E1,1.14E2,7.4E1,2.06E2,2.71E2,2.148E3,1.7E1,8E0,4.1E1,4.1E1,1.6E1,6E0,9.6E1,1.8E1,6.2E1,1.2E1,7.7E1,1.29E2,7.3E1,1.98E2,1.2E1,5E0,1.6E1,2.5E1,1E1,6E0,3E0,1.5E1,2.3E1,3.9E1,5E0,7E0,5.3E1,2.4E1,3.7E1,3.6E1,1.65E2,3.3E1],"tree_param":{"num_deleted":"0","num_feature":"4","num_nodes":"47","size_leaf_vector":"1"}},{"base_weights":[-6.6599354E-2,1.9182877E-1,-9.1083296E-2,4.333333E-1,-7.3983766E-2,-3.183523E-2,-9.746734E-2,6.666664E-2,5.0714284E-1,3.4482528E-3,-4.894738E-3,7.1428545E-2,-6.8686895E-2,-7.624523E-2,-4.995431E-3,-7.6923296E-3,7.499999E-3,7.863636E-1,3.2028982E-1,-4.0909103E-3,5.7894714E-2,-5.3846177E-2,1.4444442E-1,-1.8421076E-2,-4.9187005E-3,-1.267608E-2,-4.947645E-3,3.3333325E-3,-3.7500008E-3,2E-2,4.3571427E-2,-4.2307707E-3,2.0438595E-2,-0E0,4.999999E-3,-4.2857155E-3,-3.846165E-4,1.521738E-3,1.2391304E-2,-3.57143E-3,2.142856E-3,-4.78261E-3,6.5384605E-3],"categories":[],"categories_nodes":[],"categories_segments":[],"categories_sizes":[],"default_left":[0,0,0,0,0,0,0,0,0,0,0,0,0,0,0,0,0,0,0,0,0,0,0,0,0,0,0,0,0,0,0,0,0,0,0,0,0,0,0,0,0,0,0],"id":42,"left_children":[1,3,5,7,9,11,13,15,17,19,-1,21,23,25,-1,27,-1,29,31,-1,33,35,37,39,-1,41,-1,-1,-1,-1,-1,-1,-1,-1,-1,-1,-1,-1,-1,-1,-1,-1,-1],"loss_changes":[1.8799599E1,1.6566092E1,1.0105171E0,3.5623817E0,2.3751384E-1,1.020685E0,1.01594925E-1,1.6410255E-1,5.480871E0,1.3697575E-1,0E0,6.571307E-1,2.8197318E-1,3.6433804E-1,0E0,7.089744E-2,0E0,9.703903E-1,2.5390573E0,0E0,3.631579E-2,2.8241746E-2,4.950242E-1,2.5278196E-1,0E0,8.540765E-1,0E0,0E0,0E0,0E0,0E0,0E0,0E0,0E0,0E0,0E0,0E0,0E0,0E0,0E0,0E0,0E0,0E0],"parents":[2147483647,0,0,1,1,2,2,3,3,4,4,5,5,6,6,7,7,8,8,9,9,11,11,12,12,13,13,15,15,17,17,18,18,20,20,21,21,22,22,23,23,25,25],"right_children":[2,4,6,8,10,12,14,16,18,20,-1,22,24,26,-1,28,-1,30,32,-1,34,36,38,40,-1,42,-1,-1,-1,-1,-1,-1,-1,-1,-1,-1,-1,-1,-1,-1,-1,-1,-1],"split_conditions":[1E-1,6E-1,2E-1,1E-1,7E-1,3E-1,3E-1,3E-1,3E-1,2E-1,-6.4958615E-4,1E-1,6E-1,3E-1,-1.0485181E-2,1E-1,9.579041E-4,1E-1,1E-1,-4.590193E-4,4E-1,3E-1,3E-1,3E-1,-1.9060299E-3,4E-1,-9.791141E-4,5.935777E-4,-1.6204269E-5,1.2768668E-3,4.3707094E-3,-1.2355566E-4,1.5340628E-3,1.5550877E-4,3.852389E-4,-2.495644E-4,-2.1925534E-4,1.0994107E-4,3.4625604E-4,-1.6071902E-4,1.0173092E-4,-8.468812E-5,2.3688954E-4],"split_indices":[0,1,0,1,1,1,0,2,1,2,0,1,1,1,0,2,0,2,2,0,2,2,2,2,0,2,0,0,0,0,0,0,0,0,0,0,0,0,0,0,0,0,0],"split_type":[0,0,0,0,0,0,0,0,0,0,0,0,0,0,0,0,0,0,0,0,0,0,0,0,0,0,0,0,0,0,0,0,0,0,0,0,0,0,0,0,0,0,0],"sum_hessian":[2.969E3,2.56E2,2.713E3,1.34E2,1.22E2,2.66E2,2.447E3,2.3E1,1.11E2,2.8E1,9.4E1,6.9E1,1.97E2,2.6E2,2.187E3,1.2E1,1.1E1,4.3E1,6.8E1,1E1,1.8E1,2.5E1,4.4E1,7.5E1,1.22E2,7E1,1.9E2,5E0,7E0,9E0,3.4E1,1.2E1,5.6E1,9E0,9E0,1.3E1,1.2E1,2.2E1,2.2E1,4.1E1,3.4E1,4.5E1,2.5E1],"tree_param":{"num_deleted":"0","num_feature":"4","num_nodes":"43","size_leaf_vector":"1"}},{"base_weights":[-6.521741E-2,-3.134775E-2,-9.3107715E-2,-5.4171324E-2,1.4606718E-2,-4.8823543E-3,-6.9172956E-2,-4.9470915E-3,-4.205347E-2,-4.1891905E-3,3.4408577E-2,2.8205104E-2,-8.596493E-2,-9.0395715E-3,-7.43017E-2,-4.3243267E-2,5.384613E-2,-2.4137953E-2,1.7272726E-1,-6.7010336E-2,-4.924244E-3,-2.6785727E-3,5.5555435E-4,-4.6629226E-3,-2.734808E-3,-3.3333346E-3,-8.9743704E-4,1.5359465E-3,3.8435364E-3,-3.7500008E-3,-1.1345203E-9,3.3333325E-3,1.1666666E-2,-4.0909103E-3,-1.5625012E-3],"categories":[],"categories_nodes":[],"categories_segments":[],"categories_sizes":[],"default_left":[0,0,0,0,0,0,0,0,0,0,0,0,0,0,0,0,0,0,0,0,0,0,0,0,0,0,0,0,0,0,0,0,0,0,0],"id":43,"left_children":[1,3,5,7,9,-1,11,-1,13,-1,15,17,19,21,23,25,27,29,31,33,-1,-1,-1,-1,-1,-1,-1,-1,-1,-1,-1,-1,-1,-1,-1],"loss_changes":[2.7873678E0,1.4133469E0,1.5311718E-1,4.6946716E-1,8.6494565E-1,0E0,4.43156E-1,0E0,7.4795306E-1,0E0,5.6487143E-1,3.1405273E-1,3.095758E-2,3.2250202E-1,1.1315715E-1,3.4185722E-2,1.4609545E-1,2.8103441E-2,2.5151521E-2,3.7501156E-2,0E0,0E0,0E0,0E0,0E0,0E0,0E0,0E0,0E0,0E0,0E0,0E0,0E0,0E0,0E0],"parents":[2147483647,0,0,1,1,2,2,3,3,4,4,6,6,8,8,10,10,11,11,12,12,13,13,14,14,15,15,16,16,17,17,18,18,19,19],"right_children":[2,4,6,8,10,-1,12,-1,14,-1,16,18,20,22,24,26,28,30,32,34,-1,-1,-1,-1,-1,-1,-1,-1,-1,-1,-1,-1,-1,-1,-1],"split_conditions":[5E-1,4E-1,5E-1,1E-1,1E-1,-2.5736666E-3,6E-1,-2.0598217E-3,3E-1,-1.7207218E-3,1E-1,4E-1,8E-1,2E-1,2E-1,5E-1,5E-1,1E-1,5E-1,4E-1,-1.7699657E-3,-1.3479593E-3,1.364767E-4,-2.168741E-3,-4.7553415E-4,-1.9915903E-3,-1.5562196E-4,4.4087452E-4,1.4539025E-3,-1.9623563E-4,1.0371673E-4,9.140458E-4,1.2547575E-3,-1.280371E-3,-7.737207E-4],"split_indices":[1,3,3,1,2,0,1,0,1,0,1,2,1,2,3,3,3,2,2,2,0,0,0,0,0,0,0,0,0,0,0,0,0,0,0],"split_type":[0,0,0,0,0,0,0,0,0,0,0,0,0,0,0,0,0,0,0,0,0,0,0,0,0,0,0,0,0,0,0,0,0,0,0],"sum_hessian":[2.966E3,1.342E3,1.624E3,8.98E2,4.44E2,1.359E3,2.65E2,1.88E2,7.1E2,7.3E1,3.71E2,3.8E1,2.27E2,3.53E2,3.57E2,7.3E1,2.98E2,2.8E1,1E1,9.6E1,1.31E2,1.11E2,2.42E2,1.77E2,1.8E2,3.5E1,3.8E1,1.52E2,1.46E2,7E0,2.1E1,5E0,5E0,6.5E1,3.1E1],"tree_param":{"num_deleted":"0","num_feature":"4","num_nodes":"35","size_leaf_vector":"1"}},{"base_weights":[-6.4681746E-2,2.1854836E-1,-9.09533E-2,1.18749976E-1,3.94382E-1,-3.2015834E-2,-9.70285E-2,7.59259E-2,2.0188677E-1,1.4999998E-1,2.2027027E-2,-5.813956E-2,2.1951197E-2,-7.372265E-2,-4.9953503E-3,2.765955E-2,1.096774E-1,1.1428569E-1,1.4230768E-2,1.249999E-3,1.1666666E-2,-4.824563E-3,-3.793106E-2,-2.2222245E-2,1.0689653E-1,-8.614721E-2,-4.5454777E-3,-4.523811E-3,6.11111E-3,7.068964E-3,3.8235285E-3,2.6923066E-3,7.499999E-3,-4.6428586E-3,-9.5505733E-4,5.555544E-4,-2.857144E-3,-1.0000011E-3,1.1666666E-2,-4.925927E-3,-3.3505168E-3,-4.523811E-3,3.333332E-3],"categories":[],"categories_nodes":[],"categories_segments":[],"categories_sizes":[],"default_left":[0,0,0,0,0,0,0,0,0,0,0,0,0,0,0,0,0,0,0,0,0,0,0,0,0,0,0,0,0,0,0,0,0,0,0,0,0,0,0,0,0,0,0],"id":44,"left_children":[1,3,5,7,9,11,13,15,17,19,-1,21,23,25,-1,27,29,31,-1,-1,-1,-1,33,35,37,39,41,-1,-1,-1,-1,-1,-1,-1,-1,-1,-1,-1,-1,-1,-1,-1,-1],"loss_changes":[2.1749407E1,4.2537365E0,9.4179344E-1,5.2653146E-1,8.7881184E-1,3.615795E-1,1.378212E-1,1.5917128E-1,3.1167936E-1,1.3500002E-1,0E0,1.1620289E-1,3.1853378E-1,2.2604108E-1,0E0,5.392806E-1,3.2672226E-2,3.197804E-2,0E0,0E0,0E0,0E0,1.0700393E-1,6.8095244E-2,4.912874E-1,3.1534433E-2,2.7766234E-1,0E0,0E0,0E0,0E0,0E0,0E0,0E0,0E0,0E0,0E0,0E0,0E0,0E0,0E0,0E0,0E0],"parents":[2147483647,0,0,1,1,2,2,3,3,4,4,5,5,6,6,7,7,8,8,9,9,11,11,12,12,13,13,15,15,16,16,17,17,22,22,23,23,24,24,25,25,26,26],"right_children":[2,4,6,8,10,12,14,16,18,20,-1,22,24,26,-1,28,30,32,-1,-1,-1,-1,34,36,38,40,42,-1,-1,-1,-1,-1,-1,-1,-1,-1,-1,-1,-1,-1,-1,-1,-1],"split_conditions":[1E-1,4E-1,2E-1,4E-1,1E-1,4E-1,3E-1,2E-1,2E-1,5E-1,3.510041E-3,2E-1,4E-1,5E-1,-1.0045576E-2,2E-1,2E-1,1E-1,3.5600655E-3,1.7184764E-4,8.1344694E-4,-2.0444903E-3,1E-1,5E-1,5E-1,3E-1,3E-1,-5.754714E-5,1.1954069E-3,1.0248171E-3,2.6404972E-3,1.0422727E-3,1.5766921E-3,-1.1474073E-3,-1.4258783E-5,1.6165186E-4,-3.396234E-4,2.3573054E-6,2.9211713E-4,-1.5849173E-3,-9.633307E-5,-9.745145E-4,2.2982345E-4],"split_indices":[0,3,0,2,2,2,0,3,3,3,0,3,3,2,0,2,2,3,0,0,0,0,2,2,2,2,3,0,0,0,0,0,0,0,0,0,0,0,0,0,0,0,0],"split_type":[0,0,0,0,0,0,0,0,0,0,0,0,0,0,0,0,0,0,0,0,0,0,0,0,0,0,0,0,0,0,0,0,0,0,0,0,0,0,0,0,0,0,0],"sum_hessian":[2.921E3,2.47E2,2.674E3,1.59E2,8.8E1,2.52E2,2.422E3,1.07E2,5.2E1,1.5E1,7.3E1,1.71E2,8.1E1,2.73E2,2.149E3,4.6E1,6.1E1,2.7E1,2.5E1,7E0,8E0,5.6E1,1.15E2,5.3E1,2.8E1,2.3E2,4.3E1,2E1,2.6E1,2.8E1,3.3E1,1.2E1,1.5E1,2.7E1,8.8E1,2.6E1,2.7E1,1.4E1,1.4E1,1.34E2,9.6E1,2E1,2.3E1],"tree_param":{"num_deleted":"0","num_feature":"4","num_nodes":"43","size_leaf_vector":"1"}},{"base_weights":[-6.730118E-2,1.9545452E-1,-9.320644E-2,4.9482757E-1,-3.825506E-2,-5.0375964E-2,-9.784592E-2,9.047617E-2,5.770833E-1,7.647056E-2,-4.898991E-3,1.3402038E-2,-8.705885E-2,-8.066917E-2,-4.9953414E-3,-3.3333357E-2,3.25E-2,7.6E-1,3.680851E-1,-6.666669E-2,2E-2,-2.2500023E-2,1.7777775E-1,-4.8837233E-2,-4.9218764E-3,-5.77236E-2,-4.931974E-3,-4.000001E-3,5.555545E-4,2E-2,4.1341465E-2,7.068964E-3,3.4473684E-2,-4.600001E-3,-1.0865431E-9,-4.6551735E-3,7.692296E-4,3.3333325E-3,1.0384615E-2,-4.6774205E-3,2.6923066E-3,-4.8507475E-3,-4.3859766E-4],"categories":[],"categories_nodes":[],"categories_segments":[],"categories_sizes":[],"default_left":[0,0,0,0,0,0,0,0,0,0,0,0,0,0,0,0,0,0,0,0,0,0,0,0,0,0,0,0,0,0,0,0,0,0,0,0,0,0,0,0,0,0,0],"id":45,"left_children":[1,3,5,7,9,11,13,15,17,19,-1,21,23,25,-1,27,-1,29,31,33,-1,35,37,39,-1,41,-1,-1,-1,-1,-1,-1,-1,-1,-1,-1,-1,-1,-1,-1,-1,-1,-1],"loss_changes":[2.003347E1,1.8535702E1,5.1259613E-1,3.7392178E0,1.0305856E0,6.308557E-1,5.933571E-2,1.5380952E0,3.2774544E0,2.4217646E0,0E0,5.919663E-1,5.4400086E-2,8.9589E-2,0E0,4.5111112E-2,0E0,7.495136E-1,3.243888E0,5.1599994E-2,0E0,2.23187E-1,1.8546999E-2,2.0642453E-1,0E0,2.2514555E-1,0E0,0E0,0E0,0E0,0E0,0E0,0E0,0E0,0E0,0E0,0E0,0E0,0E0,0E0,0E0,0E0,0E0],"parents":[2147483647,0,0,1,1,2,2,3,3,4,4,5,5,6,6,7,7,8,8,9,9,11,11,12,12,13,13,15,15,17,17,18,18,19,19,21,21,22,22,23,23,25,25],"right_children":[2,4,6,8,10,12,14,16,18,20,-1,22,24,26,-1,28,-1,30,32,34,-1,36,38,40,-1,42,-1,-1,-1,-1,-1,-1,-1,-1,-1,-1,-1,-1,-1,-1,-1,-1,-1],"split_conditions":[1E-1,5E-1,2E-1,1E-1,7E-1,4E-1,3E-1,5E-1,3E-1,4E-1,-5.9394125E-4,5E-1,6E-1,5E-1,-9.368042E-3,3E-1,1.3136972E-3,1E-1,4E-1,3E-1,8.2231185E-4,2E-1,1E-1,4E-1,-1.7195502E-3,3E-1,-1.5966234E-3,-2.150882E-4,8.677356E-4,1.2631273E-3,3.728971E-3,6.0883845E-4,1.7070662E-3,-9.756572E-4,-6.606109E-6,-6.1725517E-4,6.2510015E-5,3.8857015E-5,2.8793825E-4,-7.43908E-4,1.4350621E-4,-9.788962E-4,3.1736179E-6],"split_indices":[0,1,0,1,1,1,0,3,1,3,0,3,1,1,0,3,0,3,3,3,0,3,1,3,0,3,0,0,0,0,0,0,0,0,0,0,0,0,0,0,0,0,0],"split_type":[0,0,0,0,0,0,0,0,0,0,0,0,0,0,0,0,0,0,0,0,0,0,0,0,0,0,0,0,0,0,0,0,0,0,0,0,0,0,0,0,0,0,0],"sum_hessian":[2.941E3,2.63E2,2.678E3,1.15E2,1.48E2,2.65E2,2.413E3,2E1,9.5E1,5E1,9.8E1,9.6E1,1.69E2,2.68E2,2.145E3,1.7E1,3E0,4.9E1,4.6E1,3.5E1,1.5E1,7.9E1,1.7E1,4.2E1,1.27E2,1.22E2,1.46E2,9E0,8E0,9E0,4E1,2.8E1,1.8E1,2.4E1,1.1E1,2.8E1,5.1E1,5E0,1.2E1,3E1,1.2E1,6.6E1,5.6E1],"tree_param":{"num_deleted":"0","num_feature":"4","num_nodes":"43","size_leaf_vector":"1"}},{"base_weights":[-7.167846E-2,1.4313723E-1,-9.183526E-2,4.181818E-1,-6.438359E-2,-4.0221427E-2,-9.7468376E-2,2.4999976E-2,5.206896E-1,6.666664E-2,-9.024393E-2,6.666643E-3,-4.918034E-3,-7.6865695E-2,-4.9954182E-3,6.11111E-3,-2.5000023E-2,7.2499996E-1,3.3749998E-1,-0E0,1.5E-2,-5.714288E-2,-4.8958347E-3,-3.8000025E-2,9.607841E-2,-9.009011E-2,-1.0638321E-2,-4.000001E-3,2.1428561E-3,1.7727273E-2,4.1666668E-2,-3.7500008E-3,2.0609755E-2,-3.7500008E-3,2.6923066E-3,-4.500001E-3,5.555545E-4,-4.6428586E-3,-7.534259E-4,-3.88889E-3,6.627906E-3,-4.923078E-3,-3.8172056E-3,8.333332E-3,-4.696971E-3],"categories":[],"categories_nodes":[],"categories_segments":[],"categories_sizes":[],"default_left":[0,0,0,0,0,0,0,0,0,0,0,0,0,0,0,0,0,0,0,0,0,0,0,0,0,0,0,0,0,0,0,0,0,0,0,0,0,0,0,0,0,0,0,0,0],"id":46,"left_children":[1,3,5,7,9,11,13,15,17,19,21,23,-1,25,-1,-1,27,29,31,33,-1,35,-1,37,39,41,43,-1,-1,-1,-1,-1,-1,-1,-1,-1,-1,-1,-1,-1,-1,-1,-1,-1,-1],"loss_changes":[1.2881091E1,1.4617058E1,7.7285194E-1,4.365879E0,5.031686E-1,7.4858135E-1,9.775543E-2,1.2944445E-1,2.9052563E0,3.4333336E-1,1.0137796E-2,6.085177E-1,0E0,2.2368813E-1,0E0,0E0,6.6857144E-2,1.191061E0,1.5435972E0,8.2692295E-2,0E0,7.168255E-2,0E0,1.1360392E-1,3.3924153E-1,5.4883957E-4,7.0255965E-1,0E0,0E0,0E0,0E0,0E0,0E0,0E0,0E0,0E0,0E0,0E0,0E0,0E0,0E0,0E0,0E0,0E0,0E0],"parents":[2147483647,0,0,1,1,2,2,3,3,4,4,5,5,6,6,7,7,8,8,9,9,10,10,11,11,13,13,16,16,17,17,18,18,19,19,21,21,23,23,24,24,25,25,26,26],"right_children":[2,4,6,8,10,12,14,16,18,20,22,24,-1,26,-1,-1,28,30,32,34,-1,36,-1,38,40,42,44,-1,-1,-1,-1,-1,-1,-1,-1,-1,-1,-1,-1,-1,-1,-1,-1,-1,-1],"split_conditions":[1E-1,5E-1,2E-1,1E-1,6E-1,6E-1,3E-1,2E-1,3E-1,5E-1,7E-1,4E-1,-1.5881843E-3,5E-1,-8.86925E-3,1.2480125E-3,4E-1,1E-1,1E-1,2E-1,9.754025E-4,4E-1,-5.458912E-4,1E-1,1E-1,3E-1,3E-1,-1.5399635E-5,8.2434865E-4,1.031789E-3,3.5816736E-3,-9.4792995E-5,1.3737269E-3,-2.6821197E-4,4.8236825E-4,-4.6410115E-4,1.880452E-4,-1.0986559E-3,-1.6445072E-5,-6.440595E-4,2.7354146E-4,-1.6130041E-3,-5.52848E-5,3.530204E-4,-3.0512243E-4],"split_indices":[0,1,0,1,1,1,0,2,1,2,1,2,0,2,0,0,2,2,2,2,0,2,0,2,1,2,1,0,0,0,0,0,0,0,0,0,0,0,0,0,0,0,0,0,0],"split_type":[0,0,0,0,0,0,0,0,0,0,0,0,0,0,0,0,0,0,0,0,0,0,0,0,0,0,0,0,0,0,0,0,0,0,0,0,0,0,0,0,0,0,0,0,0],"sum_hessian":[2.972E3,2.54E2,2.718E3,1.09E2,1.45E2,2.7E2,2.448E3,2.3E1,8.6E1,2.3E1,1.22E2,1.49E2,1.21E2,2.67E2,2.181E3,8E0,1.5E1,3.9E1,4.7E1,1.9E1,4E0,2.7E1,9.5E1,9.9E1,5E1,2.21E2,4.6E1,9E0,6E0,1E1,2.9E1,7E0,4E1,7E0,1.2E1,1.9E1,8E0,2.7E1,7.2E1,8E0,4.2E1,1.29E2,9.2E1,1.4E1,3.2E1],"tree_param":{"num_deleted":"0","num_feature":"4","num_nodes":"45","size_leaf_vector":"1"}},{"base_weights":[-7.052065E-2,1.5390623E-1,-9.178693E-2,4.6989244E-1,-2.560978E-2,-5.8113232E-2,-4.9954015E-3,2.4999976E-2,6.142857E-1,1.4390242E-1,-8.225809E-2,-2.5000025E-2,-4.957448E-3,-4.2307707E-3,7.499999E-3,1.9999997E-1,6.7049176E-1,-1.8518541E-2,2.1666666E-2,-4.9038474E-3,-0E0,-5.729169E-2,3.333331E-2,2E-2,2.1428561E-3,3.8589742E-2,2.326087E-2,-4.0909103E-3,8.823518E-4,1.5E-2,-4.411766E-3,-1.288661E-3,-4.375001E-3,3.490565E-3,-9.434079E-5],"categories":[],"categories_nodes":[],"categories_segments":[],"categories_sizes":[],"default_left":[0,0,0,0,0,0,0,0,0,0,0,0,0,0,0,0,0,0,0,0,0,0,0,0,0,0,0,0,0,0,0,0,0,0,0],"id":47,"left_children":[1,3,5,7,9,11,-1,13,15,17,19,21,-1,-1,-1,23,25,27,-1,-1,29,31,33,-1,-1,-1,-1,-1,-1,-1,-1,-1,-1,-1,-1],"loss_changes":[1.4125635E1,1.4577957E1,7.175751E-1,5.8949833E0,1.5804958E0,7.0528364E-1,0E0,3.480769E-1,1.4088287E0,1.9769015E0,1.6135228E-1,5.61875E-1,0E0,0E0,0E0,2.5285715E-1,7.857361E-1,6.967123E-2,0E0,0E0,5.82353E-1,1.6922462E-1,1.4182389E-1,0E0,0E0,0E0,0E0,0E0,0E0,0E0,0E0,0E0,0E0,0E0,0E0],"parents":[2147483647,0,0,1,1,2,2,3,3,4,4,5,5,7,7,8,8,9,9,10,10,11,11,15,15,16,16,17,17,20,20,21,21,22,22],"right_children":[2,4,6,8,10,12,-1,14,16,18,20,22,-1,-1,-1,24,26,28,-1,-1,30,32,34,-1,-1,-1,-1,-1,-1,-1,-1,-1,-1,-1,-1],"split_conditions":[1E-1,4E-1,3E-1,1E-1,6E-1,6E-1,-9.026269E-3,3E-1,1E-1,4E-1,5E-1,4E-1,-1.8321387E-3,-2.2535247E-4,7.2739075E-4,2E-1,3E-1,2E-1,1.2655216E-3,-8.705046E-4,7E-1,3E-1,2E-1,1.0208875E-3,1.1099353E-4,3.3886626E-3,1.460967E-3,-1.0455683E-3,9.70124E-5,1.7864295E-4,-9.7452976E-5,-3.0879874E-5,-6.715195E-4,1.0870463E-4,2.4736762E-5],"split_indices":[0,1,0,1,1,1,0,3,3,3,3,3,0,0,0,1,1,3,0,0,1,1,0,0,0,0,0,0,0,0,0,0,0,0,0],"split_type":[0,0,0,0,0,0,0,0,0,0,0,0,0,0,0,0,0,0,0,0,0,0,0,0,0,0,0,0,0,0,0,0,0,0,0],"sum_hessian":[2.957E3,2.55E2,2.702E3,9.2E1,1.63E2,5.29E2,2.173E3,2.3E1,6.9E1,4E1,1.23E2,2.95E2,2.34E2,1.2E1,1.1E1,9E0,6E1,2.6E1,1.4E1,1.03E2,2E1,1.91E2,1.04E2,3E0,6E0,3.8E1,2.2E1,1E1,1.6E1,4E0,1.6E1,9.6E1,9.5E1,5.2E1,5.2E1],"tree_param":{"num_deleted":"0","num_feature":"4","num_nodes":"35","size_leaf_vector":"1"}},{"base_weights":[-6.790292E-2,1.7573527E-1,-9.2504665E-2,1.2026429E-1,2.2173911E-2,-6.1886817E-2,-4.9953847E-3,2.6436757E-2,1.7659572E-1,-7.227275E-2,-9.8901335E-3,-4.0000235E-3,1.0384615E-2,8.9189164E-2,2.6764703E-1,-4.6428586E-3,-5.897438E-2,-4.4736866E-2,7.499999E-3,-2.692309E-3,9.999989E-4,1.2499988E-3,5.7843127E-3,1.08536575E-2,1.6428571E-2,-4.368422E-3,-2.1508392E-3,-3.7755114E-3,3.571417E-4],"categories":[],"categories_nodes":[],"categories_segments":[],"categories_sizes":[],"default_left":[0,0,0,0,0,0,0,0,0,0,0,0,0,0,0,0,0,0,0,0,0,0,0,0,0,0,0,0,0],"id":48,"left_children":[1,3,5,7,-1,9,-1,11,13,15,17,19,-1,21,23,-1,25,27,-1,-1,-1,-1,-1,-1,-1,-1,-1,-1,-1],"loss_changes":[1.778591E1,3.930025E0,5.8849716E-1,1.1748228E0,0E0,2.77287E-1,0E0,5.011647E-1,1.0625906E0,9.9785805E-2,5.032042E-1,9.418462E-2,0E0,1.0890037E-1,8.363247E-2,0E0,1.0689974E-1,1.2871107E-1,0E0,0E0,0E0,0E0,0E0,0E0,0E0,0E0,0E0,0E0,0E0],"parents":[2147483647,0,0,1,1,2,2,3,3,5,5,7,7,8,8,9,9,10,10,11,11,13,13,14,14,16,16,17,17],"right_children":[2,4,6,8,-1,10,-1,12,14,16,18,20,-1,22,24,-1,26,28,-1,-1,-1,-1,-1,-1,-1,-1,-1,-1,-1],"split_conditions":[1E-1,5E-1,3E-1,2E-1,2.796552E-3,5E-1,-8.408488E-3,5E-1,3E-1,2E-1,5E-1,2E-1,4.808218E-4,1E-1,4E-1,-1.8088472E-3,2E-1,3E-1,3.2599506E-4,-3.7421528E-4,4.103731E-4,4.918131E-4,6.211721E-4,2.5643907E-3,2.652928E-3,-1.2866096E-3,-5.9105852E-5,-1.8427374E-4,1.0061543E-5],"split_indices":[0,3,0,3,0,3,0,2,2,3,2,2,0,2,3,0,2,2,0,0,0,0,0,0,0,0,0,0,0],"split_type":[0,0,0,0,0,0,0,0,0,0,0,0,0,0,0,0,0,0,0,0,0,0,0,0,0,0,0,0,0],"sum_hessian":[2.965E3,2.71E2,2.694E3,2.26E2,4.5E1,5.29E2,2.165E3,8.6E1,1.4E2,4.39E2,9E1,7.4E1,1.2E1,7.3E1,6.7E1,1.67E2,2.72E2,7.5E1,1.5E1,2.5E1,4.9E1,2.3E1,5E1,4E1,2.7E1,9.4E1,1.78E2,4.8E1,2.7E1],"tree_param":{"num_deleted":"0","num_feature":"4","num_nodes":"29","size_leaf_vector":"1"}},{"base_weights":[-7.123568E-2,1.3420072E-1,-9.175949E-2,9.111109E-2,3.4444442E-1,-5.7307716E-2,-4.9954033E-3,2.2222199E-2,1.352941E-1,9.285714E-3,2E-2,-4.644972E-3,-3.9772753E-2,-4.0000235E-3,7.499999E-3,6.666664E-2,9.788732E-3,-5.4639198E-2,2.9032234E-2,-2.857144E-3,1.2499988E-3,7.692296E-4,4.7560963E-3,-4.836067E-3,-2.1428585E-3,-1.3333345E-3,4.090908E-3],"categories":[],"categories_nodes":[],"categories_segments":[],"categories_sizes":[],"default_left":[0,0,0,0,0,0,0,0,0,0,0,0,0,0,0,0,0,0,0,0,0,0,0,0,0,0,0],"id":49,"left_children":[1,3,5,7,9,11,-1,13,15,-1,-1,-1,17,19,-1,21,-1,23,25,-1,-1,-1,-1,-1,-1,-1,-1],"loss_changes":[1.2496862E1,2.3620195E0,7.3484993E-1,6.660783E-1,2.6396847E-1,3.0756974E-1,0E0,3.1675556E-1,5.2518916E-1,0E0,0E0,0E0,3.642028E-1,1.2022857E-1,0E0,8.3796114E-2,0E0,1.261785E-1,1.8998434E-1,0E0,0E0,0E0,0E0,0E0,0E0,0E0,0E0],"parents":[2147483647,0,0,1,1,2,2,3,3,4,4,5,5,7,7,8,8,12,12,13,13,15,15,17,17,18,18],"right_children":[2,4,6,8,10,12,-1,14,16,-1,-1,-1,18,20,-1,22,-1,24,26,-1,-1,-1,-1,-1,-1,-1,-1],"split_conditions":[1E-1,5E-1,3E-1,2E-1,2E-1,2E-1,-7.7091414E-3,5E-1,3E-1,7.3906855E-4,3.323077E-3,-1.8397786E-3,5E-1,2E-1,5.972988E-4,1E-1,2.4361713E-3,1E-1,4E-1,-3.823872E-4,5.913482E-4,3.5698843E-4,4.2365995E-4,-1.4590627E-3,-6.398195E-5,-1.1840538E-4,2.3812962E-4],"split_indices":[0,3,0,3,2,3,0,2,2,0,0,0,2,2,0,2,0,2,3,0,0,0,0,0,0,0,0],"split_type":[0,0,0,0,0,0,0,0,0,0,0,0,0,0,0,0,0,0,0,0,0,0,0,0,0,0,0],"sum_hessian":[2.961E3,2.68E2,2.693E3,2.24E2,4.4E1,5.19E2,2.174E3,8.9E1,1.35E2,1.3E1,3.1E1,1.68E2,3.51E2,7.4E1,1.5E1,6.5E1,7E1,2.9E2,6.1E1,2.7E1,4.7E1,2.5E1,4E1,6E1,2.3E2,2.9E1,3.2E1],"tree_param":{"num_deleted":"0","num_feature":"4","num_nodes":"27","size_leaf_vector":"1"}},{"base_weights":[-7.402425E-2,1.3437498E-1,-9.366951E-2,4.5319146E-1,-4.9693275E-2,-5.2346595E-2,-9.827942E-2,3.6363613E-2,5.7123286E-1,-9.0909116E-2,1.18749976E-1,-1.2582805E-2,-4.9212608E-3,-8.3529435E-2,-4.995429E-3,-4.166668E-3,1.7272726E-1,1.4999998E-1,6.4193547E-1,-2.9411787E-2,-4.9137943E-3,3E-2,-4.5652185E-3,-7.647061E-2,1.8811857E-2,-3.9130457E-2,-4.9465257E-3,3.3333325E-3,1.1666666E-2,1.1666666E-2,-2.500001E-3,3.6463413E-2,2.2272727E-2,-4.2857155E-3,7.499999E-3,-2.6000012E-3,-4.6296306E-3,-4.523811E-3,2.4074062E-3,-4.7368435E-3,1.2499988E-3],"categories":[],"categories_nodes":[],"categories_segments":[],"categories_sizes":[],"default_left":[0,0,0,0,0,0,0,0,0,0,0,0,0,0,0,0,0,0,0,0,0,0,0,0,0,0,0,0,0,0,0,0,0,0,0,0,0,0,0,0,0],"id":50,"left_children":[1,3,5,7,9,11,13,15,17,19,21,23,-1,25,-1,-1,27,29,31,33,-1,-1,-1,35,37,39,-1,-1,-1,-1,-1,-1,-1,-1,-1,-1,-1,-1,-1,-1,-1],"loss_changes":[1.2176056E1,1.5085973E1,4.9736786E-1,4.543545E0,1.1396439E0,4.95197E-1,3.1967163E-2,3.8242424E-1,1.998621E0,4.414153E-2,3.3404891E0,3.100706E-1,0E0,1.5668964E-1,0E0,0E0,2.5151521E-2,2.3000002E-1,6.215439E-1,1.7815126E-1,0E0,0E0,0E0,8.4614754E-4,3.2393995E-1,2.5540045E-1,0E0,0E0,0E0,0E0,0E0,0E0,0E0,0E0,0E0,0E0,0E0,0E0,0E0,0E0,0E0],"parents":[2147483647,0,0,1,1,2,2,3,3,4,4,5,5,6,6,7,7,8,8,9,9,10,10,11,11,13,13,16,16,17,17,18,18,19,19,23,23,24,24,25,25],"right_children":[2,4,6,8,10,12,14,16,18,20,22,24,